{"layers":[{"type":"layer.Layer","data":{"weights":{"values":[-0.008416028794060669,-0.01395093783478529,-0.00932280571378773,0.0027885935330425097,-0.0327993944676062,0.012135497476408528,-0.006513745120946413,-0.006239762529393885,0.018912039722851156,-0.036897523768420384,-0.023603678879968674,-0.028420756960513386,-0.01707611077977687,-0.0001168614829728572,-0.01123341933452,-0.027622557884160143,-0.0062334460603656544,-0.010677756088572698,-0.019407004707823923,0.01953236620271382,-0.005352910712197948,-0.044191065558618535,-0.04892432578314658,0.019229427509174942,-0.006832196532870025,-0.014862831968549409,-0.003309498984649209,-0.024313176884178684,0.013622255182043344,-0.018854970458718697,-0.008001289459786004,0.018140083663159494,0.02214240695707386,0.004211885127022552,0.004364668807022811,-0.002950269240164804,0.0005662420984627847,-0.012498008795846944,0.003542679813676815,-0.024535313673117135,-0.020678045090059997,-0.019389991523211834,-0.014937419802107338,-0.027172937059215845,0.012117753556524433,-0.004602987397550505,0.005136576811590123,-0.005222448254695952,-0.02981083962492519,-0.00521353799541096,0.01785162437587021,-0.012609508025994398,-0.0103940772835387,-0.012281233455328075,-0.010179368945919708,-0.006325163993350301,-0.0050240887760585025,-0.0054825010410448245,-0.07531339153628194,0.029793646591892816,-0.02346415463273524,0.016605478530705313,-0.026373193132173924,0.0019470269870016038,-0.02248204410600489,0.009112928846394499,0.002825711058944092,-0.008732025842246709,0.014062985585273911,0.012371917856025936,0.020225574174377352,-0.009878311339174866,0.007583075524986727,-0.001485969995801142,-0.02266218207422689,0.010792917132380878,0.0026027863809662405,-0.008128635846311863,0.019768915390279928,-0.022266083878251935,-0.011545299399411556,-0.0006627668533720316,-0.012800311578218006,-0.021858934497315668,-0.0261451443639446,0.023685799458970598,-0.015112932250771266,-0.012394309991462899,0.001982587120393026,-0.010489820079846909,-0.015605213976857558,-0.026934103975917226,-0.02154888468743594,0.022836942254051536,0.003385685923465052,0.021400923231992504,0.005917095121257476,0.0006793240827553949,-0.012398509825466883,0.00048208525006043166,-0.014583152138796409,-0.03924738623451007,-0.02668352813774712,0.016171610687840447,0.0003593477804840443,-0.011827143723263623,-0.008679978325424387,-0.0037020265556017935,-0.02186023768453934,0.0032732735664127216,0.019421844723646768,0.024142124057028876,0.02328557215221424,-0.07200396500341802,-0.01834841227846313,-0.017810997588333502,-0.03351978053398174,-0.015093646062237974,0.004542420861901146,0.020105780413316877,-0.010589224979278729,-0.025533219657066876,-0.022265899339467533,-0.003982716358450111,-0.017954643859519642,-0.01848144794484943,-0.0011015820069493708,-0.0038616537936131644,-0.010014695791651606,-0.026983905097816126,-0.0213963110427929,0.011515186722374553,-0.026981279409578215,0.02552662892357955,-0.003002728030983826,0.001753304250900422,0.03463501061996882,-0.039818917746392714,-0.02245802727036926,-0.024073416983162378,-0.021112693778830568,-0.007496899723552754,-0.008687128297574974,-0.025811357488335778,-0.0167372235953511,-0.010218055343991823,-0.030074256119428943,0.009913866991065265,-0.0063856271775723904,-0.04093174681225525,-0.044948521143801275,0.028578979854538635,-0.018053467215817572,-0.018693717584962334,-0.005585679705198587,-0.026305683203482328,0.024026289483172612,-0.028441602690654367,-0.0029923017776076156,0.020195323708618877,0.018059264726190283,0.02082839306896501,0.016252475822099724,-0.007582138020066737,-0.00020865577432622459,-0.01101939534516883,-0.0026643762206337257,-0.01939043669550042,-0.01879824174518312,-0.02478457396369447,-0.01715667225174528,-0.027416683107376206,0.0009658164321429347,-0.00911274797177616,0.004572799084131104,-0.014136063228917573,-0.011760380291335071,-0.012527788316844353,0.011631971918776806,-0.024716439164885865,-0.021040120998525296,-0.013642318203624678,-0.004625412802394108,-0.018178110450411063,-0.00159275382796608,-0.007590996746370838,-0.07120380303828548,0.02219123592748629,-0.028248558315922948,-0.001442616051132582,-0.018553302464541194,-0.00784877530818222,-0.022409247018808146,0.016946682554782468,0.0021266673211691057,-0.019865563029400297,0.008384422087161695,0.00871573213745042,0.02668716981235392,-0.014248307354272651,0.013352884116130826,-0.006109125881769759,-0.02325537991721761,0.0028460119073000635,-0.003891542312551306,-0.01795445323527742,0.023879193047443254,-0.037412926134105386,-0.009853590724873407,0.010880796613940608,-0.025137327422699602,-0.023159717919465868,-0.019749533844621428,0.026052539244414488,-0.016745167579860748,-0.004792262509759395,0.012291126124310062,-0.01921587844863659,-0.015118808938020867,-0.029949095878195466,-0.010226977063165738,0.00843364347422166,0.0005255328027317594,0.016244902192394474,0.006697754237348877,-0.005198836689743531,0.002106685829253971,0.000018488983197584223,-0.015095148844647053,-0.026720343652528525,-0.025118950222053966,0.02381625291032285,0.0034485470928551816,-0.013764573411768823,-0.021346355569389984,0.004188481040648454,-0.01546042335971983,0.006243624779704359,0.017962460631946238,0.029672137761487787,0.016637590931928337,-0.07697001911359655,-0.014435931485515956,-0.007941174126220162,-0.035017175264914255,0.0005328093543255361,0.014267071604865178,0.01361834743238421,-0.019840300415827634,-0.02388473696798902,-0.017303915149301578,0.004931431389371483,-0.003951205006766284,-0.028357559968603573,0.01540573140029909,-0.004740729087997221,-0.016050754964210164,-0.03117045580412036,-0.010925024665024255,0.0025319254715572433,-0.018725385812076042,0.02417104580762011,0.0008652754920012119,-0.009075607071510002,0.02392551591885746,-0.03676791026714456,-0.013460264531276757,-0.011016108442153207,-0.01879524285602516,-0.00708276208637437,-0.015024961603869721,-0.03128142599892187,-0.013330177278148388,-0.00120323957555725,-0.012287268474830207,0.00827293073445705,-0.008592541180589578,-0.033459762414897315,-0.04777547608534983,0.026655401444991633,-0.023483073431388408,-0.023256217283171076,-0.016391826875053406,-0.013985204080571792,0.012627776213980675,-0.030122449654890363,0.002555268189113122,0.021345443943723685,0.004983141321298453,0.015703583064421656,0.0065045164027222315,-0.007759645097890746,0.002195891432110795,-0.012568710905431215,-0.004063770926037333,-0.021337351875056483,-0.00998065678807763,-0.02346300802050874,0.0007393702310904942,-0.027116060288781843,0.0020510540755951877,-0.007606101548739145,0.0011623504415652585,-0.0027222519771407006,-0.02484070256566015,-0.01062154223352881,0.015011622894738058,-0.02826409549202547,-0.012820026659937303,-0.019369423812665914,-0.010861036120638176,-0.005390612833521062,-0.01262888748889277,-0.004041274560914669,-0.07850098227936977,0.024723903781050605,-0.026156668414552293,0.015153433295220252,-0.011996213334208776,-0.004757041870026881,-0.015739085114756506,0.025533749066095342,-0.0025373421729585725,-0.016606862295324782,0.011732407916886232,0.00619892784902278,0.024007439949872873,-0.013648254963226466,0.00526117064106205,-0.004210051113250191,-0.02863435578436538,0.008971789262552573,0.0007709474140169391,-0.015071936828790496,0.02154893524809793,-0.03535871793668501,-0.012841462658660182,0.0016983535287724621,-0.00983729327716872,-0.0225256370302109,-0.015710448706475984,0.027917942338493464,-0.023142901720192583,-0.007050405921729367,0.007894115685877985,-0.015372581559167044,-0.019620757902426556,-0.03304060398882045,-0.025419778834997613,0.02466462682372403,-0.001391912328292041,0.0035819502812349524,0.014086674034497726,0.008248657012180194,-0.002592721500959068,-0.008459362440260625,-0.02605950460240958,-0.02424452889161234,-0.019761790784612283,0.014939326880013598,-0.006810367368328864,-0.01571561528839517,-0.016318190552050523,0.00017666372379829032,-0.02072981925898099,0.004170599754441496,0.013106518920380924,0.04323053984050315,0.022299652424383937,-0.06217106511271948,-0.009446405778425851,-0.02246018887427588,-0.03371585379668173,-0.012513074953822161,0.007966335807070521,0.01800485157563968,-0.012981895839563046,-0.02620091712529175,-0.028023845580156092,-0.0005220962672988123,-0.011225613122046481,-0.014305476246217792,0.010611315903901047,-0.0027281763241321275,-0.022129745495765497,-0.021572673586564912,-0.014140869813280195,0.010619060217210693,-0.03157330802556129,0.017364083703164248,-0.008994266263549456,0.0015594674615770883,0.019737593713869094,-0.030262091120965496,-0.013806014200478488,-0.01238736772487592,-0.017800271903349298,-0.005792433379536904,-0.012982518710216042,-0.028619609480961074,-0.007843996014838745,-0.0019357270795545712,-0.015450457531561794,0.005245706728342109,-0.01618354914075469,-0.040229136693027384,-0.060524726135433714,0.023453153909455456,-0.01941783764843689,-0.0323836608639636,-0.017271046916317853,-0.022029781534569717,0.023248402245507546,-0.02749214580654068,0.003839576256899041,0.01548418943461132,0.018285411475328483,0.014085835155288785,0.017015830973336556,-0.007338552001793044,0.0017572795519844127,-0.009476891271213815,0.00800733378150896,-0.015133556942852157,-0.01995479664836602,-0.011071077079287674,-0.015146894824865304,-0.02733636024345636,0.01150065698059449,0.0008649734672687957,0.013411443191351883,-0.013865796295591877,-0.017992722531506827,-0.016688087426354702,0.007565372066217735,-0.013678138083608862,-0.02141818907687273,-0.008418738596062573,-0.010873434307191496,-0.023376506822788145,-0.014967288709278461,-0.010477479073661708,-0.0758130707673877,0.024054273180867357,-0.021617022410997094,0.004184346029894868,-0.016180755949393874,0.006110692215626842,-0.018104710393117663,0.018266577068557395,0.007042346358082284,-0.01758212514377522,0.021805937170291962,0.012971182902044657,0.023806602028160165,-0.0071639237999264445,0.009810672460160421,0.009586551931853744,-0.013685629437398468,0.001978768899946369,0.0068274471810998655,-0.016202004447135283,0.01836433503949545,-0.021186186390494268,-0.01215207014807167,0.008490509129086376,-0.013554161762941304,-0.02036061274584371,-0.029487494962278434,0.012406419566812509,-0.01283024746767295,-0.009417832768630535,0.005640363197793026,-0.015044827572446785,-0.001631664265460907,-0.02346613186573351,-0.021929119106767935,0.015106502760606077,-0.008284768919463635,0.016971526233231966,0.0072345417933325,-0.007502272561267521,-0.004934089028367147,0.002540744013869424,-0.024531519875021533,-0.03409847471195875,-0.030323144943126577,0.01708812644325348,-0.004818401144110166,-0.018122718521870765,-0.013772231327922517,-0.0015187853648035432,-0.008344859401155355,0.002250449908776399,0.017357023825712754,0.03523902870232203,0.029627121118619777,-0.061756649534912236,-0.02800919813637545,-0.008505058086537374,-0.02336356575843179,-0.006380512643756047,0.010664505656173443,0.01973609274461111,-0.0177897677791518,-0.0279718416876943,-0.028883798181045247,-0.0028426064753055945,-0.003932071750161278,-0.01831358514513469,-0.003543734496476406,-0.0033176557111423916,-0.023623172995979595,-0.028141153120654627,-0.017630669362299137,0.009104552274829904,-0.033100162218166564,0.0281346162907862,-0.005612059848852213,0.004446516087347264,0.01591296813126798,-0.02099863836853257,-0.01569885490764791,-0.015179589059927855,-0.01373813968406335,-0.008162308859605734,-0.008842123184721573,-0.017907011342317376,-0.010423934751471804,-0.01613683276085599,-0.013743355276879947,0.0067701605703987195,-0.0093810334603807,-0.04007786510239968,-0.04565626666056342,0.02122784677846686,-0.020924871235024345,-0.03313518006895307,-0.011241375622740683,-0.02459939710079766,0.02271051586573577,-0.01942053741966952,-0.0036677098752576514,0.01206811935572909,0.016520493012158414,0.01118100681602898,0.008091895587452167,-0.011153629953517196,-0.011332634932111197,-0.009734138168236693,0.002394174721723577,-0.01745206027672795,-0.02335988516106893,-0.01451063419476389,-0.006208876200734342,-0.011011233135700352,0.0045038263416567826,-0.0038827438394415784,0.01570610744370806,-0.016711651037873934,-0.030146976589563137,-0.0036558749034507516,0.012437619280827884,-0.019226555876347574,-0.005617427384708283,-0.021488670788012924,-0.008327069954153873,-0.015635779317855092,-0.004019400855167155,-0.0005697092475472898,-0.0629110302673425,0.01468450029670286,-0.0177761117592582,0.011351963905037118,-0.027606492706293336,-0.0011759335909489774,-0.016504239230655256,0.02590532235946361,0.01048847524340499,-0.011965543051562033,0.01631500711035948,0.009480170884619778,0.020095528147519505,-0.007197277985340483,0.011353901432151458,0.004690728516928643,-0.026209399659911706,-0.001654434919739202,-0.006782528420065715,-0.012381456697438915,0.023350573873797624,-0.03613841398686425,0.0021305716663274805,0.004210968537042954,-0.018207280763570154,-0.015853842228360174,-0.029923463824809968,0.019578053552153273,-0.013324561876194182,-0.020818526715700295,0.005883091514376848,-0.022616171714580455,-0.014846427130343518,-0.0199343947494496,-0.007838595809429657,0.018707220379379528,-0.008560826751753448,0.020374794872079383,0.01684308469172507,0.0001021700229066185,-0.00429606273366409,-0.003422577744567093,-0.02570155862392731,-0.025685797063519394,-0.010805988458761484,0.021091466076428693,-0.012594813512191147,-0.019353659309520627,-0.012192115072419539,0.0031972402224499387,-0.005659388498658663,0.008659850942399424,0.010895153655559875,0.04175647299723508,0.013425334269634206,-0.06463446357764586,-0.02452284843126187,-0.006572309671286416,-0.0338442825153818,0.0014586799091809576,0.01282247563548339,0.013883840614045712,-0.016665593589597395,-0.024589270950151076,-0.022746734874300234,-0.012219248491915552,-0.003436997113916007,-0.02404678550174278,0.008742268548087932,-0.0008371060464095921,-0.011166743851281226,-0.02944272288294688,-0.014836054843040533,0.006877109950556164,-0.028986573153049547,0.01820769383346287,-0.013714425025299872,-0.004830555962388985,0.027466714106760777,-0.025862495887411907,-0.01667689858962374,-0.027129054295474554,-0.018244561512638757,-0.0016534545397982358,-0.02129113170614258,-0.01796782229602017,-0.015469647247987281,-0.006546125357361261,-0.02458712718324343,0.009053464995457153,-0.006303746141609167,-0.038081867674680435,-0.035968932199522186,0.015122307462208958,-0.012146903617009068,-0.029084297829756134,-0.0039768524876346275,-0.012077085234716598,0.020167307823596933,-0.0201912638199227,-0.01059918281072148,0.019243985682805206,0.020903635490351687,0.015207000256481506,0.005667237364718481,-0.0047594668630546715,-0.01423327339338121,-0.00976866832933977,0.013617472006366546,-0.006116363289199864,-0.009566041599085414,-0.023554598859220403,-0.008847015937936156,-0.020540852705153753,0.011766771088739565,-0.007821625065714367,0.0066159760917318036,-0.005323559250291016,-0.020103683029397877,-0.019702284668628226,0.015059616404726348,-0.01707213872487236,-0.007249348159203743,-0.022340243880225975,-0.00904287973114517,-0.007464234994267216,0.0010402397836281857,-0.010190963894458052,-0.05195877160965227,0.02716485923583355,-0.010829580631303995,0.00154610934613486,-0.023829121690480414,-0.007769213217847389,-0.012246655097328233,0.010309894786200228,0.008873048223270853,-0.028351655585414446,0.009161223692421245,0.020743441731799126,0.012471604679162545,-0.010585665644872306,0.006129194214550712,0.0018678875697292698,-0.028645406424148565,0.014075688296405245,-0.000559363051432642,-0.0018893303485901095,0.020662501352993898,-0.020731276237222873,-0.0008790310864937955,-0.006659658313600382,-0.005821886346817689,-0.015168009693957119,-0.010186092444657284,0.010371272186105097,-0.03311333565918627,-0.016218081983509804,0.008273783982899695,-0.008552997652447141,0.0013501488872956363,-0.019592373492208142,-0.018540955571483452,0.01017855685416504,0.009369500210485436,0.0031988173554142563,0.008515084540995897,0.01184041261298981,-0.009700658042523107,-0.008603987530576642,-0.02657223507751358,-0.026896812004839156,-0.028551021464785303,0.01298710575188549,-0.0075286279798584535,-0.01705290541225898,-0.013252610663989419,0.0059709530409089535,-0.02252839424988863,-0.004554852364703106,0.02242346207698122,0.03329476201701392,0.01844299044849029,-0.06735712028271726,-0.01756261605487591,-0.019022586168650348,-0.02304879726903035,0.005562611051864443,0.012108412213277072,0.0017392224872348895,-0.01598307246963236,-0.02447851703316849,-0.025500607755565147,-0.0030192316021132237,-0.002477760287452708,-0.017598880375801255,0.008333898724574608,-0.012615395386849927,-0.022508751842071,-0.01834186670227456,-0.020481586952826588,0.0013766543751114772,-0.02568328450056354,0.011008357806416532,-0.008234113503148083,-0.01305436964693911,0.017850102877629906,-0.023552376488147904,-0.016903732092152957,-0.010469493392499732,-0.0277841325802255,0.021604123292949123,-0.014627179978090783,-0.02278245285038822,-0.003368760722898399,-0.01304868285642777,-0.009611047852150367,0.021809818620572907,-0.022911848228692182,-0.03261445978576029,-0.036832854073870436,0.020781068542711917,-0.015430122716530284,-0.023369756070266968,-0.015459984255425644,-0.03134041814927656,0.007148635480825822,-0.026511190036954266,0.005482806153874325,0.0050496902937536125,0.019114476736741215,0.004828677007732575,0.019732483279463486,-0.00982381413507163,-0.005055529926406248,-0.021181734721335936,-0.0035608930158769502,-0.012208971415463302,-0.01397425326305678,-0.021941369064143967,-0.014645894723635729,-0.017890817225912483,0.0021226679889526146,-0.004082567977860262,0.0022162184390529622,-0.012655292442353446,-0.022282502911154144,-0.003358359923754555,0.025502168974849544,-0.02384024887315392,-0.022923232029746436,-0.023172901627060656,-0.000591470524932168,-0.019878172814235196,-0.015724858462024583,-0.0030587960093354373,-0.04170864781056859,0.02793591286910185,-0.014546629939921863,0.0013618808754963397,-0.01666447701128072,-0.0059216482048201485,-0.02486638407970949,0.015059433796023257,0.013736051945000534,-0.014243475595226436,0.004188106249495136,0.02105113252716488,0.012778297250685241,-0.016430504505890016,0.008816060273274742,-0.008820654284222578,-0.01351440182929865,-0.001377266379529845,0.005186525935260984,-0.00385575871662406,0.005780805288992938,-0.012369936568877684,-0.008466376810991844,0.0077744276074831154,-0.02053458780898526,-0.012804377596565678,-0.01879952207626501,0.010423047212433548,-0.02462242634928022,-0.013527054037218185,0.019811099481437777,-0.01853227847321635,-0.0025640964172970755,-0.0253996457466499,-0.015440057682871539,0.021812933289835225,0.0071211049649661596,0.01950037239380356,0.007485346948158181,-0.0053914043869500924,-0.007235786997300859,-0.01635148603821086,-0.009464495502181898,-0.01474840964927139,-0.027990288780524657,0.02600188682881283,-0.0006076977471052087,-0.004143395083157069,-0.013690689778230155,0.011631109301776882,-0.011875698884030318,0.01001689594521848,0.010410124974829318,0.025716429027203586,0.030795367358084698,-0.051468332013466726,-0.01131524473132204,-0.01719441378092416,-0.013486636960164371,-0.010758353044624107,0.015093166671958362,0.015179652108507318,-0.0016222704536115189,-0.01057002086699745,-0.011959392782490601,0.0011114801882148707,-0.013060732100161843,-0.020788718120647063,-0.0004769905955182291,-0.007017388288361189,-0.017551509370481215,-0.022803437201918148,-0.01967882673245744,0.013225184750641933,-0.026355508401899354,0.022163178228644578,-0.009185071325970495,-0.003093550390156594,0.020161770421616747,-0.01965755497408928,-0.021854528142043826,-0.01997278779411046,-0.012585564590251095,0.009304762362808344,-0.012601448474948037,-0.014310689238555831,-0.011347276473363156,-0.018090645210922303,-0.014338828554485216,0.019305186416608083,-0.021179136878461072,-0.025453016313347,-0.03472897609793535,0.016390983998654674,-0.023093872420573477,-0.0159398245773352,-0.0046174595925970365,-0.017281619865718745,0.007883133612132397,-0.012884053267487653,-0.0032495223528676604,0.008930656360960493,0.011134939556401937,0.018210657640124556,0.0010582062057121293,-0.018446304369885713,-0.0165197572792253,-0.009165506848238875,0.0027522480883445267,-0.0217710031972359,-0.017191586027956597,-0.01794989306407823,-0.007280504149500117,-0.025949306614160936,0.013198487019980321,-0.00828645993936959,-0.00012096085462700047,-0.02578415732967873,-0.03176163859313108,-0.010554692044280618,0.021502390656007925,-0.01177711692875808,-0.020710012821031076,-0.017205910010036313,-0.00511563268044843,-0.01530992036396036,-0.016614080309298177,-0.00046463864951222994,-0.037098332433645576,0.024853183482617208,-0.017217945645481732,-0.0009544640162859649,-0.01373850286881677,0.0015861784184475662,-0.007966731874041517,0.02434293121587554,0.01009753917443894,-0.027420366870039823,0.01789175278221347,0.022145852080038903,0.024933407434949578,-0.015432801492727698,0.005259665769789851,0.0015831156708304027,-0.031196559185468556,0.010411873211306403,0.010358015599013677,-0.017827947716747942,0.012731068750528433,-0.017341459328382748,0.007538850241472379,0.008715033968418238,-0.015365084735267211,-0.006738324266446863,-0.005042525515362892,0.018047399798891448,-0.031678766921028646,-0.02479343162748119,0.021910374607974858,-0.017153314950139883,-0.005358748771225947,-0.02066779136182644,-0.012543429150448497,0.011269307502379812,-0.0038180421732251276,0.016874769969245612,0.006787745544242742,-0.007626827104810273,-0.0036145144838197326,-0.008678748933925418,-0.02835062901902571,-0.027637457095881262,-0.020621782090038083,0.02477311459057617,-0.015025363714047826,-0.011229113729024912,-0.027898666021355,-0.002564645271138057,-0.017021038109070935,0.014273378055608788,0.030475539091347904,0.04098136809892291,0.01949245029834642,-0.06004092558190532,-0.02156195387958052,-0.01048568040249487,-0.030301589677097993,0.006762788319352793,-0.00031824426462412206,0.000047929247215896566,-0.0011136861739447653,-0.014103000127444667,-0.02107429928200297,-0.013511096329396465,-0.006845718089857667,-0.017689022944331407,-0.00745193839594183,-0.0037543507452649995,-0.01706028479552885,-0.021420599388343814,-0.01822645160873241,0.011794067086154504,-0.015767077631726016,0.01604072005565367,-0.013213832295108974,-0.01548953506910911,0.026963668274850677,-0.01807489508709806,-0.010215939120972106,-0.02478234127310528,-0.018550112031089493,0.026155964590561364,-0.024136411696312733,-0.005257332620153189,-0.00256902122787701,-0.020013128779674896,-0.008333142762125038,0.0029018873524621447,-0.014899527622114763,-0.010738787802204648,-0.013950908705884406,0.012964561636033049,-0.025010825770332232,-0.022412824136039216,0.0010552830823347022,-0.027700832391618985,0.00727862921527841,-0.002181940650865168,-0.011967941647422984,0.013895899941394152,0.016634044619434463,0.004317040006299312,0.007655676176757182,-0.00720383922802474,-0.014544783222143372,-0.01712812752151005,0.01306520191015679,-0.020255230669090813,-0.023418150905760445,-0.020632025385407805,-0.015168888239604106,-0.009559428322519471,0.00013939522962742697,-0.005348292810644374,0.012470140436267693,-0.023652664965311737,-0.033671459472880284,-0.023142320172785728,0.019392268949828737,-0.011258832928195423,-0.027323930291065064,-0.026124981637291836,0.004226373355927677,-0.02409271104850478,-0.0033029736646811897,-0.0013530719029045955,-0.027344862469988993,0.01101837093501876,-0.0017985687881382623,0.011652791643002498,-0.014979881952849675,-0.0011542054648784393,-0.014313107148146757,0.0079135890591044,-0.0045485310117332955,-0.018753873434787148,0.00467706535469294,0.008697730600623786,0.009862475824107554,-0.006400567914887481,0.005768805597179897,-0.015204042876684,-0.02330028325604757,-0.003927259363874143,0.011570534462211606,-0.013830697665070753,0.015027691130834929,-0.017498422333195617,0.004964606242621835,0.0037906756554471712,-0.004644501575901349,-0.005855738520470489,-0.0033985180174664876,0.0208847684049133,-0.01232986472644439,-0.016838810901396963,0.020515394847553544,-0.013564355939125475,-0.00035282992021029797,-0.03509272656499258,-0.015810986481822727,0.006295292430319273,0.011641297899360324,0.0009845104331576433,0.007258579453815622,-0.0060079729239924,-0.0006389994381376274,-0.019053576821409512,-0.01847623709284009,-0.01312333224717899,-0.022459415223062752,0.0231262267780304,-0.007231823636985834,-0.014181967886318142,-0.024425015950162537,0.0067619129426898005,-0.023390707433034983,0.00016232906583029202,0.03558781924132411,0.03812385508613215,0.01374561039090578,-0.04619277467770216,-0.007555267030286835,-0.025568897136767327,-0.010769218873961114,-0.0105034950039721,0.00011514389250890946,0.01970283039088184,-0.011421554738225934,-0.01629624314509647,-0.01792154930272771,0.001903021598847581,-0.01546566868070073,-0.025315170323573923,-0.008308013620642304,0.00026993768460306704,-0.022114861557153274,-0.02512059100586382,0.004072929187453733,-0.0050838512200522944,-0.0036678089492104284,0.0038675444834233292,-0.011174459877234746,-0.014479198485650326,0.013824633238279205,-0.013137288056889334,-0.015454767417095153,-0.014920488728126345,-0.022017457573308016,0.025331564403244654,-0.019398727436041485,0.018045810687029484,0.006882219300560929,-0.013376540398930012,-0.01986851349311851,0.015714913216073923,-0.023762774304958573,-0.0023802583656263314,-0.011159273270021863,0.010483498301521336,-0.03456641973728805,-0.021635538462155594,-0.004716288193944861,-0.023346560475226406,0.001680145594591225,0.0014462080324129363,-0.001961259631517723,0.009143338287826663,0.018354220597143048,0.004009851536166979,0.004147816835090739,-0.016403745182199298,-0.015302718176798787,-0.007237335444138849,0.003377990816405675,-0.000480536635637622,-0.011471876108232084,-0.027766551957753825,-0.026633349457772928,-0.018606645682304884,0.0002442222693599158,-0.01960594895397541,0.011251633491436347,-0.013912126731837436,-0.025160853576664925,-0.014455151947776882,0.011764163816942891,-0.01685243433618852,-0.020949051179422,-0.018167023715571655,-0.005823096157540382,-0.017430943138508497,0.0004972307453628634,0.007757559875594955,-0.028137294475289506,0.005397336472669965,0.00062765036812803,0.0013779436665089472,-0.005243020821136131,-0.01787945276832512,0.0017870535222787756,0.0036352143622332845,0.0003535219395981382,-0.03497170372158355,0.020468560009198066,0.006451240724201902,0.009124840610288475,-0.0010208183006366865,-0.004893277318534672,-0.008374011499169479,-0.02064195103387243,0.005268475187912253,0.01284773412983595,-0.013139522213021055,0.007005496775821916,-0.018505480603123695,0.0012888352316859746,-0.003924288745344515,-0.006184510323033452,-0.013839663298900426,-0.002204701926216022,0.0011513797348011378,-0.031039659310717102,-0.018104052005622213,0.013240698417388803,-0.01358380870580879,-0.0073688037591694445,-0.0357809157422764,-0.006507222340302233,0.00726894636625506,0.008142016583235096,0.007480920951777445,0.0005656488621757557,0.011507262639471529,-0.0031443980942466214,-0.02058852339012584,-0.01884796472512526,-0.015423283808973069,-0.02360450767024834,0.03109948984370338,-0.0034782403350112527,0.0023766644553727986,-0.016526081781012624,0.009214253407822734,-0.008207650840327943,0.017336703428387713,0.019392059655535483,0.035912153897916674,0.02078164464734361,-0.029255718017202635,0.004474086290644589,-0.01872250026448135,-0.004907191252332753,-0.0010259298572706914,0.0068960935306710755,0.005705883152745639,-0.002458181011905495,-0.001704209578482778,-0.007841275463759166,-0.012173464296174736,-0.010819937183769276,-0.013913718385699698,-0.004109258966630714,0.013194071141020862,-0.024129899760438302,-0.009850089102853255,-0.004102072962757096,-0.0015985433655178458,-0.0047881063960125,0.00758186674860144,-0.013315095656725109,-0.006075128900719493,0.01786892460222346,-0.019038348602366688,-0.03190709255958971,-0.02361695557481381,-0.017845587634363707,0.040364735941501,-0.025412507461985333,0.021101223867446374,-0.005538918599915382,-0.005974674827106837,-0.012870274531415754,0.019574353747806958,-0.02301587843392302,-0.005981099802696479,0.002980404022517965,0.017416742809622947,-0.02631584317403812,-0.027986293060291257,0.0009982848356836055,-0.03467334872510821,0.001860640901347553,-0.004252292675042284,0.005998969146759243,0.009865665779652822,0.002646787805250541,-0.004723131863890837,0.021273748069166442,-0.023596221253514606,-0.01659387352424891,-0.005190640738877729,0.00911718949133838,-0.001725431697509247,-0.010528030657609008,-0.027398393995074908,-0.014670679439588857,-0.003766422209438995,-0.007494193485563866,-0.010573395579423961,0.00968165217660145,-0.018343587028297848,-0.029233732540633738,-0.010235886195860465,0.018771891082123248,-0.009283866898104337,-0.02465377979040165,-0.020207599476393407,-0.003390993787377074,-0.03099585957450027,-0.0063494457033691325,0.0001792189585640445,-0.01783064446412291,0.010363209826951691,-0.01074929503435068,-0.0014289999790834634,-0.0048001610741953025,-0.01951629553064476,0.010210239429165012,0.004320314429463828,-0.005857608674548355,-0.03142061161897386,0.010348950369175283,0.013006014672854118,0.011232912368169503,0.0013139210616239273,0.012775221266689504,-0.006928688101467928,-0.026397342847916876,0.0024569047806465827,-0.006182865526770278,-0.007194893010734645,-0.000598220511499769,-0.00835524362398606,0.01038267689905686,0.004053805832834708,0.0010162789983913737,0.0039401288953081655,0.004634809710695565,0.019540223538390068,-0.020188085422964967,-0.01776760363783722,0.016007647602444487,-0.007849176505484282,0.00006772729871159283,-0.01857426465926008,0.0032803465809990765,0.011493442695326444,0.0007772513391886261,0.007695182447932171,0.007958745336240093,0.007673730865622481,-0.00431558104299141,-0.022218639143797667,-0.025731044299662317,-0.007443758700171501,-0.008769822464278154,0.014996136574702099,-0.004553770544134283,-0.0038175225201722185,-0.02198935929790119,0.009563841436074437,-0.010870561629820827,0.013314134961711285,0.027765746489086727,0.030307444047530874,0.013400003432698652,-0.027224485444777166,-0.0070813825176234664,-0.014996852571459602,0.003328650999082687,-0.0009375504811263356,-0.008303918327578333,0.01132601803423416,0.004425043023444587,-0.014540451268288693,-0.01363213135582665,-0.006924196035880412,-0.011678235846173593,-0.002527609255594007,-0.010170614654190729,-0.002399209902573919,-0.027794353041272892,-0.024452358857695762,-0.004337860727335269,0.0030936489754814166,0.014411464116856008,0.012931535513864114,-0.02627781698357992,-0.009658427811167212,0.012127666771606052,-0.01937330217772761,-0.021333360314578637,-0.001085431391215574,-0.02121061538720333,0.053818216477073536,-0.028696397647616858,0.018463405072409247,-0.0002679029622166566,-0.010723451034705178,0.0052743540561407615,0.011116309118814447,-0.02255063874046567,0.006342473730277068,0.011411052743562394,0.02247677981653869,-0.02343253841134045,-0.014492151301523202,0.0002282162147970945,-0.025446007371736995,0.0023102681659843308,-0.004224638390814187,-0.003031854082462382,0.017652515736356265,0.0009589048958223104,-0.012145195851724846,0.00926674774539265,-0.020242235471497415,-0.02631145344062638,-0.006403438804382687,0.01532415197507857,-0.003567784737237135,-0.005083258719707661,-0.020366671214440687,-0.0325904999591277,-0.00979324752924088,0.004026762405369051,-0.006963287828280519,0.004876510191951008,-0.014043578157976381,-0.018897903282641355,-0.016319111281537176,0.012964923560370873,-0.027316208991412023,-0.02864771676240621,-0.015119037513486628,-0.00032230488479734665,-0.03607274427585414,0.001848540150118373,0.00536931035387663,-0.005434274544173727,0.006196566325614938,0.008192101204897195,-0.0001936593209077478,-0.0028474374636275066,-0.01231466471588488,0.01664645777484504,0.00333448954152237,-0.0026316946638816753,-0.028137572301434956,0.014577639600744749,0.014205224107065303,0.00981308064113664,-0.010580076709046619,-0.007912799714144039,-0.009452501080391595,-0.019975783733667596,-0.004608933595592928,0.00472166928711407,-0.013056259378479762,-0.012906724797954527,-0.00962092503101141,0.006578306606440973,-0.00807951982028309,-0.006606395362847068,0.010964423622591514,0.02969059399974008,0.010207942169531511,-0.012572438620127434,-0.01346981410091086,0.01884159124966398,-0.0023940399001246195,-0.011650546141143027,-0.029302550040785528,-0.010588925784416482,0.0170539609983672,0.009147235858741389,0.0033308633578462295,-0.008515316602759993,0.0004829935056610737,0.007247359754972413,-0.02997969578410269,-0.020718056503684298,0.006593265500822095,-0.00934956128591282,0.02472931370718051,-0.01559088476797607,-0.004129005176447016,-0.017248918985852874,0.0037790248863839933,-0.014691161973955365,0.01442966513969396,0.017912072666674148,0.0406349055069958,0.013705801520732606,-0.023238238252399117,0.007526314117071349,-0.018336388275291764,-0.0016744985245582484,0.0018501060961281135,0.0050328679787059035,0.011508406901107732,0.003564600080325545,-0.013011664141858562,-0.005251181853276538,-0.016880283253051874,0.005991637117713332,-0.0029426831669910536,-0.017333584992249233,0.005940741963827945,-0.019399451224198064,-0.02620607970088526,0.0029092115637154607,-0.003079801374758403,0.018293140100411935,0.0008725652699990603,-0.026644572129173868,-0.021008952617671894,0.014821010462732464,-0.010139085677562993,-0.01850383849666805,-0.01715101156177711,-0.02879287448049143,0.05587446610215385,-0.02855948254996139,0.025194495300501548,0.0043202691973778075,0.003950999966527713,-0.011012381461663558,0.008140037496713834,-0.01889951825059396,0.028915042297123286,0.009335307654792022,0.005361572563665541,-0.023849725936949645,-0.00979192727156953,0.0010211152854074919,-0.018898815906090913,0.006462887903383972,0.010707074896257765,0.0015056587535571707,0.014078042227071035,0.011964009660117335,-0.010384402912102922,0.01450618890267458,-0.009432416270403766,-0.015805766858959597,0.003136371135109702,0.004808453332875192,-0.0033272672602966636,-0.01644760008463187,-0.030792477675419754,-0.017247884518162494,-0.010404710094618115,0.004906951378009293,0.00016578850145928045,0.017800645405691828,-0.026820315847582644,-0.01889175819542567,-0.0037177261053984085,0.00271558731707511,-0.02145001254456051,-0.034611783933880265,-0.020749646202552124,-0.009470104502688722,-0.02216587632570634,-0.0027117586810339075,-0.002447988493256123,-0.011191000146190917,-0.00038397988542242007,-0.0023334028371243144,-0.004594775411033387,-0.012672402758527851,-0.009462380194492035,0.011193977679928583,0.004975816804776055,0.0016008453200198616,-0.016510362881650933,0.009526273084023297,0.01815769697828878,0.016750104183546645,0.005075734178703385,0.007808088859728413,-0.02245874186939062,-0.027829370763725526,0.006183172294193669,-0.010364872071024288,-0.012384755608042575,-0.0027959513134509935,-0.011994201624580144,-0.0021247806413708056,-0.02037584698310027,-0.0005250899781226647,0.01977681700344277,0.03309867895665485,-0.0023331326582201476,-0.01169380694323377,-0.002493954523336343,0.025999716563579897,-0.015399849583298136,-0.00725832043916799,-0.02702564841127264,-0.007212660130473302,0.0011483348083741632,0.004805496989890304,-0.00048506872695781665,-0.019431896180852153,0.004478527592534517,-0.0033141862668226423,-0.026049690799702745,-0.01189328185398553,0.01241727562884334,-0.020050474826810463,0.020097523338094753,-0.017360446840693117,-0.010161809657601368,-0.030269885269639724,0.01421512045951269,-0.016970572678054453,0.014294574556404843,0.010868436471554683,0.04038538782059236,0.019875762128488683,-0.03816263519857548,0.004898370829363657,-0.009684640476274762,-0.0008271768253869951,0.003729512692425334,0.0006791520162929794,0.002614885249121997,0.0022861078008573478,0.0007902822497852105,-0.015305786684490265,-0.01741778838138167,0.005218505448683463,-0.012199427834234102,-0.011666827311550226,0.0020489125135564,-0.030232544504372294,-0.013757304688833783,-0.009558993104999313,-0.005711528061094061,0.007760228032445865,-0.007336287885632083,-0.012314605506957597,-0.021576330385971145,0.014674190038306716,-0.022369095320510925,-0.009876057721388897,0.0002324103866966178,-0.014277631311449015,0.058540443495231013,-0.02310876579564488,0.02582575065322607,-0.014603602548697086,-0.009776139876361119,-0.005881071066588692,0.007504614187223087,-0.02177927752298335,0.032889207924248834,0.014291696242816076,-0.0016546995133281406,-0.02265081217030851,-0.002315997254066713,0.0026098101462364593,-0.008501658179083414,-0.002718554533511008,-0.0007766225003668062,0.0011541367349511245,0.014182078254884444,0.00651513629085332,-0.011705914981209625,0.01668411946497076,-0.005443286193338324,-0.012928881094481514,-0.015550594278728578,0.004343862082148087,0.008970537486570522,-0.0073761932061604495,-0.022326403714078163,-0.02003141932041365,-0.00415131449568501,-0.00913032439218285,-0.005711808961455622,0.018247883577776496,-0.011419340316721531,-0.01672695957707433,-0.00020947578051337944,0.006638370529480193,-0.02693728946587881,-0.034682792694197113,-0.023339437523113075,-0.009314626089094901,-0.03691332563530565,-0.01376640469747559,-0.005942948997210354,-0.016003923725501388,0.007435933268978435,-0.00010987529451865087,0.000040362656942164124,0.003807816809000761,-0.0129631887864477,0.0018560908069996857,0.012395058879615138,-0.01739426536058894,-0.02965186855806142,0.011007157107991336,0.020264780840359382,0.01385223724145767,-0.007331880743850562,0.0042483431561906055,-0.00354103013989982,-0.01694977059338185,0.00913303360088451,0.0015888152432063422,-0.020106570479650886,0.0008637084908479078,-0.003529846360932326,0.002625445604977016,-0.021903967560140902,-0.0037532917766796648,0.013830878814309697,0.021775139810958643,-0.005985470171475956,-0.002042398811592005,-0.017034245168681975,0.01135995989655978,-0.010494388453496614,-0.003923429935033935,-0.010627557389503654,-0.0030245223873369004,0.010234653424996593,0.0032842700954420815,-0.0061416482392360775,-0.013008532366659518,0.00014932545590822072,0.007680111172835985,-0.024295249138229825,-0.02317490679676154,0.001493751923330904,-0.0056307999740033,0.00581035874544859,-0.018333091357698287,-0.0038654546336071194,-0.009780640790443705,-0.00023908219046461963,-0.007578961269133867,0.00278896200613126,0.02328140456555773,0.03268639095199975,0.03027435186716675,-0.033659094645394405,-0.004080867882691096,-0.013299652640933813,0.002876177673432729,0.006195781662818294,-0.00005457886011812881,0.0061658055947861785,-0.009825988038698457,-0.012485059462546367,-0.011646537295387466,-0.0052636830613984106,-0.017361058538187202,-0.016988865918948028,-0.01778710552079468,0.00800065244014832,-0.028492859854838036,-0.01615657114860397,0.0023403460506937913,-0.01176690236685959,-0.0021819749433840897,0.012468257077903158,-0.020092544453527456,-0.01728043490229283,0.017179448355162254,-0.0193104335788156,-0.006432196115753314,-0.009129263716845177,-0.014839266576017737,0.03663024364041617,-0.012117894529717205,0.023423340799048044,-0.0035235955656318643,-0.008104026852947067,-0.015893391616809464,0.001394021246221972,-0.02359605884723395,0.03183486955663827,0.011275877647050684,0.004135299354776602,-0.024787378360520473,-0.01336907735318759,-0.006832039428776176,-0.014035477382526605,0.006154952356991938,0.000040263880470356865,-0.010548668042866942,0.015592566257586005,-0.0002608561775520039,-0.0030857332743009017,0.016197538219346795,-0.009909235678090282,-0.008438797647983231,-0.01642453798065654,0.012399187962641516,-0.006455128578981304,-0.005890607288990317,-0.01586240720454495,-0.02880302266393705,-0.0047770476377106755,-0.006615154205832501,-0.020772634865563005,0.001692182638273534,-0.006079369983196494,-0.019832826613333868,-0.01180414862751037,0.009769203633537655,-0.013612462221224903,-0.023928939831066337,-0.016014045468396874,-0.014784614293622033,-0.0304939040743658,-0.010375080780482021,0.002272121126686746,-0.003357406125731123,0.012274928147161097,-0.004333570058293934,-0.007327325165220715,-0.006651477938992968,-0.01535472841577363,0.007582298007880296,0.016362835279213377,0.002436681515113474,-0.015243152895486405,0.01637627745834312,0.0025111046454233794,0.006057218858203034,0.01276720207464912,0.0063852905027721295,-0.01754333478032048,-0.02198618625109864,0.004014962805160485,0.016568210717571235,-0.0065259742940894415,0.00919277495929384,-0.013888163240009927,0.0056451520491872095,-0.011434758248880524,0.002628495537362912,0.005013188097408599,0.013124501625638628,-0.004128221286300577,-0.015447581828593415,-0.009039143455684982,0.019782806224513828,-0.0029213424621369654,-0.0006018412868416527,-0.028930575784467876,-0.0094604256047866,-0.0017073488074069504,0.006945796866287548,-0.0038766680111056787,0.0013535434454100136,0.0047863571413228065,0.009885255089428517,-0.008977209901513525,-0.008997369549555568,0.0044374224463917715,-0.021463751885677677,0.028236134763083745,-0.0023778273411610516,0.0029345620517955413,-0.02012782221678351,0.011321528978989828,-0.007848092054383533,0.010868901148430187,0.00925183946065569,0.03615751743431338,0.027402494832425323,-0.04132799437031221,-0.010264780809232299,-0.023163973000081155,0.009041258493664625,0.0006890353978664854,0.008616433172168628,0.009669032966521156,-0.0005678579260213575,-0.012603736556596756,-0.00759238270538559,-0.020430808018955877,-0.006716724238762771,-0.003542012113076033,-0.0036546136795835072,0.010833699229875296,-0.027458490759583485,-0.011037726543980183,0.00044799341348523264,-0.003330256445605136,-0.009259719320204557,0.02852575944703221,-0.015445356039942586,0.001733167086583085,0.03945596339308574,-0.013100904711531233,-0.0327670422799046,-0.00802331037882169,-0.024123440399835223,0.039767555493079275,-0.018743869181695468,0.002181414909353668,0.0008524132549602508,-0.024159294253578736,-0.024926323057725745,0.02736587225348451,-0.015114723229387787,0.0023247277353041097,-0.007136363490557139,0.02627874655185232,-0.027615522029800752,-0.029345612832948866,0.001985974047915188,-0.026849699354773642,0.022606710151923823,-0.009718089067654957,0.011395547663030385,0.019395128231026695,0.002561808170757796,0.007068838789167598,0.03966850948432442,-0.01828867662109686,-0.02010151245912364,-0.012126024631362177,0.016307353180899625,-0.0037852140894077935,-0.004950023747555736,-0.03194224340949599,-0.018953676035796355,-0.028192960834646726,-0.001671876171646636,-0.023896875653032786,0.00980909024832762,-0.021479999638295725,-0.021000366551478834,-0.030227358506073877,0.029423599702455203,-0.029639779917842515,-0.010595185869529131,-0.033729871059650605,0.014599621759775808,-0.03700936249990374,-0.00620749418960508,-0.006799843601408959,-0.021816591596067046,0.03225354601119269,-0.008202316033047196,0.0034237153133582334,-0.016501440404890468,-0.0192880647988978,-0.010520116719514978,0.02988940820909669,0.014139601964911637,-0.014393359455890048,0.016634839275432755,0.01605811706074048,0.022091620513403295,-0.0018168718947659704,0.034963509665944824,-0.019671790170003756,-0.02218639561797186,0.01884151653411132,0.00919598702021074,-0.0031286716891339964,0.013752550509543483,-0.023413804859556603,-0.0007661156704282683,-0.0069880204053243775,0.0022256734577952297,-0.001599645014640041,0.008637167967088362,0.015391484794537488,-0.03427526610510475,-0.025806470406225888,0.024755376388164354,-0.0013339261078839817,-0.0032272619332036224,-0.033990047965270144,0.0011426978589543725,0.019956825601752142,-0.0018854668835668821,0.017522331954513685,0.009230775444576417,0.021399368266699362,0.008820631899461303,-0.017810380060264256,-0.023870908720535808,-0.014454665534565973,-0.024129454992156203,0.0372161257452941,-0.007897240580326764,-0.008921387492479211,-0.03414344825791496,0.006832046229225932,-0.019747111597667243,0.0009034564684488835,0.014460671358951994,0.02950396231229441,0.025183828300134894,-0.0495288551937542,-0.002815496836700398,-0.023742634007493865,-0.002192948032197855,0.01335085433948878,0.013123825030047399,0.015363514382912854,-0.005018936628485893,-0.013504751672291633,-0.02236367968825742,0.002803314800455911,0.011884826415640044,-0.005203592615705956,-0.008848782061364045,0.0157355120735648,-0.05070934415441254,-0.0049021041910505036,0.016740161619738347,0.01372757288658697,-0.020829186510240415,0.03977055699666606,-0.02452518113724415,-0.0001321391384354703,0.06590830971693858,-0.01924225318129302,-0.03235084037406927,-0.026040559724650754,-0.039958419042375334,0.05735586788921882,-0.030146985582064644,0.01543278225967671,-0.004515606148550338,-0.01779589258681872,-0.018323416821852238,0.05791953387675274,-0.04214136194124084,-0.010018614609263569,-0.02823421256591647,0.06953837315802941,-0.032519944404163455,-0.03681369913312206,0.018924235826611638,-0.0426347753790645,0.045992546785593946,-0.009028749033710044,0.008422315287143543,0.017006767191652644,0.0015103364819342205,0.02346363560241351,0.05336826353786113,-0.026558635581486943,-0.04012231640885821,-0.004158973591206386,0.02002722239478605,-0.019717567155088128,-0.016501599759628904,-0.04747951032721779,-0.04340774290633164,-0.03161183611832836,0.007163358149299514,-0.03378017376887495,0.016355705597987567,-0.030368071613045812,-0.03796714855568343,-0.04258407112513727,0.04943802339152717,-0.03970095061516905,-0.022169798031007725,-0.05060235083680604,0.032943151697899416,-0.058126946652914506,-0.024368882932519903,0.005422366727973044,-0.009394400437436369,0.03629850891393456,-0.01764192213481729,0.008737557771315296,-0.024007834075687035,-0.014734353143475196,-0.007986030059359666,0.043559837388072446,0.02878452685601599,-0.026226569674590288,0.010054961687304418,0.020844380181907766,0.056735163119270224,-0.01899576559861449,0.0322610479569786,-0.017928946761845393,-0.0331729984494343,0.016957396053810744,0.010132030453859457,-0.012655278254946072,0.021328044905645018,-0.02968324180710089,-0.014855672513581669,0.009520737370920684,0.011074983915993191,-0.006844277093597655,0.002993618051261009,0.03622614437049094,-0.05170571572077509,-0.028367819932370923,0.06059400949030977,0.008782906280355903,0.0008746355718816177,-0.053477172430137956,0.0013232539839594763,0.04557193577645247,0.010012566829723433,0.021999725842835664,0.014475254018929976,0.020443640024268253,0.02304172225415372,-0.020113135074151106,-0.031139523661513756,0.00036635180141280504,-0.0329093718891232,0.07878950220312571,-0.013677639924842062,0.0003295977894931169,-0.03473615952461072,0.014675829865680654,-0.05145686309296602,0.001045925037244786,0.015394514045799482,0.029378453175749452,0.018097930010795977,-0.029671200534037444,0.02088585499084266,-0.029933323761234476,0.0030521633094131493,0.042108519906646553,0.002144994566889129,0.01084270873195446,-0.0006019501908873158,0.00718953440775024,-0.014261506642852272,0.011932552297760518,0.013005063019887587,-0.013333497982081515,-0.008622636153117718,0.034305834400787175,-0.04197204083914174,-0.01603707089111848,0.0038324766571038726,0.0067276076895668065,-0.01894020057977661,0.029078975639164117,-0.01994993506145798,-0.007683816992760125,0.05259424419317561,-0.024368083684052116,-0.04116666202756059,-0.02366502291185195,-0.0225087622983668,0.031129885396508128,-0.03111350158979691,-0.009955065710571191,-0.005310656585774338,-0.015597904343452262,-0.03160167865736332,0.03543513096294699,-0.022971659088548205,-0.01439734265565199,-0.036102919783202556,0.04400165679590605,-0.023420369995743883,-0.03655625401555977,0.008675181259848959,-0.033407204557259006,0.027497614013311134,-0.019945655187055298,0.014566409292539039,0.013484007531517425,-0.0005871613171920269,0.02299518377748492,0.02923547279133464,-0.03345422709203551,-0.02184484492368357,-0.006426739406872755,0.01720370509933148,-0.021425264802018926,-0.009389074016372298,-0.04180496303044369,-0.027793780938686716,-0.02631789332246045,-0.004595168275101166,-0.029562803325378334,0.009885553799515712,-0.024228063070302053,-0.02544234621191461,-0.03397199833479883,0.04391358871996585,-0.02994954125557372,-0.016722628354224216,-0.027419788196985515,0.011501687334746281,-0.03776762541846529,-0.011799880866405254,0.011187981882739954,-0.03897403749744773,0.024097209546171408,-0.015125379995868136,-0.0015139611372583768,-0.018019764953635622,-0.008595362742295162,-0.005839699202681001,0.036725444309589884,0.02427877906107261,-0.013317818125414785,0.011540325470927586,0.002824379885674931,0.04611782800315106,-0.013925651617604208,0.018746653518891564,-0.0029107684048598763,-0.02300667814338764,0.01993246826389203,-0.0005788621586624233,-0.0066048143509006094,0.015135715488941581,-0.017377381066546266,-0.0073143693085302415,-0.0009748941740563803,-0.007925898115160541,-0.010192306370226317,-0.007659500876494565,0.02898776829246459,-0.0441694417031223,-0.025408876909241904,0.03978407522395284,0.010901016328664685,0.004522596502392482,-0.02827357793321059,-0.00984847271745788,0.03980018558433039,0.0016619078305002124,0.026505522309188068,0.021411388164898883,-0.0025875796917840498,0.017673595303284613,-0.028418099696026818,-0.015954337841875086,-0.020683554206177006,-0.027596167024104376,0.0455839325265739,-0.0012418651257758218,-0.019483545284301754,-0.024582178654514376,0.0028418109115167026,-0.03636582412777537,0.012392079534210784,0.026725284618625996,0.033571741212277136,0.017850749331215807,-0.04506460218479531,0.0034214951073847037,-0.025046882579267904,-0.027334453663100285,0.023356041051323436,0.005225878840875308,0.008158775002280308,-0.00034760381989096045,-0.010664141457314749,-0.021616170838589317,0.00048082667675563553,-0.0007139955913842167,-0.006456234419676459,-0.010430024999044695,0.010926037600659144,-0.035107520181006935,-0.0126588646457016,0.005380877193731408,0.01611733293803474,-0.015023556512353792,0.019167780557828133,-0.02042173116258082,-0.004332482409067656,0.03431083026304904,-0.027808959460013903,-0.019822977604902633,-0.01882448259606326,-0.015397419857961414,0.01327561349228821,-0.019005751754999824,-0.016262633618619578,-0.002104794216701412,-0.022137679138054804,-0.027938611488101877,0.019744244175036618,-0.021640952075796513,-0.011702710608833204,-0.03154320020634554,0.03679054379507341,-0.029547488525900556,-0.03457018035448077,-0.006319643409904286,-0.03626231469840811,0.030422277753501238,-0.02000980861257185,0.01346937376542956,0.0032769912430787133,0.004922722191417424,0.01156083990000967,0.03147074365335816,-0.018945080460006886,-0.012784049969655166,-0.01574632860371979,0.004209526022239544,-0.014200155356042162,-0.011212925442812958,-0.03380977612579358,-0.0229357338026541,-0.019946691983067054,0.002974917793157977,-0.01739048214897183,0.004430841438932485,-0.021101364450398726,-0.039223383271444555,-0.012502553253246259,0.021881659860155216,-0.025720901378590937,-0.014860829486960363,-0.023305047878612588,0.0008193498052822286,-0.02899016817015496,-0.0032065181673878256,0.003731429528104333,-0.030460800849247502,0.02166219103447592,-0.01611554025457334,0.0001956066800925525,-0.014891172976356682,-0.020842557545754016,-0.01971064886732146,0.027866976573671865,0.014158819655556683,-0.013243685892115659,0.0027710724312529217,0.0077528308064633835,0.03383392045098127,-0.01609226189785562,0.009886091307069633,-0.011238708511734728,-0.024970282495500876,0.009105785310222159,0.0029219572348864846,-0.001585575563524607,0.01914002585466527,-0.024421662139686023,-0.008911380429413644,0.010596284499153206,-0.002772137054610446,-0.011839054706169926,-0.0024799202197672444,0.023945934001223867,-0.020506430285764824,-0.024513847932578582,0.023260718813510124,0.005495217757816492,0.0020466972294866663,-0.04077356882070523,-0.005550080462526636,0.021714760881426504,-0.0013940883282776303,0.01580814153757114,0.006211119286786327,0.007252522938950019,0.00463340259035372,-0.023274838890007494,-0.026572624136069836,-0.027052722655940026,-0.02836280166168741,0.03963032366317341,-0.0060618902131600655,-0.004577823517735885,-0.0331011531035987,0.010333169858809157,-0.015090438067746887,-0.00530488548037811,0.007175430377974397,0.028901340396642262,0.03106839953518357,-0.04160348883633577,-0.0012459685288618949,-0.022985024908586837,-0.021395602169908205,0.00851709242489747,-0.001095104769363018,0.01170662316830849,0.005995851844177563,-0.012025191742306776,-0.025063284370031972,-0.005994104253672356,-0.006062862437778246,-0.01410689179413681,0.00020956837106889242,0.012347952341772831,-0.0233276867323202,-0.005424710990650714,-0.01983950528912983,0.00579864526463733,-0.010837296875934843,0.01963919098142154,-0.011007199155237679,0.002466526685279302,0.03823493095284831,-0.011657106096095472,-0.022165749853453005,-0.01694077126127991,-0.02523903117795687,0.00822867031789223,-0.01801601748168041,-0.007077330022632033,-0.014674872560298764,-0.015926267010409428,-0.03208313434595417,0.013728548278343479,-0.019696374965944567,-0.0022686838209530773,-0.03503119113530133,0.03208735395462624,-0.0204027961344362,-0.026394521535740168,-0.012567197917468149,-0.029960074886096318,0.018801832918153585,-0.0203337058883521,-0.015398913128410373,0.0022747576950334623,0.006270246421048231,0.0215412098860862,0.010598287408022196,-0.0066597828988579095,-0.0170959124560417,-0.016791323321840138,0.018855134934436094,-0.018624049083106945,-0.010967209836450172,-0.021502227549654154,-0.0014056239092356722,-0.022348597703819084,0.012033362681961778,-0.010361768648511344,0.005579102399136035,-0.008457241278573118,-0.021185109939883782,-0.013985078894101697,0.023125804809171993,-0.041454243765936205,-0.019540641902329025,-0.034106481617516574,0.006207947228047014,-0.030350913525430383,-0.013839617694391416,-0.00047966683014380934,-0.05167253878746037,0.03257474690954504,-0.020363193759498622,0.0013745657375902522,-0.011390932027769782,-0.007513789264591944,-0.01244060687854478,0.028373118540674477,0.009957361563395802,0.0002604974499025334,0.009021206876314017,0.005823414281848245,0.022964440249675262,-0.01493555356902804,0.004779992363651407,0.004072955078339993,-0.022478581506140627,0.012816304223798697,0.0054625188720804595,-0.0045692394983855855,0.017613694612743053,-0.021284452418318073,-0.005642609937244913,0.009387738967225908,-0.016322869535909678,-0.020432519305151595,-0.005842565550982438,0.0216249452435599,-0.024682741520525985,-0.007956409560481348,0.01580549877275837,-0.015849110359498625,-0.01964988684253515,-0.024085706061341552,-0.013248696186691559,0.01941957891277681,-0.010799109879208771,0.018463572687135957,0.011991341401913573,0.014489522263593471,0.00832148749206744,-0.0098852156639179,-0.01863480392214491,-0.009224798032251865,-0.02005486537650802,0.029802976663417673,0.0050337779642205,-0.01131984241955858,-0.031018441380052296,0.003112978694451266,-0.02503675313901078,-0.011768510085895061,0.0018722613041287784,0.017915549300536567,0.028769672605654825,-0.05479290499458536,-0.014972474113001549,-0.017653552199153943,-0.011589729626039626,0.012812575986613853,0.00044181978791924567,0.003176770595287328,-0.006977227377272721,-0.019134104427974977,-0.023352110707165794,-0.02058600633819949,-0.011352646915684265,-0.0226089597591831,0.009507055583122552,0.0003528762613833359,-0.0282330706683848,-0.012137179242249453,-0.008393074900898693,0.005824383580393964,-0.023432873332252243,0.023594771340008935,-0.013996230094954399,-0.017878164077515548,0.025747246433889558,-0.016714344088258254,-0.012834142184144057,-0.012297564362492614,-0.022256681813420887,0.0173911691515101,-0.004414279170592859,-0.004712922119884805,-0.010325517589277727,-0.01951059586611511,-0.01874154761855341,0.01100278231948688,-0.04187258611399817,-0.011017985501033436,-0.03906467274987471,0.03173710633469104,-0.018709505177304894,-0.034367666629778616,0.00019955228755422452,-0.024177521083450317,0.013421294255557005,-0.02832751630429713,-0.004778916393574697,-0.00430444184251188,0.008459186511577156,0.013518488153741074,0.010201543946668362,-0.02257180143356088,-0.014066846944432361,-0.017790760104511232,0.01022855439555433,-0.020859815183487958,-0.02098720102569929,-0.013936924288798667,-0.01824804489530024,-0.0324386076394223,-0.0019076024754441504,-0.002338669521016307,0.00024391410162861695,-0.018986799504436908,-0.03279938762590084,-0.014331004095195247,0.015144506179504672,-0.03655554390614215,-0.021516108406776823,-0.02878274414659881,0.006596395319958881,-0.0322829610038445,-0.008506676784529286,-0.015454960031485884,-0.06340343953425757,0.024040622930082894,-0.012034708166478957,0.008689656126130053,-0.018579993467191445,-0.011991484857278622,-0.012258518645858201,0.019274407452635433,0.00247037351497517,0.0005866682963234626,-0.0027777864640972493,0.02247718719947331,0.03190505539042727,-0.019888735436946785,0.0030662623702682372,0.004413682102086033,-0.02207304613167861,-0.00045276812336498184,-0.004479823132665788,-0.014793001547304868,0.008631008995943486,-0.02769936907823748,0.0014263018143021357,-0.00035707815248843023,-0.01513911581233466,-0.011381374597758022,-0.009393429026935851,0.02684406283766365,-0.022520678437553884,-0.00555992443215991,0.024847270428549666,-0.013493245091976951,-0.01777656472598687,-0.030185804952976875,-0.01351839474665951,0.026544050042189772,0.004172211812288624,0.022977411890682968,0.01758764761856071,-0.005821335601837131,-0.0030664746165844797,-0.008310130844966204,-0.028449162318968338,-0.021982169976935275,-0.025960722608525985,0.026591826192771388,-0.013578538290541668,-0.008844308695439862,-0.0181908449960953,0.01463668133754573,-0.022710112884573006,-0.004669827165655943,0.020440165290238482,0.015442592674378319,0.030555629246886682,-0.0716081485677319,-0.015182320098202596,-0.013805106035648787,-0.0064992723612214325,0.013473741083739088,0.005763327114251182,0.005984515228405637,-0.007787279403592775,-0.022415518331708142,-0.03453978704068316,-0.015078464853193927,0.0014885979582035353,-0.014230119771339263,-0.0005607071795259018,0.012783672190165879,-0.02079908479615412,-0.02662364907827008,-0.013793080115164356,0.002772077537862633,-0.016755549598206892,0.020588827437738717,-0.011693896042430388,-0.0028350467920491133,0.027565251703363904,-0.03367921824155474,-0.02382471561419652,-0.009774305799157673,-0.02357703012765067,0.016622713330797793,-0.002462015017319368,-0.005227821715813785,-0.00875303042593366,-0.017449555825604035,-0.02171772578906031,0.016112888926824206,-0.02291187745769799,-0.017267119734177827,-0.03559904694769374,0.026214336851855674,-0.025794402167536364,-0.025547906577956615,-0.003226202546550979,-0.015621877929791693,0.027492295012065054,-0.029270286904891724,-0.00430265441459122,0.004880700375952096,0.0012206065857182106,0.015181682473403098,0.018837459879581214,-0.012593708388678217,-0.002245845305403159,-0.013229480957452485,-0.002938560833829666,-0.0030758849115199304,-0.020563013400581222,-0.016761284785791163,-0.013057313915915431,-0.011323174234196156,-0.007015631914383275,-0.01144050418559333,0.018248078627425047,-0.023078408666665415,-0.018606965625340165,-0.011137870983850077,0.02574719516059935,-0.027105521039865785,-0.016268430904622745,-0.021439771190276406,-0.011062532236360223,-0.010512333249877439,-0.00650703280626047,-0.015621332768842111,-0.055120900853085276,0.021315070839690888,-0.008202461596228509,-0.006710888457364782,-0.02537949672572637,-0.011882487229723277,-0.025077834930562128,0.020429974224713026,0.00043778531880785647,0.017400632472930777,0.015254171232186291,0.008839539590778187,0.025911026082191015,-0.01462496624461818,-0.01596926303178842,-0.012419581895124092,-0.01503550302660048,0.0075227145257058285,0.005042379247298558,-0.006893222435676617,0.019783051100771096,-0.030664141469635506,0.0023740978197934874,0.009100663943566102,-0.01696795421257375,-0.01688561888469814,-0.0034244823864672106,0.015380958027691223,-0.012220412309295933,-0.002345902717044122,0.01136054885013816,-0.024094048058984463,-0.005906020366097402,-0.02234012264491121,-0.01762013365546659,0.02400725031235496,-0.00022915050707084355,0.010954478521514722,0.00121920547539773,-0.0015712989166443776,-0.009827097737610261,-0.01900135048782834,-0.025155889745883675,-0.027057491002463848,-0.02969158094239145,0.017533228082385444,-0.0050398907829179345,-0.008451898402689869,-0.013031153113212552,0.014282985009013092,-0.02314902901409783,-0.013110477633508949,0.017631480749285482,0.02350509409980188,0.029952819641066466,-0.0641952975089086,-0.0218561544015714,-0.007857503820939821,-0.02168841301524468,0.006072193206411507,0.001965460704083259,0.011534159721621565,-0.011740979956706853,-0.0066259498341153765,-0.020329621602247546,0.004774663915383396,-0.0035254191787141634,-0.015991970261650612,0.0017346507320879121,-0.0007364475089342293,-0.018416199116095197,-0.02271195700687949,-0.004950610015898022,-0.007362357531855908,-0.010966062786657387,0.012705738805407913,-0.008662052494737423,-0.019356290052254973,0.01807437268453755,-0.02637866325088589,-0.019390383284636915,-0.006566973399515678,-0.024281652883880216,0.003966003480769571,-0.007156843354924114,-0.017478167152793385,0.0003643898915410822,-0.014079422844257863,-0.01803479272238735,0.011984291408980607,-0.016991070894341553,-0.017098894394974244,-0.020476302328466353,0.02229491887717852,-0.024072736810972103,-0.024038934747600747,-0.017113641285782903,-0.015832475201945806,0.013882904866584857,-0.01828629353408749,0.0009434550170967998,0.0071982204908732535,0.03487711616914068,0.007152700062100572,0.0005326906134213334,-0.019210790524524273,-0.007789558862811609,-0.004699628058106459,-0.0009313284671561373,-0.008699659389276224,-0.00786829996775897,-0.02286943377142833,-0.013477915574010738,-0.02345640418994076,0.007358371741132673,-0.0016500171427832125,0.007161243320405717,-0.02462348776182748,-0.01848050958565502,0.003683655791467005,0.0035746501847799057,-0.026259698979843392,-0.022250965531002625,-0.021712935829217125,0.002248207659010434,-0.009236504844764442,0.0007538541875894312,-0.010700595213738931,-0.05009836109515441,0.021047220982055307,-0.008073888474055116,-0.006747969468642794,-0.016650476812755204,-0.005201370832899619,-0.012649747316824255,0.0026386972959982114,0.0036050538016828707,0.01166261656853718,0.014771641818480036,0.005507954685467888,0.012604243852379612,-0.00047668784263615296,-0.010334502824367374,0.0012056043840481024,-0.015164368839466478,0.002963722756959219,0.0031984567260501294,0.0028482777637388037,-0.002082042520606389,-0.012550260888596992,0.0026941334977926487,-0.002539575289432621,-0.0022990641795205525,-0.007643949347380426,-0.010161949840105818,0.024645579798510446,-0.021719549655927442,-0.008170516446808142,0.00933742500033621,-0.016889658850955773,-0.0072381237621807,-0.014744610673078532,-0.021337123710001397,0.00348994807045231,0.012099369826066558,0.003716123565002486,0.002781970105403536,-0.0015365013800938856,0.001417550908492726,-0.00601806693089429,-0.014877186607603335,-0.028872929449587817,-0.020839847697888055,0.018026870284963567,-0.021707456639933315,-0.017621085262881152,-0.01953914198967735,0.011961401682584685,-0.01315188041218968,0.0008915763983413623,0.01125225401971533,-0.0008254760992417517,0.01909656982100318,-0.06729810459461251,-0.020088496776547195,-0.01827195929588685,-0.020949203352622722,-0.0048342954454495,0.008464660702909072,0.018109262625492905,-0.0020556313975626096,-0.01373138050976843,-0.02656134163614981,0.0017610965166682889,-0.0073029773305495795,-0.01862051628026289,0.0027728588905891914,-0.011391381631072547,-0.01969773788407598,-0.021876911367974927,-0.010812970448994041,0.013262614059129001,-0.013653498175036366,0.022363020967949968,-0.0033590579407873434,-0.014958736062023137,0.017771297251561693,-0.027041241347962798,-0.021651915832696607,-0.015658837688199975,-0.006554331885608435,-0.00217311296411496,-0.002562639874772755,-0.03072285627240663,0.002667674475335711,-0.002831918720587928,-0.009791598531908792,0.00034089644786771257,0.0005109887546666693,-0.029784356694714062,-0.03599133522856311,0.024543999118913532,-0.013635708172134515,-0.022661822442984897,-0.01378211197451466,-0.014596203164878566,0.022621700155826513,-0.02467613859866498,0.004871716991387075,-0.011800388447596576,0.031003991900137032,0.002677326352067408,0.0008651903096794531,-0.002839014462685658,0.008727336626094194,-0.015866091684484544,0.012482718868064435,-0.014769116930036956,-0.017620547838235082,-0.014240087972555831,-0.019089692967883272,-0.025136688805682626,-0.003781949322837001,0.0017613840876850237,0.011387582024733538,-0.002263273043372706,-0.020542391649737833,-0.004394368956010107,0.003975061769308995,-0.02332907590980218,-0.017095884426283396,-0.016756256585596076,-0.00011680207692037599,-0.014940508661072974,0.00408845954308749,-0.003037082384496308,-0.06722653358112493,0.019731768890748128,-0.01546557297226913,-0.007551479660612365,-0.015518564361442054,0.0029599797216067467,-0.023818647262865315,0.011500050201602644,0.0024354413572678186,0.01605267207041108,0.006000862235224757,0.007403255649158521,0.02046813974876432,0.005990961538388012,-0.001558525225788716,-0.014634592231169306,-0.024963181962078935,0.010706245550570362,0.0026107745925792398,-0.015273964133034027,0.006518666433606773,-0.014504547132675242,0.0081771235775674,-0.00886841718056771,-0.003975125527350838,-0.022641223010112888,-0.011161208199355115,0.015979983205915586,-0.017941898890944396,-0.00600761608872842,0.005578103609672141,-0.010021831126943326,-0.019683587946798323,-0.01461530715790945,-0.0209052616305296,0.01257027756433006,-0.0026874218982856544,0.016126450036563603,0.006627738443258497,-0.007157176567039648,-0.010842871639828016,-0.008470458979423232,-0.020428412265520557,-0.029157165993064758,-0.017789338629501595,0.010843491063997821,-0.0008684330430751128,-0.022553402895376273,-0.007067981892543875,0.009072038113989836,-0.0058473656372739335,0.0023806542207718633,0.02359542108810915,0.005771738388648025,0.029860641880138497,-0.06205963419761093,-0.022453387226908237,-0.00597300730165197,-0.03293604490360723,-0.015416388096195829,0.0015185308859300747,0.0005710867099544066,0.0014358234559859009,-0.01766081285593067,-0.01857457331614015,-0.011151629789463132,-0.01360813605793056,-0.025812214995022204,-0.004289306209567717,-0.015272549030805143,-0.014196106717999302,-0.02003187426295631,-0.024181204895332077,0.007586712484204544,-0.022901864712273127,0.013014106451111741,0.0009428170407104499,0.005791577584729514,0.028177374800854648,-0.021866204013217934,-0.013834879653415297,-0.024529685346406673,-0.013321622368180946,-0.007067124421971824,-0.010066039737064212,-0.03823393517167897,-0.008540115583660617,-0.006931162376092602,-0.025687189851328077,-0.0022945316820728655,-0.000704192828542609,-0.030740563424465947,-0.05578531367484037,0.008857804278488614,-0.005168768153310566,-0.031089362530770923,-0.01212690845586526,-0.006010370048406681,0.018733583275017767,-0.035134510977276726,-0.000433838977656357,-0.005304188219330708,0.03090090678472819,0.02290344104941905,0.008288766809170837,-0.01603520596486927,0.0004929979862935785,-0.010185966019156669,0.0007573542882983444,-0.008767753932030466,-0.020639007515906232,-0.017492103702207773,-0.007630353592777152,-0.02810994568435723,0.015019683956964625,-0.006410650652746369,0.014042217962342724,-0.015723502149877673,-0.014927464587462991,-0.009750502457800956,0.015192952225013129,-0.02825276148255661,-0.018484304627415744,-0.012319577664830201,0.0019572984918561206,-0.012146404667363588,-0.006169230531938282,-0.00930132868895424,-0.07356958877140113,0.014459019934948714,-0.016971005976694375,0.013267734531551981,-0.019778521748801663,-0.010827490015572476,-0.019795469994090514,0.015429593384221459,0.010327746366174605,0.02324052343076015,0.031633338015314885,0.01956783060766169,0.008342114505720914,-0.013559881764176456,0.004154549326492561,0.0014361317237919897,-0.025478885934029593,0.008392115466992919,0.0024201931011080366,-0.01842935797948832,0.015331875185162698,-0.00997294335319205,-0.01008640305004763,-0.0011311626078100792,-0.01237898013001924,-0.026547367140564413,-0.0248963692640111,0.016948039697300306,-0.011249511566876938,-0.012596410288150157,0.011064736802916192,-0.011106441246634789,-0.024073579275589403,-0.030531396053688622,-0.013848636205914883,0.008766373562150187,-0.001194974165582027,0.008780472103861537,0.014117017490700467,0.010299883883191814,-0.007545216203033816,-0.005918084911991544,-0.006910434099063535,-0.031093156112464042,-0.026902903846637804,0.02775332502732197,-0.0012108872229515046,-0.022727494278051482,-0.012428724424658148,0.012392368490782329,0.0011245271873180167,-0.012225845796406832,0.02538749023971013,0.01015097440875856,0.029844226153912037,-0.07883885448114819,-0.01644688767257116,-0.007581606066264914,-0.025326657018903284,-0.008229756384498554,0.006267855965956794,0.021678418519988127,-0.009990665384363787,-0.016579474969425217,-0.01652662138430725,-0.007244733685998253,-0.010191991011471575,-0.018137541321345756,-0.008621425006291292,-0.013470836094207276,-0.01870305876332328,-0.018776013558284572,-0.02334354655236593,0.013065207882147187,-0.023437847772609616,0.017717606706768904,-0.0009966628557824364,0.009310501417477884,0.021666232571570958,-0.022021962288393884,-0.00708738609300452,-0.010653800703028354,-0.014643499199971193,-0.009928282596925833,-0.001416441891444208,-0.038976880965564356,-0.01903334201799958,-0.0068540788807312306,-0.021414642705027218,-0.007461681970242732,-0.004471549964569593,-0.043234759469661925,-0.03702617298498643,0.014516390498044561,-0.023151315295843376,-0.025023226039750598,-0.010818074097054181,-0.016209311754959967,0.0018098680278392438,-0.01365050071140545,-0.012165814037760847,-0.004579949604827391,0.0232828512336254,0.015992179354896253,0.011267631793438513,-0.003507065252512566,0.001786699584603701,-0.013029593863199013,0.012732073053885993,-0.012716826763721115,-0.015585400336949506,-0.016589298652336264,-0.010510713377727793,-0.024251236703585935,0.005606510813679717,-0.013604084337231715,0.0003217962425338916,-0.007554004065029,-0.020700583573342576,-0.012417286051103982,-0.0012974145357912085,-0.029968188514664023,-0.010922110438159414,-0.014427558696803702,-0.0020843226066329964,-0.005662880115630088,-0.002273893757234557,-0.02556419603164255,-0.06580185601323027,0.02259440183737763,-0.01454090215719428,0.0022358810752436376,-0.016863621986968304,0.0006109281445968011,-0.022988475385379018,0.004422464453366231,0.01753101754126912,0.018738145083127124,0.02834667760842399,0.002931982850482774,0.021215605144653652,-0.012139134214882484,0.006600907978198552,-0.0054034759960196015,-0.01588702363802276,0.016345376025759518,0.01307546129398342,-0.006901874573530485,0.020678983758532127,-0.00953792681489793,-0.008576111026648498,-0.0003564496307552051,-0.016945822112057446,-0.018384564519307586,-0.032284101460166685,0.019586050758339357,-0.021487991026057383,-0.013033794559760743,0.01521217675649577,-0.02275316973814323,-0.01978211407138555,-0.018275940795934534,-0.022976812553552238,0.0085252237266723,-0.005507112319900845,0.023281658132234345,0.007633634001622223,0.011954601727160237,-0.0072454719761553136,-0.010922459782866652,-0.0022150005653509878,-0.025242410862374345,-0.020400522886184828,0.0241184744957895,0.000593574296147756,-0.025598221794146017,-0.017061284885716153,0.0040770658954653845,-0.0082756892220427,0.0006780524098884626,0.023404981130464908,0.016457296242349928,0.03200961682759381,-0.0656304165469593,-0.01603219340012809,-0.006104384145104774,-0.02465040970856108,-0.007717477628690112,0.009498322849451516,0.012757931551501045,-0.009687114258405464,-0.021430971842911005,-0.02364276088338617,-0.02072422902768342,-0.022637701821792245,-0.022643944045651232,0.010880324135252693,-0.005344854203784312,-0.0050859948133458,-0.0215957828506143,-0.017735528681513783,0.006694676815770647,-0.023172429562507604,0.0191981814970373,-0.009700907774728347,0.0047430424518152044,0.030332008072179152,-0.0336177901108251,-0.019160308039337957,-0.01257972838788722,-0.0035577647372519784,-0.011661120311836285,0.0012735320639029588,-0.04192641308120009,-0.007409338134845724,-0.006158742231772803,-0.02593815841260426,0.009594379826734415,-0.010412014813674047,-0.03646058179576352,-0.045214121750821984,0.021101744393416475,-0.008003755586903851,-0.017244617281984974,-0.006914022038695466,-0.019619104032681012,0.010023071529113888,-0.01888697026133422,-0.004474746336599581,-0.006100081131946274,0.019538212879316903,0.00550540868230571,0.0020175646005668227,-0.01449684811978364,-0.0028635916986933627,-0.022265991508132302,0.011897298133249714,-0.011429321928894952,-0.01611047919079832,-0.01868361814496435,-0.015253419901645662,-0.009059974942720457,-0.000057280606166578914,-0.008209391336498601,0.011727354750047518,-0.013944613139688767,-0.02449502436076286,-0.01015778976742595,0.01706756585485797,-0.015230442641793313,-0.01047705095158946,-0.021980851125320708,-0.005061095561131351,-0.011785934057651557,-0.013042241010684479,-0.006611348113696968,-0.07439086886174229,0.020984732523239173,-0.01707148887747308,-0.00130062543717319,-0.019883327983665995,-0.005792546010098731,-0.019651072104529696,0.010493581475292127,0.014536104899366001,0.013778911436311948,0.004758605163778477,0.00969305955215906,0.019135466589479507,-0.012045870083236323,0.001611493094426663,0.004643010146905145,-0.008591918431448744,-0.004931320633599222,-0.0014324366670818538,-0.006580156159923818,0.016209312986004015,-0.030675268942846105,-0.010359893068589594,0.007451256710497969,-0.021274400517163058,-0.026191628106725925,-0.03864237004494968,0.008386141412666564,-0.025186970140946688,-0.020342979093222597,0.015627332391285824,-0.02092708335657606,-0.022233581696962018,-0.0256441391124064,-0.02845367380205968,0.018068619056099796,-0.0003064224114757949,0.02429764218665951,0.005958861048433134,-0.002662648811532326,-0.0012623438388911343,0.0034007484004861177,-0.017531773144377438,-0.030968887233368003,-0.024524994196335005,0.01014606108028007,0.0007167071800664073,-0.024598423396924085,-0.019520444239973657,0.011708088744642487,-0.006434563454977173,-0.013602513547393573,0.025237645806855134,0.02494335620818511,0.024120263324756627,-0.0691716928409431,-0.029853993243382424,0.0000877986863373045,-0.03733238649797049,-0.002594524233892842,0.008729787560923248,0.017819217352572535,-0.012118258484104581,-0.018950867567703134,-0.028584617305997234,-0.002514168019189578,-0.02130383834043527,-0.022829530289549076,0.0064881900193071475,-0.01902865725543337,-0.008746261725102466,-0.015158777526597719,-0.023612317195056645,0.011172550171166024,-0.01961807421898073,0.009964523813518552,-0.0021512557237465314,0.0015122734757398244,0.030626441402862515,-0.03878782939968245,-0.027116193258493394,-0.01582836427921498,-0.016352664795996726,-0.002740962943064053,-0.002140204631656664,-0.0208781914899323,-0.012135637535169538,-0.016408837709947447,-0.01670831356726046,0.019056893571434915,-0.014459477124150164,-0.039979614260096934,-0.05292964467938209,0.014350196223229703,-0.015472962608189941,-0.017152069515805602,-0.016092741121705778,-0.026668554833550226,0.01789630662716887,-0.024916109659507205,-0.006800304987239299,0.003055910106064326,0.01834598485967818,0.021796062103867225,0.005908324330676027,-0.014871119521465562,-0.005898566992892865,-0.02479047386670476,0.01130883685188902,-0.014114963178155094,-0.017349433110967132,-0.00969816203300624,-0.01276320823680439,-0.012872952368039915,0.011161009041305492,-0.004351126060423048,0.0019673712844330985,-0.011284653317535144,-0.015183933499474955,-0.0024251413904612697,0.016313868705334668,-0.01142504096084939,-0.0031379146052443714,-0.017725905727774136,-0.01048953547481733,-0.006994303988462325,-0.005062691055189922,-0.015565353310658534,-0.06845613376229172,0.010782821869724962,-0.013871728184570277,0.0118456545445886,-0.015272008121450494,0.005884493595124451,-0.017517524062756477,0.014747059686104009,0.008133330494543983,-0.013401337017018166,0.010955753793197466,0.018518807666421645,0.02134399386828412,-0.014865608084885669,0.01151556148284314,0.0069354035934905515,-0.021917624743508106,-0.005652696699578739,0.000315643517776612,-0.016303319209291154,0.021882912076421814,-0.03509859783912861,-0.010460551992528743,-0.005406284110632471,-0.008866562223537993,-0.022854607886727968,-0.0275528770873675,0.01998088944179924,-0.013829216938143846,-0.016790999689387357,0.015554850806745714,-0.024095635218454738,-0.021144436897990403,-0.016347490077200023,-0.017703342950044127,0.009009389054046826,0.0072663290764999385,0.019245521431143504,0.002414434015011335,-0.0037042875006691803,-0.0005891003749434171,-0.0035139045835207907,-0.01653440852283223,-0.027231068514978238,-0.011941214150879372,0.019575195602278047,-0.007897762499523477,-0.007831094229426796,-0.018963133582760788,0.009527796882620752,-0.009657044693264744,0.005656863164466031,0.021052544347825865,0.025850340956151914,0.02441657723272534,-0.07428284643899329,-0.011984035145335161,-0.016475348678046793,-0.02284843787950539,-0.012553959037987679,0.019802032718552336,0.01845965407027198,-0.01570872143293335,-0.014909996336551507,-0.01883400326043356,-0.0014842123710735633,-0.017071242734928955,-0.028226856312669663,0.006356011963851563,-0.00414023538128536,-0.006972719898122246,-0.01532278053068126,-0.018744407485609817,0.010590211398347442,-0.022005339863583405,0.024095643702326613,-0.012087341098211617,-0.007023789771135105,0.01861222820732502,-0.0272642848583502,-0.01239605290686085,-0.019157347996405335,-0.02050862446287041,-0.014537220649888428,-0.0022564792715257776,-0.032814751466601066,-0.009062483724283334,-0.007121983417699961,-0.0184275716170043,0.01899386231790509,-0.01244628746988099,-0.037738915874950645,-0.06220741437891577,0.02037132525037612,-0.024003246837884896,-0.016287796010668414,-0.0028286598109833103,-0.012231372987125892,0.01487282838183905,-0.027066059473294633,-0.008700829513711306,0.007781369505481916,0.01698857723885686,0.02327447039928681,0.01352735224581005,-0.018103697153972947,-0.006637928041929166,-0.013208724379832046,0.001384186840689012,-0.014273963202650591,-0.02243014258820506,-0.010193263442204987,-0.012761455502099507,-0.027372788090591217,0.01546179615857742,-0.0018213739032995435,0.01026607139131636,-0.019907820616841886,-0.030875537333397568,-0.01676601859543533,0.007969197874715674,-0.011154869638690714,-0.019986936424578917,-0.015966009022703436,-0.012199292731569996,-0.019581370410098085,-0.010011366722335383,-0.011426373214950644,-0.06596450920093767,0.012833725957309552,-0.01345717617106758,0.0031493064492075016,-0.012459816985904214,-0.007489920978140815,-0.021938427036141135,0.023351424681796098,0.0012836317138776158,-0.013332675312458013,0.01360934449015156,0.006878222905822395,0.012000836791552965,-0.024769487882823096,-0.0026390110275367373,0.007258872980909838,-0.01165153591064799,0.007557422456686437,0.000092462557855866,-0.01692199718884721,0.023910700798329212,-0.018843449476133173,-0.0017445082121706544,0.007805587727722607,-0.02041144833841379,-0.02055294037635835,-0.023776717931578553,0.014817979484715405,-0.026387479840438887,-0.023471178523865415,0.01769912890544181,-0.014957999067037538,-0.019109395447689838,-0.015997067702077757,-0.01377651076255126,0.012717021708396637,-0.0035362679048247902,0.015944711521154665,0.015603236564803745,0.006824402683773618,0.0019865791961603146,-0.00033807029847813033,-0.018385649900220413,-0.02670034510981275,-0.027730145398891442,0.031009124785948767,-0.004054272056586893,-0.022680932623558317,-0.011849804807639117,0.009351572074646656,-0.009876646467900322,-0.002308080680119378,0.011418065259102928,0.03432826621457241,0.012822589994209524,-0.07832080878386803,-0.02335827579275064,-0.02157948782666084,-0.03293025657134075,-0.0004091445329096398,0.00473242015515229,0.007423710620525474,-0.0028043040588893995,-0.012367616517319558,-0.0180332691213549,0.0027484531608583727,-0.007781495033275011,-0.019091721136351027,0.0040628646795281146,-0.014431558777162177,-0.02238923930710062,-0.02724523600435141,-0.014017759767306572,0.0008165561729594702,-0.023407631293951424,0.014551409869874899,-0.004717078104108806,-0.002392343907611089,0.02338058167064326,-0.038220557691594124,-0.021103470707428684,-0.026814232102357352,-0.009526523297379168,0.0028213403820419986,-0.0014513484646398803,-0.019645777955646926,-0.004033603672286422,-0.01968471200640587,-0.015275355547944283,0.02072403983798918,-0.007742799880161351,-0.04458107794836523,-0.04798793515802958,0.011642889419658239,-0.012246631813108649,-0.029365424852104575,-0.013645706021343984,-0.010458470631862978,0.017578068614831847,-0.02185069512279718,0.004872904625314008,0.005247364363929554,0.009408823071644753,0.021636189302760504,-0.0008997684821244379,-0.017596097805243835,-0.0049412719542579865,-0.016940015632858955,0.0009166259394014478,-0.019937027781757335,-0.022893278606347062,-0.011073750633204196,-0.0026700301264824347,-0.011593343011233175,0.004130269097723633,0.004478028955306422,-0.0006170001753215336,-0.006859934392400202,-0.014501424136393893,-0.015951048138852272,0.004730180538653935,-0.012086438731613688,-0.0071342111210043095,-0.021942667526628545,0.00031056167428242964,-0.017405265702587006,-0.0100287763454462,-0.003052259329329803,-0.06576614152376196,0.024211819221790134,-0.028930779692998333,0.0031810804707048767,-0.012006675482054953,-0.005145352850855241,-0.01637565678009498,0.011165254906383528,0.014603532704167041,-0.019992192072894235,0.014059699464934905,0.021544364553279287,0.023993256416163417,-0.024265836923561802,-0.001105163684098292,0.011409100030558611,-0.014251968874104976,0.011935532118693078,0.012052627349190565,-0.0044449632014161,0.012963772086932477,-0.01874792306792149,-0.0008927737090125585,-0.004674614079859141,-0.019488843626354294,-0.02490905584384642,-0.016391768904400885,0.020460512018463665,-0.017069426841614437,-0.023297034209637503,0.01532151181114446,-0.008391300598021033,-0.01833638751582735,-0.018040401260878643,-0.016491503566964022,0.014733150153029454,0.00028412732114483686,0.012054728785146495,0.0032538833404786305,-0.008984893233967237,0.003512938561020173,-0.0014177580809489087,-0.02403158391854294,-0.0363378208291352,-0.014702012294975161,0.0238837069227901,-0.011393939092640538,-0.016353571657556878,-0.02162932797760279,0.012851136675205911,-0.013877441499706053,-0.007073649169763891,0.013402573257748254,0.02493661123925751,0.025787006513204078,-0.07271370873741523,-0.024195487330409025,-0.005288652822432783,-0.03030237894746741,-0.01379310663794695,0.003738029311575894,0.00652589209059638,-0.017658488755094754,-0.015880262067294933,-0.022286357820126727,-0.007526281366870674,-0.011197845542243559,-0.024166729481338283,0.008380243806576001,-0.0168308013237591,-0.010584676354687994,-0.01551719858375731,-0.021033199767568574,0.009518287045948466,-0.02963868729417572,0.010638312509310134,-0.0012655764317590118,0.002414768725852006,0.01830016885455601,-0.03692010064080275,-0.02128965746924424,-0.01801541659852025,-0.020337780171998294,-0.003986032704285327,-0.005575780075328525,-0.029906852771326587,0.0019595473039166604,-0.0016741792653404437,-0.021162329910354077,0.01633449145382925,-0.01076222674508235,-0.030968672640503268,-0.04672296725216485,0.02355171065928266,-0.014279410162542028,-0.02910525132770305,-0.004090964879795905,-0.0221113050641386,0.007311652858957463,-0.022966122167237087,0.0012801377452082328,0.01303540817446444,0.0002476661302117544,0.022624177464508254,0.006261206054043968,-0.01637431331277433,0.0003347946752740108,-0.026914469924758638,0.008254578644170169,-0.011287762795453795,-0.013076750350928404,-0.01590892412925593,-0.019431092482119217,-0.011108922817488752,0.017736533276959968,-0.005641611371657247,0.013077114753877128,-0.01689289892811667,-0.021278048123266908,-0.011963899757612414,0.01773736218598355,-0.013814468124809857,-0.022020837585678944,-0.021519969777647883,0.006264708188716358,-0.02282586951487844,-0.0025557001021876695,-0.003620287709851615,-0.0580655550966194,0.018203902071898734,-0.011464514765583349,-0.0011023996348746695,-0.019621228982736764,0.00044746703939562696,-0.014922314276092937,0.019924211427575018,0.008162131751129655,-0.012973816828691318,0.02343177502569481,0.01461583367564558,0.017426520157556483,-0.015346351218088259,-0.0031153825803072644,0.005159973945212583,-0.018614492676726192,0.006417915157005444,-0.0068892732836416185,-0.01554713082889435,0.014455798704310262,-0.03213264149765302,-0.002250930551582419,0.008598246494453808,-0.0076604815986620455,-0.01873511986101648,-0.015003303642066252,0.02409058611061123,-0.014775350577687526,-0.009471197797315927,0.015018382068362063,-0.027715425517659098,-0.011826139188262193,-0.033722944520351995,-0.008477439697156058,0.022127046627895674,0.00706815929840836,0.02220151753699092,0.0022588604354856,0.008564826254276332,0.004064499023467123,-0.007977102193818855,-0.017836894593258518,-0.023369813259063323,-0.018323217788093985,0.021716576074029686,-0.0021180999027481176,-0.010048109146568574,-0.011532322369084658,-0.0034627838298109236,-0.008349250674642724,0.0013566201013763511,0.029125301721747064,0.027726009375573492,0.02317628999814024,-0.060806570594331026,-0.0212914903607453,-0.009352474426028098,-0.025105282480199914,-0.014630742964433828,0.018024794834020943,0.009204664804931888,-0.0006016007083263776,-0.027394198035602096,-0.019330748667113394,-0.003809576651813878,-0.004376543010487912,-0.029929617073566898,0.010564831614239746,-0.007986219317578544,-0.02035403968863184,-0.02855178995764234,-0.01917786153933028,0.011357647447250537,-0.020689544563621994,0.01713757338151628,-0.018051796598538804,-0.0034705734254316845,0.023180652336336198,-0.03002256434499668,-0.02323051304862588,-0.015476820229345736,-0.019935819616468,-0.01184078558045668,-0.014658189382205613,-0.014835366021485113,-0.00727491274830282,-0.022106243292073596,-0.012008095695867338,0.013684838805472265,-0.008059364471251756,-0.02388465430314071,-0.04647730590416904,0.02008387591010556,-0.014780487360711978,-0.025949587886419604,-0.014495766644170316,-0.015127719479862828,0.023976229864853055,-0.022518199158901707,-0.00016495324941980427,0.0064015232223110455,0.000566618016940807,0.008683149917938969,0.009073329554303457,-0.021633594541896155,-0.0017256979666355192,-0.02248686707878526,0.009045956263433753,-0.015476285274583793,-0.01626286249029755,-0.022853700661757036,-0.006494672898860413,-0.022431250091362438,-0.00266973399775978,-0.008119990492034981,0.009512155180963466,-0.019054004704766776,-0.026977771298461496,-0.019010862932964247,0.0073712657019243495,-0.012557418497061067,-0.014157112470943332,-0.01933368126865804,-0.011205056642130791,-0.013282157264551297,-0.015505416710430207,-0.00814192571093528,-0.05570156616150891,0.01000567532466152,-0.023384928356174964,-0.003011995840421697,-0.01927476836957976,-0.012069768397929143,-0.027624826415932703,0.02304931261233664,-0.003025509466460075,-0.013424691976500392,0.017934473469239594,0.023879033329302926,0.022148968938952504,-0.023829752265453273,0.005151091159957061,-0.006085480192053016,-0.022633995513589255,-0.00034744965156847864,-0.0023069698732580595,-0.0006254325390633829,0.013491098473635917,-0.03320482390630238,0.0033266306824499357,-0.0009040831659320619,-0.002516050763564886,-0.026730525393079855,-0.024494419088550583,0.023301577454409944,-0.014550102751757978,-0.016924266524606425,0.013082959112483961,-0.023795680830860852,-0.012501489840297662,-0.025413883942662863,-0.006146730001526968,0.02236011792986536,0.0032840648144438407,0.015744566230671258,0.017590894921951233,0.005497020252679139,-0.003331298793892203,-0.013271734206469434,-0.0077771550989628995,-0.024665828725098243,-0.017626912282227014,0.02146865741919762,-0.0028898988486242344,-0.0040848235178247904,-0.010641388004680924,0.015062772610343824,-0.009661684694485617,0.001803014981866275,0.016854449331826764,0.040314155175548504,0.015673143561505815,-0.06897744238462714,-0.022572852847334894,-0.009316912146243328,-0.02774581808458208,-0.011642106218391391,-0.0010313242249340427,0.01746731486174574,-0.015417838217858052,-0.02487035891265997,-0.02884985356288161,-0.01228182120554231,-0.011524714152142684,-0.02619999920385638,0.009920848748191278,0.004367692159752964,-0.026557956581538502,-0.023463845544851352,-0.0032262410280522688,0.007958190169269502,-0.013243089255298029,0.015331877890419359,-0.024936048641462615,-0.009521534988141202,0.02819350644471655,-0.026114638841351963,-0.016670749118821025,-0.027089429338432024,-0.014986637039590064,0.013190908254543278,-0.010698683552352758,-0.017709383988297748,-0.005603432325880792,-0.023910772515574826,-0.011647005985789853,0.02339889883767189,-0.025550125334207387,-0.01951531658467555,-0.028574615498770436,0.02125867582070872,-0.02070700048976855,-0.01686088463613988,-0.0034299027327432076,-0.018680139029252498,0.022908937128164587,-0.018779834679376255,0.006837635871599681,0.004981279800106896,0.0013331300650165818,0.00987978858248899,0.021684278959475924,-0.025860952111144107,-0.002345786246257551,-0.01790625357114546,0.0018697498773024477,-0.016032917125349693,-0.01774688726420254,-0.03689402141467098,-0.024673712312381507,-0.025433907363596294,0.0021180040215199266,-0.006433403937608876,0.009563091799286631,-0.018742649276217573,-0.036341351563865906,-0.0118506995312012,0.009238272305139142,-0.023127724005313814,-0.023733204137483685,-0.02095066326702277,0.00033886782123092134,-0.02393209451573237,-0.016917860542366086,0.0004275603313109049,-0.049759589564917814,0.022897063084710637,-0.019351634130826873,0.002884487812636979,-0.022000738321602438,-0.010696517062434154,-0.012364107964490532,0.012225989923500163,0.01346884807033679,-0.029754132422835585,0.023150760884911702,0.018470795972683227,0.015816491907772234,-0.01554598877604043,0.0023770242268510077,-0.0031671543572280264,-0.015974855497524042,0.008107895042458492,0.009836996216167305,-0.013943639668003622,0.004564086046703004,-0.029614735195404782,-0.004544371591620346,-0.004072192983117329,-0.011707210214375501,-0.01114770112957069,-0.012856357150856031,0.011191812601089339,-0.03323252330198353,-0.019680470950443625,0.00492771567115001,-0.0027011385299998006,0.005555868637753226,-0.03484803295505624,-0.01211566738518236,0.009231625204755203,0.003503397240028109,0.010221721636843822,0.018765433800449084,-0.0063335636398418665,-0.0094523569755665,-0.026104413793291616,-0.020957515162192224,-0.027343774875112584,-0.012470970220980579,0.02189238262965428,0.0016273453046826596,-0.019624524473693547,-0.020273505837025703,-0.003579857916839051,-0.005896936586235493,0.01309033794123554,0.012123046807908705,0.023850234475685687,0.028868620827961634,-0.05556082582618496,-0.008864425562298557,-0.014810786439074006,-0.025357800554849295,0.006988139940772405,0.0012144846319441344,0.003425569057054824,-0.009084665722154784,-0.006148032804129351,-0.011555192797272441,-0.004730060274166541,-0.012945469847157559,-0.010728149930602754,-0.005190163385188347,-0.0020093994746506988,-0.032813298479330684,-0.026192703605567972,-0.014477203453367981,0.007941652461846072,-0.018696074511504214,0.02391491731941047,-0.021582506460682684,-0.01004602523791405,0.015500612150586747,-0.019391923365423683,-0.01689818744412714,-0.024730510618447468,-0.027945809758777748,0.024275918682931705,-0.013811273847855356,0.0023586423934005914,-0.003672550158224071,-0.01391927663605952,-0.015808247015322983,0.013107684084329043,-0.017464427836566734,-0.014331567797796329,-0.01863650778376815,0.02604696162226877,-0.023688125885960736,-0.034597414126640406,-0.004542256567630946,-0.017368292316896215,0.02694822646423713,-0.016760369943253417,0.0059072883895974,0.009187772105281716,-0.0012090512724228387,0.012744307689764168,0.010576445185663485,-0.011713552760332924,-0.004633892606067369,-0.020222324667938964,0.01378605685736254,-0.018304193807906197,-0.009133745655294973,-0.025665829836269187,-0.018387535666527503,-0.01781925158041861,0.010122828639454077,-0.015426544756440468,0.011478869491949343,-0.020450863578677012,-0.025225706625935707,-0.012456847238774828,0.025173788508185403,-0.011867591462572406,-0.02060412719573554,-0.0226971337066197,0.0036832045678317398,-0.030561117839998705,-0.003450618414612779,0.00159280062945201,-0.022171970648829677,0.011530695784921715,-0.01794559047689328,0.0009600759171318231,-0.021985305114894424,-0.009350411991422796,-0.013465551482194677,0.02228929631593828,0.00043883655271120125,-0.02304633660780486,0.004914380087395391,0.0224848315675514,0.01622849171870648,-0.007352489465893186,0.0014656667525351815,-0.019641628648399728,-0.023194595788950445,0.0039528644697390675,0.008057724524142905,-0.014752951459989625,0.013069940871910813,-0.0087640157198922,-0.0017311693749196425,-0.006667264336700566,-0.0040200042998652045,-0.0072232712760679765,-0.0020103385883748093,0.010876089194502846,-0.01862848888527591,-0.01741586720480087,0.01017341972146756,0.000633985607710946,-0.007944119525223068,-0.025772906417015802,0.0012999038658521615,0.008660833423749785,0.002008202838266043,0.005940430266624711,0.014184538186648991,0.01287884314273946,-0.005174552950234093,-0.02212294233717257,-0.013882841296952535,-0.0049858558311647845,-0.013124479228891175,0.0194884444847674,-0.0031187325279386268,-0.010591913081851248,-0.03572530754879091,0.00037303040549058723,-0.009917380718143068,0.021300546598340672,0.03010219166074767,0.040565325599256206,0.016540867230927712,-0.04118649129876671,-0.00008479970679907323,-0.02610374107707251,-0.021004847701005604,-0.0017648001557090901,-0.00045046754568223645,0.013426913231964918,0.0011538121513468282,-0.001479921865290904,-0.006258761001530461,-0.0075392142188792245,-0.01337664384293924,-0.003893409908858031,0.0006294805369109617,0.002975434799115618,-0.021708850737005434,-0.01105873712394219,0.0013524447603194753,0.011013904910859896,0.0014977358066211607,0.008233163893691069,-0.019054277641228592,-0.01028944893965273,0.01500947549215454,-0.009560859776914857,-0.01248662355155401,-0.029994200825550075,-0.0299887302914382,0.0449026429545873,-0.02650686871907414,0.005190786637424891,0.00005549847210864725,-0.00031354210830283023,-0.014996307648876843,0.022885328767026866,-0.030468106287401223,0.01384130541861792,-0.005950734178896554,0.02555082193653616,-0.03195714495932115,-0.03262623837707982,-0.01564999127156062,-0.016419069604042165,0.010085477321518608,-0.016419043618636973,-0.00006804727646045903,0.017315680629572703,0.007950011474192973,0.008157329206892907,0.007744492581475646,-0.02504083067837746,-0.021691536972560415,-0.021905559074560137,-0.0006788219798904442,-0.007320228674955825,-0.01445387512464979,-0.029828531679205045,-0.022258963624471866,-0.025190816360688775,0.0007589005433760301,-0.0193004553914941,0.0035511331497804707,-0.02193796896363607,-0.035249778662838765,-0.015408994346261272,0.01396310884313107,-0.012149926108363435,-0.023045437221499574,-0.03666176611970504,-0.0012373377291951464,-0.02680627391869093,-0.015170282302092802,-0.007594346438730166,0.00099353384938008,0.01711624299301032,-0.015923978061978327,-0.008349623428591765,-0.00686172749186882,-0.010927478615119229,0.004906540665154983,0.02061579892439574,0.0006248775895655544,-0.017940837718502804,0.02275444852057161,0.013651100827031193,0.024933249557976687,0.004931700289682139,0.014168794790379462,-0.011814188960553806,-0.023784910689728506,0.006817531288585045,0.011744004151281268,-0.00229875907395847,-0.003111125160048568,-0.014470182673216557,0.011725500851103354,0.000683614941434921,-0.012994706213271052,-0.013152928112249215,0.013254893518814734,0.009763652992581865,-0.012562818531960578,-0.02495919136546857,0.02050413756767375,0.0014076623136618054,0.0007646333532367954,-0.030962813688211153,-0.007995454387819501,0.018644649727596472,0.004106095712818659,0.011256503537077722,0.00006769432446007695,0.00042471021347836933,0.004373170547097282,-0.028226200983984692,-0.028970740385587886,-0.017712558969576284,-0.027471821084962197,0.01639089766316103,-0.013660438600178055,-0.00752689314213803,-0.021237240830795815,0.007199093900508187,-0.01865264975647542,0.012278710404266115,0.031337387037508366,0.035577973899234734,0.02510324204174478,-0.03365017922114158,-0.015404055407540827,-0.01988251766955105,-0.004581528070568749,-0.005944408516084781,0.00455402933954598,0.00014338126246869737,-0.011265951315250251,-0.0012678456329509018,-0.017217609946903075,-0.011603737372013378,0.0036595945343766536,-0.011990612470936569,-0.01654121932992275,0.00349841721715147,-0.0258773959895824,-0.01378133538369448,-0.0016586289663916675,0.0010521592156086613,-0.0023803066848349687,0.006771180976156166,-0.025147034503216772,-0.015903329434748908,0.01765127145085113,-0.017669458102495025,-0.015915383187495868,-0.011777390341693865,-0.023719270591524098,0.05162681259073512,-0.009915724137078544,0.03141259708944579,-0.012595172265317136,-0.002571030491549158,-0.01275386342744131,0.0098056904519505,-0.022453149945702182,0.02248757084748331,0.015802097194020894,0.008424252951615144,-0.03254683488852455,-0.02926457519252182,-0.01665139294911539,-0.022908603335831775,0.01455653761345335,-0.0030215970069302333,-0.003669890110074801,0.025693858120557793,-0.016136950165935426,0.0008260775021294249,0.011682904552222784,-0.008354524413869118,-0.02148731045484083,-0.0019735676155215264,-0.00037013861032356057,-0.009156442460493235,-0.009535603882492532,-0.024291013711865102,-0.009737440305841751,-0.025250993296186332,-0.002332422269714487,-0.0057665327135396445,0.0072940550641370835,-0.020770563663493176,-0.027171070238321028,-0.014289543524350244,0.015551728081373168,-0.01826060354110958,-0.01943948823468567,-0.030156429218572645,-0.0044634976114055515,-0.03485512842318649,-0.007664860938546917,-0.005943587528085862,0.004163298557875328,0.0012348174957005859,-0.00042453734369645135,0.005077384402397346,-0.016090157936390712,0.0011338966869266604,-0.0016817406481367716,0.0013303400018096464,-0.006757186758258536,-0.02432139859347889,0.022753829340918325,0.01664381082099682,0.012205968192295597,0.00525749007362869,-0.0005483266718323475,-0.003704466495686065,-0.021122647937495943,-0.01043562386713785,0.005833033648014589,-0.024230426162923525,-0.010991065930239739,-0.014579765137682891,0.011859406792759226,-0.018787986375184623,0.00560306834300994,0.005342023382349412,0.029075354281900088,-0.0032291968927396436,-0.02337216070588863,-0.010155044938437696,0.022606182053195884,0.003217314400335659,-0.014794345753452419,-0.02159380711690946,-0.0029901326775259806,0.013742849306074004,0.009086449092221493,0.007074050195614829,-0.011368495129400682,-0.0036716542380170625,0.009596443609643316,-0.01979177352686168,-0.03444977928027178,-0.011265844634087231,-0.023319827124312662,0.015488212697484184,-0.004905713914163937,-0.014981407674146118,-0.018314939692230726,0.010941361354512869,-0.020775346565362417,0.007923542787764054,0.013216315467561034,0.03838059286538434,0.020444277944970998,-0.03164100942564715,-0.009767945698093432,-0.018799169673893796,0.003851663543864308,-0.0006333698514282173,-0.010389935141729484,0.015055278892305901,-0.010510577813348002,-0.0013751862876493265,-0.004231064689112106,-0.011996979319353247,-0.012762028055395724,-0.0016903993243546336,-0.015717857827327014,0.012347603909070741,-0.030706856999292167,-0.009422514156147265,-0.010354334120356998,-0.009951124734900493,0.0033151909596166465,0.008590717368206425,-0.02924606739815722,-0.016980916378999254,0.00842613936110591,-0.006563035903547665,-0.00503677626224609,-0.009975992571710118,-0.016162562433351072,0.06801738517810131,-0.02048658252070904,0.05342643829364865,-0.008854648763762357,0.0015919402597815327,-0.008771581360571044,0.020754829758148748,-0.029228225248073635,0.03308490000032078,0.028270596037590703,0.013611708449518766,-0.019965095933414924,-0.02420203689463836,-0.015275825107780588,-0.013150536054305433,-0.006083512931998138,0.008782940555434653,-0.007063847664556647,0.020400459078372703,0.012570475391247867,-0.016096649096542386,0.005372138093036928,-0.018337594390194965,-0.02499617461679031,-0.001040194114556967,