{"name":"Dense Model","layers":[{"type":"layer.DenseLayer","data":{"weights":{"values":[-0.011649505501147513,-0.009461862442604482,-0.0010224876177148427,0.030776229815357502,0.022391177345406413,-0.06108920352014893,0.0038069225330791823,-0.02677958490706273,-0.019137212976575987,-0.003975126439084251,0.006446236484219621,-0.02205179134889832,0.002979143742807808,-0.02787572786529593,-0.0065440959591130405,-0.019052685744513402,-0.0018591509105500865,0.03517939815989879,0.01492454520903783,-0.04336923015957788,-0.009050573121394396,-0.013839142631021449,-0.0005263836565234526,-0.028235143745917672,-0.007136110663998965,-0.015457853997870065,0.017420194327026465,0.002716559588508692,-0.030731287943844113,-0.007386865407567218,-0.010986388557117994,-0.009545883038897938,0.0021854914783351535,-0.0028741961333965294,-0.006988072524263863,-0.008023732880089448,-0.027901226735269284,0.02059794007193371,-0.04885029101292711,-0.020024769660982416,-0.016773697410696158,0.0156849885812546,-0.018839665752177617,-0.029488719102831466,-0.024867199532144942,-0.015407918124875505,0.02475883699759941,-0.024298516908723505,-0.03191092120032321,-0.05171960993073013,-0.0463755694713308,-0.01121858292228914,-0.017654060147941877,-0.0017534517508915964,-0.002140752174498544,-0.011044097768873598,-0.01861218375788227,-0.008829057740224027,-0.012043679242961484,0.007462574892372494,0.029550734480957224,0.00930416682217585,-0.0029616267984363238,0.020816637561427955,0.02403971221160022,-0.015344793652370023,-0.01904977920064911,-0.0021017721750712162,-0.003362971682744235,0.015474430504176948,0.01213885626247542,-0.008813379400080805,0.007919145225644287,0.015138035580734004,-0.021930457463156194,0.022017823059207332,-0.041185293413218534,0.002410632720755724,-0.01241246669976215,-0.004743299752950854,0.0006069170998157183,-0.030246684207740963,0.009169273374338285,-0.0024805906355896525,-0.02428836372593088,0.018348471477071512,-0.014738967130947803,-0.003144313878661439,0.0002014474396840797,0.02231821025681842,0.028097883609933764,-0.014792236920636892,0.0036220670464127474,-0.019760213396388768,0.007228003880939381,0.012027204861929344,0.014724972330736148,-0.03791082788717792,-0.016105735869280515,0.027232182275385645,0.012724260012111709,-0.017602634669699788,-0.05324349330609505,-0.01048037934868875,-0.0169204705052425,-0.0006463186935344409,-0.004337268978303562,-0.030626831154410176,0.021924839847508995,-0.0290432217712857,-0.019794689671981603,-0.029853626499238988,-0.027125392953189414,-0.010996001558512436,-0.037138271945187165,-0.0065198552414413745,0.042821279019579064,0.01718090966400752,0.014492264728987764,0.015297778437068206,-0.01532557852324429,-0.012953203667914954,-0.00023755624324161117,-0.011696211661501194,-0.015354925282039973,-0.0049135614886825435,-0.004504061896462142,0.007759998707509763,-0.014254728250967711,-0.01832241186357433,-0.0018502649361604535,0.04448159831621962,0.02855350413582598,-0.0656360066775469,-0.009754951000618682,-0.025748571591181733,-0.01718093703968806,0.00820415624632791,0.0005054694902488851,-0.026004795144858255,0.005118215893261572,-0.021863311588447346,0.007622387041428305,-0.011163673960837131,0.011040780746116507,0.045446055582977464,0.0037316232093707125,-0.05080109330796576,-0.008616886379171235,-0.02186465710724173,-0.0012934152407427166,-0.015708981370955517,-0.009481215720642505,-0.008877538472423912,0.020045817873342583,0.0032573723999476008,-0.038985793779316186,-0.011514751005857034,-0.010994716399641688,-0.009850574049146956,0.003026578916629574,-0.010814809813796174,-0.0032153211295728643,-0.006343818099293824,-0.03166408487019577,0.014802200248205142,-0.04775511444145035,-0.020127749357157762,-0.009418994509944533,0.00999503380356342,-0.013492285035248458,-0.02786299840956486,-0.017246988360235593,-0.010138786140582662,0.020403229819394485,-0.020822116344584116,-0.024046714192886978,-0.057048365965513784,-0.05193240247673313,-0.005163847872641692,-0.017294100462477514,-0.002086068283456143,0.007351173593323673,-0.00017550525650714697,-0.02017343193333385,-0.007028782757726949,-0.0059262686447154435,0.013535547200209474,0.017262858596544674,0.007701277713859249,-0.00938608125674005,0.002143134154036485,0.011957448521735897,-0.016929010983440438,-0.01821226666613346,-0.004721237444628759,0.00038695380684297133,0.01796417331014527,0.011007393599893311,-0.01680727192997581,0.011451320093457847,0.012323219043675717,-0.03312414130379066,0.017211871168135065,-0.04568364980566956,0.005623759496426008,-0.024508859063357015,0.0018697280061673672,0.002105611790987902,-0.027100966200544193,0.013457997109739375,0.0015816087987417522,-0.021032204928503058,0.016317391506832944,-0.024193680096503734,-0.006629263155076052,0.003922863468587638,0.0150555813056857,0.03411613250086309,-0.021142083481053345,-0.004878033757454795,-0.01639460897690413,0.005252039887479533,0.011843998001344941,0.01334400702248881,-0.021428876402379303,-0.016542158342426283,0.028530445811208834,0.013709213711744926,-0.015229162093615887,-0.055563097375381905,-0.011703476896084712,-0.011886874399330807,0.010443161050478622,-0.004086764833747146,-0.020104949096824826,0.027764676414239742,-0.02649017419849602,-0.021671737478984043,-0.0213875231119706,-0.023970296779192993,-0.006810848362768668,-0.051088042714267735,0.001468297445116685,0.03191687414304265,0.0159400376159923,0.0076446408635930324,0.018020079116945323,-0.01961631737119338,-0.0037742456191275594,-0.0051040961866305355,-0.01996950259050643,-0.01661094520344674,-0.006009689901066565,-0.006685900823640882,0.012393922641283878,-0.00688217350893745,-0.001671718670608427,0.002964961373768666,0.04030289329698918,0.02989999398005546,-0.04993646597611905,0.0013176084575275446,-0.008063108458499278,-0.022901926920359292,0.004897846425149468,0.01009205127632228,-0.012027565371281553,0.013077034279763674,-0.014668127494493302,0.003504435651104785,-0.012206558156825835,-0.005295901139942473,0.03992862006493833,0.0024601433189985283,-0.04463606627621431,-0.008873291826044885,-0.019344872201922096,0.00652632889656087,-0.023094021946399,-0.007990933506686265,-0.00840245719408849,0.029692839511774163,0.001895823158038976,-0.041350332320505216,0.0021909951785166223,-0.007490709830370793,0.002147426958292604,0.007715851930913753,-0.0017210527697895741,0.0012615370088702288,-0.0021553806410527353,-0.018861627406027905,0.02337453637621462,-0.037066492571919685,-0.02074060518100896,-0.008291473781484095,0.011945598379624764,-0.03022140871452589,-0.033096389178970814,-0.008067579836731124,-0.008634692337534656,0.011002420429869679,-0.0167770091644167,-0.03855327174181868,-0.06031029674664299,-0.040762106285641295,-0.0007913275847824276,-0.026394857173792585,0.013727800529156734,0.002126409168138691,-0.014628528969939401,-0.028374205163012634,0.0038696572576329136,-0.007937937900564504,0.006987821812358072,0.024021344322994204,0.019400103894942677,-0.01945871599628832,0.020721341241333867,0.027613704781526638,-0.019630248243892052,-0.007811024494633215,0.003137160633167508,-0.0031203482331055715,0.00819340787869772,0.012940917174725798,-0.009097783746230562,0.01811244124815866,0.01294746972080712,-0.032904139901442114,0.017995039380195487,-0.033574284380625714,0.011940398909252506,-0.014745284566795334,-0.001294257804353151,-0.011443282707831211,-0.02432344993169828,0.014445578434250636,0.0042970037538984365,-0.012608460724693633,0.02907305406327436,-0.023965402710168282,-0.009747294092132375,-0.008090642150050932,0.010329971056140865,0.025762903326648635,-0.006745954921681754,0.011574719464432358,-0.00993751190489831,-0.0004364050448453066,0.011682716502705102,0.015323786590798876,-0.021824392473011198,-0.029472888942860046,0.03712676252069149,0.019529589759788347,-0.003079787872497985,-0.04310632916579325,0.003220137788446148,-0.019044286467704525,0.006433512883832689,-0.0024548703700930387,-0.02256313977379846,0.029259430759199935,-0.014389068424047417,-0.028017113389220097,-0.016583228042121284,-0.019260963574726217,-0.011257090532320164,-0.03825074925743764,0.002998822989659037,0.03400619369192873,0.012806481429364988,0.0004560134759804123,0.021786094251417042,-0.020104976200023477,-0.007353153646824837,-0.0015228511256238468,-0.025533030500686626,-0.00890799875206741,-0.005303144867256585,-0.009063878372091353,0.01158773821371626,-0.007525705770198657,0.0006508409014332343,-0.004684493514544031,0.04264860892617637,0.030658012050125825,-0.059915500079688475,-0.006297133205061198,-0.00819886017640986,-0.02125240956179376,-0.010460885836587963,0.00745147390586548,-0.024987966728326757,0.00011675702941314943,-0.019938502640727267,-0.004204345737569771,-0.015929261324728564,-0.0035341266287381443,0.033068690796045096,0.0093668910112358,-0.03355047614262211,-0.005209698813543088,-0.011903218036169179,0.0010641088322534504,-0.011277657259222567,-0.01613289126697282,-0.0205335128351817,0.029552881130476053,0.01614950227126948,-0.036738487554446635,-0.016338112544377306,-0.010734087229558537,-0.006787920091837965,-0.0005071249373593394,-0.009140637980271628,-0.011263376235349936,-0.009176930224206441,-0.020914033962646413,0.017283498268369054,-0.0417415562636717,-0.022408817298249225,-0.0008668651314580031,0.018413546293434915,-0.027175624444973175,-0.02527425038164428,-0.010837030934852132,-0.021596131591087392,0.021894517716478042,-0.009542921638283195,-0.037350124029372996,-0.04641603595365555,-0.04657379455725781,-0.006513874556502329,-0.024846622635974907,-0.0005627358560823882,-0.002789736318319388,-0.013201045723210228,-0.016409394406214906,-0.009995556994820774,-0.011362416424562417,0.02465247657055885,0.03160532785728268,0.0036132301809583046,-0.015291114167237581,0.0007662503431493497,0.016232065176855087,-0.021218876777905148,-0.0024795471198543937,-0.006077612269515274,0.0031345079703242935,0.0022659861217403723,0.016181429061742178,-0.021939108223227675,0.016282971081749337,0.022504092035172927,-0.03547056681776683,0.01629290717555729,-0.0332668297318802,0.008237916148297959,-0.016670564339956014,0.0032660522276878215,-0.004464618515983142,-0.030021714404193805,0.010805546121839132,-0.011982405738802965,-0.028164863281680913,0.027912731292342625,-0.008227006336770046,-0.003688403186960332,0.009439553761921309,0.02350521073835605,0.03698659207161397,-0.01168865727355941,0.009238135446910193,-0.005922179533992837,0.011016981115378147,0.013915684437572497,0.01832200136915847,-0.022174412111283872,-0.02375086995323632,0.03172867593015311,0.021579064962164232,-0.014600739014050334,-0.048717623273143516,0.003701323070599062,-0.020054286590544725,0.004779725051070738,0.011507067983891691,-0.02928429620453561,0.019197232725410785,-0.03359772420777049,-0.012347101191604594,-0.024052709457959797,-0.023136032949085568,-0.016398466479105242,-0.0528063712205703,-0.0012860972288748255,0.031956136721544216,0.010266999433127654,0.007098195413132972,0.02721003442134596,-0.008529876311115701,0.008162786587794183,0.00017386621210562227,-0.014832111511437748,-0.023374945826668204,0.0009409063052387447,-0.00284659586239365,0.008378981111770404,-0.014974364280073949,-0.013931942373595662,0.0006741056278732801,0.04173428717481175,0.03314826721188005,-0.05643961633901179,0.0015508190115981232,-0.016286457668405356,-0.02261152599967703,-0.0017100132166616513,-0.007186910810200108,-0.019675442116120805,0.0014400496992977806,-0.022591940353803974,-0.0012414518005781305,-0.017918713654436723,-0.00524471613425084,0.03498012401276245,0.00651528744759135,-0.041117551342823466,-0.01746227105470125,-0.01549883790860847,-0.006509550550983053,-0.019416655124198393,-0.0037286775672433652,-0.021272369034572625,0.01814821066345507,0.017375785347872295,-0.03675177920576776,-0.01620118512764648,-0.01822940101615696,-0.014181556055224517,0.014443230217761248,0.003329166146732363,0.0024270943582527936,-0.0025968989662236088,-0.02571928323960986,0.023195112954482712,-0.02799328026473291,-0.006985152799990657,-0.004898482072407068,0.01650285952800441,-0.02612307803896396,-0.018694157069784577,-0.0101911951305999,-0.007124384694946831,0.017618918554206553,-0.005646648095140888,-0.03007257946843186,-0.05972849182664101,-0.043351883255875544,-0.0058992372500797354,-0.021539592571091237,0.0036823455751820995,0.0012806850081150617,-0.011438798788950532,-0.01941747008782364,0.0043922367015117305,-0.018634697329527106,0.02258609554378191,0.03040255037208745,0.013084806236518752,-0.014132158400519347,0.013392067974750415,0.010556786570549133,-0.010637466059065511,0.0020231050716253986,0.004641616422124484,-0.012370433757894051,0.015401425988770024,0.0067131472280379115,-0.015558160929813544,0.003045268277637227,0.015942281177132107,-0.03590325235821545,0.01073151137771437,-0.02691750513927552,0.018322448072713007,-0.025261010112547104,-0.015565636785392413,-0.012307890956133554,-0.03953827214259558,0.008533057195951824,-0.011107432673902295,-0.01322302115267389,0.029859808844259476,-0.026416857753814443,-0.0017705306444599442,-0.0032383200549761394,0.00714742830356231,0.031017782160536606,-0.016776005464228555,-0.00020057745655065548,-0.018654395614428495,0.005118763327388474,0.00981008906158633,0.017323202244398386,-0.028971081605979852,-0.018550721726912713,0.03954753726901116,0.0107781121542012,-0.010269351221366603,-0.04377611336959096,-0.004014633271820939,-0.012089010934282211,0.0015269514533250723,0.010268155395198162,-0.02603974691801144,0.0225105884410132,-0.022137362273228472,-0.018261562444198586,-0.009796534542409117,-0.019710232019257083,-0.003947087921454094,-0.03731202350409734,-0.004119727589890455,0.043376438512793145,0.007310954899755188,-0.005638104011612785,0.020250406173426102,-0.01224502880420566,0.002965513678246178,-0.007554283714924316,-0.018872754837590856,-0.019480837120467942,-0.001797428540863156,0.00819407144256388,0.022070837577436886,0.0005126223554340705,-0.0038001125190299414,-0.013035359605191555,0.03980879047114464,0.029368469052269506,-0.034332718422922834,-0.014812696564259216,-0.008289672928684837,-0.015018203526907093,-0.014230831609771882,-0.0043639337772593614,-0.016235351794158387,0.007999133661169729,-0.016052072442496138,0.0073123258488584945,-0.0234753809885284,0.0006656228952068169,0.0313277906992826,0.010868911208362135,-0.02352144091128312,-0.022008785047664577,-0.012228029315289438,-0.005022755500407625,-0.01855739440305864,-0.009759338158067524,-0.011067998195443164,0.02399459679739484,0.009447954324953703,-0.03468689718734062,-0.00921393303457887,-0.007983441511001131,-0.011094130823050911,0.01594033284745726,-0.00301915252936779,-0.0013986699719496793,-0.009854662861461414,-0.026518788780549734,0.011108695328572848,-0.03087132325031045,-0.016049203198177694,-0.010277196723304764,0.017077375931639452,-0.03090430100272479,-0.03136770145989841,-0.023926852681546564,-0.018944748131473444,0.01440313576395478,-0.006280894717460126,-0.01578637839881642,-0.04543364397124732,-0.024917920578519593,-0.0009060795410029009,-0.023497436947355864,-0.0021613407532496114,0.007342352431744474,-0.001086606770363098,-0.022554603318017466,-0.0009912809200538486,-0.02121619786205093,0.0145082640142977,0.027913551514063856,0.021746186226506883,-0.013578786326782902,0.0013871202053149926,0.016371644207900396,-0.02669767170680352,-0.0023521489152619444,0.007394921995991371,-0.020401107777629976,0.005782113160374022,0.019704472667397218,-0.023678557644185576,0.011949236680132123,0.019103973583649146,-0.016889633086360132,0.01656133179978947,-0.013712012844252665,0.007380055841789262,-0.011516139939927124,-0.01944828949118108,-0.0051241160587515745,-0.026280832385983895,0.014177501041528607,0.003092009546649119,-0.01155565069734056,0.0201562087554655,-0.030608398818601,-0.0023785316580618512,0.005403888506545396,0.004466048208975848,0.02564043063294646,-0.02226518584123717,-0.008283888714867361,-0.020522894927724317,-0.005218202217887247,0.014464596835257018,0.011280441397709938,-0.027685449402901595,-0.025985514292474327,0.02838702547486444,0.0071208586403970495,-0.008401411631679654,-0.033657341941702994,-0.004878925994114259,-0.026790692387048468,-0.004691284408829266,0.0043115924634426995,-0.02735751297622404,0.017152326638546492,-0.028291737839495814,-0.02407651630121959,-0.014136837791551546,-0.01482444658666909,0.0037018124438539394,-0.03761589385367206,0.00028370130763990067,0.03410490427550428,0.007040775358312947,0.008623067073269793,0.03421398560701362,-0.022721376764683658,0.0189651300610434,0.0007342021538479954,-0.029116085490112402,-0.02948555014048048,-0.013410545526765799,-0.008774182008398534,0.01890260144947868,-0.001092287657627858,-0.011694038578884477,-0.017214079759267413,0.026989304864431,0.037046420825390156,-0.030040706179424448,-0.00984909699228503,-0.027336733433349504,-0.015316602137909682,-0.003809545514548188,0.00934015870651968,-0.017427546161593855,-0.002314164255870424,-0.02518468212537136,0.008302480208577519,-0.021297674392376235,-0.0029590276223273528,0.032694644927257356,0.016960373890555998,-0.019046688502070228,-0.022606016429685714,-0.0016294457114595284,0.0011188466601390963,-0.018355229307300373,-0.0073200005683188105,-0.013524564071277495,0.02859325548432493,0.0062721822487825105,-0.03643753100189325,-0.011232762737999325,-0.01603379829883234,-0.017484366477405314,0.01402338912752671,-0.016722039950143874,0.0024283921448255315,-0.0020862496956400405,-0.02091080800634878,0.015252712416717074,-0.015647415007261925,-0.010944526233955565,-0.009496570338988911,0.010904339732610069,-0.03164127781491702,-0.020497329619537975,-0.02497826025305294,-0.0067554819144877215,0.007217785251630566,0.0006198265753101177,-0.022655154446354374,-0.0504199200781726,-0.01802146003900582,-0.009239042064962276,-0.003553967326998038,-0.007641750260454672,0.002239610195384947,-0.004665085138501126,-0.013715245166840608,-0.008420899072973727,-0.005843438150720236,0.018524094744784395,0.018619028490966662,0.007777949411640042,-0.017276133229938432,0.006320576857168293,0.014771801256463393,-0.024866815047115864,-0.009691131328718345,0.002523366546404898,-0.004393121890332701,0.0018946308335731222,0.013880879283227326,-0.024257030736473822,0.0032118015171873613,0.014410662920185578,-0.024652311710130215,0.004285693271387535,-0.02577500238548767,0.0023387833252657103,-0.024539048862846836,-0.018150694656903277,-0.0026905224138865057,-0.015142607094498238,-0.000585731316973116,0.004371898948708515,-0.02048150716670941,0.03023571809948837,-0.019253567501368234,-0.0010122860807313494,-0.0018672351615811854,0.014229070225306955,0.03553218232960417,-0.018302321710592824,-0.0014724653437664743,-0.020520362018526566,0.007814181573119212,0.01306398667903862,0.01762783284955359,-0.023717855968131193,-0.01479728518125443,0.03311171206385335,0.012614839188768278,-0.0060666024558112715,-0.029017002814386777,-0.014428879256257618,-0.030403779331730937,0.002807563138344421,0.0011046927672219518,-0.030621107854250998,0.018682277022476403,-0.01915584376214538,-0.008320308863967455,-0.012662148388638116,-0.026529221325313553,-0.012727946886010859,-0.02901649866654213,0.01330975680257367,0.03929422229797758,0.001310246153662811,0.006787602741511164,0.03485241273726364,-0.020681655898794424,0.01893123564792485,-0.0012130696397386375,-0.016638221466178316,-0.014468313200372231,-0.017142049256792923,0.006521346142098794,0.02045302796693036,-0.0043327698017113945,-0.017147500361291385,-0.007919775465190444,0.02490784487430277,0.03327657839912002,-0.042617070868886164,-0.005028982588641541,-0.0113499717683678,-0.012475243430360198,0.0008410917484766947,-0.001483364563776732,-0.01375057504305854,-0.004314074990480921,-0.021165195933663283,0.01375824795045014,-0.02694118022320511,-0.0021476881263300185,0.03867366286195247,0.0012720179952539767,-0.01922560785988786,-0.026148293657188258,-0.007667180975352266,0.0023374820632392546,-0.012245586733190622,-0.016214085953668668,-0.016139427169804765,0.027393418919036086,0.011920234791079733,-0.01648635547430951,-0.010722482852505492,-0.008634915024909694,0.004432972331843109,0.013908232021300947,-0.006104720196897054,-0.005996070272462401,-0.002823037359406515,-0.019622602988791146,0.017895535407793865,-0.012738909342769875,-0.01567455573823225,-0.012144263820878123,0.003335495685596252,-0.017783552400809102,-0.025913840575456933,-0.031123859948649676,-0.0020308802556310178,0.005746537400762601,-0.008762956762584782,-0.023644020071467278,-0.03459956531275451,-0.01910832974738132,0.0002352577654928945,-0.02130674462404169,-0.006789959522245529,-0.0030469254392095904,-0.012009431760645572,-0.024531018281658434,-0.0014799129014447742,-0.009064789205827463,0.005904278419450443,0.016459873268661926,0.007380057350681316,-0.021460667866852134,0.00785956752929462,0.014181946038775838,-0.01663575370638909,0.0008079321557153714,0.007390975517342123,-0.016104947528395152,0.016811236727893586,0.005026673921492194,-0.027706576290480265,0.006945202759183866,0.017250373265457402,-0.008360008994491597,0.01666638386975361,-0.015402883434308772,0.010584385038293752,-0.009598295329421046,-0.018704118797249824,-0.007945367381222387,-0.02427398228051981,-0.0022942332739159066,-0.005098658830627982,-0.020898182150737212,0.025295995021289375,-0.03284669797872569,-0.015646925897155346,-0.0026930260559711616,0.011056471426916218,0.019497182031075914,-0.017423410025699103,-0.012494499559800752,-0.01578348169319795,0.009055642809715983,0.002760011194888712,0.021354195816573013,-0.02849526114021763,-0.020731939500905235,0.04003581953216325,0.020008435681360646,0.0019099944217462056,-0.014543835683665633,-0.0004834732048298291,-0.02513325335867013,0.0007489025919249472,-0.0077855384278489705,-0.020220886040808805,0.015434187920388103,-0.02615034737857866,-0.014095429346644914,-0.005837004105665393,-0.023968447442148048,-0.00796398562919655,-0.032210693429350866,0.0036276631668541864,0.02809616981674042,0.023051785941621987,0.01277042607920385,0.029883025918570404,-0.021314238024358445,0.03553428734062448,-0.012085617467177368,-0.026642184591928682,-0.015793275489816953,-0.017661114800062893,-0.005968267330097675,0.005328731875491327,-0.0018771264999305909,-0.01066302860720241,-0.019734228144181173,0.025992886128884424,0.02719249105533286,-0.03646385800752209,-0.012440886457174144,-0.023197237966226997,-0.023155749449757932,-0.014922560944856743,-0.0006440757497400154,-0.010748020107250275,-0.003626305195559176,-0.023353408800198074,0.0127821065779175,-0.01977938126238512,-0.019895542435348995,0.036826884578545376,0.014715609068561047,-0.014880761039691942,-0.027753166841381183,0.01035423774847092,-0.008488886447133017,-0.024520571694189627,-0.015498978906910451,-0.012911907042176131,0.019723115288855134,0.018779385183276494,-0.020924185877330345,-0.021086990047414905,-0.011209081744676268,-0.005418689267752886,-0.0033651423619081512,-0.023283811444935104,-0.006277257267418946,-0.007241923249589965,-0.029405844429252828,0.019967225538151976,0.001859828084471379,-0.004572970259230213,-0.020287518036433357,-0.0017866177408642062,-0.025326674679609616,-0.002606826980604588,-0.026083646709779276,-0.0006606248015239474,0.00020065855372004127,-0.003758552128933404,-0.014958238513392917,-0.018513304845149833,-0.010046787102231055,-0.013442591612780505,-0.004298124902723044,-0.008761130303550206,-0.00729190274606082,-0.013649189894881753,-0.020348807419339476,0.008187437002909526,-0.02314562466124725,0.011138631703365149,0.010769795758472119,0.023143805063030373,-0.021153110033691327,0.01072236624532976,0.011324400464009385,-0.03198976873144825,-0.003420869866430721,-0.000008634481728069655,-0.015029406205497291,0.0057061879405627585,0.006287098819741325,-0.016391788964449323,0.010905678638276897,0.017727249969958826,-0.002939829426472141,0.008630168221630931,-0.009950985463124574,0.0004558546518219004,-0.02662053224531607,-0.02630583763183356,-0.016881235198332796,-0.020710490408769388,-0.003454141858511281,0.0015312741523596054,-0.025747915074334018,0.036218871289415006,-0.034234657921164965,-0.0069507879708307135,-0.019185045938152533,-0.005491744773741006,0.024552587915131346,-0.010272054205898672,-0.00182848742731326,-0.02503507843420551,0.0016316927931975724,0.015619888595492149,0.022596330936532023,-0.022867969753748413,-0.026263042358144674,0.042624586733386864,0.005940142476662609,0.001167984191325029,-0.01038143489263402,0.006280038922203841,-0.030812845831635256,-0.004570732260132309,0.0015285789336740223,-0.02330738986493701,0.02968101511710246,-0.016759382238693117,-0.011149829764711721,-0.009828816557620771,-0.006150974514331393,0.00427279970395612,-0.01399687880719955,0.00780565398000516,0.03185083162071608,0.01851136467644116,0.008336819740633486,0.02857494050952904,-0.019575834254098035,0.03812825684616809,-0.006730836868084245,-0.033332418683956186,-0.02354809247933106,-0.00814424089391009,-0.007030384107828792,0.0036092092958539316,-0.00020727917488353462,-0.009838158036886821,-0.008426916182184305,0.018023386936428423,0.035295959533931616,0.000332054326925611,-0.019999248743912748,-0.012207244846085647,-0.004453442766250665,-0.014419651284904014,-0.009570772237198395,-0.0148365815688342,0.0024940749904154335,-0.03115686091821667,0.0016886308568830907,-0.024352005196469604,-0.02507884585796457,0.03371702463835548,0.0017993818734366354,-0.011998976308910989,-0.018734227857885734,0.011677741336900251,-0.0026170708084128067,-0.010270329926093502,-0.020311497622380485,-0.01950020905919605,0.03939458739184896,0.02241437621663868,-0.014633304390213032,-0.005628863244701335,-0.022589049676133597,-0.014444240922967548,0.0031120720652817366,-0.012722135735337271,-0.008056198815413503,-0.008876165558476548,-0.03969407714683092,0.0077168797599904805,0.004320424209521401,0.0019540938172167626,-0.028384999698712797,0.0019462668686363108,-0.021018204215856477,-0.006582868683917932,-0.0205762333603982,-0.014826831150440228,-0.002685203631679206,0.0003757710662594599,-0.01978232914080381,-0.03588279933272967,0.005111756751750139,-0.010272012494694,-0.014894115583486996,-0.020309477173266154,0.0009251410487489685,-0.02600329412633997,-0.0000885927146180598,-0.003628355646685406,-0.01061112064037633,-0.006270760307534429,-0.0035790769832518454,0.022860121055559002,-0.016908180147722447,-0.007971820510153953,0.0026138742032480178,-0.038339717965440424,0.0008540304067780953,0.0086055669573206,-0.026513746945705425,0.0006881538094730439,0.008911157717736805,-0.0129893343363305,0.007895190259298586,0.003230914713755456,0.009259880842299513,0.009818153713064177,-0.009492220443296737,-0.0043929318383534,-0.011848493956921556,-0.022725498758755777,-0.02138116745417724,-0.005014696300387548,-0.00022213974385569085,-0.004453577904068304,-0.008607381453085766,0.03453178641944884,-0.03449546373445611,-0.007553137399323272,-0.024791787976001768,-0.005355540082064827,0.02281262047003234,-0.027346622419400595,-0.015896452409569724,-0.011652199403106096,-0.007081330078290174,0.001440767182113356,0.02146487156574317,-0.001938688774733526,-0.004720485514999735,0.032200420557817216,0.025053342066840012,0.029091243204233647,0.0035847655672825484,-0.013258707693170193,-0.03547578330537016,-0.014987087978505783,-0.023800341723911465,-0.026612851978693824,0.03483207863461252,-0.015613007501062953,-0.006891670562258215,0.005565361360341447,-0.013167346940480015,-0.001880686292807086,-0.012796547931591185,0.008117687366892879,0.04220303000050045,0.008611793705539127,0.002909658613002303,0.04413629828831184,-0.024668820257466837,0.07886198693963309,-0.016476735694249366,-0.029648485175139825,-0.021296669115173802,-0.00621627279310824,-0.00674819171479454,0.0005400538551180867,0.009961517618794841,-0.008854211606770343,-0.02188419642191631,0.008225434815050515,0.026171458258011843,0.003412955387827917,-0.03854399775908594,-0.004052802333072537,0.0028761325044393184,-0.016596431957465862,-0.0021099683179185685,-0.013840900439881088,0.00266355344605047,-0.022110076100252195,0.008022553521831812,-0.019761527562006897,-0.030179895992260557,0.03476862940553082,0.014682604546141193,-0.01250533325073333,-0.026262733154385803,0.02280114035510684,0.0048670513749711885,-0.007131832700758594,-0.019402372558917136,-0.029621666805107562,0.030873338688713486,0.0220149213307464,-0.005656713217847298,-0.006656238455142615,-0.024494668874309213,-0.01624250341212832,0.002191935448165044,-0.025882045753745767,-0.015005084377456731,-0.008797234760276261,-0.033899576155872094,0.013415521964891593,0.010782996693669741,0.0017417532380749076,-0.023248985819870782,-0.001455559792430498,-0.01909258029247312,0.015985784365435886,-0.02009355543898127,0.0015273788723259901,-0.00998192142473319,0.020147621161309456,-0.016477436696369387,-0.03227169326416809,0.03290048490436858,0.0007241401505324571,-0.003906808800789917,-0.017687814174837262,-0.014663843579990711,-0.021966986013599827,-0.004612447554789541,0.013312563896177644,-0.019305950293719967,0.004316096373344986,0.0025751429653227756,0.01237942263420833,-0.018101025396275103,-0.010324893783710386,-0.013590049332872117,-0.034404503223223,0.0033574864928329136,0.00823706818573328,-0.005997551519269656,0.014846898315112595,0.0032055987388583044,-0.008022188925004893,-0.0016112025754121987,0.012032643241345679,0.007766830576542733,0.020690466382922303,-0.011440533719315376,0.0005929966334007463,-0.018727302345936576,-0.03249458195645254,-0.010649772396034018,0.008575669815687715,-0.01194764372684337,-0.011475677598576718,-0.021947853025159496,0.017494838208324478,-0.02095897540452313,0.006111062491530296,-0.017596313182795698,-0.008222765115863914,0.03863806760615128,-0.01864453138496003,-0.01690143570827767,-0.016744613191969782,-0.00925694233772221,0.01956121142150778,0.013729357086960199,-0.0087542213788425,0.001818931477775048,0.032078883293928086,0.023709290012206327,0.025205296934772844,0.009032791060933765,-0.010567002157509869,-0.04924443463054929,-0.016979264766978062,-0.023678561411149008,-0.03478528995737638,0.037329091963531014,-0.013753799421417114,-0.010596353315044263,-0.0004915705597132574,-0.0033986402496930033,-0.003956128800376236,0.0044422088473492554,0.007708932409431574,0.01995102757505653,0.006496478274502313,-0.01186566689193127,0.039778012369302375,-0.021143998239543715,0.0839949534408511,-0.02154407884974126,-0.04089079842148501,-0.013921901784779688,-0.017536325460326352,-0.01686830676081067,-0.0018125108701292653,0.007613196265237179,0.005218027442671514,-0.02154153158584958,-0.01811320736646964,0.0319652986225464,0.004610415211490926,-0.03252299724887948,-0.013637693672679179,-0.00023293149424211677,-0.020270713119967233,-0.008793732270170105,-0.005530389493247128,0.0025013967325633623,-0.018172110615017202,0.01013260601347564,-0.014195910257373864,-0.02511878387497799,0.016881405029394683,0.005373837391676418,-0.0020758646015174883,-0.015296932431052367,0.022592084615881632,0.008926162082719458,-0.009677660590117486,-0.03227709400210268,-0.02626808795505685,0.028139042545005655,0.02741154077397041,-0.018671395601544582,-0.0033883436028301606,-0.01926448940053902,0.00048610196137757934,0.0012568627569667851,-0.024532955737956594,-0.025773542840312635,0.0005592994383901013,-0.022614969368881258,0.012802517024175843,0.01204667609464713,-0.0014873982478193048,-0.04037133647296996,-0.010672950204406381,-0.00740880881345549,0.02517595970191706,-0.0065151219224905245,-0.009382923869426076,-0.01831784743205613,0.030091321956308714,-0.004759227444610157,-0.014609017256093466,0.04510581035654479,0.005785379280060684,-0.016038520636501477,-0.03481075900743478,-0.01429749633271711,-0.016021813771583043,-0.00493074564529361,0.012285283037742291,-0.022461013070075104,-0.0043275357558007176,-0.01252106558355575,0.007922834187926692,-0.02370743730268506,-0.008553894403522198,-0.03176249056945449,-0.018096428247258788,0.009072067415979199,0.008982893811645321,-0.010321410933520216,0.013350481750566056,0.01588912209739799,-0.0020106779842491403,-0.01665763597426728,0.009743301810621328,0.035626397229834524,0.019328572370714187,-0.0114460597800874,0.006296072113055117,-0.014865752177960248,-0.02849472019304872,-0.005039679511622898,0.018429821543808362,-0.026757230079156872,-0.0006869368278593199,-0.011441109862176155,0.033760987697450444,-0.017785779010492955,0.00927468599357768,-0.028468791036850846,-0.011902847567999603,0.027586863200826692,-0.022303696872905312,-0.02583477284054684,-0.016841550318868272,-0.002585049794713758,0.003043634496199442,-0.0004224489239063278,0.008254165813643731,0.0025028912515674207,0.03779157857440862,0.013630599676537158,0.03398912252451118,0.0449927766280561,-0.005984841363549727,-0.0413378201533649,-0.025361102764583924,-0.015071402148723437,-0.025091038392754363,0.022581004907594217,-0.00794860570707062,-0.008026729177327835,0.003927066443167346,0.012756745559200191,0.007295703826312462,-0.0002686202031526829,0.002895644955006294,0.01719348131665093,0.020279878914975947,-0.009362071194252539,0.04337648898711242,-0.02498008658014832,0.1057039810323733,-0.01843966687138217,-0.027513945115618447,-0.015550557770080497,-0.011835350277851405,-0.01679104565715667,0.0006901065927220453,0.02308223907657291,0.008694164461753875,-0.024897832295036896,-0.030347245129455008,0.02830324836707522,0.0019593512710120824,-0.03438891509711091,-0.011753577920317696,0.0008814958326231659,-0.029049288346807877,-0.002540461244631724,-0.010701869580438872,0.011208707831786097,-0.02312763920080059,0.01837688242762498,-0.012303652576324597,-0.02400769272839374,0.013584878904749291,0.017212105299816205,0.022047519111376854,-0.011589383823529831,0.02173411575283945,0.005754575564277793,-0.02404386300763721,-0.031646620550830624,-0.024850629624503642,0.04304285217229816,0.027493062890247316,-0.015353888431360967,-0.0003386542160496409,-0.02344614859761866,0.011794612689605218,-0.014061312305178885,-0.04166193132550412,-0.02059079596572399,0.006359200719572022,-0.011768383589867292,0.012111162071591347,0.01784380800048208,0.006433807561251924,-0.04470787377040246,-0.014501237191175794,-0.009601316932932077,0.03665740185041947,-0.013487273783777459,-0.008604361584175404,-0.011716200819414317,0.030702038387760908,0.0050024732002431445,-0.020700487814748734,0.05760576824417405,0.01915697658520144,-0.007184543909604295,-0.01896144343305914,-0.01351527219877779,-0.02109185017068308,0.00817783979268009,-0.0014126663736174273,-0.02062786132909929,-0.01889372735203417,-0.00012478958312301408,0.00798941133630033,-0.02086935467407605,-0.005745313380909663,-0.03425221446919512,-0.016843552326578894,0.004027832352167503,0.017297252101735952,-0.01082669769343551,-0.004729481301902285,0.011065740824060638,-0.011178468445253269,-0.02442643916741822,-0.003991882722649471,0.035378819578315755,0.018185078986770895,-0.006344416936156965,-0.00892276028317015,-0.001761190777743991,-0.031191682514096482,0.004894420463142442,0.015311054476582884,-0.02150308239986908,-0.002167136242668787,-0.0007651996869138932,0.02770126771650518,-0.029464111978716793,0.017007279070681367,-0.041543810001002594,-0.02681716317766329,0.03251271421681604,-0.011786937508055827,-0.020071386232559767,-0.017740024309719035,0.002563635105792989,0.007838123734120217,0.008173190474712225,0.012626000972522968,0.006578188263136441,0.03597785424861373,0.014191029273962891,0.03963308924724551,0.05600490392607747,-0.002687439715401039,-0.058446967032376486,-0.021717672502039587,-0.025695905577976626,-0.020694131552571406,0.022869065759927445,-0.007734840328500672,0.003092356663051945,0.0114036601309143,0.00551677785723713,0.014552056122053693,0.020071704592660534,-0.0004962270914014121,0.00886676275924584,0.008186075331922433,0.0063617179900145,0.04768752911845337,-0.01787831211190716,0.10430731260491394,-0.022888323343793857,-0.043630277234649927,-0.01922664077668835,-0.000666944517189074,-0.014616519909718854,-0.0015619325403278842,0.02093097994121374,-0.00017659896938745147,-0.016362151674410325,-0.024889498543467885,0.02544763160589138,-0.009652047585359647,-0.029272963312805354,-0.009111561907374917,0.004049058130039747,-0.01656116269427741,-0.010553720251896702,-0.0005760584845452583,0.004324781847347466,-0.002814985425029484,0.01446024535299262,-0.016064684127684054,-0.025409197510282783,0.013657650972137208,0.002990580415618252,0.01392155231691212,-0.014925337965238622,0.015065486579132217,-0.0018233408723406803,-0.01876524651077708,-0.04369850792617071,-0.03374244390094671,0.0394642741406131,0.034889548134718014,-0.024834182877158974,-0.0005935724029305394,-0.020138694651576125,0.010925213625175635,-0.007759838945778819,-0.030630701426597826,-0.009612243687019656,0.006723066907355944,-0.02993827688950771,0.0035031914749752537,0.03421013549741168,0.00046118193949901305,-0.04254995798471768,-0.013155838173275784,-0.00825670956610902,0.02103945498337022,-0.007075255670190458,0.009143422307225054,-0.00816642911822724,0.020906590034815813,0.0041737764978761315,-0.019976790597468767,0.07251699918947824,0.02461595933532496,-0.008457925748529433,-0.01815512651171835,0.005205473948467574,-0.016595232238684084,-0.0002512038831048672,0.0028341714705252784,-0.016193167027095154,-0.003978008101136394,-0.008648930564094898,0.004902401858647296,-0.01626954087941753,-0.006532625910302038,-0.03435706742639199,-0.029783911482033784,-0.0000036745717736120918,0.01462316934357411,0.008513204597551121,0.013188358119142781,0.014571837261675121,0.0029340092225043747,-0.02151759332439305,0.009345521916595679,0.03476420176408584,0.0034668794778345176,0.00753679122353297,-0.018111030462760573,0.0074711810969004065,-0.03167528796420879,0.02002018751185788,0.024138256958041608,-0.02198608622031695,0.003199229066795826,-0.007378698268954487,0.03375442087497472,-0.010157662472431474,0.03765957637828359,-0.03537463729033426,-0.028243461115486205,0.01299583827550494,-0.017704809893256672,-0.009176743034915943,-0.006165058987331467,-0.00873029608508616,0.01357227798934543,0.005157032090705822,-0.004133643381438529,0.01783914718508648,0.03200842181780784,0.00021226376976680975,0.02528948760069506,0.0641888176444053,-0.004044124583592763,-0.04255054816569216,-0.01175389548770782,-0.029123387772691627,-0.027004197461424833,0.03449532193394239,-0.004501112391334922,0.0036241173724697357,0.017268128511989878,0.00903454125857165,0.025338386328453408,0.02176055617618178,0.0010847620699069728,0.003909493799732404,0.019586412035444124,-0.0012918134879577059,0.0423753403506295,-0.001964739380669573,0.10715310915683232,-0.0171646387661087,-0.028945487546931888,-0.0189403376719361,0.0025630131196501954,-0.034760010402489966,0.014779905637341053,0.014559831137489395,0.0020922862039809307,0.008286341208683051,0.02339408288837901,0.036843131695736935,-0.017659691844197405,-0.023983700559580434,-0.020620190912363192,-0.011314395559171226,-0.020332325617974698,0.00021082639990770323,0.007368051521550819,0.012981975911943366,-0.010217529915563218,0.016830685281380077,-0.02802661086129325,-0.012701242631386184,0.027937079855772654,0.008390770122919083,-0.005396592906002906,-0.009940989138971972,0.009248409702247887,-0.008778193188349334,-0.017133156282070683,-0.03400886470937418,-0.033964795462929805,0.023930435534005402,0.020697354623013108,-0.017941046110131687,-0.012629154744212296,-0.015056255303356353,0.0007855661442907265,-0.00884989188618205,-0.025988001161770538,-0.0035614112625228576,0.0069582509378110155,-0.02954958093585197,-0.0052532160536447135,0.001229072358462685,0.00136769123545113,-0.04245426696074537,-0.00670275217999905,-0.006313885260878079,0.012047263474077738,-0.02144056044868353,-0.007504073630952747,-0.002714539059617018,0.006115520286877752,0.0012635223497744783,-0.014795781949728543,0.038619032930693936,0.014217545130373177,-0.0067641302792712365,-0.012771458530064497,0.0023358876597280066,-0.015177203504034589,-0.0024073342285714696,-0.01252012628380767,-0.033919957517007035,0.004931880236493268,0.00011898798280327747,0.011947047125941844,-0.007094897828131085,0.009026538281209273,0.004306446757913994,-0.025328800263317287,0.02124181686014399,0.01254728588255537,-0.005094425779733752,0.00837201719601762,0.005394278379881929,-0.023157922729002803,0.010366941951073665,-0.0006470248454622385,0.009675436890119292,-0.008675745246363475,-0.0024759715770586704,-0.006965307890948742,-0.01499366694846408,-0.026208442836412167,0.005533388592578009,-0.008063257395988444,-0.005202209309042384,-0.0029459592850629387,-0.0013651367450236264,0.012171834978528619,-0.01109230021105262,0.016772291093106684,-0.0016405599686288778,-0.006297558129572753,0.02695762088211141,0.0014158358608983468,-0.006754412230120829,0.003826462228899225,0.007761385806389843,0.01997927984321753,0.009102856487531608,-0.0011147019274244329,-0.00326646005589602,0.025010107227336605,0.019669763423028726,0.02597158316687784,0.05014255108814911,-0.01287584096215407,-0.04263000256923212,-0.019892806026017132,-0.005479061488223501,-0.017622929704763972,0.026272150632479795,-0.022757465401087494,0.0029239763145607997,-0.0017183078778703381,-0.00041672203237855574,0.026000976331029164,-0.015378132531525176,-0.006788113463278343,0.04151592466921122,0.012314895592519182,0.0020415027493375505,0.04372416936930454,-0.009801044790220044,0.0722275528319869,-0.008219471067130552,-0.04651777590325633,-0.026436923519293793,-0.026350777846994432,-0.026534824876504312,0.013754582639295257,-0.010431452220208824,-0.004345907259396752,-0.009298567535107966,0.08171718046626457,0.049038422346321636,-0.014637199942057097,-0.026616230676672122,-0.034736171561564035,-0.03628302172360279,-0.023142838498772227,0.006748763129175795,0.00533421670363868,0.016531418041355498,-0.019103584952121465,0.01136043771536131,-0.015860779795586612,-0.012840606137078266,0.037995887778522246,0.00597707827536558,-0.006361051144107352,0.0017365778478404606,-0.003344724092711305,0.01672749420282723,0.002942371608340303,-0.020284236041938523,-0.032326968283279446,0.03467238545465243,0.01585187136802663,-0.009275923632310433,-0.06228463477164175,-0.010180285354285234,-0.02356172927233618,0.014508872352749416,0.003757502530507216,0.004323406964676746,-0.0018488415107253816,-0.039444409483645276,0.02076214985829909,0.007829103924587594,-0.0058849798928614205,-0.006043475769386049,0.0016926768713172982,-0.0135686329507343,-0.00292558359441546,-0.05103706320831871,0.008847758364014881,0.013579442336333337,0.0050882228482193505,-0.0017874272115877372,-0.02150991771200576,0.006491838504214363,-0.0235272859702923,-0.008472815552356395,-0.009536069933166382,-0.014832087416084772,0.0025371666803363185,-0.007483319942681307,0.00994968408442976,-0.02217600572849959,0.02051420430190195,0.008995185642108279,0.025025020556200026,-0.017855817321437786,-0.0036677171099053804,0.032632738112164564,-0.04236114660841779,0.02042611959544625,0.007163863146982104,-0.04013789683882281,0.003096311583774178,0.009785034011318455,-0.04729900144635461,0.03166018556347348,-0.007297520218089386,-0.024892894335872967,0.018653847242248417,-0.00043271027497494624,0.006484423352079971,-0.033929750892656214,-0.03177342822832055,-0.036171536947751444,-0.008787725082574445,-0.0027009878454349076,-0.017064122139266714,-0.029377326082398153,0.012496836377273182,-0.01954339725868116,-0.03430370501922236,0.004801721955264251,-0.0015017130185337629,0.05325204611585675,-0.01956490478506319,-0.002367903029336277,-0.02314436298532408,0.014842660955575394,0.0154107909988064,0.006703944859288671,-0.01945086659289106,-0.03242919385439787,0.037895252864715845,0.029277792021092975,0.033125152319362396,0.009192752445852447,-0.005937768564388263,-0.04029353898251322,-0.01517603146029488,-0.021245664648022636,-0.032935296132444884,0.04641355367926817,-0.026652793834187574,0.01015688412297553,-0.004542792427585239,-0.014343388743659513,0.005607900820939568,-0.03265780174284372,0.004949702103341698,0.06360074197708956,-0.001188600978637348,-0.01616628893067799,0.044960899998416175,-0.04701288388665104,0.036720948806607284,-0.0028955810279353337,-0.04318111256639618,-0.03755050550566381,-0.07024654378697698,-0.004110875856978829,0.0008063942353911418,-0.02339084768663726,-0.016174436172465542,-0.050011608399237635,0.06586392375000702,0.10163979024136985,-0.009160454904908126,-0.04327891030563476,-0.06374081052415279,-0.05904707130565075,-0.03355743189277788,0.0178940858813545,0.00884211931902108,0.03206459254087949,-0.04978451738701601,0.013849421701889976,-0.04620749631906392,-0.05355852358815449,0.058209067969003145,0.008095816804727006,-0.006501339561141572,-0.03254558513333799,0.03561313299719704,0.012958317820780996,-0.015697894750251126,-0.039617159373856146,-0.047513180397977375,0.05301710825212863,0.024348984407580664,-0.017532160544854992,-0.06356576835395607,-0.013016963498853921,-0.06448988440971773,0.02422109661871893,0.009045034283662013,-0.00269935372669494,-0.012252350347931611,-0.06987189029860948,0.04227169418190562,0.014628435970565333,-0.0289051969438054,0.002641008549448584,0.0028433142501766663,-0.03890844333835345,0.01683078556991406,-0.06062958145329917,-0.005044635594131913,0.024799542027789806,0.02552230505235297,-0.007736950372119855,-0.004383044405364786,-0.010193280170916294,-0.05055393142229745,0.011262798770790443,-0.014143791577463496,-0.03784505802444634,0.000299175688757996,-0.01126278473694955,0.02172897300163929,-0.018383675230372678,0.007160443027915124,0.00980141367831793,0.06526616775127984,-0.04908167157496837,-0.00205041318735677,0.03706781456931936,-0.05763513565206174,0.025903770443483857,0.011583009981955026,-0.0732267655756055,0.00802228167048233,0.019826863270899442,-0.06036734145456071,0.04574878896545585,-0.012768703277837485,-0.016476570511266806,0.05169618815953279,0.001349854250885775,0.012314268758763128,-0.06916613679811544,-0.05926183483184247,-0.05336012170723183,-0.04413755788102904,-0.010762568780513815,-0.009666941347704829,-0.04732894207846744,0.038897984135553273,-0.04788938192234537,-0.06788051729591883,-0.04401973389938259,-0.00004934094670907242,0.08081976317291445,-0.04099040101900475,-0.013408218029994664,-0.03867818712584817,-0.015802603565053062,0.007188653482560397,0.03267458751057226,-0.015505140482613063,-0.053810575341879045,0.027865295107458738,0.03563562305520673,0.07019279425237712,-0.02305077072626634,-0.0032664978999273012,-0.05351719814232159,-0.03852963551544437,-0.009016158994440932,-0.0236275463854261,0.07804828712466516,-0.0353422019043266,-0.013901005953622264,0.018860864097377823,-0.03987643811413038,-0.012297464817082352,-0.031465228076046944,0.04733303602481203,0.08394076400708304,0.00029942681872922693,-0.024260650251270523,0.060715367773991176,-0.0521086496351981,0.044132959597958,-0.011494147457435657,-0.05494892962525595,-0.05771818646447572,-0.0644705574510181,0.019501773978085005,0.015877736595309264,-0.029295923603318934,-0.009700499979813877,-0.02831989632693184,0.06306842735418354,0.05861494393695473,-0.016712853751063114,-0.019570572906953385,-0.0624712466812387,-0.048231463243933764,-0.0036987587553564366,0.007847305823709247,-0.006814758908206152,0.014895637053117305,-0.03133623926633973,0.013588019060200721,-0.03860362213569956,-0.023170237585205894,0.057610619442877396,0.01618884511752245,-0.022935555670137116,-0.010774266034434626,-0.00018979689313906054,-0.0022998774980943493,-0.013388577313518555,-0.022098093555833708,-0.037985461364012464,0.046332255596096876,0.02095223255672829,0.003580634365074236,-0.04659041417286218,-0.018309292215375514,-0.036913457965196246,0.01760367843704109,-0.007629138310405991,0.013605066027620025,-0.0007271172688452556,-0.046856548253623294,0.02689983777768015,-0.013326358610586128,-0.011382892564146273,-0.00036530592517547845,0.01740727446891934,-0.012646843179505164,-0.0027268987814928485,-0.05276223672771607,-0.008743775401226613,0.021752089290789513,0.011882003921269405,-0.03697099102733416,-0.012915250640548754,-0.031434207564057313,-0.01992567136033927,-0.003861275324571117,0.013678652491575807,-0.03776460589843807,-0.009519449645096415,-0.0013659085478789088,-0.0016779779470850623,-0.02166636088095437,0.020547367840678153,0.025114689689372086,0.05235925588575308,-0.026717305954281765,0.012827009789378176,0.045789005272201255,-0.05139791951542332,0.008301601236155374,0.012706976827445815,-0.05243841512380506,0.016029422325202436,0.014204450194372897,-0.06555999994133672,0.03480115683367369,-0.0102074447965779,-0.034229935516707576,0.02281961148888841,-0.013005176567812199,-0.008806948253818581,-0.06272421371142273,-0.023225479468044315,-0.04964341036140813,-0.05670065260111805,0.014276351712583292,-0.009999488043947614,-0.04122134007515589,0.03268174055595633,-0.013454523558331963,-0.03715131401747514,-0.009965839109681332,0.018869225561013458,0.07444585941900367,-0.02658095027613502,-0.0036328000504000737,-0.015669410004597994,-0.015054535536793751,0.014336432990098815,0.044035068561731984,-0.03302490181001287,-0.04129305497836545,0.03600126929997645,0.03426854984711427,0.027676992316325078,-0.03318977187187727,0.01467986973228659,-0.04034995468054416,-0.025296065701129668,-0.0008951787545252456,-0.02676333683993857,0.05901271957153942,-0.03646900233461013,-0.01739421079200813,0.005777677285769778,-0.05353994237752982,-0.008891830447165499,-0.0354492040853213,0.03152332733960227,0.08176793830710112,0.009830925163205998,-0.013534435386339383,0.050464884595784666,-0.02434269092124431,0.007700762402076735,-0.0060336371198836765,-0.03197933233293893,-0.0447259711090473,-0.017052137546986697,0.0056970809546785595,0.003316217420606095,-0.016256495974281766,-0.010516444825036933,-0.014275230448750446,0.02628633785135976,0.06082254796080256,-0.02820439582485363,-0.02387131798896794,-0.04211139433077053,-0.037520333218834453,0.0021100852083770112,0.0048941989614487815,-0.021742045165428096,0.01622958195450081,-0.029094807043231332,0.017222056433296235,-0.03520809700588284,-0.006989663544102364,0.04888450810122194,0.01494724460794661,-0.031322385216375204,-0.022777415571483925,0.0023252602223333436,-0.0011055729021115723,-0.025577261895160575,-0.01819784002690081,-0.020512316250485885,0.030567714194114345,0.015502703055055878,-0.00578429902733997,-0.02027101416307758,-0.003787479906272219,-0.02044046634296258,0.002731018118866144,-0.012402361680138608,0.009816199030368709,-0.00784538746969579,-0.059018393261971565,0.023072931497205088,0.0001227646950726003,-0.018476630073181618,-0.02161024272829162,0.011675132921251918,-0.02020842636847973,-0.002066420366286083,-0.026230428591407447,-0.014477379405564391,0.022944291738843808,-0.001900597301586671,-0.03695793480428281,-0.020307102906445107,-0.01252547020157816,-0.024338673963214333,-0.022016672001513936,-0.001186271258657424,-0.013799825368066797,-0.017331399552608373,-0.0019356982647334203,-0.002641142831504454,-0.02247210758221909,0.004615978183744653,0.007182384099414073,0.0331891622276808,-0.02335992967932377,0.013174307247675137,0.02477379548577015,-0.02815329035627627,0.0034396832525036233,0.016027150519220518,-0.039249925851887926,0.007013867809974241,0.01851818218889938,-0.05352819121031406,0.023934401136032273,-0.005465131232203821,-0.009879339805120619,0.025468396657671404,-0.022940438391103792,0.015747924298046743,-0.026073495926139913,-0.030897260412908464,-0.03956236494823199,-0.026413398584321148,0.016359039429498422,-0.004692409061497876,-0.04883415722669459,0.018539931270017417,-0.025478514659584117,-0.0006414794418135621,-0.0027517338467397696,0.007285806435845269,0.06390273654298825,-0.017068783184576546,0.0035908411506255754,-0.02018386949352486,-0.0042874352749572514,0.011987332783310036,0.03181907361999715,-0.031082359358320995,-0.03996475360801203,0.040007846974522455,0.03284418960288006,0.023279901640526842,-0.02185367546833843,0.0042527148941664365,-0.03271119303249007,-0.01602352326176476,-0.0069310418365603295,-0.032084788653206145,0.05635364265075619,-0.04308702846407048,-0.01423770909568862,-0.009022890942053254,-0.03532798161340932,-0.016499626064025403,-0.04064291619562973,0.019440348126369182,0.060551227517408115,0.008467830690165047,-0.008866228243954796,0.04468134456237264,-0.028293717116912254,0.0045802626472511605,-0.0024083165623692217,-0.04433202283968209,-0.04493222386429723,0.027065029457968008,-0.009065397897670571,-0.00044139188059648366,-0.015208835297206114,-0.011341225675564262,-0.01528286374491309,0.04357200466674092,0.0483878161511385,-0.037308168711787305,-0.008816840210627045,-0.0328820246255552,-0.03623553951341217,0.0017208850813388802,-0.0007192717072247682,-0.029020546498059758,0.006567133191685988,-0.03427464448126837,0.006369342986843548,-0.03504774918368619,-0.011489031951197808,0.051051598826217084,0.006324701872811034,-0.03496527241354424,-0.026864950822635916,-0.00015653968888177766,-0.014290458331640686,-0.035111632857541736,-0.03850816790261712,-0.025065551549799277,0.032045426516228735,0.009050467747910776,-0.008023998865405163,-0.007746839497446436,-0.028878291810700233,-0.015650783475922542,-0.012638103347071265,-0.011699161388904774,-0.0005518187420379768,-0.014821443148232338,-0.040620683351950744,0.020085401409507445,0.0181503736286408,-0.02353835486552772,-0.008025902455926288,0.02338087147697023,-0.03101690148121589,-0.01660908911055162,-0.019664711819219003,-0.024055947067787548,0.012435542749992692,-0.003958994611981426,-0.02336856869046303,-0.024684573169616256,-0.02924684681556818,-0.020364953374770393,-0.02683039952120902,-0.008323552260091847,-0.012232759443616572,-0.020745818804668897,-0.018399395671566864,-0.009147398136562276,-0.02623342296644061,0.014334661487348186,0.010352518908244084,0.02368111888376699,-0.005493085788033279,0.010116154046972118,0.028117615700013476,-0.02970963365082938,-0.013480138231553803,0.02480145422647128,-0.026795732204882673,0.014694636981444149,0.020867647692570376,-0.038421365676858985,0.031587762716049836,0.0005441112529689831,-0.01816643797881418,-0.0005751654774410503,-0.015995140959253175,-0.004571341004204916,-0.019070635241466218,-0.026000073077921963,-0.031525214624094314,-0.03436269551823688,0.010916232806154785,-0.018300101350370468,-0.017715198180063098,0.026151071630398735,-0.03506185874169267,-0.00823707856556583,0.004857496434282434,0.011220093258872138,0.04989124303849041,-0.012912674040716136,-0.003632023846971623,-0.02740289364589257,-0.011845692698075777,0.0036826072617940466,0.02109193246387211,-0.03041917473380603,-0.031854794594151956,0.045219093017684155,0.0036486614132526167,0.009871303216112551,-0.02151222798135652,-0.017376567103214054,-0.029564364920492633,0.0006562597192392459,0.007862013547037732,-0.018040525614036334,0.033250580318134215,-0.03971862478629755,-0.020441517245988042,-0.016554693558048426,-0.029046559255525056,-0.006608294470523111,-0.03335743763902385,0.010131905543800999,0.048815378981744005,0.004966413089812375,-0.013310880062145323,0.04224464736171221,-0.02464249984869801,-0.01991987402402913,0.006528034826021754,-0.036321300037416085,-0.0392699472237605,0.048054774513165054,-0.00862798183126375,0.013533648320967744,-0.003290616167879151,-0.014342036989373664,-0.003614041748423973,0.009881190981617353,0.05357006721093715,-0.025207292785436465,-0.01226631925951144,-0.020719229210990515,-0.028047086851760286,-0.010505388263311441,0.00110483498443033,-0.026392818013633943,0.011298509474001064,-0.02636590694468453,0.0028759044772307765,-0.03489024326800208,-0.013157875134169203,0.042664036413613445,0.010978081286229258,-0.02376094205796312,-0.03320181069017597,0.00878898094915492,-0.0047953394104558265,-0.026116131294990304,-0.03578999091685623,-0.03200766861264986,0.048380950259909,0.016475668208038852,-0.021291042994298022,-0.005806258955507643,-0.015225778783609884,-0.00617983709607339,0.0048349339010305735,-0.01455109883450527,0.005138415411633188,-0.0060019790998417704,-0.04465963233432469,0.016816453739673817,-0.0036480212042640184,-0.029502680164902345,-0.012603810330696755,0.0252899001295403,-0.025708126432271914,-0.008278825239797607,-0.017260169639832235,-0.012727850755110614,0.010218254413841473,-0.006602692496077977,-0.03410691510750703,-0.042283245342325075,-0.04852660551434559,0.004559930518407008,-0.011536951858728942,0.0015761347038929761,-0.005656709800619886,-0.02748393430272756,-0.007060268578063135,0.00006694272518649236,-0.014827915905148084,0.008284981133743548,0.02100581131588022,0.012626040166539157,-0.030584317607816793,0.006627315357694133,0.0029146307478552184,-0.027414871293529382,-0.00950568678590001,0.02402267972356475,-0.002520682461635608,0.01004815935157466,0.005177698530374344,-0.01458467688155353,0.023595190723135935,-0.009174999837029832,-0.029419420080484784,0.03056884012933093,-0.02377625253060125,0.009559135778418376,-0.03609904282511711,-0.019500039447260416,-0.008890118277795685,-0.040855127828931415,0.012517827909237606,-0.0005681425600928539,-0.03123086033437393,0.03214820084995718,-0.018392937618663112,-0.007328223570219479,-0.03880035815445965,0.013292912524019939,0.051030918083010274,-0.025820409784664194,-0.000789580273123007,-0.018543746885884463,-0.010910431246242306,-0.003872546909054953,0.03674437139502614,-0.03700664914519314,-0.023017885642200035,0.046662218172407094,0.00897012797677717,0.013580795397278163,-0.022008147476905434,-0.004407811936106319,-0.02624989105083807,-0.00467179700415483,0.00046594943657155273,-0.03187640784953134,0.035793538686547534,-0.037603771592989894,-0.015986077291153894,-0.008175117965437908,-0.04202857207975253,-0.015452557772765248,-0.05250440345217447,0.00860900043260498,0.05017495868979685,0.001939799668057548,-0.008645745358995021,0.055777917224632635,-0.01758854094017954,-0.015100235910402736,0.007727231604655399,-0.03627414806948154,-0.03347135717006388,0.003822307469992882,-0.0008563832949888454,0.010287478943231712,-0.01977556139450557,-0.013535437796261249,-0.0006641268823789081,0.00814985498418105,0.03265154920207883,-0.04460034484642811,-0.00623229768869203,-0.02100649049681032,-0.018334281401735073,-0.009551458870002609,0.006536977885466776,-0.008143532279098557,0.00786124356767638,-0.020709594464992046,0.007098544445222086,-0.03362501180483654,-0.005374105882071567,0.04568765859454465,0.014358857057761088,-0.019602326518505506,-0.030542370260440408,0.007211053003323835,0.005300523713141446,-0.02849956492606279,-0.01626644544766165,-0.025711048564753702,0.04251256191619051,0.02279934937852622,-0.03705101756669311,-0.008928286047501989,-0.010735430157046389,-0.0027248658884063276,0.009376633769401479,-0.017139540133295064,-0.0008211532035463012,0.0017218731133090694,-0.0368392937517037,0.018219945402924553,-0.02282169759173233,-0.015580834573134004,-0.018914499769061722,0.006540157900332521,-0.019182516252547542,-0.006121510301554607,-0.013551600671532837,-0.027329696283287522,0.018420136174590658,-0.008337800198466803,-0.024913532581504316,-0.04700389972637317,-0.024927607134605127,-0.0001726249633805628,-0.004812530800829813,0.006815260306441589,-0.008233551343601575,-0.019410320179710318,-0.021643271234121474,0.0058484606441860845,-0.017602757998559513,0.01571734025587277,0.011103800554427392,0.0099827456863347,-0.027244850758346973,0.009386434970346023,0.005460782904129519,-0.03529218832485046,-0.018116542916357486,0.0035893853967656304,-0.009108790864186506,0.014358666643984701,0.012532682928136267,-0.021305979864073135,0.008811859580536194,0.0009831565893929923,-0.010107638536446589,0.02531566047122895,-0.01556101822301562,0.01858044537314124,-0.015059546487914608,-0.010919188906872117,-0.0073633694583146335,-0.022916200893091664,0.004635478969046046,-0.004373838066126048,-0.021342469284145817,0.014793858804134632,-0.026979260985075578,-0.01783029540092846,-0.01461996649364847,0.002628671628861007,0.02753054784898883,-0.03163615826427906,-0.010574391978384133,-0.01945492613595994,-0.0071984239026865815,-0.001279251252258242,0.036025091128939285,-0.03206380629236034,-0.01229819540783558,0.03314338782397136,0.02409438870144979,0.0018658097082968382,-0.02026826660665581,-0.011426658526020908,-0.036154632126871436,-0.00560116677347776,-0.007563636942830813,-0.03297037237078563,0.02790828879859667,-0.037074089645645465,-0.017600545495573407,-0.004716811743796056,-0.017922712091653227,-0.015831375543173282,-0.039058138769529606,0.007492597272320384,0.03813713949874535,-0.004124936640879974,-0.0037093039524303695,0.04114814131178441,-0.022627822082392647,-0.0005271685757324264,0.0025580738549223245,-0.017872041575622003,-0.006884252351091605,-0.0361877416846616,-0.0013534524690141446,0.018722853076845833,-0.010970266734029994,0.001053735608680303,-0.010557050524150378,0.013252441329381477,0.017312061596737986,-0.0357899717020252,-0.009879692366212755,-0.008379313876339181,-0.017707682473819736,-0.007465281762579959,-0.0092474464847259,-0.007138967004842838,0.007286357591174845,-0.01241095387091812,0.005906151137218575,-0.025199100908714203,-0.017761868429786904,0.03597967271020023,0.007294683894600929,-0.017829133348407838,-0.007411917387004378,-0.0040641168811624585,0.006351043244573745,-0.016350088123257975,-0.015876902747947792,-0.0213529995889819,0.0126768006543559,0.026106773099837884,-0.03398758157334703,-0.003939798932521837,-0.010464576017677085,-0.0003817372158536654,0.002803970796982622,-0.022524225670436517,-0.01398580870069738,-0.008643593364430269,-0.028093048198034785,0.007104545472933336,-0.02211868625506561,-0.0035732690966189737,-0.027314153597411506,-0.00037433002623498454,-0.022611309664796034,-0.010339680828344952,-0.012249983351488707,-0.015835333335528334,0.004679389557599605,-0.007108662400090994,-0.020165297249310172,-0.03996560729287541,-0.006756957196188504,-0.00579407403261535,-0.0157107179124195,-0.0029434420881856815,-0.011212911776345338,-0.018820326361372895,-0.0129222026542284,-0.009484745097362954,-0.014807866799202886,0.010008719479688429,0.019281848626438856,-0.003570992970725114,-0.012225006149174208,-0.007446356010989345,-0.0009840883715803504,-0.022529515167282493,-0.00827947697114331,-0.002438971936012226,-0.012994891487379064,-0.002023055078114255,0.0214437419528009,-0.014518459776270252,-0.0016154638957742997,0.0030309626726182297,-0.00206644399248043,0.011060535128906627,-0.013396935014110111,0.0007415342389123146,-0.006628326684313465,-0.01847986743229308,-0.0014820984403612347,-0.002405989665264604,0.0013637471270243296,0.005409034521823503,-0.007967971147896775,0.021971635294770458,-0.0030427228876539953,0.002030422280226968,-0.012215847580147557,-0.0031870813013379165,0.007258973855541567,-0.024024635365404348,0.007529889432314358,-0.0006441794346769828,-0.001291411892676081,0.008872408572158702,0.025476252923699986,-0.019066654104207863,-0.021977781912667575,0.021083627528107506,0.008996635657045211,-0.005445904253414598,-0.006537955341049903,0.0005876477476437802,-0.02367606887887199,-0.003747739472574527,0.0008218193546343342,-0.0371632455720243,0.006580382932327389,-0.021226371985306556,-0.022021871609746873,-0.004409216199653763,-0.01843685493414567,-0.0008185670277359249,-0.03513975348683545,-0.0007467792641752028,0.01852813178055783,0.012050610450936526,-0.001743269269144238,0.030309080607796243,-0.0017616488577547169,0.0006844679740701122,-0.01668762845091477,-0.02270852574939437,-0.01787168574514123,-0.04185729341866797,0.0013634226662216874,0.016013962075103617,-0.003734624335038216,-0.011293370063027462,-0.012662880460356536,0.03748721690229357,0.014779251171952003,-0.04266502265068451,0.0015871940864478067,-0.009657744798719604,-0.010172720497974339,-0.005168016893537589,0.0039385820939181766,-0.00947401193358576,-0.00303726758039715,-0.009301901296567671,0.005855726863701102,-0.01643533570111913,0.005957793815954422,0.036521581887181465,0.01315601641135724,-0.023544959246822237,-0.013529204260436594,-0.01695871272029956,0.004667902596213778,-0.013387557352243751,-0.02067480777621332,-0.009546183232027895,0.018739454744208614,0.023124685626103363,-0.03246445634918706,-0.00841711009807862,-0.007990579809520806,-0.004851959838216033,-0.0020514675013340285,-0.01621379018505073,-0.013139945117467852,-0.009521726495924103,-0.015042790662696716,0.014438401168194068,-0.033007005112274654,0.00036031534722011854,-0.003671112721141343,0.001912750408390062,-0.017030720704458307,-0.026065259746823173,-0.006057048978594869,-0.018973319851149414,-0.000039474595666331115,-0.006081691928120642,-0.019317118547751613,-0.04900740390606192,-0.019737489431616642,-0.006183556504553505,-0.012616922025560291,-0.00006210238988760283,-0.014096106007977971,-0.014216542258589366,-0.016192616560918006,-0.007928683258381686,-0.005418496096592646,0.007655222026223781,0.01210930781350311,-0.0009807527485971082,-0.008770841137983671,0.006480296791247154,-0.004232140876739144,-0.019731150021060077,-0.010347885632610167,-0.001811064527556707,-0.016499586932935746,0.004199910184543603,0.004384825046695183,-0.014315275030380697,-0.002856040398758566,0.005856536283825247,-0.004640128990059867,0.012014788017988809,-0.03342079289424782,0.02307277048314493,-0.015523835603034483,-0.007781287069078599,-0.004224539778506449,-0.02478448222378876,0.004368358715110724,-0.005999732189656788,-0.023012416907420466,0.010985386073212337,-0.019540949572498682,-0.018146013791658828,-0.0009511250336833319,0.007160801005248629,0.00981174722086923,-0.005010622304616476,0.0024770642246392882,-0.014346264367374755,-0.0151526840074026,0.008057482221258466,0.03497316112211269,-0.01578872010453121,-0.010267058582759019,0.03161314913260566,0.018340449593825935,-0.020757730453708524,-0.03137111142696646,-0.014457071644340314,-0.010648448865331997,-0.009880782075188152,-0.00795728945160203,-0.03083094323988779,0.018107031361541282,-0.011148754383231556,-0.027107585812385142,-0.018769018146994384,-0.010764391458029824,-0.008237044786485037,-0.027880766455072724,0.0019133259877718897,0.029503658555466633,-0.0007941027626775667,0.009468419483166048,0.024211909195159146,-0.01682489091702598,-0.022683794602542887,-0.015288933160815773,-0.0012883624081393634,-0.020675613054692548,-0.04350685731446284,0.004474851828671694,-0.00023565764052559297,-0.017582017000327674,-0.005738361347414247,-0.012236947281126483,0.03250384142197061,0.023831961240882278,-0.03894042402117442,-0.0004555772038075016,-0.01968934310196514,-0.026943234572215348,0.0009609735411115204,-0.011044471674963053,-0.01164100104920014,0.00014002560732598543,-0.017898203243647406,0.009289009109042337,-0.02064296877457341,-0.0004924406733230312,0.03918397577827333,0.014423563009442095,-0.0343809165553774,-0.004109217906393062,-0.008024503292151017,0.0034301401995241155,-0.01191162561501719,-0.009703587932100681,-0.019478460344372183,0.0075865597261777495,-0.0013159725543133987,-0.024321691218459188,-0.02474268172681014,-0.009166525705552648,0.0051229357292060995,0.006473967519279327,-0.009523090460035357,-0.0032924765549566196,-0.0035710828862608084,-0.01544996972815232,0.019783679581418676,-0.025485696385116503,-0.0091755074454459,-0.01572426836330473,0.004263732297263088,-0.024059693885334046,-0.028731207352381858,-0.026735720733052585,-0.004408153667018744,0.018436451991646993,-0.024182158709934235,-0.023862581213812316,-0.043175438880213114,-0.046136767281294844,-0.01565204375149472,-0.017412822933879985,-0.009097070480065072,-0.004792193567505358,-0.02300495351670216,-0.015461970014809824,0.00532945238251154,-0.007540638902819801,0.006308115417908911,0.01756878792899366,0.0167871562958422,-0.005527911030228082,0.0027646464594521937,0.0041951601954863475,-0.016529206581657893,-0.0066019740359887745,0.008450037213569017,-0.029218467069502686,0.01331768344645005,0.005624070897680548,-0.023607482039645904,0.004756060102883148,0.005727984793631981,-0.026522939716741967,0.030023971012685117,-0.047330950762765826,0.03347886166782406,-0.021773551553488705,-0.004788279307810588,-0.01617395750583704,-0.023251158992508538,0.01734351581105171,0.0038021486726714693,-0.03502348109569586,0.01826017069443959,-0.01226264385817623,-0.01667874414989522,0.010036060151894021,0.005463588541343933,0.024608935420534103,-0.008536896859395219,0.012384437910351868,-0.01104245167235501,-0.0030942560322498288,0.0017696596633113412,0.029454414936287133,-0.017988715523323113,-0.01688545196438954,0.014852572730730672,0.02246352435922823,-0.017487391921721135,-0.04908915775598059,0.00422443020734007,-0.008673223714974755,0.0023148688031376513,-0.002495067594481215,-0.02614130561600764,0.015793470005229775,-0.032381513319801214,-0.02405033609406793,-0.03018471678808678,-0.020697816007023858,-0.011391066389357583,-0.04189454826543094,-0.004846699435507608,0.021302732297324926,-0.0007181491802192825,0.011541894401263186,0.02048300416634774,-0.016243575770072995,-0.02419415977579074,-0.010666193904667259,-0.01295681035445393,-0.0167890591792861,-0.02859842048366143,-0.00014523948102984825,0.00864991046730115,-0.010860552351607704,-0.00109967935307431,0.010284482564021454,0.026389679796131094,0.026872349289928273,-0.04278078169644317,0.006398013965988914,-0.013321575383130628,-0.031337122509266006,0.01518401263577405,-0.021571890679497933,-0.02037921361623768,-0.0023865542814765967,-0.014952425050167745,-0.009703089643219942,-0.02286493031633436,-0.002107618775422444,0.04001199276783501,0.0010580789611532042,-0.039462756600457616,-0.018981173499008568,-0.024492969172076422,-0.01591597968620632,-0.030315443971670727,-0.017332473401922243,0.0022222017806370975,0.023461226124692085,0.0005599164042837941,-0.03162027925086933,-0.012194765107486428,-0.02491739851568678,0.0006040398919486226,-0.012739793758132863,-0.009707316057000486,-0.0008308431195148225,-0.0016710495843961616,-0.024134525181281664,0.007955552220659955,-0.022059707688117325,-0.011455551017364517,-0.013884359714932959,0.012322009721510369,-0.018102295330993064,-0.028033649604287298,-0.023061540536491027,-0.01451313115238381,0.013960627767634463,-0.02006096784349876,-0.0333552312867605,-0.02931206096869803,-0.02787136053022277,-0.011053318923541234,-0.030248360867373356,0.0035280349130905565,0.009865941623235152,-0.01951331806093765,-0.02425178091901127,-0.013462708873382441,-0.03538461928354432,0.0009308875053651783,0.016533673102007842,0.010589875261914447,-0.0014936307775162536,0.020266150982716308,0.018580874556307758,-0.001840267571537424,-0.004937731263351832,0.000833409470445026,-0.013510023389461851,0.019058668328623265,0.015415138844637926,-0.01844233648130372,0.014748770873153034,0.007114639327638081,-0.03547775261203299,-0.006268151119888186,-0.03782902535550996,-0.003987220727282958,-0.024896959016167865,0.0022589648957750622,-0.02409304005702708,-0.02785612966632425,0.019469659523289617,-0.0019262365823847069,-0.024818638418039742,0.016485820971396392,-0.02387141473879404,0.0031173106028203413,0.009016189576774993,0.009097247272259334,0.019043363654573642,0.002452094509405755,0.001549247289860204,-0.01762947931008994,0.007626157999398067,0.007962998324035488,0.008240274020574258,-0.020316326480254495,-0.024687402259923063,0.028973905597076896,0.007017564240411789,-0.008134792217583599,-0.026147119537705838,-0.0074039462333435006,-0.021254846709339335,0.002832942623439189,0.005487558405124368,-0.016077687859321038,0.013258496494162518,-0.018103214218013707,-0.021924035541767722,-0.0328582795002153,-0.011551256741187097,-0.005672130198110552,-0.03656230306473118,-0.004239843536917434,0.04115045254362729,0.01984291277647847,0.008183745281395528,0.021392487754439176,-0.018198329024062838,-0.013443431277296917,0.00028730578176789555,-0.016401520369872195,-0.01404917682911494,0.00903184272777646,-0.011246723345222458,0.015915475823785042,-0.01367661369111049,-0.007320014059822931,0.008006780209196027,0.03179371747927488,0.025011287733094054,-0.058799400500263804,0.01639701767029951,-0.013827506483028012,-0.011161103815016676,0.011334148042463018,-0.009412755028484642,-0.02813195563141372,-0.01158029695396322,-0.02263460932649069,-0.0001424384959413694,-0.01345345759617614,0.007938609660217841,0.03566511978765408,0.004466211585091859,-0.05168832486400182,-0.004542027898308564,-0.029548543106001954,-0.00780274084921814,-0.01459524703331142,-0.012247370195833553,0.004926695984303606,0.016418595039645552,-0.00003404937825039388,-0.042281962402898464,-0.004161629656718585,-0.016443978727109898,0.012647502137750297,0.0009032464410451641,-0.011065513041436808,0.009952895218189527,-0.006230010905674112,-0.02891924254406668,-0.0006703431956852522,-0.04567162152064336,-0.014364430582728559,-0.018772495792319325,0.01204775424975016,-0.023610494074834343,-0.04100333359846997,-0.007640557059929456,-0.01754805081458015,0.020887100576725326,-0.026735116261706823,-0.030613713126052603,-0.04552938722917055,-0.061780351111494734,-0.002481826722060342,-0.021713381955607368,0.018140932177730624,0.007439844980553556,-0.006944929659601911,-0.03789402332070539,-0.018100452304108672,-0.022275171411659186,0.021202339682421287,0.018014884917928468,0.00508710221970134,0.002882638557824207,0.014246918107955116,0.027960586276579692,0.0031436027020286246,-0.0026040259652586983,0.009141703003682125,-0.006380653358021238,0.006996739983533958,0.006657683294961895,-0.010415358757843633,0.020358862326772857,0.015158055458906201,-0.038668278258271585,0.0001138622306650281,-0.040867104969549935,0.006406246042933712,-0.016062928263634722,0.0009231261774515486,-0.0048879899839807455,-0.0396031831478313,0.020092807597157473,0.0038378308626505825,-0.014796247171207392,0.024957191735843275,-0.0030206163218523445,-0.004546766208678675,0.020461900158739766,0.01887988143421869,0.03200895160951946,-0.001139794183229208,-0.0006667129234331114,-0.01768752493976531,0.003095634521817634,0.015518819244113332,0.023862377801067276,-0.03565523308943458,-0.022960381685174325,0.028376983616444328,0.0075536873010843605,-0.010026109946255655,-0.04102992005187707,0.008205186985375094,-0.006377562007430626,0.011659069346849692,0.006858529548129161,-0.01544320539669048,0.009483973364796325,-0.01931395187415759,-0.025964933030540253,-0.02942291737033981,-0.02356145678324887,-0.0015787634315957016,-0.040311070631759476,-0.005688590726091842,0.04115072467305025,0.023674160628684607,0.01504226211349155,0.004333748262371297,-0.015255296077292382,-0.015467934291435125,0.015041098242197506,-0.008775145285472706,-0.01651980403352324,0.002627235414097041,-0.013248844881162306,0.015769779196664818,-0.009770719051934605,-0.009573738206976294,0.0027192850553736524,0.031075135787009184,0.02313956091814762,-0.05828984998891218,0.004590559524439005,-0.017285521111034905,-0.015105533313751703,0.0012898909365644039,-0.004257206521284928,-0.024972887780217,0.0050144287960431026,-0.013964378836087574,0.012147941240439662,-0.021608501111763777,0.0038735525609537684,0.034474779115069715,0.004592610233690703,-0.039711607967398685,-0.007219259417580614,-0.018559761753365347,0.0008610561520423237,-0.025026045449584214,-0.01791984571040979,-0.00600147546192749,0.0116006490338135,0.018354771957992528,-0.04173213673479162,-0.013170242201191307,-0.02661102454697866,0.0031935073029230026,0.0068087816990915085,-0.01588949360988437,0.008477945696358354,-0.0074146819752543116,-0.018515101277024,0.01910224658203187,-0.048413231348964914,-0.01709398707934403,-0.0022971814411564934,0.0070485580062669174,-0.030037281856967694,-0.03379276256478312,-0.014587906321883375,-0.01778270719521583,0.01209478903464019,-0.026899405141078123,-0.03905048352357416,-0.059688407044763546,-0.04419777214745488,-0.001517254155573284,-0.014101141887793586,0.008723049326103072,0.007864457144978269,-0.009751356774408507,-0.03219527084020684,0.0004194888635078325,-0.008470755316710824,0.024097356793670872,0.013376931819708641,0.007460862281226209,-0.0056858463969369465,0.0020635228407683524,0.011577404982723966,-0.019623055091545105,-0.01980356004185969,0.004626180466025384,0.006876648929039374,0.009991070729704173,0.019051361854101313,-0.009075969637377527,0.015518727588113389,0.01434266515145359,-0.039409881569231225,0.007567717830348053,-0.034851258812806055,0.016360328624700264,-0.011994391701260345,0.012024524569650571,-0.0018903424967971405,-0.037677126804041304,0.009797777161333954,-0.0015698618160513403,-0.02201361720134319,0.029575587669038575,-0.02309432013096082,-0.0008217915458041922,-0.002596582407115913,0.00555802471028161,0.022417335221114762,-0.012767543339335947,-0.005405323898605706,-0.005537734593546987,0.016550864636547338,0.003824406238636289,0.022193687270429856,-0.037166366566247305,-0.017075372936946828,0.026005550718003145,0.017461299787663094,-0.014750469126635305,-0.04419714427602479,-0.01006755897116762,-0.02093189323443353,0.01037730468315355,0.002658577226435089,-0.03906924786237793,0.01896377447229496,-0.02886799314360687,-0.016006728716093904,-0.0255282170166842,-0.024588012417086205,0.00125301481008573,-0.04387529094442512,0.0030535988520590243,0.03667552875862398,0.012597380498407775,0.0065002773546706735,0.003158868460829571,-0.015912375537672285,-0.002963956184492849,-0.003572541657161127,-0.018150715914032108,-0.012962995917248378,-0.013470440013385794,0.008376387647600046,0.01785649554840575,-0.022439137254759805,-0.011613866319648345,-0.008048678167853941,0.04506207218553459,0.021958361833865053,-0.07034702161764395,0.004964594673490075,-0.02387388958679813,-0.025541254411982805,-0.007045764934551754,0.002242352217648153,-0.01593051069937524,0.005570221716852955,-0.014676471626024246,0.009683502648036735,-0.017114232944410425,0.004148330428323044,0.03190457454879294,0.016459207098713534,-0.04837859820923052,-0.016830857356741186,-0.015442709199201434,0.004788484487728389,-0.027358252037926255,-0.002548021753232856,-0.002919282803306617,0.02957709419072131,0.010579702493171163,-0.039168857866289486,-0.001563634263547985,-0.009005153004451325,-0.008080678512373948,0.0015076318257933607,0.004673612143079837,0.0027717565613367685,0.0001289505288021923,-0.019690825511795785,0.009249929067312477,-0.045540567592129724,-0.0073591404239545435,-0.0063251483274157395,0.008758764768327744,-0.03182629832063612,-0.03295211331876534,-0.00801357782300494,-0.021458931961661848,0.019230227100551854,-0.028247420582704345,-0.03487233408335959,-0.0561503688816181,-0.061458537689546316,-0.0026898814403506764,-0.008510712273264685,0.015654867044756212,0.0022955645467586457,-0.009624007402600686,-0.03633315829115585,-0.012189918931380677,-0.018377311521399493,0.005289465123036544,0.03083159135326544,0.012013501334008912,-0.011032776469992046,0.0022258395146692433,0.02061114483802241,-0.005091175246602723,-0.01468761539351654,0.008294085962032306,-0.005166185044520088,0.01406030354422828,0.0019828703383004583,-0.01355460830893478,0.013015636139825081,0.013055048224299903,-0.02099755737942234,0.015615891878126264,-0.03151090866437962,0.0018153010765472306,-0.023955422570753924,0.01012655478404603,-0.004960644403602717,-0.026675511388584355,0.009873985964438763,0.0009934245713238568,-0.02275089621477338,0.03498962487893304,-0.02256999838926937,0.004136330811610485,0.0007648525150165682,0.015185522806372549,0.027422035238501254,-0.013259954738318962,-0.00040283853460201346,-0.01891980625666245,0.011236655137243116,0.010531575428764985,0.019568791774798155,-0.03138679897105615,-0.015549180231189941,0.04422530809725158,0.013610140772274893,-0.006221971408623812,-0.05442464619486553,-0.008244014905787477,-0.02623282527332981,0.005583409779553599,0.011761205390656879,-0.021771622293232193,0.03026244897466728,-0.023573948977746565,-0.015719474883135465,-0.028845163179266955,-0.03231130465839557,-0.004895385117236348,-0.05591740724445776,0.006202866123183399,0.0411342625146227,0.012024861753393606,0.009735025582452176,0.005259354504993687,-0.02229165945441823,-0.009197523684460978,-0.0038195640430889275,-0.011236761257225465,-0.02257800187297014,-0.00338924765355544,0.0038225639365852535,0.012575650216170707,-0.01367092943081013,-0.0005910737640329374,-0.011113841127762952,0.027997066137613425,0.020177092842435542,-0.05188931346153379,-0.006269252505176214,-0.01968135822904251,-0.012163300335442929,0.0006229289218754105,-0.0018796300175769733,-0.019048327283143353,-0.0049698767673636585,-0.015391096406339939,0.0067038327714980025,-0.010431575687514415,0.010164656825853165,0.03542265731740044,0.012420356009706413,-0.04218350281612999,-0.015389354895883223,-0.008081552742769515,-0.009674644900417445,-0.008880344459409661,0.0007494861802860225,-0.009498635377125647,0.02746590370822931,0.01365358000435757,-0.027414073076502888,-0.0010178839587124853,-0.01572216842406356,-0.008074172297084707,0.013535979907681702,-0.015570017116557673,-0.00013092504385883477,-0.010385485349614153,-0.015261843092893268,0.022796817153567434,-0.045564027184026745,-0.014177366512632135,-0.01575227667964671,0.021431512564154213,-0.02211330082983477,-0.035523267278166716,-0.023552429580929242,-0.013572298186224671,0.0077629302693267045,-0.014971192854382118,-0.02426455334231369,-0.05812123314399098,-0.05109555425643272,-0.005381726260107165,-0.0072687092314346925,0.003914575892195657,0.014495093972688297,-0.0010075325699949811,-0.03623190182783938,0.001104636294850913,-0.012854586997058692,0.008121585521841937,0.01597737186370824,0.021505267201797056,-0.01765797806143087,0.01032312757331629,0.010330304749935192,-0.02029195527504088,-0.010863574225066149,-0.006967699399305174,-0.014513178431797476,0.01811845278484783,0.012506335376080424,-0.015915826319188465,0.01830571229585709,0.015435573337538795,-0.033641594643377,0.008847237901933385,-0.04380223418700803,0.010973916255282344,-0.010335005843434034,-0.007631572810016369,-0.011941694719908766,-0.03744093373935862,0.007934884431556356,0.006323519560438938,-0.018661201649104318,0.01865411991277986,-0.01945838106745169,0.004783490693416468,0.007997867102560435,0.02067545207215674,0.020571711227633162,-0.019454273825632893,-0.003383484815166068,-0.004275486225195164,0.007341867940967838,0.010122555100492169,0.027550120625437297,-0.02051135334587004,-0.028636164808637104,0.043943022515902146,0.005557346797913953,-0.011904157743094928,-0.034876021025487695,-0.00670243906606946,-0.026510575941238575,0.01644281678960812,0.0063493774363459834,-0.027899961045019257,0.02866168880814145,-0.03081363445964209,-0.03264673230933363,-0.026268738531335024,-0.028591407804765986,-0.01795933959142495,-0.037794092238003556,0.0008714630221171077,0.03476714438185012,0.01643956498316895,0.011712064383818055,0.006570555077913061,-0.0113123199129089,-0.005273913530111905,0.004670012572555467,-0.019846542664367292,-0.02578127997512616,-0.003447121770408776,-0.00036493580863863597,0.018041160861348614,-0.004167557347549542,-0.011276783153387012,-0.013194268328681877,0.024811032743818514,0.022064329633068844,-0.04802886842567484,-0.007835377011405189,-0.02632466525603997,-0.023284047963528603,-0.003490226292702943,-0.007775344574573444,-0.019712878683307247,-0.005494430707079305,-0.03110816080950544,0.006040993147117979,-0.013825981632932765,0.0030428921643013904,0.03912794344628393,0.0006773405039436632,-0.04352621523987845,-0.01752191745610697,-0.009390131354566615,0.006528762965137739,-0.007832623932358855,-0.00872910204636971,-0.012517653068899725,0.026038458353397888,0.019467265337517577,-0.03229764776688975,-0.01609708264771907,-0.014797531835875524,0.0018804929730545682,0.009986241272901883,0.0014754824606464545,0.007383289437942029,-0.006363950583250484,-0.024377030353047086,0.017592280892508683,-0.030373540382959665,-0.016471406292933758,-0.01204671778269498,0.004055349370765463,-0.0305566638583702,-0.03184337521335456,-0.022467096069327824,-0.017172378379725683,0.010686033793489595,-0.017977274748552683,-0.022739746024722,-0.05853810348274932,-0.0538595029360743,-0.010065316154623756,-0.009549742827445638,0.012983196117078865,-0.002468892378700278,-0.010831857133286665,-0.018829492231118395,-0.009038503631544549,-0.011333626797930846,0.00750952211386386,0.02458564123765645,0.009070404917369745,-0.006092392167742104,0.01656846047079934,0.028016447826275426,-0.012054780450806584,0.001628629917361597,-0.005241056754082842,0.001823528455250536,0.007418715483820535,0.010820873508989717,-0.006153032642055915,0.0156076771875,0.016517216179095594,-0.03250112905781199,0.007190902009780296,-0.026282491853776853,0.005759431724207001,-0.02576871007516386,0.005542695578666949,-0.014154739287183003,-0.029458138015317253,0.02218986529859308,-0.006719661241522835,-0.023564702559940785,0.02092113867267936,-0.018179998101052208,0.002613172296442294,0.009009975305542699,0.019180489962924353,0.029365436128030893,-0.015653813129250967,0.008009251682631629,-0.018460886311339676,0.009166839535686639,0.0052880638212754825,0.015297150728899735,-0.030303996053485455,-0.019099793954109566,0.04732668779224526,0.007530633753578038,-0.011665053979903302,-0.0491114039917962,-0.009897386269403506,-0.028417560862035174,0.010296748010029576,0.002367987247273536,-0.039761286825290315,0.01431176426876825,-0.022477191461813695,-0.013922906918619964,-0.02167932412529895,-0.02339327665270727,-0.011625759257557246,-0.05049348056355425,-0.0028575659686805328,0.04745635394248215,0.008534894063356979,0.004798591614798578,0.04243879446179311,-0.02228869736492078,-0.0021115333583090934,-0.003873822541689356,-0.02403486075954246,-0.022113228905729237,-0.007654191928342745,0.0077097916229259995,0.013491844424966346,-0.012983001909411268,-0.0024684831833016677,-0.0009351972491048073,0.04112642987550384,0.020981995014706198,-0.04617986820260609,-0.01582362393988156,-0.027521837214764432,-0.018151515765633626,0.0020203212891846704,0.002751192838403411,-0.011660462807469489,0.015621581845978363,-0.01606114004014181,-0.0006652961587412757,-0.013572762622428017,0.000796119560044395,0.027316743945966757,0.008493334864127101,-0.020512682090622427,-0.007116647932178001,-0.0034312874269634462,0.0019513178718347359,-0.011346215139337002,-0.007728315157132798,-0.013869942303922576,0.02525884880331254,0.023563691152183493,-0.03903113004403884,-0.0024851797441726537,-0.015983611930926248,-0.010261298363326782,0.009689325966983492,0.0022278027523645475,-0.002909208868403934,-0.0002641828083274289,-0.02351143652481026,0.025862501052813906,-0.02003105423365675,-0.00620812690766125,-0.0158588031854033,0.019229101766817108,-0.022617748209573997,-0.03385372448409183,-0.009821334734095275,-0.013675608035403295,0.008719974581112771,-0.0031579357988697956,-0.020518714124920095,-0.04024958272247835,-0.03695320962848119,-0.0034590917591071895,-0.00842296341457688,0.009218331492757552,0.0034659732043705025,-0.007150951972329959,-0.008328003076966945,-0.006340557602969589,-0.016042322417020402,0.004958806379771127,0.02601624050445067,0.013770434762705121,-0.02413606365912933,0.008776588616898713,0.025689333558678095,-0.02731218643067559,-0.012355395361582418,0.004958661216074179,-0.007465980664308601,0.0020453846525030663,0.010779457115415617,-0.021713443125287748,0.0037902685732406835,0.01290126623026932,-0.029928601530556546,0.012046488128745557,-0.019800606689261497,0.01243228779325479,-0.02507593403730075,-0.02004073505762035,-0.004658765914148218,-0.02233167088614177,0.012776323854161867,-0.011027490923092825,-0.026233457365836692,0.027756357279673374,-0.016045714954223814,-0.016214383302481043,0.0032735514319749137,0.006248514823771869,0.0343233475014468,-0.024670017404386464,-0.011817719077334513,-0.011224093788505552,-0.004272706911939361,0.011284147487474548,0.027922039905841266,-0.028628217706947783,-0.01751750477017079,0.03721896681987685,0.01116385996064255,-0.004740649329816415,-0.037800678574153805,-0.009083557390530255,-0.02344015203843494,0.0010321857081100091,0.006021246461855201,-0.03078596778722673,0.023691707161263585,-0.030282052237936542,-0.012146267448121138,-0.00874350083128727,-0.012138986403334006,-0.008310583470976796,-0.03482381742243883,0.008976682221315119,0.04692670381927159,0.00329647541430469,-0.005064522769662085,0.017382101571188583,-0.015213017652544077,0.015606385198258176,-0.008162009102196159,-0.020805118637226155,-0.022874076073488864,-0.001189820553083701,-0.0035897087314472782,0.005542986265310036,-0.006180944080267054,-0.01139806982830283,-0.01871994296059016,0.03200530176705502,0.042573992415190165,-0.019150629300295437,-0.012347209817197868,-0.012616210458098222,-0.01783030467578216,-0.020081006576284435,0.011836667699963147,-0.015264245512040838,0.0109493492671184,-0.016182719908495388,0.0017414363002412321,-0.03086544601706854,-0.019250452449955224,0.03493404586680653,0.006099267238086002,-0.014995048498500993,-0.013434112013039358,0.0013208641207840995,0.007860326004270146,-0.021848824381551807,-0.01796575920491018,-0.022836689543065402,0.02460672005294025,0.013518891674561278,-0.02745875467654936,-0.02039761101983626,-0.010901116047869943,-0.017540800682046415,0.01937111136097967,-0.006261003973733411,-0.0040377888618634665,-0.0018626662337079393,-0.033209758378695095,0.02741241287593993,-0.02575363598683033,-0.015183785741089207,-0.0015729895109995687,0.01597199493444845,-0.02853862083225118,-0.021287793061639665,-0.01806493339438647,-0.008866390795977364,0.011702757963819735,-0.014045511318458126,-0.024594155142507314,-0.030992118398555972,-0.032006162160944714,-0.014372548562495832,-0.002419807833399182,-0.004024560419875032,-0.010620971414538277,-0.003401213491630636,-0.01520861935852487,-0.0054459799043862075,-0.021090754441152035,0.002137303589297614,0.019694837033732558,0.014053906070363812,-0.016708579289542405,0.0073886625950473905,0.02377707145663694,-0.031009119865886482,-0.004269927000306997,-0.006879549618468121,-0.024371977750155104,0.0002738090609664805,0.01611874616352874,-0.02667677272490597,0.001488076295338695,0.009051113337394593,-0.0253010976521966,0.012558799066011973,-0.016136185494023333,0.012424188876060938,-0.024604263739027882,-0.012134859401027988,-0.014325204218873356,-0.03272707347508095,-0.0022143212829517584,0.0021973669819630487,-0.014008229558759544,0.0348088335361872,-0.024320005951877974,-0.018964635536414063,-0.005527632622798397,0.009220114119740903,0.022384101358266763,-0.0236379621559261,-0.0016935753586755898,-0.01314260456362799,0.009165628629011222,0.01897726370853458,0.02327018398011057,-0.02605840737179612,-0.014735928130790317,0.0365233814210707,0.025013102995969344,0.002874646231488652,-0.0315029115405025,-0.014766307934050754,-0.029191867221182874,-0.01741127405072764,-0.008162746258672304,-0.03352788041241023,0.0375638916111264,-0.03200762006838351,-0.006319997324929243,-0.009192964042411688,-0.024787266020685136,-0.002899105104003759,-0.03365329303396766,0.011882359684518404,0.03851807396480155,0.010153565648280917,0.010537726994702833,0.014687826670601398,-0.023870790662889184,0.024875033798966172,-0.014298180364746092,-0.0373979132116771,-0.028558717090939604,-0.02081140422985281,0.009415490064132151,0.018236377650283457,-0.013169128175968112,-0.016976722323920276,-0.027472274226846557,0.03659146056505349,0.03892653760232487,-0.008666387149998291,-0.021763445743048858,-0.028198531148186934,-0.027300765913749157,-0.017772591882637384,0.01518928877177522,-0.0009456557716249844,0.007995547397707503,-0.01916678667681179,0.014918880915471649,-0.01603355726640247,-0.02442758639897451,0.04522953108116759,0.013158410955105967,-0.014381921590974197,-0.02540011755349419,-0.0020553695231632476,0.015930340613431203,-0.012254517140099418,-0.026248910435475895,-0.026624738817244756,0.025593278382982077,0.022757278964856992,-0.04479233895596412,-0.01044679652335153,-0.010131126547956955,-0.023440085954054064,0.011224548872913517,0.0029378057862572745,-0.015612163675807656,-0.007483207453979055,-0.039466281875238034,0.008713479703243158,0.0035974935799075215,-0.013758085769317255,-0.017261580895427023,-0.0026932538971699512,-0.023884361556932375,0.007885314813985737,-0.027335543494576245,-0.016976934295642083,0.002246793851068943,0.009616631463612892,-0.0143893971620748,-0.03436451305388829,-0.00155569939742945,-0.012907338220858731,-0.012737914274235715,-0.008926867157795509,-0.0020196527395355984,-0.003867815116256354,0.00020781867536290107,0.00013243296083760515,-0.014602424139230947,0.010420490244162322,0.0017418663286379314,0.02843172640917672,-0.03241105863803397,0.005723310630819277,0.006423996767379265,-0.022192264354256093,0.009555700159239063,0.000016019454971495053,-0.025447638094279846,0.0025536339533925533,0.006853636155917564,-0.03264716514562891,0.0025564180600923725,-0.005357023389556103,-0.013501972318300127,0.02865594007633897,-0.003389950473322047,0.003983378548441567,-0.019298388123889846,-0.039652817963847765,-0.011974220677193425,-0.015248750466767082,-0.0061768222555399184,-0.006598864080628514,-0.02939506011829741,0.02516438200777657,-0.04237192927412887,-0.009205546284223197,-0.012631802357434862,-0.006933507738390091,0.043194738563193516,-0.009051017042728524,-0.007945219321985324,-0.02296146722880414,0.0015939925185628095,0.01689761132256703,0.011925540562237732,-0.014129345620593394,-0.013161039694289998,0.03155365150634795,0.030045700429632196,0.02151640488284015,-0.012093102135182698,-0.008566591082752727,-0.03568200255214896,-0.029615418271111568,-0.02248977459449173,-0.039089161221080165,0.03897634539172564,-0.027693954291757188,-0.017330439319267466,0.003163680576881145,-0.008851013455030738,-0.006474431419830513,-0.0185147899713358,0.01531446278442296,0.041989197832709955,0.012729334532753225,0.006521592183491736,0.06426273846356552,-0.01660256704469899,0.054916582063797896,-0.021838328715920636,-0.03877306180239089,-0.025558568006088203,-0.0039274411968959365,0.012697522357168018,0.014105972017748708,-0.012891663685711277,-0.008655296737185906,-0.014705290206873098,0.020917081694877143,0.03729313548045179,-0.005436285818484166,-0.02189870018937516,-0.029075964465279533,-0.01267501040294938,-0.02622165403017184,0.009063052883666656,-0.01091239723861316,0.011516679544861201,-0.021751320427337795,0.01377618999944448,-0.030603337431948364,-0.03071989035490818,0.040262024332094005,0.010660072352484999,-0.004250735270092295,-0.024646659283169114,0.007030039364012176,0.0005965576705352509,-0.01974339107310469,-0.025281334550806826,-0.02450077304703881,0.02840740180946083,0.02605664336551581,-0.015667388448182804,-0.021430775088112558,-0.010425885599407525,-0.015324465076625394,0.015509992563073153,-0.0050761882631579535,0.002088397204458548,-0.008574041796007445,-0.02933858809910088,0.018324138430406218,-0.007435837722191077,-0.01681131653412186,-0.012126302636091822,0.00021630195164671397,-0.03477128390164274,0.005980997992752756,-0.03217967986481612,-0.011599040821646013,0.008680312651375527,-0.0015045082321631011,-0.024436139027013325,-0.031035080639214094,-0.00012030737276527027,-0.008021570472193588,-0.011509152949221519,-0.003948727610192956,0.0006135934616872903,-0.021160620880442335,-0.009382798267389835,0.011652212815894698,-0.02284673317793503,0.003240443177303026,0.013286769170547753,0.01687196169293844,-0.038325454190399184,-0.008339681436721536,-0.0028509882213043885,-0.020918696830784365,-0.0038207502328524135,0.0032649650754720126,-0.03127797336012009,0.00942052935854786,0.016968093421372905,-0.012419859734962464,0.002881128287456552,0.022707692226452615,0.0024590063579489193,0.00866820250808315,-0.009267342584076153,-0.0011079192785674705,-0.03161919921167399,-0.02196478680443128,-0.01743189588331362,0.0020214967018522463,-0.010050981255803974,0.008524408484580347,-0.017432084191763866,0.03439239837185501,-0.03857817805214811,-0.008458139646745726,-0.012115547366803488,-0.009130347982996664,0.02795427327088731,-0.013052050987930002,-0.020581816449077413,-0.031139660717772626,0.0036055102337525517,0.011644691502440675,0.025746429585086203,-0.02121241370732528,-0.017224464915737977,0.037241457149087165,0.019136648730038147,0.026241625656741704,0.008164164452528965,-0.004596606991655613,-0.02296468803475718,-0.020021444249865884,-0.017277461835675717,-0.023076274885136083,0.031073906611651225,-0.020513842316158038,-0.007634563076880333,-0.008338343103698052,-0.020339074197019122,-0.007923213469291117,-0.011588536654393813,0.002057916590448502,0.03703904483947424,0.008070616506793868,0.015438031544603803,0.07145618200676977,-0.023849625393610633,0.06503491739528088,-0.018706051785156642,-0.04013648706946094,-0.023474124070080545,-0.020508417193303888,0.013278655729351531,-0.00033954077313830966,-0.001662168624038337,-0.019589422326463404,-0.006204012708608766,-0.0008492681185689663,0.03398515343823865,-0.02096992990586962,-0.013319916466013628,-0.01928383225155415,-0.014698205074763302,-0.01168857458537156,-0.011200653031160551,-0.014738785187145767,0.009150830041518452,-0.034903022961923866,0.009253977815971141,-0.012222069697921518,-0.00742951635836588,0.017421821039742894,-0.0017652304517473635,-0.007809493394194435,-0.021396517006141497,-0.002974448049050077,-0.0013712794182432304,-0.024489144011722582,-0.022951703630287708,0.0014937608345427047,0.030416020158625278,0.02817534834233273,-0.0054274739040382144,-0.004115349314401748,-0.00988688325412035,0.005764729793779019,-0.012186790969582034,-0.015078071362049264,-0.015639647427475156,-0.004018271789096003,-0.02702018760861375,0.014082083784590183,0.0026570174494158424,-0.005744284687382217,-0.0322637322840226,-0.013608259692965754,-0.018107864076458393,0.01039502063350278,-0.018151182905510974,-0.016089156529134303,-0.008494426392340371,-0.004373301371776469,-0.01795348438994918,-0.012270062564588277,0.01166206788473628,-0.007080718414851826,-0.022061937518696,-0.0030549853304636465,0.008291134801129522,-0.02405789411179561,-0.006929762100659775,0.0005877553017040656,-0.014347108820673433,-0.014738599183078082,-0.006833796582000992,0.005112267770703822,-0.02773438761085318,0.0071225875262501915,-0.015553272305411772,-0.01218810486404353,-0.02125676994958805,0.0018770231318432603,-0.016407473482892673,-0.0013663417791806823,0.0158843466825491,-0.0040483685879766935,-0.0036784617116431915,0.017966302910658018,0.01519511225772146,0.01575671692027446,-0.009670826446212815,0.004194456859615843,-0.026103296068007622,-0.018267026112874615,0.006943150919200109,-0.0046472806190112,-0.020449931333153547,0.010966618406555394,-0.01626100815897958,0.02467206353350857,-0.022434883478671373,-0.0021784531803198917,-0.01070089391955955,-0.009279731857320376,0.018993977164088877,-0.015949381154616256,-0.01668539611815227,-0.02011095302253472,0.013892808226280789,0.0005277481883927036,0.006960073546345887,-0.023070372647834025,-0.024083513288441015,0.03532700511956284,0.008360461805220362,0.02649679975130624,0.016294286750260463,0.002115081114531525,-0.03261668201256131,-0.00206404587879913,-0.015151509206467094,-0.016435216048599557,0.014641919895672238,-0.011765834138868234,-0.026284120976971866,-0.025170952543078752,-0.002179989734071714,-0.013862978583546069,0.010997173909227803,0.0047151364854457496,0.03219914742751412,0.01142175725271208,0.025779149569208806,0.06944751751089402,-0.025083196536261374,0.06653676193385148,-0.017491780912605757,-0.022020713226654904,-0.03232722481756098,-0.01360292336434141,0.0031953298317695254,0.010687038733545888,-0.009013880445342855,-0.0076137884570378605,0.009477387930307855,-0.010930087629183656,0.02762508537307871,-0.02339699909068872,-0.011173196053303368,-0.004798094123418109,-0.007657443647585539,-0.03006506746945813,0.0001324184382094291,-0.025372223024349196,-0.00045828779674862377,-0.032090022423072705,0.0016541275323043107,-0.019185524788867845,0.00015523256189746255,0.026037277168230524,0.003110085985126016,-0.011210074218223917,-0.021868595890728374,0.017570529267617385,-0.0014446847791395317,-0.023455815761104736,-0.027952158141400296,-0.008542225352238976,0.035736786514622816,0.01215373685785039,-0.016160185394031062,-0.00037761941927758053,-0.027134733683310517,0.01960222944015653,-0.0008910961716405447,-0.03844373559776961,-0.002877763066160173,-0.007319228270338828,-0.020236373755425256,0.015919967034629206,0.010206809790412988,-0.009087096059618476,-0.04037103318291305,-0.011571946904779432,-0.020138353871714785,0.0025740089013888104,-0.019441026961074102,-0.01333339885868432,-0.0009860450837333673,-0.014993331571161455,-0.014443085681371454,-0.011010823548861775,0.04917028412001528,