{"name":"CNN - MaxPooling","layers":[{"type":"layer.ConvolutionLayer","data":{"depths":3,"input_shape":{"depths":1,"height":28,"width":28},"output_shape":{"depths":3,"height":24,"width":24},"kernel_shape":{"depths":3,"input_depths":1,"height":5,"width":5},"kenel_size":5,"kernels":[[{"values":[0.9705645487203752,1.288994457623445,-0.3752604742540325,0.9079184577139625,-0.30983343002866864,0.6507000508618246,-0.5786369524758198,-0.31474055931119227,-0.5066382797386092,-1.6491986957549607,-1.5006642349602144,1.2333477437452878,-0.7602058003826561,-0.10321316495679271,0.3989981857853753,-0.9777177091526614,-0.41660051086303157,-1.1582042750881234,-1.491157901865554,0.1062755405320232,-1.214620980204987,1.0670042421353099,1.0076557558119832,-0.1717299270412565,0.33833295553121695],"rows":5,"cols":5}],[{"values":[0.647920076309435,0.43374216213070316,0.8083371860668301,-0.2241920451613431,0.014695289397240774,-0.10682088474311179,-0.7267253338226417,-0.4850190343181267,0.5554229214556847,0.11519251154964794,0.19878167065201427,1.2029601858622754,-0.08519502676887895,1.6116925407407625,2.240133689051865,-2.328532408487001,0.6778930373575818,-0.029754472362615386,1.2223372603781941,1.506449579278101,-0.6854796981843633,-1.156661679942749,1.0220803665033864,0.5933094078789839,0.6453859475778595],"rows":5,"cols":5}],[{"values":[-0.5770727098715315,0.05231073894442095,-0.4476142072096271,-0.4785926087658905,0.11961758462924829,-0.25521437695683885,0.9947312280391273,0.5363809003070164,-1.9395807814121369,0.9734850392229996,0.47746761964415907,1.7968480242129312,0.36459759660080265,-1.299190033345956,0.6418610191562192,1.4747066966963993,-0.261498901494122,-1.098803480648374,-1.415927231640275,0.7474399623705283,0.780240205517759,0.42778850055455797,0.8610461290313173,0.9937201685326035,-0.6612261229377429],"rows":5,"cols":5}]],"biases":[{"values":[-0.3756819268942517,0.5657885569396962,0.25642072429372886,0.8898903828207764,0.5621196924051762,-0.24423990465224224,0.103787480758946,1.7793788530010564,0.33541112435847636,-0.9162153630301795,-2.6395383881729395,1.2978592868436754,-0.7074732973605822,-0.3358994195033656,-0.5482717109526523,-0.75200091588573,1.8440633029194478,-0.04543395076615556,-0.23158967298172892,0.2983206437807489,-0.6854779937492812,0.8102688167389737,0.7577951721827177,-0.5437988637303931,0.39819827223101145,-0.8987467259830163,-0.8866306582953544,0.41198266675208217,-0.47847591702543285,1.8975150446393947,0.8314174441215311,1.1611649030816054,0.33942906427727393,0.2898530496287276,-1.2216550404614412,1.3251495597488046,0.7313296964392539,-0.1716460024478563,-0.5514587573989177,-0.5201881543433485,1.2560596828904733,-0.8463511294538291,-1.1391339673391025,-1.1841459194107493,1.2241669065865515,0.7868836937526971,1.4048552903417337,0.12446355705665899,0.8008205484756307,0.8467140645800909,0.7733564236402702,0.3832771754107956,0.16772878194842852,1.6000054651978828,0.6433049469008036,-0.7302855718681789,0.7616617369957478,-0.9724576674092477,-1.2626218788247199,-0.48355984591137485,-0.3250626292912812,0.4098648898924604,-0.7148813702482051,0.3379950196173965,-0.7857801394310364,-0.23382655302747601,-0.7494142026755408,1.4987975178801491,0.09307489075744471,-0.544054250588937,-1.1426946296456533,0.07653126410415534,1.4054655193861727,0.016613601034151475,0.7629492705989805,-2.4151546009424396,1.2415753853199323,-0.9461275916817237,-0.6517556846562574,1.4873935670205456,-1.6066606280691278,1.9258281887229693,0.6023189906025955,0.7468507724638555,0.027226876154915043,-0.46408803994757053,1.5477696593760901,1.0862310858933992,-0.23719979673841637,0.9115455464741037,0.5265877097501018,-0.19630104468381307,0.3574147455786251,1.0661768334178714,-1.729276153514458,1.1335827610053153,1.0463297349840563,0.2716413220722064,0.8735440112321501,-0.230484535514419,0.048835024945162335,-1.5383366897707969,-0.7601827983301155,-0.1191204561771392,0.4661825694125149,-0.791326602323289,0.34101607847041243,-0.481717752694734,-0.03430227020565663,0.3024671588282643,-0.2522546642128876,-0.16159923682548225,1.3918763679376989,-0.7628237795289778,-0.39788349883296603,0.4005656164842263,-0.891770496486849,0.3173977559478037,1.9114801591432957,-1.0308665918339848,0.2612980412492497,0.3730348890364183,0.2734978761607094,0.04240328824987988,-0.3528894526990593,0.10462164010160821,-0.8123937814531358,0.4067545621342079,-1.8179154228224346,0.509757495529547,-0.9804382113680987,0.3891049760778383,0.40609271546422127,1.5063719439252083,1.6433927999762084,1.8557527027508296,-1.0182391083638946,1.0076639708703814,0.27401220397418496,-0.15642584929244466,-0.14682315904706175,0.6078697860354936,-0.8802168598761956,-0.1927124624513777,0.6174831996216098,1.1979228726810076,0.10111325225609633,-0.05303743431857158,-0.6432243601967442,-1.8573041901541898,2.6566368325149297,-0.872546144680907,0.611844463821502,-0.8238566033984605,-0.2373648432587359,0.1615279616846257,-1.4279973091931653,-0.16888252667671197,-0.01611987866575354,-0.4258710048614332,-0.25056967256328094,-0.17247756224814328,0.10744608204924953,-1.1164797272967908,-0.7938166311373555,0.04807684880798449,0.5462247704023081,1.6761685311751569,-0.6775001079568341,1.0705502957109878,-0.1981019799698374,-1.3538121550419244,1.6601737382671533,0.3764560434060211,-0.03142682706824397,0.3741343790748761,-0.3237042055233358,-0.7199591818032411,-0.7961122295426002,-1.1307607396319808,0.9835779564371866,0.7016390713279815,1.2432986319164243,-0.3831231089118569,0.1871628475663595,-1.192860072589708,-0.8314411414905286,-0.8126672410941274,1.9231242174699996,0.4585519485907375,0.9390003300044767,0.8690366604391775,-1.3869054831610053,0.44877713196191726,0.504425037053952,0.7246077939874707,-0.7407285817652376,-1.3698245481370395,1.3863570876862674,-0.6875133359373672,-1.764002709323673,2.040083353308273,-0.35849988913550174,-0.5996472419335975,1.0261326830048838,1.3331660576808808,-0.1631242861379743,1.2295528300565486,0.42355320884284536,-0.26278912895125633,-1.7287457992918998,1.5103820014541662,-1.440758948148251,-1.5396885025240368,0.44616297098798124,-0.9358490217694415,-2.5212524998475723,0.6300204320001538,-0.6743997248998425,0.26853550600838844,-0.26569360009151866,0.7693106047648465,-0.5572265363474064,-1.1247199836505986,-0.38853493606600686,0.5982012139031808,-0.35577386423963137,0.4600975370928345,0.7329721684096525,-0.7827659245692429,-0.019755594853683226,0.2206821592822834,-0.8963984574008417,0.9045125846457811,0.5526727072008176,1.0866649980364183,-0.5032350212873455,0.27147155235681375,0.2248846357778044,-0.5799886974717203,0.5961873272589729,0.003906745824957325,-1.9075416880260356,-2.1244290799324714,0.10423441336108585,-0.2358156015625004,0.2631880725994262,-1.0400632148076838,0.6522776087300836,-0.03447226703842789,0.6806997743308804,-0.25292993244359074,-1.559975244734945,-0.854440550756036,0.05806410973647966,-1.2024598747763946,-0.9802567606037659,0.6766731136838958,-1.223093943192307,-0.5227587083214481,0.6722391490199452,0.8050277086811791,1.0867789254660554,0.9349305575245918,0.4779439254051021,0.9809331661711723,-0.9539308491560415,-1.268294071976849,0.7890864261730988,1.2684870189916504,0.881237024475565,0.09646730599123753,-0.13898553278657494,0.5046002563264722,0.03212445780770016,0.03123622105101787,0.15566597259312495,-0.8927404775818992,1.5480764813610817,-1.8924817750851486,-1.4063450370116535,0.7581307148889073,-0.9309659728366682,2.079511205680317,-1.907758546247313,0.07177639274885772,1.413184578786902,-0.9967352529059023,0.10980941149470128,0.1736901008220411,1.4128532819427633,-1.0224215883974106,-0.7933366685474621,-0.89856694137545,-2.3398960994311193,-0.04692192795147411,0.14117939002870844,1.0147462582116498,0.31294940797434245,1.5149908913519134,-0.9560588396422174,0.7450881649847436,0.573748275694919,-0.8012155578368316,0.3155967048110676,2.001191519915444,1.6136486981179872,-1.1675528751668947,0.6497661500340303,-0.09806658156345785,0.9737563210336614,1.1677214065516843,-0.18734686299054157,1.3676219483689989,-1.8169622861633918,-1.1803248086782958,-1.0588232383641867,0.7979709907357075,0.20712972995694073,-0.12790158854490097,-1.0830124644295276,-0.5970882236709882,-0.1011429263985443,-0.3072798730734818,-0.12459893811345897,-0.8195257958163158,-0.14000811040955827,0.457272808678085,1.2801792573489776,-0.2149211980346777,-1.766314930441326,-0.794101277652149,-1.4811166816036647,0.6094803088187825,0.6041676827018229,0.6249971133165879,0.43137111905744924,-0.43485192534274436,1.5453405305287664,-0.9344793109785576,-0.05542930338513888,-1.1409815726690122,0.2302626894268623,0.10509260098139053,1.0149579310680026,0.3397643081079104,0.11533351204606455,-0.9272844757644391,-0.6108162748331741,-1.3508325879399699,0.5185609312182297,-0.9599933435016751,1.3371139555307308,-1.152202521337658,-0.8603115485026007,-0.2701629401543195,0.5746899223802917,0.54799396250414,-0.03872773908970398,-1.0941341893252778,-0.7529447425329833,1.5274567892515676,1.0416021673856408,1.6323662492015507,-0.5686037658832349,0.33131956673259394,-0.6476249153775808,-0.5845058876389359,-0.4691663624500034,0.526772492379961,0.5286211976296664,0.5524459483048193,-0.6425343367280413,-0.16005982535711938,0.46867674322742275,0.3298590286685707,-0.6506567978819401,1.7448411900617817,1.4912891558378298,0.5933698064641998,-0.5925706704003969,-1.8938723654938245,-0.2694836262446064,-1.0036357673029617,0.6301710857426903,-1.699694732295491,0.425434843376278,0.7169119926093717,-0.5820380910657973,-1.0419644513731254,-1.7944454329699555,-0.17025835536050032,0.19394560570224484,-0.9175235337391097,-1.1579347438563627,0.8788049609174476,-0.2434987579016813,-1.7087523015612824,-2.2404244141574177,2.0961390812779026,1.4671665243647325,0.1972628331882054,1.3255843326600298,-0.7325042923817924,-1.0903456261954299,1.698753327011766,0.18056264612314282,-0.7487646789226557,0.7460623830959103,-0.049612588596616096,0.5416270868440033,0.1553712948814528,2.362134075620543,-0.4964737488642043,-0.4598829623878881,-0.08608985075935008,-0.8988237058171702,0.8096928779247015,0.6486074162019969,0.23694718466143114,0.879827529729329,0.29409199665414876,0.16416368946798685,-2.6685649018006776,1.6626820416251344,1.578203800838584,0.03667990304382056,-0.09853365718706458,0.089335581835206,0.054000105531319204,0.7849005890564799,-1.426870418431863,1.242361667596094,-1.322661744111592,-2.8054522327038987,-0.5037202506044718,-0.36083030247253184,1.0662143698143487,-0.6751115193213166,0.6237931395210535,-0.08584611629514097,1.3887502242146332,0.10760577936018755,-1.5856423711415175,0.1989226236066245,-0.011804918019548357,0.5596733752504612,-1.0037022529303214,-0.05780476213178863,1.819608465182007,0.09552212542412743,-0.05078648133245135,0.2683332896357129,-1.9819140401969215,0.8906920615573246,0.5176453266920676,0.46150288221128777,0.11097924541303546,-0.6240865936971528,-0.6406759362559457,-1.9301195322711244,-0.1502334760527394,-0.1749919506675155,0.2373217292688109,-0.884305413556056,-0.3107410518394899,1.4073235521297192,-0.6346285916348884,0.028250349740598705,-1.0373440754868921,0.18346764524102635,-1.4465324041216605,1.1644522358687237,0.1501272968763092,-0.1389629208123361,0.09619067066391779,0.19120441737397215,-0.3298026456556503,0.2357477294585424,-0.7040327879520107,-0.015926007559568425,0.36327549427862665,0.3980455406610102,-1.2536986828101022,-1.1423168002182469,1.286765841298807,-0.9540512948159708,0.49297191169735854,0.33643244200229877,0.6036657820855463,-0.9926975404229945,1.1329432556953973,-1.119074190745545,-0.05844844276552408,0.7799271701011053,0.6146059663034334,0.4969925929151785,0.4742775102421382,2.1106018111467226,0.43440318956822926,-1.212782125189049,0.524735686854789,-0.04585158659387863,-2.072101987394382,0.24209130619234057,-1.5301315017326242,-0.9945161107538795,-0.31341948892778304,1.556319730814145,0.3626623594469796,0.13249048751283404,0.9889580609275809,0.38454601255830473,0.37721711029038396,-0.22337393715875656,0.7379525007345525,-0.8605009640944149,-0.07392168697816048,-1.1338012803727533,0.2756036809348681,1.2826884259834088,1.0650276761704427,-0.8806431705600745,0.16400745645710482,1.3856520577475193,-0.4935833228665482,-0.36282482332659305,1.011103082833697,-0.7689326340174527,-1.07481413900661,1.1706067324557856,0.831234862631568,-0.6974590744611847,1.4822908305249518,-0.32913767513975634,-1.7228124363467234,0.1538507073068194,0.18356194561278202,0.1534352532470912,-1.6844676977413489,-0.7578878592255145,0.143552204158355,1.0253738319101096,0.7927773791442358,-0.09897783726385236,-0.01382008985220554,-1.631335718393954,-1.1420818594941806,1.6031606748907763,-0.05504426728793947,1.411490446263384,-1.1526719109202994,-1.4059199615466322,1.2906078588831775,-0.18402576803691037,0.23991287741289644,-1.2218750140876624,-1.3531629389676803,-0.8658616456819058,-0.7816982385481361,-1.0168409079185148,-1.42752535745184,1.4203714412238668,1.0776712886450008,-0.46051044262956514,0.6538356721684278,-0.11902308149535043,0.6684978626810034,-0.2952953905101567,1.9972286365533307,-1.029616566104691,0.40820546272083785,0.2912034998015793,-1.3453581658709945,0.7590243072366216,-0.9775844457673439],"rows":24,"cols":24},{"values":[-0.5568140369618954,0.18109642175053295,-2.4839063428643438,0.7660130124734126,0.6694985756183282,0.48838964571131843,1.1070751284219709,-0.6680758331857124,1.3418649023055724,-0.6906366139489102,0.5729782179462852,0.025337051418232927,-0.21604247099203333,0.6844932325088413,-1.938046441241399,-0.9738393415053337,0.6332647825347241,-1.9652415935186915,-0.6830091282256017,0.16123390304446414,0.36174126204989265,1.074364959048014,0.09083284596430966,0.7899094040987491,-1.1180908701536267,1.1955826405657286,0.45554252699834347,-0.18311643738033165,-1.4440751033091643,-1.5423259137702008,1.1559114943512825,-1.0573003269546277,0.985227711464202,-0.13336706761698092,0.5678387138992197,0.47457606071617436,1.1808964218991214,-0.15176817326648862,0.011532165952278782,0.26985042377017643,-2.015266702193755,-0.6054794356604499,-0.4492901949346407,-0.48535151886608646,0.675451833912963,0.4650697181215439,0.5865272182065,0.23918364886292215,1.2303673772668855,-1.3530764299033675,1.0212582653974265,0.7918682434499539,-1.863153675807346,-0.5623621924244868,0.9694972035596879,0.18744639544220038,-0.07250092295783887,-1.0581767094121208,0.2853917012071449,-1.4725220646283328,1.0505000506543651,-0.3573794429254913,-0.1316795788902623,-0.09724191303632398,-0.09016393258811126,0.6274720136882764,1.4891752224525894,0.010785765408463968,0.8343668756660237,-0.987962689553581,0.6149035191894416,1.147697651482052,0.018240859641771696,0.15749171028763193,2.0833227882257264,-0.7208784748089434,-3.297041843325208,0.3825054941030833,-0.8321578492672215,0.26090215951313966,-0.7756783968335779,0.8350607119293626,-1.7206391839899062,-0.681485198144724,-0.5371976375828162,-0.9744461682142525,3.141360325883276,-0.7139283417073167,-1.3807209781742265,1.9459717902139289,-0.33913174282601877,0.08803676410409567,-0.302948849165165,-1.4167979383815186,-1.342501823769855,0.435915924499612,-0.24300981982117262,-0.32575876043424423,-1.534014574411488,-1.1766762744292485,-0.1935853332823954,-1.148754795824682,-0.8388273870193018,-1.4576146369356457,-1.1481528501262426,-0.9257524799731618,-0.8416983300686449,-0.8488660437854046,1.1035956516381888,-0.6167798106087233,0.5759148299340803,-0.5001998772232277,-1.419467649709147,-1.9320648440412487,-1.217933286525704,1.6898841435215401,0.2538509801219865,-0.8511649390883201,-0.9508283700258888,-1.556873663982868,0.13920766934168907,-1.1292305548495467,-0.3801411705180907,0.853403431072422,1.5667945984515106,-0.6529302235579285,-0.8849791666056565,1.0174290413563432,-0.41160096510447364,0.9638818289861609,-0.7304029121822617,-0.44751801807168534,0.2830614186775223,-0.2564687814849662,0.13929064188276513,-0.26200762818341056,-1.3634163939158634,-0.19935391323165466,-0.9669401699045618,0.4393531302262404,-1.7679135684259812,-0.8414207248341395,-1.9403607097262818,0.49201935588245704,-0.34757004781525963,0.33257710710982985,-0.653693082792743,0.3916361410590425,0.6943660982066407,-0.6625905578042987,1.0863822223616881,-0.45725416242866346,0.22291663580466556,0.07087388394170806,1.1284318976382166,0.07233904295025914,-0.09220602111612791,0.11531765804825721,0.49734225128457304,0.2652927952816297,-1.3585954371347544,-0.5943943894384893,0.6245000386244719,1.3237445977113889,-1.5374798287279547,0.03144865239341698,0.8568592587593554,0.14657680363768974,-0.08988366616168593,-2.7697412751308694,1.828765373733374,0.9699214006749499,-0.9736619557008641,1.0073007843476047,0.6519623066069777,2.3996090855710976,0.12893370792980074,0.4217610178836499,0.9458188283155581,-0.6663483080938243,-0.09907135916347323,-1.3213900574920354,0.456973517917465,-0.15534669609076454,-0.7172700280724371,-1.601567475082199,-0.9096335408381278,0.24394013045288637,-0.4239495484229076,-0.024514235108039108,-0.3283634169160478,-0.9986622350563935,0.3366231636005876,1.4773290000048958,-0.822310555136655,1.0589715370173647,0.793293028207323,-0.2110244454919043,-0.5225372073484353,0.5058358804196376,-0.5364375467958626,-0.7078782573166507,1.0920004589505494,0.9152300743146765,-1.7204497204457387,0.7410255244792863,-0.33286384551510434,-1.4813377405588604,0.3504190697585287,-0.24717660976193537,2.4057313813232373,-0.8638722508901682,0.07068670598118093,0.6466963979036281,-0.7972098523112345,1.186342214131576,1.4643328019456863,0.9347208365388594,0.5905990945951753,-0.33137827546115073,0.32140204434340247,-0.16895523797152276,0.5272818276696345,-1.219407161196598,-1.1962056587504495,1.0497234185419275,-2.2292279939648108,0.01664777889120382,0.07783357267913243,0.16619976640714462,-0.8809633260277042,0.08048378542455564,0.19379055131443165,0.22033810506971294,-0.20673640557423112,0.2373766996088726,-0.03080360718114014,0.03177607398345874,-0.2799322950552907,-1.5609352704866353,1.2561544179245343,0.3775343789450853,1.274052548454394,-0.7647771655018499,-1.287280867206795,-0.4685658997705671,0.5198684577740469,-0.26040191571108506,2.981100948619143,0.4452304492054779,-0.3072318088623398,0.28818082435664477,1.180128665655029,0.5714975835139404,0.9413238904959473,-0.2758015608548529,1.5517668607934745,0.4367478351809871,1.70670418530041,0.7153223621760237,0.9848552261564023,0.6640477356378268,-0.331620836919678,0.14221256014032788,0.39192428362709264,0.8325779148958639,0.6608879610456716,-0.34866475475613123,0.35583597499586467,-0.839913976451127,0.007957523763327897,-0.1568134404190477,-0.6416080931083297,-0.2216644316014605,-0.6886364078142169,1.796901994094354,-1.1982309917772045,0.15253488570812346,-1.19280499792198,0.5123317603047159,-1.3290192959257139,-0.3873556315109397,-0.3257296184830011,0.6047208914125838,-0.1662196783123126,0.7501461570036981,-0.5775237308317825,0.4448842457058921,0.8105184609640739,-0.5618507146678592,0.3616603906958239,-1.3334609729251714,-0.010968942091666337,0.3924448392553895,0.31413995906767295,0.8722161691665316,-0.6626311670201177,-0.4838358148424409,-2.1311938529896586,1.7429665902978069,1.1826019019892882,-0.4643353135405938,2.2295104864854847,0.5750218145820986,0.6193895976644557,-0.6602119542731869,0.13213253149820361,0.036409145913414244,1.7602030217269498,-0.4035165562820992,0.39602933712667027,0.28103762298436985,-1.487388396288702,0.8512940200460003,-1.652796130745505,0.2412949462613364,-1.7246797715437,0.7976480894467647,0.9697210471700619,0.19378772828157884,0.7386747545188628,-0.3628468811393227,0.11618551337657473,1.1136747690947668,-0.18136758181517548,1.482095687007798,-1.1312454632353628,-0.6803923243385904,0.7692528755945752,0.450483676029595,-1.0115680467527117,0.5331054823113828,1.069282765810663,-0.6116645625646834,0.6715796592055859,-1.5043168481859277,1.8787511571333768,-0.235524933992299,0.38848678808233,0.05871239179354353,-0.7593152095707204,-0.17243506519183827,1.3108326778534405,-1.7379228466487748,0.18980903911852845,-1.946877861374116,1.1334808304254842,1.2506692374999355,-0.9526030862689718,1.7872534155458526,-1.8590592828123795,2.3184235469711094,-0.4577453266601362,-0.8696187642504665,0.43707948796076185,0.1334007067332336,-0.012790107297953924,0.8969303428186907,2.2521147176602017,0.13080986095726915,-0.6824549459620065,-0.9002603139447605,0.3757002668671924,1.5500332572204678,-0.3578460914233809,-0.14127274939810763,0.14396069875839385,-0.1643028136471718,1.8200465204938976,1.331191783479024,1.0452550817632793,-0.8591405390380751,0.704634087511977,-0.17996975916465152,0.47417085760600575,-0.0335923197804912,0.026575779496098222,-1.7070059218722724,-2.0701138648830444,0.997620952445176,0.8891357631409996,1.4762361228370335,0.6588551132161341,0.9099975704548124,0.7353092054309086,0.7194679848942632,-0.5041174506312229,-1.402229539175227,0.23524865200355446,0.116315782862672,-0.5664247424047837,0.6083673427327824,0.6034984694525992,1.2210441972581092,-2.2909192772291993,-0.9501853459591102,0.1028480123592212,-1.1956963395020583,0.7275338315973336,1.5277230032376437,0.10217517981008979,0.8179610690272311,-0.3953790248738292,-0.8131478526753948,-0.40088633318430605,0.4981402592516466,-0.8049046963342533,0.35779007571515004,-1.0903897857969724,0.6651363049839131,1.4665857232953396,-0.2772081109161864,0.26000783352983053,-0.8396552822269732,0.1044886402689291,1.2963603282995477,-0.5926437015876721,-0.9697377505381757,-0.06820218469250999,0.6722265153946826,0.9180939717643692,-0.5492448937764457,-1.203651177923731,0.392383593153202,0.41439870652914534,0.02134545818347517,-0.7218716963397359,-1.057261395048405,0.40361044473811536,0.5852147854428008,0.2743200154369781,1.2375137847838134,-1.9320570463217108,-0.6796261322812552,1.9244063055541678,-0.3532322037394379,-0.08889498196157349,-0.78051834914615,-1.1856485152124407,0.27161176186489744,0.9191584274552115,-0.8846078482045028,-0.21576480470581716,-0.08637567460613547,-0.8828331036218185,-0.0621764295461198,1.6772874631611516,1.6150312782592504,-1.0126217991011024,-0.9537620269577534,0.557820389870408,-0.13743389670320147,1.3933581061033653,-0.09332539532537755,1.7312529633125862,-0.34606495577505425,0.006765210002922104,-1.0859471440872936,0.24866302808500926,1.0336645069332848,0.19532109670714407,0.7703868449577531,-2.0139866944611713,-0.01949321407880907,-0.940927732270892,-0.6848815670442634,0.7140066648273032,0.35060289086809754,0.8717265949672183,-0.9274941332733017,1.6354884549422182,-0.516054188668619,0.38482620391374456,1.012498896900749,2.389098181830955,0.7760449928734894,0.7958326251721015,0.7641878986876814,2.264289617972171,1.1651933547034936,-0.13480839938555036,-2.12458973052426,-0.3767655460169036,0.7060825042634978,0.8478392148747208,-1.2580134837759742,1.0228510606895824,-1.7086203186271889,0.0790303877987171,-0.6163418743359121,0.009681929404502639,-0.0434182584536916,0.19175802841997042,-0.46529485286325234,-0.2085627423814037,-0.3069483407010041,-0.5998117898500507,0.13304187342707735,0.6872392013639398,-1.0074936084951582,0.7363981455656918,0.834068956708967,1.961685807106399,1.312139367737188,-1.507169493087478,-0.355512154047587,0.7947648985373722,-1.7812310454357627,-1.596090753972817,0.517575352365425,0.3464589632584697,-0.07710900359410507,-0.8943163971490461,-0.016461331876823904,1.7516485483890865,-0.9893972766791517,0.5245492711922338,-0.3321982335601109,-0.2696070662433423,1.3743383315040896,0.711582900802453,0.656165094059625,-2.0462453022090052,0.3548612109970494,-0.5087417555052981,0.5175821168159292,0.519564311453189,0.6082765538101428,0.800504386453284,0.25523999531517233,0.2083069719044718,0.37072957011495966,0.6200966817468082,-2.377318874850835,-0.5640056615342965,-0.16825613605296888,1.6781544389986542,0.25710182590728964,0.6237913859132734,-0.68121985226182,0.35342680763135714,0.08653463859498067,-0.6595728211379897,-0.16622233023817085,0.8459512766151598,1.3835679199892639,0.3101955412416482,-1.3017251996673205,-2.0008558107626966,0.4855035642051453,0.5382813885548217,-0.9624788520840081,0.5322409732350974,-1.5590170264626622,2.124675231220535,-0.586517779441868,-0.480029363727965,0.860167744435526,-0.1954888727877529,-1.2375848309289288,1.9434257791775142,0.43558784344528656,-0.07989707074968944,0.38862190330616864,1.5602171018058733,1.723887617799535,-0.07248673683843175,-0.46994554337077427,-0.005151384565985719,1.2150025170732506,-1.0970209347890996,-0.1701170640639338,-0.23338309902035312,-0.12194606229702423,1.3255207350187852,-0.903245438539249],"rows":24,"cols":24},{"values":[0.148930865745346,-0.05565965599365553,1.502606496537232,-1.3360504639938648,0.08909287184563146,1.134498736096838,-1.1687210504490018,1.1740566753921202,0.8046335005629021,2.2304150950879325,0.2871012933304499,-0.38283251207409297,-0.8274234652625714,-1.0616790135073058,-0.7341604820398345,-1.2830201124312763,0.0406249568823784,1.758813074233134,-0.1477150916549908,0.08062380185859076,0.2432093888971813,-0.6163595616387174,-0.052901030218433516,-1.2215429644427576,-0.38444539509713516,1.4298272893007913,-0.02264426311675463,-1.5694955037562064,-0.015990487813232274,-0.7179740597669574,0.7971228570576419,0.1417653823335226,-0.3389974552885633,0.8892636513605892,3.1875640497341715,1.120768088660037,0.7087972913854574,0.5354195710808112,0.09566589362300454,0.6132447888973144,0.2513960871693672,0.4482978164083856,-1.3190016724001663,0.8452690682648657,0.8269061766164841,-1.8376162068676352,0.45290118242995775,0.4549207214898724,0.14005059645105758,0.22378946397289431,-0.5345887641123322,0.9738994916930965,0.20036708530572922,0.9298280192247016,-0.1365987860954811,-0.04969270645230889,-1.367789564035024,-0.15477035573694056,-1.3447491597134658,-0.016673279684415964,1.187273694118858,-1.141104287203506,-1.2952553928781483,0.4691316622989778,-0.3289988460191645,2.831384985081062,0.10907225345785727,-0.29577750283733056,-1.125396222782523,-0.549446827582624,-0.35602491183290846,0.004579587089285258,-2.614612954881702,-0.36952125766515687,1.7200938486427277,0.31090150306060194,0.1550092102510582,-0.7058542353665265,1.2131390767314831,0.2696209226169723,-0.44240045730852384,0.34773525606838723,0.194603688917812,0.58440155308302,1.5484929958233535,1.405575666709221,-1.2105239593521497,0.28705662592315784,-0.7827870463108296,0.3978618986014906,0.10596500302670911,-1.3985733298837815,0.1584229910655141,1.4467987742614,-0.12619937943815582,0.055278960765808696,-1.434910243556882,-1.3869877798849795,1.5320211493770033,-0.784000622168743,-1.4981743001719725,0.5013440878846828,0.08783249054093356,1.5095736357735954,-0.6775464781287153,0.7345289010186645,0.5909802353683052,-1.51261519700892,0.24123709508466185,0.6973448223513963,0.8673014341450554,-0.48881180117456774,-0.43373840361011184,-0.3527764642980069,-0.9224026394615165,0.687878765942242,-1.348975900139465,-0.8703255002407068,-0.9375237724953075,0.6657861073188078,-1.5720127047527734,-0.10834382069192128,0.03617177618940898,0.5193561494350415,-0.7737583189653626,-1.0277660354565041,1.3561518225577418,-0.6469178136602051,0.36732267100019333,0.21908808654523407,0.538711112490123,-0.8548731140997835,-0.8946930027877107,0.26177671786668283,0.27767542785235466,-0.6017666705257804,-2.516099680324827,-0.41322086963516086,-0.16549288378644225,-1.549525793071895,-0.36017195690450104,0.878839055811283,0.47965208141206217,1.919542848127393,-0.44912162110008635,-1.5221557572447884,-1.1436272690977471,-0.9035760365874342,-2.0522545098100977,1.7841843407172915,1.2258231010133358,0.7241732264995866,-0.49456830579833505,0.47914340753161455,1.1693502769143296,-0.5335422319605811,-0.38179935100836315,2.5045616126457464,-0.431620988972571,-0.41493323957968076,1.0137134648323258,0.8506506516398206,1.2106777877977428,0.18707449555584388,-0.8947893386373288,-0.0018421360231252713,0.5810355328012076,0.5584807535727703,0.17653282752864505,1.3265227014068794,-0.5309161363971764,1.4867731390382932,0.1928309479348622,1.0229765347979274,0.2500717266673667,0.7339630943770447,-0.8033661617417951,-0.24707985762498416,1.3480403240498506,0.579664207905308,-0.40181613513740344,-0.1856010127994057,1.29391531299275,-2.120392870221186,1.3167441957084498,-1.9187023525106846,0.7942240529583632,0.23736296772806928,-0.013399387677549538,-1.079089079276153,1.1673798286906507,0.5231462723219438,-2.5089353500543847,1.4561035792703392,0.5314587807041645,-1.5230019846533345,-0.3481827328327907,-1.0133924755339812,-0.41393920046643645,0.7860204386425235,-0.6674213280206341,0.004996224275851584,0.018872527245308354,0.2702676637197736,0.7838203337450406,-1.3166733002480255,-0.10890862215408392,1.8500812921051215,0.4907844628899305,-1.136882977145043,0.2946985223132915,1.3628278608810713,-2.0302345303736833,1.3936063482949204,1.8029531879526195,0.9759131138736483,-0.5193423147416648,-0.9477369937367841,0.4137165034630608,-0.12492868344551815,0.8440118609757645,1.4538937924457498,0.4456520766166577,1.037449173781672,0.8311122419052956,1.2012116346787507,0.08543358365944995,0.6072171702144951,0.12019000860470538,-1.2258394296547277,0.6352953822218769,-0.3258268419959607,-0.07195272600785489,1.4786777542304355,0.23924050124317361,-2.042746351441903,-0.6778189976322008,0.06551705743902742,-0.6008812135607915,0.6123290124318176,-1.8103249248496467,1.708566964293632,0.1242969533702683,-0.06860342911940555,-0.23744118141548703,-0.3323199275038653,0.19428204902620622,0.8722968543763239,-0.27125684728154936,-1.126497184412692,-0.533299013100138,-0.09729875702843932,-1.1138752625147184,-0.5016196361100363,-1.0723789993331465,0.995434131595561,-0.11914156012763605,-0.5795661781726565,-0.5652233506721167,-0.5150340221885508,-0.10607609577465098,-0.8016710166685521,-0.6514491639363549,-1.4480825858315853,-1.7913928698741932,0.1342613556841011,1.1347414539835925,-1.5984377702301416,0.8136797241050098,-1.342170442417036,-1.9427700639784489,-0.23242491773625773,1.302389140491305,1.0404246953038385,0.11011869498124517,-0.11691537977836036,2.2363177821123177,-0.24784746014349324,1.1099628789647042,1.5113570014451614,0.07520233641390743,1.5960039152181693,1.1496615550512768,-0.8471546615826471,-0.1086733524292268,1.1854571662726827,-0.41036067042426494,1.4571277904261473,-0.6250703731894909,0.5602887224496161,0.46173677299898136,-0.3255034766298726,-0.6995174353333216,-0.22485633128739865,-0.8612811044155516,-0.7590382838613401,-1.1085461806383548,-1.1069861512861672,0.18893563839813926,0.46625364227296767,0.07655127012789621,-0.154570079662472,-0.6119997148755195,-0.6570224233284233,-0.7271826607414689,0.7443125310498897,0.46551288453579864,0.4678450562317236,-0.3348039772881038,1.368718068683988,1.4760225101294717,0.19428881680818738,0.0246047479354082,-0.5182358749174091,1.8360422269774794,-0.4621045141050852,-0.026660628731263104,0.22747965659440117,1.1985832680391815,-1.0007562024286596,-0.0719182577893354,-0.15725916048049537,-0.41435574177454104,-0.22556883312476406,-0.9177541443609164,-0.8607272002374173,-1.0974346339087595,-0.9883275496171694,-0.4171732861989887,-0.3396753681713678,0.2568211622841392,-2.1518011409389644,-0.6617883741610652,1.2278491973550905,2.08500747553415,-1.3378415819548206,-0.7521660368813239,-0.3985588394086879,-1.6428728551021872,-1.4616764657131764,0.4120334369474348,1.0205604615448398,0.8198272580690024,0.44991781058288105,2.320617146486592,1.1752661049190993,0.12884727406936636,0.4962956657526946,0.19247206435877998,0.6210779193930799,0.5129227533405201,-1.555943326710139,1.9331611956763177,-0.6144376271189608,0.0726050023572384,2.145886888513125,-0.16342370081242222,1.666141550807949,-1.2728041785207311,0.7349203114692412,-1.2905704373858664,-0.05054236071304791,-0.7724136187913699,-0.22458272874944962,0.5622174399072978,-0.7703047362858426,0.13889819987895496,0.8668779510267883,-0.12677446057817265,0.9060421188683763,-1.6903553818739216,-0.6583909540700457,-0.4119881192607713,0.6430832470180602,1.0295652027208504,-1.4144748550158255,-0.9742176510710103,-0.7060059296124177,-1.2266751353223666,-1.8718045488407016,1.165566102326849,-1.286139791937733,-0.01950297450041317,0.610834920652172,-1.00398215386032,-1.9562134028643856,-0.9659654930873026,-0.5924595241594675,-1.1237290361195527,1.5227999890394142,0.7855181373956029,0.8111348464121516,-0.2511262793295839,0.01404065814566658,0.16232956233846005,1.1123485283546595,-0.6216025501586104,-2.068502376447467,1.1730963667469256,-1.0088044887494925,-0.2705187177625975,0.37181218547268446,-1.0258615317845325,0.18874434788006644,0.5940835339507105,0.5725990196336807,-1.4610911493664571,-1.9342278850111834,-0.26049444910013003,0.1312201946721249,-0.5047098710758173,1.3166321850826792,0.649622526893693,-0.11124564654205929,0.843601381757156,1.6065874237561522,0.2163695071756742,-2.2082760106108377,1.2711653065798718,0.9441290570534911,-0.24847028853349296,-1.6734123569912438,-0.3414067141295402,-0.3255354393300955,0.3277279994602191,0.41673378238333375,-1.2896943126615044,0.3535622454744937,-0.4448131758347536,0.08418575286916469,-0.523362513258559,-0.7798092205176645,-0.22864477556980176,0.8472369726364892,0.5300478421231961,-0.326897951747824,1.026323121849554,0.02497280813190441,1.1611324875611906,0.17380913416820984,0.3323491007436002,0.5903293392073576,-0.7767077902062337,1.408765635803767,0.7530692103517249,0.2439096049419102,0.2524770077163792,2.631122655028278,-0.1965707111364791,-0.5767883842262107,-1.1321526043390453,-0.29787300495382496,-0.23509379603110692,-0.5401376841598065,1.010887835589467,0.5662135091754955,-0.10878875438126843,-0.08551020616468005,1.2093201824550235,-0.8942632808543158,-0.43615739433382483,-1.9434239173362458,1.8902734654671571,1.101745445432879,-0.4065949934622059,-1.935331849009591,-0.3376030848584145,-0.18907114347004342,1.4473484004144384,1.683727948466529,-0.9940644116512429,0.9279629099094054,0.31827533627656807,-0.9066717959614882,0.23602578766060434,-0.20381896538427724,0.7024171643835452,0.3960610631355599,0.14754328656893867,-0.8927416467928712,1.9268587514053048,-0.9245524978451326,-1.5153537848249552,-0.5971137819071605,0.005498427011523966,-0.9296717368472218,0.595848252268275,2.21611871777801,-0.30955619274026125,-0.49415878497647103,1.3153522281935088,1.4457545728803192,-0.0012754563016536865,1.4095242488026418,-0.5422442478358968,-1.2666239196862241,1.019975811263703,-0.4266700794130895,2.2649903992297187,-0.5722888547527948,1.3251623805067,-1.2658111758930126,-0.7143827894096434,-1.271103273858652,-0.20004570534371746,1.7508524409711113,-1.0921668987570623,0.5156808527899297,0.0657482022230896,0.866503656068674,-0.4922134605176735,-1.0946487601361945,-0.439321100732126,-0.1376687934286981,0.17019018236731148,0.3822212670644478,-0.9931185593726785,-0.869580966941647,-0.16380451520261924,0.9071427638938867,-1.6607788177341452,-0.36635077757358225,-1.2312277421904563,0.21973666936848216,0.07257738624938379,0.2466248216048487,0.15179473579051056,1.411985117393788,0.2694860806282895,-1.643866119684506,-0.34080363880236436,-1.5863321494797493,-2.6242324263238697,1.2390553935380881,1.4795980702562386,0.1740729576092016,-1.2950573953933107,-0.5181136312476242,0.7139238934631451,-0.2168242096964716,0.5427626978325478,0.36407894659629053,-0.5977504161015446,-0.61172150584244,-0.7548017919128739,0.3260313520562592,-0.2270625196019135,-0.45141236668949464,-0.44923672116246843,-0.451685005450938,-0.5589627562744931,0.6231575966049181,-0.5643686992105136,0.9026319668275272,-1.6300384329794786,-0.7416265079978316,1.845307210710128,0.0029966471836716645,1.15485634264651,-1.6433587731593458,-0.6095686149531337,-0.8515735416582564,-0.6983761374398537,0.4578753152104606,0.7291800453103776,-0.07684763345480548,0.1856218731083926,0.45170732181319434,0.1502393066783589,-0.9157688894170589,-0.30438561921295215,0.09364956060568089,-0.08717180401525484,-0.19907340609414373,-0.2894938391540806,-1.213254960574959],"rows":24,"cols":24}],"type":""}},{"type":"*activation.SigmoidActivation"},{"type":"layer.MaxPoolingLayer","data":{"pool_size":2,"input_shape":{"depths":3,"height":24,"width":24},"output_shape":{"depths":3,"height":12,"width":12}}},{"type":"layer.DenseLayer","data":{"weights":{"values":[-0.06009816237648948,0.015234500230296209,-0.032504662926315625,0.027644112386402738,-0.04073122868053103,-0.0049765414424857565,0.03514115192309349,-0.04398573276667249,-0.014252243902489994,0.026658878398811897,0.005447158035150907,-0.008369159369154647,-0.019848146113947324,-0.03169302214674715,-0.006486614503476941,0.023852011103586555,0.009598783026003947,-0.03240769787264291,0.013492468775134514,0.013013099180478287,-0.012159508144863508,-0.015364998730762126,-0.020469544755830054,-0.007214068557285858,0.0020658958313502646,-0.004486459637814121,-0.015174619508872654,-0.010614484081083484,-0.011798632573958459,0.016546660093056897,-0.0029310795575486007,0.005997492762239699,-0.00739470428282754,-0.03641237035673817,-0.000016845723980909442,0.018557936276051835,-0.016228483200141544,0.03315407547828838,-0.03271352278527307,-0.026286089264967713,0.049756547093434654,-0.020085003551782905,-0.010588630622581353,-0.0039821402242176795,-0.006438098941933431,-0.006267966530434854,-0.01588725912753219,-0.004475754389171521,0.011021937670114492,-0.009263707446110837,-0.007126210744354307,0.03845162765852509,-0.0011322866577788164,-0.0029740245905936708,-0.01158775323344608,0.0025022738225773814,-0.013564769483856503,-0.014758403032724262,0.0007273341661596524,0.005833914332427503,-0.03914880377727559,-0.012373668889162543,0.011513877553782872,-0.012233695973900468,0.053877112502830775,-0.011761858177208252,-0.007277954229384474,0.011384537049674397,0.004471857411088957,-0.0022625429540601575,0.019207074418219935,-0.01886679145012853,0.02921834574754529,-0.01888522504696518,0.011167329445116565,-0.0071625629896195624,-0.026210997065266056,-0.018467002348962112,-0.010761772339756646,-0.012198620465814172,-0.011150258501849952,0.03710828103341481,-0.01244139747498007,-0.007842308277976573,-0.0044323956549486496,-0.009374653054240801,-0.010509957082200044,-0.012483306216952147,0.037959896023444656,-0.014206133364542323,-0.013556948923704652,-0.014587678957261596,0.04945526330273412,0.0055242548529025924,0.002003313249837461,-0.04944595810297975,-0.01064432229933035,0.02429062124443583,-0.0062019629117482265,0.012061440976215703,0.011286979458781156,0.002973324481700865,-0.00980131414590668,0.013925061944267523,-0.026847016529643133,-0.012708799683342422,-0.008128459727765592,0.012674774121304693,0.029299855616306953,0.0027266115337420743,0.002735453639313941,-0.011187145381291771,-0.028571437801688426,0.0020724905642591765,0.014167792144399725,0.010976756711299985,0.035830275368143975,-0.01967680052720116,0.01397262616231954,-0.015787922575534123,-0.008533995276388465,-0.027068573967897882,0.013096006103226617,-0.024519552715138174,-0.030292252865049434,-0.016960425637885232,0.004143153260454207,-0.014871924480543924,-0.08128130334391503,0.01280331026447833,-0.03420812495368468,0.018167417687826752,-0.04842283867630641,-0.011364444777849642,0.04021102762984304,-0.06323996842161811,-0.001642764125196681,0.012964305637113807,-0.018897693616533436,-0.009330942414579732,-0.039422207602635845,-0.03439370522843805,0.0013649244591200382,0.021343149562762752,0.020304190050625896,-0.056188736052517674,0.015167366124565162,0.01531867069803786,-0.014145978404943584,0.000950805033490152,0.00316630333269427,-0.005299675798363936,-0.0023954444312513706,0.002545668532142937,-0.01459050728720194,-0.006800026176791469,-0.012670498903921143,-0.007143099466103017,-0.006844689652075965,0.010518631424919505,-0.008579244155138086,-0.08162190838461074,-0.009362261987608674,0.07492613808824462,-0.02707969446345412,0.05113810781684333,-0.0663378147983909,-0.0256569718487833,0.03321513054562893,-0.05453876422863102,-0.03684960194753327,-0.0036726353961086134,-0.025095569766009802,-0.021496723179770045,-0.012496547572837035,0.0008940778326567222,0.010382795076327047,-0.009403453838078784,0.0005398009196316351,0.028045578947139667,-0.013051763706935952,-0.00248423663113151,-0.023736176704816956,0.020676979046531013,0.004072260081513968,0.00486172659599109,0.0038678028384286282,-0.0014198248027321727,-0.04915410299930522,-0.019599285248481403,0.002185127498294198,-0.007374804865652808,0.06097074353322674,-0.023133026485833565,-0.017250155352193094,0.0222820607806749,0.009075382574742065,0.00382280592967493,0.015484846889882244,-0.0228382809116298,0.013040722825064731,-0.014767084863727945,0.016559229066605004,0.01878878229105557,-0.02207433794319698,-0.07201785582110197,-0.015487253603441336,0.005281590896285739,0.0019897668352477065,0.048833673000181106,-0.012496714989982066,-0.018401934835718614,-0.008146947471443866,-0.008751908038892732,-0.003360820394723472,-0.010974799615848272,0.06830558095163086,-0.008601669119561435,-0.012521011588789285,-0.023495887498911572,0.12151304623111753,0.006048110594963414,0.0034712905251497966,-0.07181985817983222,-0.015607359302395443,0.045277381265274586,-0.00092883647556963,-0.0038726061141494774,0.009582141296275368,-0.005635448644308656,0.003387027288442347,-0.010031719607800194,-0.03888008295069319,0.0015625975274893861,-0.0008231426689082487,0.010505002621809345,0.03937627902446201,-0.0031669417895704506,-0.005523993681969263,0.018954285568378148,-0.028854503126280108,0.021454317341894034,0.039203546524160686,0.0064806497198831095,0.040314275348488395,-0.03199344985910645,0.05562860332013487,0.008075449054502868,-0.0036725001712101966,-0.04080405648854437,0.006228382901573798,-0.03125393897626409,-0.03183091526580029,0.007095637822606064,-0.013676115454433223,0.004513856269963728,-0.05361021944816721,0.006248912144480978,-0.04703448950115786,0.019447064304422237,-0.05040041209206418,0.0048622251702099455,0.022820455886086208,-0.05714849487968179,-0.0003466781703674611,0.019123733809037702,0.022113569131625998,-0.00487000304893106,-0.004877970701408816,-0.01811084408815415,-0.0005417907476027745,0.033785997422460246,0.039141858011306326,-0.07078099173923433,0.030240693998272693,0.03409814697539362,-0.011848239188687939,-0.006585036850021712,-0.0036047447201900773,0.012188912004686366,-0.0029351974024263627,0.0030001739439777324,-0.007563495182334542,-0.007228036144750823,0.0014275899814098032,0.029992269843959148,-0.014684254280628823,0.013015654812685656,-0.010697681660698413,-0.03819810903374191,-0.0004288373098626215,-0.01322341824518222,-0.01963265708286615,0.005445337987196968,0.02847371260867509,-0.0028607866089040463,0.02286514000969371,-0.04874704318905874,-0.022081656428189666,-0.005272727075557051,0.0005113144808798591,-0.03333881393299962,0.014434172582990889,-0.007633294296823857,0.0035535390189686935,-0.010517055264109261,-0.007254044130154585,0.008674790479354108,0.00037411167635051547,0.0005462625552707552,-0.018920258233994663,-0.0009796734038704017,-0.01150443936560261,-0.010085527508603186,-0.002208543974942189,0.016654096159854345,-0.028723273669279247,-0.024152177301322564,0.017706329427198884,-0.013444156261632548,0.04013574195647921,-0.025231140854983125,-0.002074998631556199,0.03570071010502762,0.00625485941118648,-0.016072364078826607,0.023578778748100125,-0.030247777260007738,0.03596432443087948,0.03619193623867904,-0.0010410180146520022,0.012957301721564717,-0.00990637478256356,-0.062090643157586584,-0.010631393807859131,-0.0010996355622570366,-0.007611136941943283,0.03763637269538592,-0.0013400340593055149,0.026251500860947418,-0.028523714772494796,-0.00008799718229507741,0.011486001952672,-0.002055206203886965,0.0580897293828454,-0.00285339930563454,-0.00990546655259912,-0.018364646086628827,0.12211466259895651,0.00767899357141777,-0.008605000202762574,-0.07215763760822305,-0.009918823915169706,0.030685057944688333,-0.011496602090415683,0.01320659943321528,0.04421591829353346,-0.0005296892141847288,-0.012448820422105513,0.009793572265121364,-0.03154322827741652,-0.005895761194936674,-0.0066481871086772355,-0.015848771241904456,0.05803217419796524,0.0009713026952642327,0.01089779411783543,-0.014322774739315664,-0.017121699836642534,-0.005537923427717999,0.03319533262487808,0.020147971831707467,0.036733779025968444,-0.06823601510920985,0.0555127113896024,0.01428096698372646,0.006410673096203583,-0.04562132231519032,0.02733348940984732,-0.06233693258984816,-0.019246231654609806,0.026157567166521806,-0.00844079610300218,-0.007477899322563804,-0.06252223174131306,0.023111299295572763,-0.08166032962481579,0.029699308815356783,-0.06845062246794373,-0.0003523964299837249,0.018739650079965267,-0.09294434987744267,-0.012826375381328666,0.01744480708125391,-0.010985802441921095,-0.0017085500200029905,-0.037284510747729004,-0.05527364928355851,-0.008616391682205784,0.041258563374317166,0.04797816757070082,-0.08813752822984883,0.02651236768670958,0.06101756696133694,-0.00958298138321115,-0.010652436973047403,-0.03593874393265997,0.015293643146151037,-0.009798080689479828,-0.013821353874758328,-0.002318288178496746,0.004883239369373745,0.00403912344116261,0.017559593064662767,-0.009977537639611185,0.02170272606675429,-0.007040416475600207,-0.07836366987486416,0.005159907617764694,0.008153894773084388,-0.012259210922918914,0.01849569044026687,0.023982175392061544,-0.04582948198486951,0.017014153947579023,-0.07509916128512491,-0.0019538361554628913,-0.0031275514941730954,0.011694949581233738,-0.0644364443417967,0.007958339615900815,-0.008391883732422334,0.028927894542445334,-0.0030853196431679334,-0.003968832153850591,0.02235981358621972,-0.008876077652426768,-0.003048908313441982,0.002412026401558554,0.008170199570461332,-0.008131085268855557,-0.04195625531114567,0.005559923979410887,0.008167242553878344,-0.02112949313412916,-0.003586882318851778,0.021922906889589512,-0.010556335748975422,0.04302924191926701,-0.06295076338633766,-0.022400243047730438,0.019150606883608815,-0.0019546187359484658,-0.03141604177038335,0.026817207133059733,-0.02097079038308721,0.022918919981469717,0.03637699225032311,0.019980944180371326,0.04423018232243394,-0.020569926055852682,-0.08034244490284731,-0.005163339532391352,-0.010349854378304846,-0.014019230455430047,0.03611777619233116,0.0007637501056566248,0.05913134704302366,-0.01556074330739531,-0.011840667937415152,-0.04600981787900199,-0.004261442292515222,0.05807932666599846,-0.00950345635780513,-0.00008395296838366961,-0.029069770390136033,0.151725793881826,0.014114200734034438,-0.015498923394552333,-0.06679761048029523,0.002281891770728383,0.053531775732499,0.002484339229848887,0.008946034052761743,0.05481976678382504,-0.0005688462125259743,-0.00955251936480293,0.019755881982561858,-0.02725388889925725,-0.002734922485692638,-0.012171943611348565,-0.016524951998912598,0.10606006491353537,-0.01176216996775468,0.02828543508333609,-0.03001077043446311,-0.03573142847548654,-0.021384213634782157,0.043955698058586054,0.03906066309557549,0.038054077688641066,-0.04796960710103494,0.08345393751517226,0.037286468835747044,-0.009184989998880887,-0.07653108272425335,0.04239497723644044,-0.08713683241605716,-0.02472599057701448,0.03724022358450464,-0.005205829288327675,-0.009956287052361018,-0.011838899192942495,-0.04723337995273293,-0.11173628865798,0.0731709775922641,-0.0560544202094478,-0.013923553532070265,-0.02292421735098901,-0.051548107088069214,0.0011449639420549637,0.061619349092472506,0.046893980955065015,0.0025217794619656047,-0.0031917191544540303,-0.04900982545702764,-0.015189881721161393,0.07433927061239824,0.07307131405086119,-0.10487529368100823,0.020648270571260514,0.040746234927738774,-0.00872219466260674,-0.009018498764976539,-0.0033679186778041467,0.030867040216484152,-0.00703490662408075,-0.013538284279431706,-0.004203048586317775,-0.004047724265470283,-0.013001618296210656,0.08500970292141126,-0.0016690844819713599,0.04137740159063734,-0.012862715603857384,-0.1042949773931321,-0.002917858418604028,-0.0814088391468009,-0.0020546376302983537,-0.000046922560255965314,0.02096180913114364,-0.045866355779046526,-0.03502594193870029,-0.0222406913462352,-0.005867804194066986,-0.00960858177483628,0.00495079444761793,-0.08847463264460548,0.035317750341439504,0.0003924405549602396,0.04989903996225989,-0.010625575689594375,-0.013601314246407276,-0.02429583598273172,0.0001980267963886336,-0.000428123165325804,0.002500540851307643,-0.0052377301051973295,-0.0041703028188125844,-0.057199986602692286,-0.010915251930829978,0.026432188630940625,-0.011327776892612863,-0.005882819455327773,0.04985762426328486,0.0003902876251988899,0.014503017995931181,-0.058015576113159065,-0.01550332528818207,0.05647832015814652,-0.0007599421148179076,-0.05273588948132531,0.06750851908643159,-0.016882013001709103,0.05896804155421153,0.038525038617702144,-0.009412051474268967,0.031030176062833113,-0.001049068901622897,-0.1304788772954703,-0.005371614424149302,0.007888089541110583,-0.006021965054197255,-0.01587012337228757,-0.009087494981308588,0.053612904315749915,0.00940300482075546,-0.0034048438654832682,-0.04082476471491276,-0.009608676373960866,0.06149794423316793,-0.014194461587215981,0.0012712403081341645,-0.04065902352691153,0.1482275365077364,0.03165864510698251,-0.01332460788055615,-0.07727919981217293,-0.013880545247036517,0.06744940549000104,-0.00236467621001176,0.0484693190491798,0.04587021938900953,-0.01113559993906881,-0.004492660153678641,0.024028694065814635,-0.007452447601732107,0.013677555008807706,-0.007420421069523357,0.021466802092054253,0.06894021214582942,-0.005021047956034925,0.04420823265217859,-0.15893235370380612,-0.056245887141930344,-0.02690870759533411,0.06278015147446935,0.03912702144235327,0.047627441121837776,-0.10358022816998134,0.05415613408656222,0.023750883152751378,0.011450367979420513,-0.11776088066485628,0.06508246094988238,-0.11232600384861827,-0.017627338374171134,0.039843383575902426,-0.010139794311528819,-0.01317220784331514,0.037340604859969075,0.05015651826786063,-0.008670048568301253,0.02672713014235141,-0.017678539030946436,-0.0008480263432687808,-0.003223115410238464,0.057347507839004504,-0.004509581001490747,0.030788606969658412,0.03411274561832096,-0.008333689577589563,0.04548104053984845,0.02031868090633963,-0.003725372774294309,0.05299894181221352,0.022748380319999435,0.013046337980949414,0.12666951424358078,0.13081488681998044,-0.0007133391912232603,-0.005968167609622992,-0.038441072763173906,0.10312419967016279,-0.011852067100277313,-0.0038483016258117424,-0.001404096627412204,-0.010225507667854874,-0.010546002543090755,0.07501740686281115,0.0017740305892458372,0.005900302703262939,-0.0032880516392634557,0.022556533647813123,-0.013480711974764864,-0.05344299772236857,-0.004100222306486772,-0.029544029258046403,0.11974068916482383,0.06090533012588378,0.03149199978309946,-0.05524520300745222,0.0735128204628011,0.009127320986051906,0.05779750034754767,-0.050407498087736695,-0.03448273662882561,0.0011876648947479471,0.007081314511360208,-0.011466530063539109,-0.006915589253939816,0.019307201175588342,-0.0031004568489760996,-0.01381729656882886,-0.006486042473495063,0.0009694868456673684,-0.0123568674452535,-0.08403579585930475,-0.01203495095266151,-0.009383088959263673,0.014290783012157937,0.012606901535978968,0.10378995094249234,-0.005834820293520931,0.04104850829140188,-0.021560160450422243,0.01596468629615764,-0.015260028029747748,-0.0005027806861971362,0.007963050776509571,-0.07654409543045813,-0.029003441778924628,-0.005729562694449704,0.16340674591121188,0.026918778665007703,0.08254302245583518,-0.02049579879318779,-0.09136165495341599,-0.013829328165253348,-0.00568704800041023,-0.012906711795422493,0.04079340424484722,-0.010615681838528478,0.15835976078967143,0.020436389557750068,0.0015561519414199726,-0.05826264005657741,-0.003947080591326942,0.05527751797818272,0.002549727624082848,-0.00668152490673159,0.01919393452063393,0.10340147289658114,0.005430591660306924,-0.001783353641838827,0.006524681938626256,-0.002717651232143354,0.021111595633520094,-0.012997324359381078,0.016996472117545867,0.00857598693929912,0.0029504310434671937,-0.00903710204008955,0.02746243022457679,0.02027246770025001,-0.0058442783656528574,-0.01451482845706219,-0.0866370918515633,0.15908186462956145,0.0017301199841779761,0.03537217354923611,-0.07507351214237953,-0.0015766601379436087,0.0019109140551614812,0.05478286487223964,0.10311919250395087,0.04520680746699925,-0.01975303121911304,0.10932874573379874,0.04682732850317656,-0.07391419973524507,-0.0634921079385324,0.009936383677398939,-0.05134099446204035,-0.02065590654571946,0.10987823006552865,-0.01496814981332318,0.0044024248411624325,0.12667558642804372,-0.004562937476866161,-0.001966746704666546,0.049485048327192555,0.08554734414515393,-0.001011650055385023,0.00865517788050379,-0.009758661198927621,-0.008021721997325938,0.03793724346901581,0.0898182565628363,-0.007935222836344957,-0.07260745499520263,-0.07780715633227746,-0.003331155666660599,0.04690614822193345,-0.036143159013888905,-0.01992538604532946,0.13747020041613855,0.12366706380826635,-0.005555372320258483,-0.015955562857426026,-0.03157946010708108,0.10533494273656041,0.0011218935423530064,-0.012708597693397041,-0.011151583647421248,-0.007113460987735317,-0.0029326463873232504,0.08003859583817953,-0.00525432764463162,-0.03154159547318821,-0.013111599536001233,-0.017629985402111886,-0.0021818160330052687,0.05367745686163053,-0.05026056476381413,0.01572930106686251,0.07198253825840616,-0.11056886243271702,0.0740490940904088,-0.04699409897493802,0.14771188209958552,-0.0007026726549252538,0.16058295066309666,-0.09272864494098974,-0.020924813986178348,0.008049522739604196,0.05640655266185363,-0.0024407883426978637,-0.008405069110726011,0.007826548867807774,-0.007426146668306609,-0.002346147791191208,0.055233858427224725,0.03925850595511487,0.003980562694247036,-0.11447969996926383,0.003807827578039579,-0.034674961082205885,0.11799340989605688,0.10025996663437842,0.04065299327953761,-0.0011255185843236028,0.07641370594683589,-0.0389094632480646,-0.02253366636119658,-0.06071285175910525,-0.005104075083368678,0.09010626325077789,-0.007492452033875287,-0.02450771917734168,-0.045065410126969026,0.182390865377343,0.012571813292571775,0.12967222258123554,-0.026141200222616363,-0.08969853800900524,0.0020830873260911753,-0.0071355611343428705,0.003408838001778799,0.09257702339627281,-0.007847121902151638,0.1369541614511564,0.07354391127812329,-0.004278655339194924,-0.07200379772804025,-0.009804101690777896,0.044156266245650666,-0.004968455369645901,-0.015726395137527212,0.08533757578268054,0.1878904606966877,-0.0401774922929046,0.0015547206554906011,0.132114214558804,0.003936902819708492,0.02065383366160756,-0.014100930856274741,0.026256723683104315,-0.0048805118094611775,-0.012433094197733655,-0.0118341417368081,-0.04511748359350275,0.12876764469415405,-0.025432499478365417,-0.0071781959685194,-0.15911281311304773,0.19256451106857614,0.0006197309422012524,-0.021680272316082678,-0.014703600338356689,-0.03487548174562272,0.05703460292275391,0.08816352968332228,0.06624051562651241,0.027991809451822985,0.06337439377672756,0.16269676547264803,0.2311544679230312,-0.11441290140449224,-0.04195581802057149,0.03314153172601171,-0.012967223279296154,-0.019093495906298927,0.17832193759439205,-0.004072320486160604,-0.00985489785563881,0.06198323003228482,-0.017679265827575494,-0.04657755363466053,0.049538993920227835,0.026601572421335925,-0.005223838248265584,0.05254672417742275,-0.09341055908349563,-0.007342649430333666,-0.00015990375945807827,0.05180760020749161,-0.0108448735397268,-0.0851224469408137,-0.14150726569163186,-0.0010214714512589262,0.00812773097125477,0.02130506622395397,-0.027750158104530052,0.04952643773618468,0.0539155851794142,-0.007384672372277363,0.0008993707357498299,-0.03105184949836345,0.051578168458775366,-0.010399133179999359,-0.002354900423620867,0.0004237463545977021,0.0030065422658235924,-0.00436136032982918,0.07904870914966575,-0.008518317295595008,-0.008551218469609198,-0.012783408884638352,-0.1872693805781044,0.0015054492868113694,0.16455539683935683,-0.1414683089388524,0.06494354872862969,0.013309153497766617,-0.15002957688167723,0.09183166376469444,-0.05105676997823118,0.07882479062587462,-0.0068203265179752216,0.14732238462130737,-0.07632907792950881,-0.0603250829630126,0.004959065285646901,0.06087234249572381,-0.01278116825933994,-0.016258772822397596,0.025536818729802627,-0.003481812254938143,-0.0018003252568377936,0.07241293475158453,0.018509139494137204,-0.005251603690281189,0.027272380102567075,-0.007356754285299572,-0.13993819725753331,0.08535510689333169,0.1486307460981906,-0.015397183700441948,-0.009705796581372737,0.12651293692560212,-0.045619169819134324,-0.026223464728599273,-0.03168382662693434,-0.008978057067716896,-0.0021550562570558426,0.07933528967163272,-0.024137626914253557,0.037878313979006054,0.07059145577643103,0.050382202940971135,0.04017716774316022,0.00035115581869937915,-0.07169410406621463,-0.0029945868205128044,0.005323449995242747,-0.014419824742565809,0.128083316183728,-0.004690291704853833,0.04457620970242999,0.09339277039386662,-0.013042437643739191,0.08528847041075047,-0.014961902615355172,0.04931019908074377,-0.007759218042924578,0.003530784147624009,-0.007932199744222384,0.12961285860719568,0.0008953024384205625,-0.00671135081753717,0.012410322497197212,-0.002893084710156488,0.023630041908704585,-0.014117189586042696,0.015530436545873326,0.03406583574659409,0.00008849323584092293,-0.009957464901464708,-0.026088989723504142,0.06503275693312395,-0.06871852779680138,0.0025327560196124954,0.05889208714487254,0.12400746373749928,0.0033114298584493865,-0.0622983905961343,0.007103774043750163,-0.024469749830729505,0.032809470374351585,0.026315016938499594,0.008926891779430816,-0.030683527537595557,0.028097915402636845,0.09212107954526431,0.1700099228908329,0.01587460933418126,-0.08854155006306004,-0.004127173850700511,0.02717329616911444,-0.029412650815062117,0.061975831654173676,-0.012396224522123392,0.0013513809713647928,0.006680538552698511,-0.04525387009751286,-0.06423832467115967,0.0337229509445172,-0.016315918411438854,0.00007199679490022016,0.028925644025878897,-0.0762163051460484,-0.0031219979801129895,0.05672302427635909,0.04666201542640103,-0.0010101398608745673,-0.05535185009603738,-0.08987163680738743,-0.01218562866596209,0.06892264830755966,0.06713467744157721,-0.10561833152270443,0.019150056735711997,0.06134088699684956,-0.00379666908753153,-0.011458367665715069,0.024438589448332385,0.03906069042636404,-0.007228641085108302,-0.007221228726063738,-0.0018529513300212606,-0.00695866106118653,0.00017846489975641567,0.0035102645113601963,-0.001735453826964474,-0.023048112581285172,0.004956756904740535,-0.12227130287195472,-0.002118162682558002,0.07712519477409154,-0.0737297552861644,0.03139394937443036,0.01876825928318482,-0.08299171867020536,0.051185044128962416,-0.062205387550603196,0.011291809577558468,0.007183564179637518,0.0718732456380832,-0.12151941496844569,-0.012478218724344263,0.0027044381992299355,0.022460066440373884,-0.01445131148394135,-0.012520448215941267,0.03353858141536793,-0.0026616944779699323,-0.009765177325479144,-0.007214003038306986,0.038606561009238274,-0.014286317133605961,0.005919346294030106,0.0036165589042212757,-0.06770984102836157,0.002842385785381011,0.05706820558364577,-0.01821637092129572,-0.00789240031204425,0.07958960860186177,-0.05232954259669418,-0.041981803966725,0.010290190614632556,0.006855431677231092,0.018933881834657575,0.037253703206368956,-0.025902487973785093,0.05919940539589193,0.03105252025543686,0.001331946188218004,0.02883451612901064,0.014394524840555869,-0.1250668844773422,-0.0028816402937145444,-0.005453975487992436,0.0035137531443186786,0.060625838061241104,-0.004027086327736865,0.02435504201551419,-0.05388205907444622,-0.0029108689327544896,0.0017305762648521605,-0.004330742247320597,0.049974266846662174,-0.010540674056844333,0.0010954587635408114,0.012109997943274685,0.0787897342989406,0.0028394162651367467,-0.011637428846878945,-0.01888946269437073,-0.01351821330747617,0.019195885871615328,-0.0016128688471401594,-0.03315383184690402,0.06736938153235182,-0.009455757393778848,-0.007712083436203078,0.0012415528220185675,0.01541410075053919,-0.052277305856394035,0.001530911706975795,-0.018706807064257047,0.09191021022585778,0.003375529763626609,-0.07353022434323976,-0.006516497626699186,-0.04821675184471479,0.017308160132296517,0.04797317661275547,-0.02629660142810995,0.014651891081200137,-0.055785078983812714,0.08350370871892343,0.1265862186461373,-0.0072929089879000646,-0.09866600446612131,0.032823713743639536,0.002070156643445957,-0.025974596571713054,0.053931803242759584,-0.006894101921151943,-0.007636721731513624,0.04765457983294781,-0.08502298652015182,-0.05793219942729358,0.04725330384067681,0.02264309984466985,-0.014093280929887332,0.03082969231185295,-0.08944674162529259,-0.007209072368009159,0.08025521467817798,0.1228971073340422,-0.007222242047421714,-0.024586147701460174,-0.08798779351229846,-0.010353719082142988,0.05728408560231604,0.08704480411539652,-0.1105772961131568,-0.01262513932521007,0.05973094285789497,0.00013914886598620884,-0.009462078998457012,0.0005672408907455399,0.015573331060317434,0.0030598400931455415,-0.014035379884724555,0.0019652737602748544,-0.007709972607901166,-0.006934369268322227,0.0011958444610097431,-0.014311048253223916,-0.05679320526701426,-0.002032013922003227,-0.13294946685320777,-0.003554620358724938,0.05290231046774995,-0.11659365001375036,0.025174516413365888,0.027906363008676615,-0.04493292531605049,0.07005442565034947,-0.02847091828106753,0.015137674973408703,-0.006218311783526098,0.10100652915163337,-0.19779028751472924,-0.02722357885055035,-0.00027360436254028685,0.06457151253718733,0.0027405351286304428,-0.0011412557797401111,0.06597257684506183,-0.005540518678752034,0.001404391377730711,-0.005291871649122665,0.06049305982917807,-0.010674657008411616,0.032546599069994735,-0.007760633314451109,-0.0770252943483019,0.0628942375427477,0.10827329218725902,-0.03666130980967608,-0.0006634941752015465,0.08595406768779318,-0.047018062742644556,-0.032968406630928176,0.09529963248635735,0.006865759662039231,0.030206892453862582,0.11730602320120355,-0.0178438980459724,0.10092921459942014,0.03291817043766129,0.026731939765245568,-0.015714873300259346,-0.004915000412874821,-0.14900279714688627,-0.008133030367672246,-0.0027225672292607896,-0.0027328034688499465,0.06438291456577055,-0.006409191022989819,-0.005742714554720687,-0.018927760875314198,-0.015219873808307598,0.08641458407864219,-0.006676827768791817,-0.01574055676301016,0.002444699157649804,0.00036712508663547754,-0.005502964924981996,0.07851354184244859,0.02179152379066374,-0.011474278101750016,0.020457449907919346,-0.013728063776519549,-0.03343580232841807,0.005077506458894291,-0.03695303062438675,0.08878958490862399,0.002455731614867553,-0.0011133188889961897,-0.02848183432173393,0.03605792804632104,-0.05721194006160023,0.0021303014136680874,0.00725477838453332,0.10859633169798368,-0.01395559851535586,-0.1512829427035686,-0.02666286074086652,-0.07042319322899099,0.03474652418382454,0.048293616257444875,-0.049592141639955185,0.02543774811743988,-0.11027154450420341,0.01296274540122067,0.18515199305697794,-0.08029252081183563,-0.054488736241482864,0.03177613398266336,0.007194299284714734,-0.021109973409211703,-0.006097113105113644,-0.007260412412518762,-0.011035679276541442,0.0046744180518612545,-0.052384699659664365,-0.07197771108798848,0.02800634943160195,-0.02945243253029908,-0.007692363169640903,0.028282910542118078,-0.026280377999750654,-0.007399474970404789,0.02971920491217797,0.0751137835798387,-0.009105440823982415,-0.026101598684450052,-0.06377378518062948,-0.00375789199908524,0.06682525987829753,0.056915732292632255,-0.04947278039190925,0.04081062845209552,0.0684271541903869,-0.0021200111276866093,-0.015100596334075815,-0.020800841115629732,0.043378901388419516,-0.012879506007989084,-0.014074706850004857,-0.008503999679139826,-0.003636354396895138,-0.006229621100545681,0.033398133084140566,-0.00443576002631679,-0.024759532825251812,0.004408310489458922,-0.06626371640722693,-0.003025237412539961,0.02884686419608454,-0.09838754621610955,-0.0016166356233207424,0.06301681071132931,-0.04236734849400626,0.07814403487768184,-0.0034130879427761106,0.04002152015777068,-0.0016048313054300544,0.08075579283253699,-0.14105477496290245,-0.01217196181536632,0.009683400282988433,0.044618967622431185,-0.000015355129038608142,-0.015800206757823777,0.05178412566037818,-0.00022004715996365326,-0.012169430074226535,-0.016573794679813455,-0.00009583801893511605,-0.015753464360995555,0.02510478085871803,-0.012170162082708911,-0.02245403025610215,0.059076386012793365,0.02844964563200901,0.017011963260890935,0.0010655205395751393,0.04986279629227168,-0.06448081493260802,-0.01385183881700763,0.03426305295811055,-0.005270778789283951,-0.037220791094885367,0.0251107444305373,-0.023622411088862618,0.031019350189012987,0.07020015373661297,0.02688500399378593,0.041774864974207994,0.02395342491851537,-0.05944118730133151,-0.013758270252805835,-0.007603156108209144,-0.001265809708938843,0.037623141226238825,0.003912025027745968,0.01844604099021716,-0.0207692391038607,-0.01446881123321985,0.03533463727269113,-0.005709315181595615,0.04415915446085636,-0.004192540976721241,0.0023179221706171663,-0.027835614813843314,0.043045000406299175,-0.013594220189943369,-0.004380638456831429,-0.04723947125609756,0.0004345866257645401,0.006043288646640768,-0.013791109260708484,-0.00222071147897159,0.059517906015266235,0.0012382628913478345,0.000294665939790486,0.015738672432389692,0.014724203937760711,-0.02375672158610928,-0.006253152967266465,-0.03896570315601584,0.09478011401187056,-0.005329328333129457,-0.028884178845616955,-0.047667008252838955,-0.02829408538948205,-0.019798961176275772,0.05489919078084364,0.029735856583537192,0.009863840316902739,-0.06054055467448823,0.06743390633476702,0.09479157466327415,-0.07071114742823556,-0.08980834332661505,0.05080991729029624,-0.0023041597886096173,-0.02287095147634306,0.023985993244592822,0.00008336384055006684,0.0011665943940240742,-0.013723103329483712,-0.005543318450060797,-0.15113756207228443,0.01601856098282862,-0.0652291419101037,-0.009572418924727542,0.03240162758647779,0.0424042381618326,-0.006707210962618658,0.03887749989786211,0.054713101583378956,0.002526191305134802,-0.10613266155016549,-0.11871224792623937,-0.009534441805584286,0.010860504592693342,0.01169902716625732,-0.03458953979229761,-0.003304373782616654,0.01129127331825768,-0.007068612841388676,0.0012603536184848418,-0.09199857182607446,0.014278536375961713,0.001605081234752473,-0.007670183252447238,-0.0047874889689357,-0.012013040420154077,-0.011744734351665743,0.05081564894234443,-0.015360399325282242,0.00016642939524865033,-0.0075716628773807425,-0.03914992845645648,-0.004041235406866413,0.04601387941085483,-0.0812471756486266,0.027156465086696877,0.022590938118777274,-0.0989157338777808,0.06727765947802515,0.057572850771247824,0.0053422159955614865,-0.0006283330905818918,-0.022036097661587862,-0.0647106883907055,-0.07224647361448318,-0.013571430147501534,-0.011380453030650385,-0.015022881599804538,-0.01643618067905109,0.04557945958523557,0.013616598149588589,-0.0023153234537762342,-0.04321874370881397,-0.005978076657093078,-0.005867248224366958,0.05477103720788298,-0.00012646785632123482,0.0278001177251859,0.03484384109654067,-0.026995512923961653,0.07500756709628316,-0.010386848291448085,0.04584241161922897,-0.11182546746697274,-0.06027777427245993,0.040769715774840135,0.006807818015007996,-0.04076175680800778,0.02998043121996729,-0.020471691351228914,0.045272914117625386,0.0011402138376407007,0.0266619589516206,0.058641380370482,0.024494823132401276,0.038022956580900893,-0.011568847116487948,0.00017824636291176465,-0.004677413518912362,0.016599324329201227,-0.009423721486077783,0.029926848998248896,0.006092950823053101,-0.0037093890583360023,0.02722240877344783,0.0031571357092263406,0.05086749018122753,0.0005687947732357785,-0.007262269270601108,-0.0659687057223378,0.007092613734930345,0.0018997173850355796,-0.01507565437892163,-0.043258357305223684,-0.005063920538414457,0.023402062865185005,0.0020414003506573834,0.011753142141893689,-0.014349648132667028,0.0025317360355358387,-0.005244771423204055,0.020677767844560765,-0.004778775007564475,0.01387451611657639,-0.007110013968184663,0.013253414727316606,0.05471382121709094,-0.015172930034033224,0.03817362651738708,-0.03773614352484952,-0.00815115038783387,-0.02730656104558495,0.058574436039741655,0.05362671764812766,0.01624326993948811,-0.015136392741565053,0.04454039159209214,-0.03540193494862333,-0.026807792617798552,-0.10147534879395408,0.01590342047598281,0.024921184817171545,-0.02041472256689004,-0.007409448279484267,-0.0036375446234523322,-0.012331634761162662,-0.05819080860956786,0.01075196463023467,-0.023303982986102242,0.034968920153317484,-0.03728722684376637,-0.00770186428218913,0.027012573653410414,-0.02883930934863558,-0.007138838002718871,0.03677031146100019,-0.005820134435008697,0.000028777261419297677,-0.004544733348691006,0.0026724196284800142,0.0017273580086770662,0.0250375076217675,0.014491661066999178,-0.03954199997370997,0.03125375704052476,0.042576975276764566,0.0016804732910802628,0.002194734564709952,0.011848237536057052,0.021604029341654982,-0.014534738713699107,-0.0007202785953045026,-0.015689876698044433,-0.007916554757206014,-0.010100413844642435,0.03305716119354165,-0.011998219976000337,0.01212391287721431,0.0024744167034381533,-0.06849944775763785,0.0012304166721741792,0.01813887406459644,-0.017057433179076504,0.021853764437181566,-0.005079811388992881,0.0015830492222874265,0.037092652151770794,-0.06358246955904165,-0.005228296664233376,0.0068139102404767065,-0.024149748457103992,-0.008125875282165655,-0.020403948745846945,0.004048179091531527,0.011316197887464512,-0.011493064063599893,-0.01007786006886786,0.020915311608084065,0.0015644930166955492,-0.007234904499311628,-0.047278124869328274,-0.00782271154901192,-0.011331062447722636,-0.011284810763294633,-0.0011595537235968407,-0.0021266635752590275,-0.027924074809569484,-0.017394431160231552,0.02879951684689185,-0.011300454095547195,0.03043382422107745,-0.007831849533349191,-0.013492836866277405,0.017441851363117915,-0.0014218825454090445,-0.01396551686704469,0.01508210731140687,-0.018812966252832394,0.01658477861613041,0.03818745729924687,-0.000022571796827326314,0.024486951319344624,-0.009318587972412907,-0.06481076585727508,-0.005003482320965161,-0.00007704897479739006,0.002576652726626512,0.04022284018646881,-0.014718242131743083,0.03450316533321531,-0.025809517524406047,-0.003998365484267626,0.015387892038790667,-0.01108863973288039,0.051275157068341286,-0.01228734559163123,0.0007969954214655907,-0.02031548169596215,0.08928060822914884,-0.02549044675221541,-0.015713754204088475,-0.04542177299763577,-0.003816612152142341,0.024095349593646436,-0.009332727699925068,0.014123114519787159,0.027111472607741494,-0.012472197875254953,-0.009802412884713339,-0.005760949799874195,-0.010645831707064264,-0.04219563269157318,-0.0015182781692597515,-0.05871876470794545,0.06173590322521741,0.0016829938376256687,-0.0007513523711868481,-0.01004030305258655,-0.013168520146292932,-0.00045407810375269953,0.04787738811378357,0.03638823550670788,0.04016196476894651,-0.03183836661546674,0.06147274767107695,-0.0013422486776729515,-0.02733268908739484,-0.02837950232570747,0.0268559736187708,-0.028014567262989072,-0.02201675660280652,0.03587318642296377,-0.013040382294419565,0.004148586323920082,-0.10127471637096037,0.07245170883617288,-0.016323734856506393,0.07100758705275982,-0.07411710446961531,0.004876710157182334,-0.015104098254029471,-0.07295069977895725,-0.014625147984375371,0.049840197850663064,-0.019321194934663534,-0.002231274734544896,0.006032769560221977,0.0013239444323489926,-0.0019755955695267237,0.08695606308839575,0.03714131573093638,-0.12664800891349393,0.05481793768226447,0.08190224807279245,0.002788529459899151,0.002918685228489503,-0.012594554339508115,-0.004829763588679523,-0.0012868479065380187,-0.008078058247656231,0.0011986495248561633,-0.012963038107069067,-0.0027684340630591813,0.0023954307036284602,-0.0036102672501937515,0.008300763702489953,0.004507710022110041,-0.08475753954479917,-0.0109953103215128,0.020403750284466,0.017322981118110058,0.04474638596854365,0.021822837951939043,-0.019031338801287667,0.07499040000846051,-0.11118798987792594,-0.050065347073402225,-0.001446594422815265,-0.04766309221336696,-0.043312532708763826,0.04012777245180053,0.0036276225166949863,0.07240214344949959,-0.008169284687690945,-0.015132005803867674,0.04230075349261213,-0.0034142291435246956,-0.011761491684024265,-0.03896220887077718,0.02035099865776889,-0.015114760207408536,-0.06901198791880242,-0.01317727995368198,0.020989924715925822,-0.009851078338194909,-0.015457727303295575,-0.014469236377908132,-0.011794300900543047,0.08158173451784885,-0.019218987932232912,-0.023007809767298486,0.05698067636538407,0.0003179508967037537,-0.003541462475839064,0.026634207895590137,-0.027553007307364534,0.048255245857330056,-0.003055137714348129,-0.013310449869392884,-0.024137912667380957,0.047119665380672304,-0.1187602609808603,0.00038885646486915926,-0.00845008357657663,-0.001457679408197718,0.11357263946580842,0.000884145654957508,-0.006845006862333927,-0.05648147074359558,-0.015818768359806692,-0.03576385265253791,-0.006084082475265543,0.030914577099632353,-0.010054248812228795,0.001010715364131514,-0.02721099636447255,0.08194804589179776,-0.012391630269133565,-0.007192941324992041,-0.08585215126195533,-0.00576751726971987,0.0676252373463023,-0.0046804484425344494,0.05229636435932109,0.04155731841674297,-0.003796932216440564,-0.0011862412003225038,0.0021307560439713384,-0.06944246701478067,-0.03940575650123312,-0.011844266910313877,-0.035381392954949915,0.12170471011484985,-0.008934331446785179,-0.004244413685505586,0.010753547475836968,-0.0134694080317944,0.001190319928811649,-0.016634919660437522,-0.007103914805655309,0.020339297611713388,-0.08363163741057678,0.07374762993881306,0.04558254089919743,0.002439490306341939,-0.034792933300155586,0.07076278133381421,-0.13348932880135186,-0.031294327922433224,0.04680663967798745,-0.000786791402597386,-0.01201302560560363,0.038100840791155444,-0.05884406720496355,-0.05922547042029218,0.0942382416462058,-0.006922796823281234,0.004656064786056079,-0.12092457131550446,0.0004740252690430223,-0.010490021382608936,0.07949323632880737,0.055435462716759594,-0.0007077789378696659,-0.03181313012927953,-0.027108876646073043,-0.01089999655242222,0.01733892619984699,0.04464925130580914,-0.0026870385471739547,0.07651037345294759,0.13659171974454215,-0.008506267336889051,0.0009397278518849722,-0.11349561252580231,0.06861872568319631,-0.012912959595485607,-0.012805722358612173,0.00028873444309704817,-0.007020815435710445,0.0021936783062536107,0.21165735404972563,-0.003846029373514266,0.08145754362814105,-0.00877028632455357,0.017065830244659536,-0.009622966914598439,-0.16753758101085825,0.018470763123164907,-0.06707457966009886,0.10085649049730423,-0.030245913426960275,-0.057914966346203085,-0.033523801039477094,0.07797204642516269,0.001228066417155751,0.004946840927814828,-0.10614919494801645,-0.07324008969513521,0.00431954194921035,0.05136826120424562,0.003639013810864083,-0.010470914650681265,-0.04985119034841168,0.012364764150510606,-0.012625882286953981,0.005003105283012912,-0.0840666039194071,-0.009978469778312958,-0.09815769998817822,-0.004992762431350599,0.06060443905599392,0.041514808009503676,-0.018194887924255842,0.14299230059591306,-0.001303424914324446,-0.12439024093569474,-0.05981422354205276,-0.020613657698631903,0.06767457115986132,0.002780373116221602,-0.07893576306775553,0.04007148626773689,-0.029950879129869212,0.05972322232544849,0.06045371962215071,-0.03631000787256106,0.05716199535918974,0.02367163539764017,-0.0033232032020901582,0.01180925691076077,-0.0063786198375573745,-0.008903353912500243,-0.04731560406493326,0.0033673298429026184,0.0954919694281961,-0.06524747298232872,-0.006794071583934862,-0.11157397056634522,-0.01024207141031989,0.06743720211050326,0.0030708191255278327,-0.000022804514583102858,-0.03578633364386443,0.01150218234375393,-0.0180738907052964,0.0008966843645594555,-0.026385237212402594,0.0014091146732948103,0.09146409175078629,0.0021613480913581333,0.04596474731149833,0.049499274945535625,-0.010668759891257417,0.0017249843822171674,0.06584191869056763,0.04606915893583336,0.03189316637427188,0.0007953983607241306,-0.01900326433123581,0.08235329385546356,-0.012473535019259439,0.11003684551362432,-0.18736380334809508,-0.040040614722206616,-0.11836806923376919,0.0926000158307839,0.10205880231843743,-0.01677223412162178,-0.08050875233598352,0.07810475475038559,0.02124417439588687,-0.018353533894061552,-0.09105583121382081,-0.028181015158102795,-0.1502269398533744,-0.03207831892316571,0.0730350070163806,0.003734075531302845,-0.01492650407588721,0.005076383124418954,-0.043504718600217276,-0.05950224110558008,0.05303983642224833,-0.026229109990109013,0.0041381187457256,-0.09768397723192461,-0.010666075318914274,-0.014523992437031764,0.09449481305062729,0.01038512143617933,-0.014784092561689282,-0.01835121363425237,-0.02305759441073313,-0.014225871210260175,-0.03986020603422819,0.03158672325189716,-0.04968076406438189,0.0348940508941682,0.08914287640916492,-0.002523537831244428,-0.004054044368723541,-0.22907087083793842,0.06514734708716804,-0.011827679848546832,-0.00972057348367642,-0.006530243119716223,-0.010323227787053071,-0.015302957775282403,0.21657855636868006,-0.013618092137931814,0.0979146198207101,-0.010267972649329413,-0.03098357187222801,-0.01110617848875327,-0.0972183528297944,-0.00468973121664453,-0.007108709164937166,0.022666052286732283,-0.021258159236465134,-0.06784113925243974,-0.05946704885621188,0.07358607272104614,0.001748581185586311,-0.003281088194572502,-0.12510234842023965,-0.12441441169449312,0.01191428042168602,-0.019445621195817622,-0.013560291745813672,-0.01926367806488241,-0.008952883774642036,0.013331455310081324,-0.0012192596655180262,0.0056293272221120015,-0.035536957114295914,-0.007803441843536402,-0.1899853109822253,-0.00008428003187263948,0.047184219707096096,0.04832474039814099,0.014410927006946897,0.16111827824635624,-0.01015657989837069,-0.040754009814508364,-0.093376296269427,-0.015900398432136996,0.08198144689933444,-0.009918874971423929,-0.07653245435107375,0.057166291503042824,-0.030605862270531775,0.08532490027467722,0.07247265448284398,-0.07399349102475582,0.06633621715771167,0.026185342138619932,-0.03982444343830147,0.011314243839886638,0.004886329043043382,0.0005897986474512831,0.02634191054963762,-0.0004835481368197795,0.08044329899581239,0.0022063225769979287,-0.006329834464897314,-0.11650243397567234,-0.012611085679096903,0.08978664386454001,-0.0006089212854870703,-0.001807610587874832,-0.07170863427297859,0.02565988984706499,-0.006431329633082902,-0.013171748481479693,-0.03337506886914548,-0.0156534342667385,0.07716353569216497,0.0049478908213656265,0.013816768280021607,0.024168711171540156,-0.004294434671343412,-0.0010275275856373766,0.02492166933013458,0.04625238146223552,0.023188718869807074,0.0017943410119447768,-0.039256606289872084,0.06786029447289453,-0.0065067428290551095,0.13778548686398234,-0.07297893932733117,-0.03619297690080491,-0.07703576054839556,0.07017973437367586,0.10714138263723567,-0.07540982157199261,-0.09097383446367022,0.10195414337220558,0.01260668594420211,-0.06662833974925268,-0.11720995987279764,-0.09520551234304411,-0.18329995691550421,-0.025755030279980485,0.06559149632520861,-0.0016594855427808665,-0.010649946748713144,0.012087620451231762,-0.0032544642394137352,-0.08755530287437999,-0.011001389939580162,-0.03209099745282273,-0.010790625265476892,0.028887111538543644,0.008410173927423525,-0.00137663441800859,0.07879432396239357,0.056059482409141166,-0.002376910457823885,-0.12449488279458246,-0.09426807741512207,-0.012841273694938813,-0.12372470393322939,-0.010691993701175831,-0.052554716857709384,0.04379032243757573,0.07824804015896722,0.0023584375969999565,-0.00790535002641899,-0.13399321221634267,0.10812552405472321,-0.008392939865668688,-0.0025434685427077634,-0.00889103245381872,-0.007572743672536684,-0.0041205888902078654,0.16416798622947307,-0.008021924227134606,0.09783051567117917,0.003887380301383875,-0.10414197074324165,-0.0033805891225922426,-0.05079664351966415,-0.07392851401515785,0.023231241755377413,0.0337452224059914,-0.09916776400370163,0.09425007961794649,-0.01830539571065249,0.07940249077499276,-0.00611271029857414,0.035884781145664756,-0.15866176418913308,-0.15119040465297653,0.01542928265648126,-0.09607599508385532,-0.014764535019861235,-0.01445560787323086,0.03412171651098292,0.003550178422961953,-0.005393555445984005,0.01987920585385603,-0.03728707013592821,-0.001380358918460866,-0.05281352740493263,-0.0006997519821356481,0.02236794135068183,-0.008356738127334784,0.011439035785717838,0.14762672597949816,0.0038126898192932706,0.047014827651214605,-0.09255428768092462,-0.09849444245049203,0.06877212228390747,0.0029157691987697133,-0.06722394466454809,0.04837633467170966,-0.023937222484794497,0.0916279477206741,0.09674816507783957,-0.10166261175538813,0.08277014622758323,0.024671436894133997,0.020940456611315127,-0.002579516437466889,0.006896557134397088,-0.0135467248119621,0.031320595826685095,0.00007338087500604703,0.06759785472566751,0.014345783274617531,0.002202026694152955,0.052425982920997594,-0.011443026791937917,0.16629437298076483,-0.0053776703986162895,-0.002414741004616931,-0.09900584364942032,0.06245657388474912,-0.06709784957541343,-0.00596310572313704,-0.026644900075288504,-0.01139503364019846,0.06549170238897305,0.001387661871468644,-0.026390439602441525,-0.049079296869682765,-0.00805951573999745,-0.0003898798782268085,0.020769091033437246,0.05335806780461731,0.05133760645024072,-0.01309999862803843,-0.06692862510045663,0.08747613799849294,-0.005288732400320307,0.09102994096328638,0.00765566372781463,-0.018461568479271283,-0.02813786640252101,0.08327810138818192,0.1264726934637784,-0.06969016709636945,-0.057959542221423244,0.1338118047148241,-0.03490454427992921,-0.11295839186150396,-0.12655573209340168,-0.1219223520534394,-0.08920295011292884,-0.016818066647227087,0.07404635359579258,0.004268708394453411,-0.0069723559265533995,0.07090703010818729,0.04631156565615918,-0.06801846060086254,-0.029524532304367367,-0.02949025178760485,-0.010443567739748466,0.02214101615917684,0.007119044057754898,-0.0015912426569527174,0.05501368098021719,0.039784537975781305,-0.002004533338173624,-0.10662085859416666,-0.06528358107520592,0.0003685174380028869,-0.07001680377524001,0.007980313662025012,-0.07180976037268888,0.08297059349042378,0.1331935974719351,-0.0044224006738977015,-0.007691260792657842,-0.12304396399640409,0.07119360565269187,0.002808693307380338,-0.013961366035556593,-0.0024443405189409784,-0.0013223060258894862,0.0018400873268974813,0.023000750524265534,0.0002357859459374293,0.07842480973657222,-0.01053661511569642,-0.16386877675445757,-0.006111263094000974,-0.009687937220408923,-0.028252858776418626,0.04012166812655187,0.04287832352463472,-0.08507413093910414,0.18553628119031976,0.011870079128559571,0.036370406642193966,-0.002121686660167983,0.115779004955717,-0.1358407237474147,-0.09411722068931298,-0.002411163928595142,-0.06089059893985163,-0.013384545858584703,-0.014323657770893625,0.023924735870388517,-0.002881458232227939,-0.0037399349370757892,-0.002895284168806712,0.005989093096930623,-0.00851189101728685,0.004804557280477982,-0.0049269664720065975,0.05213792948855571,0.011781578041257281,0.05968100806361798,0.07961635032748232,-0.014646750402362642,0.012560163738469748,-0.06948329078616,-0.09110582059350386,0.05798676002574376,0.0012284259569725498,-0.014179034679743806,0.006011782434952768,-0.021052052081409495,0.05297135091532959,0.06545356627937395,0.042931162905787225,0.09997929544229293,0.0288253297159644,-0.006466727603659484,0.004057703658603093,0.0026711076799278005,-0.0150756208281439,0.06511115811345058,-0.007662935813126423,0.049631036257802505,-0.030261999390283855,-0.012763606047751206,0.09374621844846141,-0.013398023420446128,0.09571182584690886,-0.0011380092949417775,-0.009946926896085638,-0.061048126255807196,0.049142494249645445,-0.02093969678472642,-0.0008455442432210733,0.006591626250184411,-0.008471709135101473,-0.004055141118564589,-0.003100818303744628,-0.05114631369026807,-0.049993297295174925,-0.005470846079771716,-0.005911436682066393,0.02485565604665375,0.04125520697967582,0.056855775838637906,-0.0028903980076639374,-0.13045727078828814,0.07872204431475233,0.00098392802599047,0.014391368104391993,0.09455383835093685,-0.014792456129428812,-0.0125353976057996,0.07863393149365955,0.05987164200324771,-0.04057973713812898,-0.000568126880891566,0.14700423988366795,0.006791690728206621,-0.10853715632569429,-0.09010702530073449,-0.10208915847153249,-0.03202153546424712,-0.026309275810374153,0.07783358189612538,-0.01181351524542466,-0.008587924270270593,0.049938020812151436,0.035922822619709874,-0.01717888731854904,-0.07747298953782475,-0.013433680581455595,-0.011649830749179352,0.11038217111888582,0.07832423413616475,-0.010288597627638387,0.005208218821102653,-0.06934175111136862,-0.003150199596276691,-0.11208410967909495,-0.01936315288044253,-0.011521512215719572,-0.15558465901398846,-0.14021739007899364,0.09164256111718959,0.0636695530866465,0.07496975366321211,-0.006081272752591419,-0.010842434157549,-0.029419038885912536,-0.013502238182644417,-0.009464279500463649,-0.0025022641835516944,-0.000300344555200294,-0.009060629854023677,-0.01022350398828029,0.04459145492075444,-0.012513914938108193,0.02674997772796771,0.005410146348978994,-0.009245664686551941,-0.0059642442129805824,0.0661245886147077,-0.07645861770836682,0.05992893748482306,-0.025695579195509088,-0.06457653264087061,0.15960277555351288,0.0023204036394136535,0.00035860024380976636,-0.008015822292392403,0.039778905159013486,-0.036142436724699335,-0.1815361672218929,-0.0015011764116179167,-0.09230143866282181,-0.010862887710021921,-0.004278645778450239,0.06727559772822707,0.007998304050680525,-0.001067881592353282,0.019742225937739333,0.02689454018509783,-0.01146573778181604,0.12086742604557317,-0.010020807943366052,-0.04435029722735348,0.0009759041352801301,-0.07321198964209466,0.002205095734161024,0.002596021649188446,0.006170776655661708,-0.001969197094921909,-0.11087370941093025,0.007380926593868386,-0.0010191617364554517,-0.01118472001436573,-0.020904369259759005,-0.030414564109003388,0.01008831294760051,0.03710130298641243,0.03052392526195704,0.08905388957142092,-0.0021657141393143166,0.10216149868747995,0.011597134651375967,-0.00957940407726849,-0.004538464969989273,0.06533434676816975,-0.0005214766360334138,-0.08187595015590471,-0.035565979581907055,-0.0044886505926988104,0.18074908634426706,0.003239053018301797,0.06067752861846772,-0.010617329640893888,-0.01276688364069292,-0.08611695679003124,-0.1011988161117917,-0.033597483256276595,-0.015756264704642645,0.017794294192598616,-0.008105352960039659,-0.035737010305518735,-0.0061128205547014034,-0.11708829262586903,-0.20443615229942824,-0.003956969515591013,-0.015062346208327568,-0.10529662225427364,0.014500706125799751,0.024140011803711312,0.0026655582356447213,-0.010371806942150183,0.0002676112134875478,0.0003732563597482186,-0.07321884063079707,0.06222292926043191,0.08399426051665454,0.08283537094551965,0.028739282778614716,0.02137582969877218,0.013866514885329037,0.09850123463946098,0.040470153232371804,-0.05900296388060121,-0.08719258336685302,-0.045803664970948794,-0.16597774913909075,0.018904328520168094,-0.021764980949271484,-0.015474042153160969,-0.007527113966821982,-0.013296711758105203,-0.22236340604412222,0.02004447181702483,0.02368470347555443,0.07112266730424258,-0.14150688847739992,-0.00884187094821757,-0.0034586151275414197,-0.08020242365660177,-0.008368748982416789,-0.04781528640057778,-0.22030765795077037,0.003004284010796424,0.008181410482722796,0.07231584682464584,-0.008305449969527421,0.0028595010834314193,0.000007721694471488863,-0.11979813196902363,0.07339209635890759,0.10805473543029015,-0.01287439692527138,-0.009608636721698849,-0.08408425893873969,0.08655702009598584,-0.012528487457767138,-0.01333743980626227,-0.015389297432522873,-0.00452497855112667,-0.015319134400005971,-0.014217456363696984,-0.00787618753134527,0.06292320283261033,-0.004157919327678122,-0.05066579945706285,0.011116358774088906,-0.13077378601965775,0.005280238867392549,-0.013283618177513267,0.03760562107302852,0.026369811939114272,0.03267454025333783,-0.14969013281313914,-0.08164271803702133,0.000055686322679813217,-0.21770019521561773,-0.007438629264653498,0.014813310338684745,0.00248779580459566,-0.07148775955550019,-0.014875793146667612,-0.01081792958215807,0.027212710563988836,0.0033348100649165757,-0.011843760647546112,-0.25801524614414856,-0.07602440193509628,0.014156003151101054,0.0013470719384707046,0.0016098267881511918,0.03769065729299291,-0.18020834221397997,-0.2045104492854599,0.061994075770703254,-0.008595331715719409,-0.009546437690277442,0.028618821432191664,-0.11102672079048768,-0.00485303262787024,-0.002808593727877334,-0.03260694461319329,-0.12154444742411163,-0.018782324820346318,0.015061723876048014,0.05561794410983862,0.006085373497481363,0.02245050152545269,0.07483827325028934,0.05407702347989192,0.014319616174624381,0.002739034756998761,-0.014549824780939734,-0.011662609073349822,-0.001612904365427251,0.04172745357342786,-0.16624058281235535,0.0001090419168299739,0.08870849735508096,-0.004852748655402819,0.17071288319557945,-0.003930190459685943,-0.010566197427332362,-0.05864353621334313,0.09082421642783511,-0.02257757690651611,-0.014946320528340223,-0.16730912108320378,-0.008359770794422853,0.1430030720806914,-0.004385467176507832,0.0410185282872024,-0.057185221864523336,-0.015888376577939605,-0.007198859590812839,0.030060542441687085,-0.07889360584520821,-0.004522036508616953,0.0009790909282642426,-0.114591320118649,-0.0053755855911304185,-0.00013036749783033028,-0.07339808883587352,-0.04720113217270484,0.022030675232443397,-0.01175940078109922,0.06341502585913561,0.11307918620431516,-0.10063912491017357,0.005393125107177082,0.12657511864370005,-0.2570935295763888,-0.10187040577437902,-0.03956298866949912,-0.002585995141265165,-0.06695801512973733,-0.031495377886881844,0.129901993133614,-0.010622079073581517,-0.012871384084148006,-0.21753017561182258,0.05291015501616212,-0.10210128340852646,-0.015537771384133928,-0.1805464252289384,-0.0059063440942454274,0.044036185988815514,0.0010635581026635426,-0.007517015740588004,-0.03200855192528021,-0.029773078444625057,-0.009979599277450917,-0.1088850476024515,-0.09378129962607563,-0.0010956198865467834,-0.062294851362231174,0.0005536553015918727,-0.14640177989765618,-0.004365820926793204,0.012244574765251285,0.0018163401827005724,-0.008749215310538617,-0.1380490729976957,0.03810128959641415,-0.010727046235547554,-0.0027883038341149392,-0.0016444682272355657,-0.004477125562765988,-0.009685588085850438,-0.015457255446212346,0.004003683964977761,0.07046625649721573,0.0017035022675872696,-0.15046309931981022,0.00558859007280072,-0.0011325600076046315,-0.13868936620193026,-0.0019272443159261826,0.0011165359132724922,-0.09902044151731668,0.1666543024390908,-0.029105244232099276,-0.06333258302286947,-0.0032437994663705185,-0.20369291318656882,-0.07522421260807298,-0.03822728891012691,-0.0029578788488513717,-0.1683056086586334,0.00357407585967385,-0.01397135573789491,0.023645377241053034,0.002031556984036954,0.002940049640779454,-0.17649619387066212,-0.048179156516717454,0.005472363686273472,0.17427001521886906,-0.010411625690773548,0.031013123273546463,-0.15016892062212137,-0.12740076003001988,0.04718824934142002,0.0002164810701921019,-0.057925435544846915,-0.11249213327076737,-0.23359919424990155,0.10181528638945359,-0.002432901524354337,-0.16258340165201926,0.029630418954899478,-0.029896888856456087,-0.031559213809181974,-0.0025008535985958356,0.05285218920804944,0.0711145311616941,0.035516752323629774,-0.018779193671634983,-0.013132003007600963,-0.003392425834266876,-0.0019446137440428924,-0.027372155677857803,-0.009913592351357584,-0.019796213542119058,-0.1386411157648674,-0.01538967003801631,0.17006823046850078,-0.006089424142876188,0.17131982619956443,-0.012877873544321582,0.00048208865588589283,-0.24663517022223766,-0.012266258182494529,-0.04685907701480879,0.00004732963098435249,-0.1828782235413076,-0.0115636904050445,0.07904902799772881,-0.0029011774669102787,-0.10465527914526906,-0.06417169666050035,-0.002532161436166953,-0.009799388494605758,-0.030263860082891562,-0.09249253884270806,-0.017790987375073928,-0.004336230089300002,-0.004284738683595046,0.024307023140299564,-0.010181157743973787,-0.13691010939860812,0.002736051577276465,0.010733823409816262,-0.039702826382530594,0.04866599461338476,0.0455620807060341,-0.1537948574005773,-0.04997045432269784,0.06807848975842089,-0.29873768519452243,0.015421277256603572,-0.07034888732241056,0.014829415652662964,0.0400785245746869,-0.02419214466205703,0.060653845825048305,-0.007481380623395679,-0.0040585382631043365,-0.2448534986281018,0.036410995638633065,-0.09637519393556315,0.10144880312671706,-0.12117048380491319,0.005008447365102991,0.10926923850330293,0.013163611427111671,0.0027926303232304666,-0.022951276501618045,-0.06953183263598214,0.004673906659148025,-0.10348788355554961,-0.06027213041198305,-0.007642650658697591,-0.012206904466706874,-0.05699452893667017,-0.09022837603653402,-0.07532839634801798,-0.1189358491004311,-0.011522931638464679,-0.002698984450836054,-0.019710106036152007,0.020803073536681156,-0.005666022474767258,0.002071328193724762,-0.006586514890743305,-0.010445296394977066,-0.003218254866430969,-0.10050634861098638,-0.007414095387106852,0.09222574146485825,-0.0010085298443957068,-0.10992464187902404,0.003542262099798224,-0.017996153421953646,0.046581667597166726,-0.016422302080755513,-0.016297868721765692,-0.07150743975240641,0.15124677124846775,0.015545266591912707,-0.07776694165939782,0.0070896669702879556,-0.238994758042022,0.05691405390364464,0.004708602281088625,0.0011548500651013872,-0.10870846379456922,-0.009285391679646706,-0.01262333372973954,0.059631130153930484,-0.0029785636442646256,0.001650056262895219,-0.049627582560533096,-0.08914487526156509,-0.0078562888615778,0.20822171575104043,-0.007806879228715468,0.11832917357562033,-0.08064395165001317,-0.2073605388393003,0.04634712113875482,-0.009030088556817887,0.031388922112655024,-0.05473569043217729,-0.09318961719288006,0.05906448642919729,0.0005624936087086763,-0.11583848889981499,0.008452193250979958,-0.028069309241846474,-0.015422692548116164,-0.028612805671649498,0.038450328496292666,0.07039900444973281,0.01536520271498307,0.046075548384601775,-0.014618090103141376,0.0010887379585515162,0.0003723417799256451,-0.011679951594248086,-0.0018726115549448307,0.006835596359171898,-0.002736119184396107,-0.006713832281797374,0.07727501778170699,-0.00698327710626781,0.19842731043576797,0.00030016566607209106,-0.008621554080094932,-0.21681884143356592,-0.017291156077501132,0.032271023254195466,-0.007819147359056094,-0.16398251295600572,-0.0003496840905347557,0.13561928008645543,-0.0033049617263397123,0.055195485618683066,-0.06412424019336876,-0.01019707923545172,-0.0061862907889595285,-0.016397301165682398,-0.061905152018400716,0.07212988446382311,-0.00173108685038167,0.02286628141518789,-0.027709574478241416,0.0029376405583455257,-0.0018052635833249796,-0.005908746711982178,0.07147276587977137,-0.05964085433231308,0.050854055165664755,0.06770612189669602,-0.005940665695881996,-0.026705818446765565,0.034752669715751104,-0.34117255937608015,-0.018941233242126456,-0.020421950198041994,0.014917272366137815,0.00856062339405191,-0.02837933856429039,-0.027958798818529907,-0.008948345516691903,-0.008756640321775703,-0.07772690161239548,0.08721873399512313,-0.10251198831334216,-0.0768797872373341,-0.048037068464637185,-0.014105110166972355,0.035299169434274975,0.11896020475904705,-0.009506072594727723,0.05497594283708729,-0.02180328053410118,-0.004598343428781421,-0.10771174422099133,-0.054928541263334414,0.0020101833172453338,-0.10792518378694889,-0.10027828447019774,0.042037974904951314,-0.0412674589466264,-0.03685541930746626,-0.013740149735749376,-0.00322846177801461,-0.17732929919506502,0.007880123411949564,-0.008919026033804263,0.003184934371225025,-0.013293929218497251,-0.00869617772746664,-0.013002110188398735,-0.04733366865216288,-0.0007318268193886369,0.0053187665471107716,-0.008275792360580863,0.05640741919353643,0.005238090084174191,-0.0767755611374349,0.09764601941894491,-0.02530544714225661,-0.017521933210818973,-0.03253785975354396,0.027177910545030094,0.051195673569673604,-0.014943627546876637,0.007474676166242929,-0.11782589753727121,0.0834725338120138,-0.11277968582583613,-0.0025842899314966077,-0.1655698099090062,-0.010339045716189208,-0.013229173639557942,0.05768013840257718,-0.005969236901081146,-0.014128862839618861,-0.027141596536217675,-0.03125510638165786,-0.007623917778775111,0.08278741280166967,-0.012795951456335941,0.07612741990416616,0.06293804841164369,-0.039390566643921016,0.07756542064062902,-0.014124367457213618,-0.08901520643606425,-0.08784210393105961,-0.08580558356876775,0.06757372948364879,-0.0034165153726219235,-0.09586519453330611,0.0406004029839008,-0.018055276887734638,0.053566726289357054,0.009453526098643156,0.06359805220679526,0.10910071356686779,0.11962682330033018,0.15093207508552636,-0.00010302284707490604,-0.010094748611222167,0.0008398905358704274,0.026835351746523104,-0.001331555082451077,-0.003629568219799628,0.06759713271978664,-0.002763108523355407,-0.08271670566965278,-0.004088783528903983,0.017143735115784042,0.0012822771196183687,-0.008771846443073052,-0.17609582394474357,-0.18360185491347678,0.04874996843953661,-0.015483768850228473,-0.05022021441858601,-0.011184203473800242,0.010765178354606622,-0.010451094397437036,-0.08204194422373984,-0.12411082438349842,-0.010243415571435047,-0.002230603665778931,-0.0619657698397519,-0.025752741118217952,0.03334249309649417,-0.013420251044194335,0.017112020444636108,0.03098878970677536,-0.011412586607054485,0.031362908497615374,0.019540334047765028,0.1300443258674089,-0.02424461279692959,0.02092005741788385,0.09620327100261898,-0.14217871674419041,-0.000007903357828201011,0.014424375822970611,-0.2783299651949515,-0.0006349389559826926,-0.031556325735561164,-0.03593974719330629,-0.006989157817683728,-0.028769416347691725,-0.0847950492791416,-0.0009333976011766411,-0.012685989631213708,-0.09148903815674683,0.1515490227171699,-0.12447061295588924,-0.04168295854836405,-0.10323518239168569,-0.0024218395534795294,0.037456990657265744,0.13467388997410323,0.002068827948356868,0.0909035166199291,-0.09592153922824215,-0.0010669936226858888,-0.09135404313733504,-0.046972097918133275,-0.002436706486355376,-0.07794927164174832,-0.04497356355232799,-0.057101802862332934,0.029180563380305204,0.008442856609413803,0.004930924089040635,-0.0151749360533933,-0.15378975693872737,0.05252246495201026,-0.0019741950489071593,-0.00703371761787384,-0.010114848116565598,-0.008007469569012585,-0.004024363558889909,0.00965559887424833,-0.003589092978157132,0.038666721523432306,0.003036642926655426,0.026747132179873748,0.01219740359917724,-0.15658382731051879,0.03505233824767003,0.027696959671827098,-0.10777804790690874,-0.038166776125887696,-0.02595379301226348,-0.010086181218934193,-0.044534910895448934,0.0022816862911048895,-0.11692203530597092,0.04157563192856443,-0.20172976550256982,0.013013561674907012,-0.07364017438743985,-0.003745967823802369,-0.012075201566109816,0.07707246381185226,-0.003683726850848021,-0.00017020855477528323,-0.04909765890511891,-0.01653078160404017,-0.009988977939114038,-0.030950657341615045,-0.012619510045713999,0.0771604491659618,-0.12220566320526198,-0.10911561718356169,0.06077405795380864,-0.011668653043239137,0.05101719619410777,-0.10691109067397851,-0.17862540839701466,0.08264969922443274,