{"layers":[{"type":"layer.ConvolutionLayer","data":{"depths":3,"input_shape":{"depths":1,"height":28,"width":28},"output_shape":{"depths":3,"height":26,"width":26},"kernel_shape":{"depths":3,"input_depths":1,"height":3,"width":3},"kenel_size":3,"kernels":[[{"values":[0.9877812147565195,0.11028055364422845,0.44702063656432117,0.5890003702688612,0.7331394827913795,1.0225393851246882,-1.6550429214300344,-1.3718508520074408,0.32084599580332873],"rows":3,"cols":3}],[{"values":[1.0741629771714745,-0.215610926154924,-0.3155412085454571,-0.6937404936611673,0.932284111770493,0.8203062420160713,-0.5353602711938691,0.13549389958485508,-1.229950772339797],"rows":3,"cols":3}],[{"values":[-0.3419278757075583,1.4322773705794742,-0.5107792322414209,-0.41106624739869296,0.5964928387789866,-1.0968497197888252,-0.7844072272026947,-0.8272085455548048,1.4181138532997228],"rows":3,"cols":3}]],"biases":[{"values":[-0.19472027994941687,-0.4918524616118821,0.15039195196959593,0.4440877682229829,-1.9351326903747685,0.28335230097517083,-1.1086176279009765,-1.3450215712670388,-0.577436587181387,0.290006576694902,0.3275119278816866,0.24684366764172114,-0.7175704236402589,-1.3561658127672245,-1.2974842219156193,0.13864170759096678,1.4928670218109712,1.0326532134285729,0.9514418882670517,-0.4984726635798685,1.6054871565277382,-1.5320796273846042,0.21305772479735272,1.0685633169936142,0.1083933720467925,1.6361882734284918,-0.6075103210862461,-0.43713183201221195,-1.3185035435776538,0.8579723092617937,1.01027162733065,-0.4416244067201348,-0.14915954012202068,-0.47378232029919726,-0.7822182070073975,0.38894699182295933,0.3184124950072483,0.5844243678321714,-2.122422746273611,0.45896754529113526,1.2676350857276641,2.572600432874261,-0.7830462107424598,-0.9869826377590417,-0.34652838482215004,1.6136042276911915,-0.4393105869992474,-0.6462884075751952,-1.1274125752829531,0.3095813644842999,-0.5024260955253078,1.3292705628350818,-1.0236494606093398,-0.36134645498661966,-2.4211547791087424,1.8418581233173121,0.8806870463545727,-0.8309333611350852,-1.5799159429064171,-0.06855292869302151,-0.39357685861368613,0.7749358483050244,-1.0311154773862274,-1.4689281085180055,1.0511446702112959,-1.0050427554587196,1.136559681219196,0.36348574520619303,0.4851476308423188,0.6525891358705089,-1.4630227966797935,-0.4916108308176083,-0.19074594193503228,-0.5257843703996575,-0.2670974664856612,0.4026202823837016,0.14647205401431562,0.044342234502226456,0.487557953670528,0.5383999672785714,0.10157319130809632,-1.6147869086470799,-3.523463851337063,1.5559753180958564,0.5057757068561674,-0.1049809351703968,0.7275973408578085,-0.6353052236735661,-0.23762585090988467,-0.6943750018876597,-0.10143679097793792,-0.808579140785969,0.8986183429147441,-0.16169229025591564,0.13525637106953797,0.6169059425978719,-2.091920325090211,0.5663829698189451,-1.3820964942633445,-0.745938867967002,-0.1567139531728941,0.9157428875333873,2.5355971267285686,1.5798129962557237,-0.39285674765809037,0.9181615349872766,1.3005337952625244,-0.4643211634412949,-0.43083983730175535,-0.21965148170308713,0.3594864767454323,-1.3228233243023506,2.213835279484443,0.17824862754560505,1.5964846943707087,0.5338865242111894,-0.18208418629727197,0.6102800207205462,0.6349789861960445,0.5722995433376662,-0.5397143816702336,-0.7448281922206526,-0.6879117667977593,-0.6232397817223256,-0.5586837628386112,-0.6522040540575662,-2.6034327508275914,-0.2081849943240964,0.4415587980228541,0.5715420207745082,-0.36520514183453356,-1.2622696830079476,-0.1521471869255713,-0.09988749576590865,0.9966746279608695,-1.025681512625761,-0.9812016763978415,-0.9340677644899629,1.1387739265545764,0.536001944243862,-1.0348801281079298,0.46203770486599394,0.06212759403894988,0.15627247878624895,0.580773913881052,0.6943533721364767,0.9403048217953341,1.651917540734209,-1.4977363617109072,0.924292111426393,-1.9386924155935235,0.6509691598222045,-0.60643014556835,-0.2839602088959807,-0.004758360602794725,0.22257341496568622,-0.16327241152339927,0.40930013842799845,0.6985532087671138,-0.1432265682045888,0.7253660962461902,-0.4693927744017384,-1.8561586150817866,1.3446949273259916,-1.3355001201453665,-2.176348629763974,-1.1238847499420193,0.8851247870941836,0.9014289656223766,-0.47103963696755796,-1.4292898593014167,0.5369015583753921,-0.1815717104990998,-0.3354028918578191,0.46293297818133133,1.017982054733143,-0.6613648413269553,-0.7685533089550863,0.8017028316892997,0.014174478141388308,0.4015655069864743,-0.7673898255392388,0.025105284218429207,-0.24375975146637124,0.5925438471244839,-0.8632035112347267,-0.2605286197738528,2.083111130493287,1.1835818836940157,-0.9068578676528902,0.31092977559667206,0.24542895167310144,0.2733376133628356,-1.1644255694218282,-0.3649598127319042,-1.6970262698436531,-1.1180140546620465,1.898039649022239,-1.0788527339549996,-1.6405455316793174,-1.7777784125149731,0.8773908830516918,-0.7862337787340665,-1.338867116104156,1.374163462616852,-0.5203691866226465,-0.46739338854935003,-0.37962128690586694,-0.38454944233971455,-0.2993204159405822,1.759876485760282,-1.1153460585467936,-0.15370865660377808,-1.961913129775469,0.4856655238213988,-0.7486354214180001,-1.6371459908726493,0.3543863274019532,2.4145459853064706,-0.6674565833342336,-0.023757766829602515,-0.26288466084082895,1.0478028522079883,-1.5496558377123677,-0.019906746159588515,0.6807468310935125,-1.8278464633289355,-1.3052927309068838,0.6872302829584556,1.1182894662025116,0.3779547151859283,-0.39762886143945597,-1.1957187684210264,-0.04273702990214296,-0.033617079223701336,0.28884454322705183,1.455660925215676,-0.46927587320549013,-0.8378823538264968,-0.15034352484644853,-0.47480663522097727,-1.7855591684269758,1.0207284851924352,1.957789985916195,0.15587313175484768,2.457335913693505,1.1927926712805514,-0.3425096453268234,2.2223021563077703,-1.918052174199299,0.8845143184162694,-1.6207974618872123,0.19358897067283867,1.3796056793953186,0.6242099862858577,0.14056322317258582,-1.4205983892719367,0.26916003911073194,-0.2964502368885991,-0.9399197149668687,0.7131322143839226,1.0717402684500223,0.9842132822884754,0.36260064860519203,-0.27740886781355784,1.696524484321555,-0.6317284632697888,0.4541661411436451,0.440244709914147,1.7429503945616447,-0.47938687366885485,-0.7271709497131542,-0.3332976999452838,0.5211846200168719,-1.6056231589208159,-0.6224862878541916,-0.1460320777633818,0.30149994721410983,-1.0869542635102705,-0.3516844293931271,-1.7176890527386732,0.13657704759788278,-0.5766472039675626,0.6347166552456869,-1.4187655765741156,-0.6733430655602365,-0.9537832445418168,-2.3762765577959173,-0.426417944386599,-1.1891043192100175,0.4187901992919408,1.5512837842189577,-0.32621475230732827,2.3646818632189404,-0.24161356610345994,-1.1692469304822701,-4.143315072503644,-0.09359612253746064,0.26690479511873344,-1.8910214863055734,0.4042961549881573,2.0010160455266846,0.11646192883416326,0.7970298251037519,-0.2451885872774738,0.7629865996992572,-1.9089939708542765,0.14499620700236743,-0.7702300808369605,1.504785894570436,1.0543086285968668,1.3661710302885295,-0.4762153445930502,1.6618545146602612,0.6413082575760412,-1.4059477533689912,-0.619274122820638,-0.11957406729243475,-0.4668837073050704,1.0461736073779713,0.35652412610524564,-0.18431385259800426,1.7287093612790168,0.05033395091071154,0.09645804520754712,0.9970262253572587,1.2601925860072671,0.015120100571068175,-0.584232825560983,1.6560969146341615,0.2350162522072453,-1.0452402824976603,-2.72014927606469,0.037182391386338484,0.5440434847638532,0.3041019576140987,-0.7050984114383374,1.042868896530965,0.9927401656701383,-0.7840181606201647,1.2862679376731567,-0.13479815740785236,2.302655178933661,0.20621345621518705,-0.480110242584456,0.37937234242612455,-1.036965439691455,2.5732981542796978,-0.75955499633141,-0.7560192850332214,0.35976336830234285,0.63258504816768,0.14794144248212096,0.29566875122439246,-0.4510745490574803,0.19942513895696698,0.03751185065253991,-0.21188732778116393,0.09792927079941868,1.0316085161123925,-2.0120169902908707,-0.41858604266972055,0.1608384496777491,0.46839466066765906,1.3255837584064818,1.6730576558294101,-1.0082081362027882,0.5501956490439737,0.10932781117928339,-0.02816121530173665,-0.6806540307198692,-0.34987246085833174,-0.05986573761653578,-1.3950731930477223,-0.5848062770063768,-0.6664430900782213,-0.821527027765723,0.6467863772931728,0.2418066257535555,0.4135063452195229,2.7318446531406155,-0.34373473960460227,-0.16066303066430404,0.6678536269190478,0.6770029515887995,0.8365211829548568,0.3081816385016426,-0.13716110067476772,0.8182666407419531,-0.40397314026508113,-1.006955485669664,0.6336500572210425,-1.6710641524557048,-0.37141735668536185,1.6918941003791814,0.638494966573683,-2.238461914934702,1.9592110126280868,1.2033779658211101,0.46422008646250473,0.5670755813358314,2.131885616637686,-0.8537851885153787,0.24676101531680103,0.49553387127005066,0.5259366143937909,0.7727352762516718,0.9208527251471905,0.23698458406675302,-1.7699165128043701,0.8286400269848624,-0.6293377725931059,0.552895644783554,-0.7112327062551116,-0.01797841210709703,-0.37631470897302965,-1.5312493672897398,0.2544358564354505,1.3484228711686055,0.10057036270997143,0.8847269534339699,-1.874924560729266,1.7268111578402545,1.0086886438680698,-0.3467740471653988,1.327426697965876,0.24435030572704136,-0.14584874757744606,0.09401532261782129,0.7163964817596746,1.057706323018782,-0.13402473886784605,-0.9438605776313784,0.00529171742257154,-1.4247120949179646,-1.0797367105492173,0.5191461551965342,-0.41623506766805,0.31009180421402505,-0.8531526782990986,1.2467796461760565,-0.7001280837786816,-0.9135637598334335,0.029202288457203907,1.371218836937201,0.2964033723968584,-0.6160889688459474,-0.6577839028156859,-1.050896526661463,-0.14748008515263095,-0.6207576634682309,0.28334947507768843,1.2503178146228648,0.8960036463235356,3.6090702966200965,-1.3944825382804362,0.47146531507269884,-2.129873389117099,-0.20390347558923935,-0.5098769477170902,-0.05249484364236445,0.3849665220542984,1.3117683992940055,0.5580488288533932,1.2340406211705068,0.18076047225286188,0.408289258425952,-0.8740025350178857,0.019212587394680198,0.7223752454394533,1.1668700681579254,0.3728969091431224,1.4015167353664695,-0.18264363952544813,0.7034363312909472,-0.8051962979177499,-1.4281190723856032,1.0577042347905719,0.22939745148423873,-0.1794396003189352,-0.23292382992777438,2.1720054570682024,0.4049729168713608,-1.5976686592875953,-0.7879744969920365,-1.106352328821738,0.3782941145032181,0.015966701043925714,-0.11472237933638624,0.05929316433680039,-1.478676328351032,-3.0847904655469796,-0.39053549918471664,0.6270954218412096,0.3750323176440931,1.389132264665986,0.3788569805368165,-0.7584451671047238,-2.825392121287899,-0.7415255435986579,-0.26231967909863524,-0.7190339077481391,-0.6521074184686119,-2.532766269340462,1.3083607767786272,1.042247419731787,0.8206352079916719,-0.8821236042300571,-0.39618595620970154,0.8266558166470944,-0.7654307080618556,2.352016665797374,-1.7847830734213883,-0.59640596653297,0.7713815750314333,1.8175512841729846,-0.28100144370195523,-1.5615645412426096,-0.47369972792688086,-0.7580303433706677,1.3411944067960317,0.9137903559043028,0.3088052758112062,-0.19899174775905457,-1.5106833427763984,1.0939267110126007,0.5427452639935747,-1.1666591089221743,1.140502439374062,-0.8136402599903984,-0.34568311494624665,0.9473100431095457,0.8330480947761736,0.4557574623265225,1.1594086278408042,2.1981253894946273,0.7657187635642707,1.7354431063367304,-1.356601027907841,0.17154046317622676,0.7166044399592492,1.1200632453919843,-0.8797589554889125,0.43744972957863504,1.354139053319464,-0.4556343831493198,-0.9914343688519022,-1.95625523002651,1.5436171205750542,-1.8469455211753225,1.532515112180574,0.957358116554629,-0.6454145572107748,0.09269545756198105,0.7611187157654363,0.560034188275931,0.32236450513195286,0.044745601714554335,-2.253735297211969,0.7915294847711232,-1.4419222953158894,-1.7503983740257434,-0.35681360682352103,-0.23098327877151537,-0.3224578522635791,-0.15835707350216072,0.21669414464188871,0.48822673846684334,1.2015741939845828,0.25887754747064445,-0.19579085083875244,-0.3040374886514127,1.0252554842379575,-1.160022049975882,-1.1959517359256848,0.8083858337208376,1.272078103767492,0.559660788366269,-0.12537610264967847,0.9578239824387913,0.10678216317873157,0.22769353284903815,-0.07340313104379903,0.9637492120681652,-1.0730507968110805,0.11431701974979425,-0.46531811029241893,1.9479415252147074,1.0801639740657158,-0.6834427974152298,-2.924124742196001,0.09984674811340871,0.46681515762232284,1.802080395168617,-0.010116204553140329,-1.5703359840039461,-0.3933772028950177,-0.9505730555915048,0.5573587915077916,-0.670106540236261,1.2937266282402542,-0.10170329094622832,1.5438153216866208,1.2073960910348673,0.3146684378890372,-0.6368884512905977,-1.2242141122816206,1.2164000642121615,-0.5151382771465624,1.0347775543897852,-0.4435908216346137,-0.912343022359984,-0.9155853162471094,-0.39354203641288205,1.1441267341030326,1.0295117844600505,-0.2655414260068123,-0.7610676448790403,0.036369986160089685,0.29364252861401163,-0.8148246681366279,0.7475730219734299,0.2611412137946276,-0.08471061521065193,0.14699193812699674,0.8655086704882091,0.6196191943537956,1.2868420339886146,-0.055259408251464304,0.06778479822814071,0.5662000970543017,-0.6132444696586994,0.4785680809212325,-1.0357241771880443,0.2589695039723604,1.8571832254002363,2.2715152484877943,0.18956233763932395,0.18517574734735653,2.4002090596731875,-1.059045500624289,0.25337331376652705,1.489836440331553,0.012512602293342334,1.2562305629082737,-0.27856898296651256,-2.226553320830806,-0.7449632854449688,0.7005370379688994,0.5380579765105686,-0.191318742572264,-0.8137642593037163,-0.06269236751091134,1.7856007401648202,0.02862402422901056,-0.5159013269827146,-0.15386493094649012,-0.9704891977182016,-2.071778352513634,-1.2576382509632813,-0.42279566626950027,-0.4834395428790852,-2.1086357484662446,-0.36756265605512656,-0.6836514832237855,-0.4180722895184049,-0.6970745399137905,-0.8033010391707363,0.014526248648898177,-1.9666954563353456,-1.07518964280424,-0.11410578273574845,1.4115950485054678,-0.8859456961472498,-0.48795762838137097,-0.3832645276204063],"rows":26,"cols":26},{"values":[-1.4970090983384312,1.0045589312908267,-0.6280477535177904,-0.0510450818069151,0.47389494904626767,0.6621630741307954,0.0513266380771166,-1.4615194084841179,0.25543385034505367,0.4711605098310449,-0.6038631643344996,-0.3852059058930007,1.7293640621170832,-0.8663365309729378,-0.32914994963070016,-0.5661850441565143,-0.27303427795705143,0.7010853575629151,0.44963258473352113,-0.18404220672900115,0.49705282566240994,-0.3905890255464683,-0.4331696027456031,0.936271565183792,0.0013742048987779728,0.2792522323258426,-1.1578723324080151,0.8294305754287973,-0.3030843682005912,0.4025833151899584,0.8144093441040198,-0.7478461204993379,-0.6691920357416282,0.29694144942117634,-0.41824836605247184,1.1043155549434045,0.34145680704182296,-0.9591342570217217,0.005147386328331395,-0.13337778497297753,-2.2841824638233805,1.04313190810495,1.5246032651484276,0.11220532106969694,0.8032788572028284,-0.6355287576835298,0.029532633584540335,0.07046435333991354,-0.7046567547231968,-0.027029247424456667,-0.9935073790798503,-0.18325749650253814,-0.848999551284927,-2.0447260279772577,0.4368967762695786,0.13173116082347913,0.09787190212554248,0.2335517457046,0.13136100418589097,-0.9379424249123461,-1.3249145460066833,0.5471711287295473,-0.36310284515284674,-1.2517626860226854,1.5159591715441334,0.38736350424787486,-0.1251618969426334,0.8478384103341735,0.4046836994587311,0.5318727985122713,-0.22227857436972656,-0.07393686559225533,0.25269345852669506,0.401622516898695,1.566671885270582,0.7592228361180804,-0.3835530151867387,2.508419551764634,1.1481171856392758,1.1487310617108533,0.6327114909483497,0.5068773238862041,2.018752328836043,0.8297830469154955,1.8767379897897516,0.31719151366652965,-1.209421180486575,1.4462278533989439,-0.2500239918367617,-0.8559896749649474,-0.07736226295023597,1.3344229883086893,-0.029217204758356707,0.5051616026640551,0.08742489050065415,0.4650410349222668,0.2217409584057197,0.9232525874448704,-0.8018995968743953,0.4648945977871764,0.7807482394113178,0.7753515605817347,0.24042729837812843,-1.3332729509211987,1.6710445734563835,0.14398820122730208,0.6014710717781124,1.8030969126748417,0.687525363152398,0.670355287535669,1.0290333509581429,0.6459518854187369,-0.8634478743514706,1.134231070745095,0.05740773854201397,0.07347238241676525,0.8340308864931998,-0.14125027308650726,-0.8892556441518039,-0.8641974720790572,-0.5250568624067009,0.48731156222337235,0.6223682216025701,-0.9711319720285935,-0.7933390209833118,0.30088878858881424,-1.263058525226499,1.1494721321423234,-0.7695038184222714,1.2118681078507958,-0.0332384106063669,1.1860139498812299,-0.5001755576245928,0.20067025684099202,0.39994302237,-0.12021131568680145,-1.6494809519262548,0.862292992366497,-1.5480235032733842,-0.4133158042382527,-1.051185639638362,0.9772466972330796,-0.5758519558192146,-0.4133449823546206,-0.2716535099219591,-0.5985594076649772,-0.4421314308162816,-0.33574583049742307,0.27778301545151063,-0.38683941043865017,-1.139046995780272,1.274538165849519,-0.2838048524082668,-0.8602478503192118,0.15564373262594983,-1.3121006093904823,-0.0316865598792692,-1.2407522329750624,-0.8527900844406823,-0.7743287694431163,0.9791403548732678,1.6639997948312586,-0.8790571833791526,-1.098519616486195,1.4430381954639753,0.14189910706782363,1.3436684751553245,0.5719786100019688,-1.9242930900772248,0.43377355704222587,-0.5354809521818337,-2.2507930557818607,1.480702474709596,0.5003462411270317,-2.079583823456365,1.322566018119616,1.0569235071447687,-0.8789045149970733,0.8203402079355794,-0.472686538978821,-0.5814333567382057,0.39850246019955243,-0.9994731924703654,-0.01983172922512763,-0.08949343683460728,-0.6174015216531453,1.7314056095791723,1.9808238234591788,0.027972763940716624,0.6108408386152597,-0.1504215249289409,-0.5144427193989565,-0.618295539187958,0.698541051789133,1.4851813118791042,-0.4660361014503975,-0.12712874434858595,-1.4451845957929743,-0.41737800643111944,0.39559093623618885,1.5396112382652403,0.4913298538598587,0.8446144665811832,-0.61621264554702,0.5545634317593727,1.228730780921134,0.04063648819469434,1.7612074708529644,-1.4915153090887356,0.8692028368898237,0.2661761549642211,-1.1509580830577746,-0.11434851699354244,-2.290277703586825,-0.25884637084331114,-0.1431337840313954,0.9570651770947038,-0.6057041549838657,1.6812621391053209,-2.0582607790842853,1.420814607715665,-1.063789890283054,-0.6430904489879996,-0.5409051263358154,-1.1642484606190084,-1.5325538676851345,0.6409239762362763,0.6863568885998802,-0.466918884038096,0.22778762114362763,-2.148317695433308,0.8869340927622594,0.2624751466324985,0.15197223240446064,0.9131147757546931,0.6182685333887598,0.7372047652717822,-1.4872705456711572,-1.032021440400757,1.0268070622224008,0.6865308090362483,-0.5991340337339529,0.7532831760139432,2.0738474644293485,0.9983144759668062,-0.9989228838637553,-0.4379400055138392,0.22827916116649988,-0.28991146866133305,0.7329865166775289,1.895957156351325,-0.4640732516769621,-1.490890127905952,-0.049685631992114634,-0.2761283706369377,-0.20586689458610324,2.0728448533817008,0.36178680577976763,-1.0645209526848212,0.7025479764128342,-0.27502791244245645,0.024938560652280475,0.6958987546568822,0.9900829698652239,-1.9146303787498042,-1.7331171230531002,-1.5589344622013543,-0.5665921675441369,-0.10061736728990768,-1.384347935191327,-0.46174263127399073,-0.16774389373831633,0.6271705174391071,-1.0249294110095966,-0.1805498761986391,0.5755315514107154,1.9857579824095468,-0.9800985711925452,-0.909477695337689,0.22745783810539513,2.230176945549765,-0.568629737533568,-1.201359277444722,-1.0560025145558753,0.2889352105211962,0.4499414259090593,-0.5100259623465834,0.23305042642173954,-0.4505708932063214,-0.7780395772934268,-1.1337309435387097,0.48199292522734605,0.6530005618564849,0.5275303842491461,0.4316487383447115,2.295115463371973,-0.8876681337409428,0.9384364733065688,-0.21186913408009989,0.7730926095067279,-1.182412832311337,0.8542579658885059,0.9863352921373505,0.005853164690409788,-0.23638518510823608,0.6407649143171573,-1.7821750156968694,1.091434821978733,-0.44671462966009384,-0.9409649844194147,-0.8545202556089214,-1.0047762722662885,-0.12125606795555882,2.1261350844841997,0.8343319485673499,0.1745664996150591,0.6366797219877721,0.8970260782815921,0.4187176581157832,-1.6078809485739918,0.9339609951132922,2.2638415843487554,0.4449321573647216,-1.7199210973157082,0.4681322045053808,1.3381625535554678,-0.7103671723132962,-0.5280333502983808,-0.22061958710524074,-2.016996935406535,-0.5814839725753362,2.0006026493485827,-0.9922121178362951,-0.5309657456483048,-0.26374115640206325,1.22900254614696,0.38597761777909206,-0.7861304636794283,-0.09807123681292398,-0.6309057047008771,0.9176048069539865,-0.40004142756974864,0.33200585901210494,-0.9943486205221739,-1.954095847953271,0.5610484592135702,-0.14043578625131825,0.18945860844920248,-1.184224198938169,0.7758818925692803,0.3347851808126392,-0.23929903670142882,0.02096654121961215,1.1071728822501525,0.5511801054914458,0.6495925240114134,-1.1284412414540674,1.6418778556269007,-0.5447569045435596,-1.7286329867823913,-0.9263336423815822,1.6409698399735146,-1.192571007404817,0.3087892214408698,1.8522104729041537,0.06475562321435184,-1.8648893779767155,-0.08126803095484872,1.2135810294941924,-2.0564191225022386,0.0172571401857851,0.8419913855833264,0.11374784671942845,-0.27732295813776203,-0.6077646175202919,0.14370624523857947,0.983379512377831,-0.7161191941164429,-0.07288670602654296,0.5183006684076766,-0.9327076048532046,0.3208487294123759,0.979624177293245,0.8732837829634674,0.847287379033777,-0.1562322190059786,-0.6550629297425439,-0.926064988787082,1.1334844419620016,0.8192346290401259,0.8383722820268786,-1.6732997858647125,-0.19962398015402413,1.3358078713547032,-0.3927881422814313,1.2111989708496305,-1.612304775672468,0.20122852503838445,1.3212247395152965,0.28933650245314346,-0.8728112727109653,-0.1729633421094269,1.111161597740691,1.038158485924642,-0.046908172184526094,-1.0858119493406861,-1.947861559834324,0.5660160815373323,0.3650451112952219,0.2136107280895138,1.7444348898351352,0.23941974880937103,-1.0631049783461346,-0.4717189351717873,1.7004341340945206,0.9613809345186421,-0.06544197919608977,0.5445189977270638,-1.666441229563101,-1.8477501426766632,-1.7133680465240713,0.7071397582950123,-2.077843546259114,0.3273975120772996,0.572597890345717,-0.6931614838725326,0.2924623654333684,-1.2506405304827322,1.3634497568464867,0.9340558773981747,0.9110337192871831,1.3970039203220943,0.7988336856699216,-0.5341584308280736,0.16414290529673023,-0.3957077674877879,-0.7619902256271841,1.8864650260186757,-0.8522587838699036,1.006417904422174,-1.8221505327289647,-0.4504872545234357,2.030770650016404,1.2638760123993111,-0.3869282732441038,0.310692799729073,-1.391123164201649,0.7668360658578955,0.6475318327673999,-0.10255561290439286,0.1994094594656379,0.2781072102848803,0.006380898693053545,-0.32482907455656906,1.2855960450830273,0.5427391576868943,-0.7153346441728484,0.9534649818400152,-0.5271448842963056,1.4293458329198736,-0.2572600569112383,0.937622746403672,-0.19536123063016422,-0.9759869142462427,1.2670095045177108,-1.3615653133512624,-0.34062007422258755,-0.06599038283134588,1.051274449500165,-0.9691371146920178,-0.10229559999973946,-1.7610110802267214,-0.38823493111411733,-1.2705621249067018,1.0603591823208351,0.17078166546953916,-0.2909426318545184,-0.9083579014372979,0.0802245729154754,0.5458796619468983,0.8475956263038539,-1.106931409217923,-1.6189669835635827,0.22751765270952848,0.2808396489172498,-0.6594376327901342,0.2464518419177338,0.4595069269649156,0.6305052658837303,0.524919449201192,1.5361412240091858,1.2581853200025956,-1.5127030822846923,0.08880616840615237,0.5742701502169035,-0.0452895494650491,-0.9467541606007269,0.40394294359453964,1.0688383239479144,-0.6510016806177124,-0.558434069085459,1.0024986414539392,-0.39101906428747674,-1.812818072317339,-0.4199668676590022,-0.3446580752569647,0.864519553995495,-0.48541954512161795,-1.590482539686677,1.2032498894645527,0.4093551084083886,-0.17382190156174684,-0.4569412025391251,0.28913666076079625,-0.14078804269810116,0.5532811201856142,0.46879392492753164,-1.140019773526854,-0.950027338102754,0.86367653369265,0.40350273136488063,0.6428945093292743,-0.9948934485120948,-1.3948071655333396,-0.18483442940814032,-0.563433509773976,0.24121803248796125,1.262865542779361,-0.31165598217759904,-0.6325491667267475,-2.457828135334011,-1.6788875284587392,-2.476409679887403,-0.5590027888822288,0.138856119181684,-0.6477717313077618,-0.27809124322072504,-0.8904098387539939,0.42538899663072377,0.85299078702875,-0.11393986156882227,1.222230340369317,1.5729583678338068,0.15058813718786782,0.42580712717171165,-2.769273988212169,0.9031744293211067,-0.7743473889498861,-0.8403638807132786,2.7761316993041047,-1.1687188525799337,-0.03958015969337309,0.6212138377014107,-1.2253495451491918,1.3727732584211532,-0.16731888782906934,-0.8634820485976502,-0.6073742365494316,0.9463325662357154,-1.210565068412964,0.4071014687784808,0.25680797365102476,0.41318071466466744,1.2434358483397367,-1.2972782912602938,-1.675689937636203,-0.3574013041546079,0.5919892133904459,-1.1656254903347139,0.8458856459780367,0.17611788209956863,-0.0630884290561261,-0.34871378874500397,-1.4087784112335002,1.2361798901717307,0.6321407469947069,-0.9183849858736655,-0.33629215085428804,-0.07067545522461938,-1.024944753630775,0.9978111217678078,0.9651591291525692,-0.5900638621382289,-0.4388087226353856,-0.6460385641188238,-0.020424916287457018,1.180029811406424,-0.5004864558096705,-1.608510828369547,1.7068346610115874,0.16218641898538344,0.6158284546073711,0.8032495869284768,-1.612722691254156,-0.5576628741580594,-0.8334575832965035,1.4081191752139954,-0.09386911420558164,-1.3787613189072905,0.2050726036487971,-0.36807400951214575,-0.47181495219901737,-0.5533546312679571,-0.8476709302862484,0.918164222900183,0.5236201499103657,-0.20698415871729786,-0.09954021374811839,-1.3463161622111737,0.31324318174194665,1.7022481672671996,-0.4086232760232059,0.6902111561278881,-0.8783333099005395,-0.6246298158115549,1.035370975403806,0.9383169675180358,1.6612827594797708,0.2643198610607126,0.40326406368764833,-0.2883973534698752,-0.9517239048526239,-0.5220078983061326,0.5537417156863123,1.6797043347117484,0.5543152221357586,-0.27306790107857937,-1.0456350322266204,1.4903846058120553,-1.3790351757281467,-0.14350537058116336,-1.7170757500546172,0.5895957197506863,1.2866485112973054,-0.5258251867374941,-1.5606675261367133,1.3607440291541133,-1.2159758466687967,1.5681157131584242,-0.8904649409366201,-0.7391964669282467,-1.4544098213670136,-0.2483694680124886,3.185524027004167,1.1553173172761144,0.678240069833276,0.0655448245496435,0.15706000395265074,-0.7061513017972119,-0.36240933900197747,-1.6269882682696664,1.1997719456360185,0.7011005150065022,-1.5852225194371876,0.06695163442336721,-0.04201919863469683,2.072202497900183,-0.8817174414562511,0.6044319634175279,-0.23214887024820352,0.024428872138286928,1.2110625436861793,-0.3602584407524181,-0.5291123519630181,-0.4554451396303061,-0.3940089428272847,1.1751787694616107,0.8100021742435058,0.597872122944347,-0.8966956128458303,-0.5258915707075127,0.16760629007510414,0.04070411696856141,-0.1998112052227915,-0.26174343124879373,1.7916507140772455],"rows":26,"cols":26},{"values":[-0.1651416745418234,-1.2941552334853696,0.10093370341357652,0.39481697200484506,-1.2073641891101063,0.8250204108977804,0.14488194265886428,-0.4605360765541373,1.0176647564438404,-0.5351399541820447,1.8681675943560758,-0.1582231580256007,0.40972310758811725,0.5747376465368832,-0.021842610152344503,0.16256301808354168,0.23139402880310866,-1.0244880924206845,-0.1012926057455113,0.0581950205874241,1.2134411101490294,-0.40668602452535496,-0.5129417203635843,1.4225204341759683,1.3479431519828882,-0.6536219951222059,0.11200603990917847,0.6385376011408054,1.7710775689717553,0.5895984977882105,0.2321005750172292,-1.627916292694181,1.4247551818517001,0.7472701413589299,0.2763856373512505,0.6264616970892974,-0.508801634255928,-0.930756536085037,-0.8032789069191216,0.8718281185918096,1.6994025169246114,-0.26283898225248653,-0.24385030912152203,-0.11297765680615181,-0.7510773352921452,-1.743506978449254,-0.7546393991345712,0.0812070575407663,0.15934392811073725,0.46994712443978454,-1.8365792152480334,-0.7643404640477713,1.5363731964622878,1.0903601661546691,-0.5434302474612227,0.8676944913250187,0.4056067581732413,-0.7544674327922432,-0.10524304909398126,0.9302165672604097,0.3380609440585262,-1.6995327746702775,0.9302390647117774,-0.24347573410137108,-1.3644111122009965,0.7843519431109549,-0.42906654349628987,-0.3970614915048684,-0.5103551589212362,0.9085419210117153,-0.4512140371406292,1.4430342691743274,-0.2647483977058606,1.2597317773274919,0.1530007309273982,-2.535872560972094,1.2909699990869998,0.9139881286792007,-0.8360124195500362,0.7732598829502968,-0.2836107265984717,-0.16686507788606753,-0.05062507901026179,-0.6355316844869795,0.5599280689678136,0.9870780842949063,0.31722341981763863,-0.7702467398724917,0.38258282087978057,-0.09882224107103536,-1.31699075292972,-0.3359263595388215,0.3566194106392922,0.2011238847971814,0.5640747087181208,-0.09966938967821194,-0.3463440827240453,-0.9905737112498149,0.9976678798782744,-0.1259765379665073,0.1295723816008594,-0.1616795076304143,0.5596814018253434,-0.062475622227579214,1.8162407241883571,0.8248172730391058,0.285667033568643,-1.348157822142102,1.5356431128783024,-0.5154997105582577,1.8176590685623757,0.17174736286446848,-1.792814379790301,-1.1399958877856202,-0.28396030945072726,0.21406580005841372,-2.6635844513044806,0.3607038922344416,-0.38609318050359104,-0.3985352280708628,0.6541408774624875,-1.908973242230509,-0.5900229947197512,-1.019402533994693,-0.5749787862223235,-0.41991859294382694,1.0724924301752152,0.8635600091129224,-1.7510040282256911,-0.8228009407073491,0.4058938860849472,-0.26664982239425483,-0.658562560416065,1.6358174816162894,0.4032521205141636,1.0390822644874107,0.184651503276984,0.029228966327924877,1.5011849516339775,0.5482894499908539,0.3145981592537435,0.6104992473450687,1.7200871932368815,-0.43439970039336817,1.4877276244977122,-0.6161399172164782,-0.2124085307558198,-1.2965141635898767,0.398866569828805,-1.2850906476880817,-0.8537770079713218,-0.8298985630275261,1.4360804598366397,-0.5330787351923176,0.7648395524239341,1.5296493982444381,-1.164638745626334,0.8897828344250653,0.6414662467543243,-0.2791483087923911,-2.0267779933446435,2.3398845981161536,-0.4212227309992372,-0.909426209811864,-1.0970397416684423,1.6669341958129948,0.4724643876424001,-2.384799338408053,-0.380890215412659,-0.43307803892069263,2.1202444614852114,1.5379888978778493,1.0961169509449626,-1.3764558519495858,-0.38002285041441713,-0.6376527256583637,0.48242553910482483,0.3516001458002449,2.2636235908691935,-0.7454902157019376,-1.1281169840817773,-1.9639283810261197,-0.7227958745484799,-0.42502788149853643,1.3633801979401499,0.13312435561895647,0.26621522520194485,0.9819245923281651,0.25092398797366744,0.06413916497542992,-0.6708118678925645,1.1965576747023823,-1.1671252359454876,1.5396739485129318,-0.9752300792229346,1.2537420558488206,1.0620680322846245,-0.08485995349890607,-0.12321635233071827,-0.46315954143078697,1.1488408677455666,-0.14401541103807897,1.795921056191991,0.529890500245976,1.5107007584226182,0.4548000716143925,1.14801755020291,0.9951993570567174,-1.4276839999570077,-1.0619155073541902,-0.7130859171480295,1.0626493678961841,-0.08027432414805094,0.2887331846225647,1.446977665501421,0.17366341109852113,-1.4062168227547815,0.4996683812408472,-0.5184860075228748,-0.6483775122412024,1.0197072987020177,0.12323981642376666,0.09929367299359691,-0.6117479020478775,-0.04416373434654951,0.8763140769647222,-0.8131213859760958,0.3057179535649587,-1.2053559284308886,0.23166551581048164,-1.4636906851302434,0.4228430822086534,0.5483063976650895,-0.703369894321934,-0.7424683564904558,-0.4878185646495385,2.279781458002464,-0.8274364548508263,0.5337875741055985,-1.2928495995347726,-0.12085162011921043,1.1727125753914787,1.2912513277038982,0.9237862237473701,0.8232253724658922,0.3365231377456915,1.1831473136232558,1.3467373511071064,-3.3397408757893525,0.028711999051164283,-2.0199039476617817,0.20897428545426877,-2.1559714168584807,-1.2169930718197244,2.296408501021777,0.9414867872558389,0.8769819517932159,0.3725843110229445,-1.1699872457049711,-0.10567200216816856,1.1724291463136847,-0.8378439070143741,-1.875167821181073,0.9963097184901637,1.6273990800553542,0.32501286080112396,-0.42567014309736106,0.18969328906347024,-1.0571335530886985,-0.9126408576420202,0.33373473236343226,1.7895265795168167,-1.4755413839608404,-0.06722207951339969,-0.35488241596138564,0.6685529736608734,0.45136159597604547,1.4620232107034197,-1.1736759437338642,0.010037182004888751,2.0071679187202003,-0.25913516514593093,1.2915040437303538,0.5062878351997937,-1.5501984660795713,-1.4104768024769594,-1.2454587007093072,-1.444006617656731,1.6267433120683024,0.7333060244058668,0.9083874182066802,0.15200338399952115,-0.12887391990540623,0.21043040742847127,-1.2892531370170153,1.1816967346525644,0.2294692370700398,-1.186257900767354,0.07452778948654702,0.5740129458151222,0.0789982185957622,-1.053380293040323,-0.7505296907693217,0.842848303496055,2.0324571991424745,0.12291114698458419,0.9553655385606643,2.0131178761922395,0.5479454435704916,-1.9154899570828743,-2.4269054361282985,1.0531664943022594,1.4236026382702986,0.22771079646517206,0.23255499666502247,-0.1838686323308941,0.10213264943783774,1.0682787835465597,0.17898094065096018,-0.08571146257071359,1.51222579495281,0.4655461791798329,1.6337718854020238,-1.055253673373111,-1.810605965180328,-1.2373712248995614,-0.15319328571827553,-0.7918691056273751,0.100513994197324,2.163588091928798,-0.7386867178687067,-0.6686069877097595,0.12289254879541137,0.525652791648435,-1.8023681439683819,0.07710876280809414,0.07245789157537962,-0.2647595992900052,0.7487695152442594,-0.15803202967873778,0.16934962680178361,0.4776847440965156,1.6058909991358943,-0.4970250808377999,1.1779200730212016,-0.6807552092136065,0.8201268631416976,-1.8299807578521623,0.3801834607492016,0.6869493515267376,-1.0132416829777535,1.9990480802535933,-0.25910796984142265,-0.9586894032686659,-0.33397074133473287,-0.9476012857460915,-1.1630679900012357,0.3658658516879143,-0.3205381293800935,-1.6002814330441928,0.7037038875558771,1.8234324239125372,1.0411953321586025,-0.7766229714080575,-0.964810353651397,0.26760182732798965,-0.06466739987445873,-0.9318902217430319,-0.218015995732083,-0.19847753056567521,0.3266080472136237,-0.9484679684543312,1.0005306690363078,-1.2501288155364707,1.8304565354738502,0.478676764429092,-1.5765038954552562,0.36984313691292203,-0.6160189918199217,0.4471669535391715,-0.14886344596847545,-0.3231907115666575,-0.3128003396428577,0.11710289349168466,-0.9237258069309757,0.027156949143453946,0.7742763881015609,0.08276033392084897,-0.27167597412770444,1.1107944757241035,0.3911467195668717,1.0149108453428617,-0.5219495885984738,-2.3818865859138314,-1.7092818225308597,0.036508489721427846,0.6443270708295781,-1.2192320406606072,0.22195939610039717,-0.1148438361723821,-1.358970590887036,1.187029645464447,2.8883077390051506,0.565736288305693,-0.7304437138969595,1.4076566302757854,-0.41410015657988963,-0.07412737537388621,0.05344481902283122,-1.5694836236172236,-1.6448250662363257,1.9775748514541862,0.3839402538023811,-0.35254271146367316,-1.9859881946967082,-1.5949395797107864,-1.7350129319022762,-1.3042995423655037,0.2255900176575972,-0.4702107564028836,-0.9816994699334479,0.1810742872057008,-0.7188580381896847,-1.3876517302037314,0.07238215707756661,0.6235875334876757,-0.9024408692892488,0.09610334410131423,-0.3785732457330081,0.03405997719426158,-0.7103686087107993,0.2841002837022061,-0.40850655963071736,0.02827291620431266,0.1571909862486218,-2.0454311453092506,1.7702245337439175,0.7182690693508943,0.6091540833918899,-1.5300123969412636,-0.2771233847959877,0.06527697557474041,-1.7213251213039746,0.7321219158124397,1.5676078663003108,0.26535551516561123,0.5942507323468409,0.8794441315432159,0.3906029698290453,-0.33221609126571133,1.5330618391213162,-0.8640722966728664,0.8456444169849076,-0.3294833025217723,-1.0421656733681703,0.004841876139478069,1.1856696713972283,0.5821454476463868,0.4148173299703186,0.9079743030683887,-0.4437809095755709,1.1359455686833166,-2.0369280208042677,1.383228405085963,0.7282007314000125,-1.49589016760545,-0.31401042492286974,0.32831039786528116,-0.23004045373524382,-0.1721659118617106,-0.061185065849757025,1.3839368515677046,1.2454433547854205,0.8766660441584775,-2.487704965820288,0.9132660509969499,-0.2685609857159242,1.678689481598927,-0.5936140133939831,1.3783107723081072,0.7400337719823806,0.9901746314504016,0.04154091557948202,-1.2241383062334343,-0.5653625101906108,-0.6047456200014658,0.017564941749175726,0.4940025778076505,0.777625644753465,-0.4785742900411972,-0.734908652581868,-1.6147588468913419,-1.1463109732510326,1.0268986179715665,2.4971164176492753,-2.1948563165250983,0.3631900859225372,0.08070930206041263,0.6299479213427843,-0.42405495466920057,-0.9867918329194788,0.6761153044883113,1.0517277984422686,-0.48176730732668066,-1.0694843032428851,-1.1989978431653245,-0.7287359242705308,-0.24893496302296594,-0.34135178038932634,-0.2693442110849883,-0.8172029502694288,0.9564360481510045,1.2188337788187453,1.9277716981730493,1.7399434892581354,0.3090562457998072,-1.4625381332005167,1.54157472242005,-1.023879130950937,-1.0669314585668583,0.7836761378067093,-0.7298505151064911,-1.2844440286909145,-1.5364954695658328,-1.264952470182871,0.9465108000017107,0.6751915443755905,-0.49048444816777576,0.24069233131363893,0.3415981726748126,0.15436242957860724,0.7505738656379909,2.2869897887986057,-1.4482958001064354,-0.8884056636527842,1.0391275666379218,-0.8335978828673807,1.6524306070771615,-0.061183124318515386,0.45536574175048145,0.36382409769541496,0.5841097334291986,-0.1466187997849888,-0.37874708136027335,1.8879558621258068,-0.03779267987583588,0.2896515496600695,-0.6759373213506333,-0.6432625383676719,-0.5589827856707529,0.3731281699955069,1.310816617975995,-0.5983438659658941,0.30453799542065,-1.0773617938966977,0.8557598809396334,-0.14721268847947422,1.0680179823136793,-0.6267228300764602,1.3571678902208242,-1.346547319606118,-1.0774950095260152,-0.13968871609485511,-0.4517091558262224,0.31716709060789927,0.8734975990869,0.7017781041151544,0.32920941082032606,-0.30235802716093424,-0.34131608358555116,-0.003955434075697367,-1.377280504537376,-0.8223294378910814,-0.38237169537785104,-0.8854736435673294,-0.5720455906578273,0.005283782241930268,-0.7880781516034097,1.4157101451152707,0.2533351630927875,-0.869446225685181,0.04545200143608974,-1.0264884374513745,-0.4293473812272905,0.33030420862353793,-0.5752267386959486,-0.5555693887552654,0.002088729073392373,-1.306065795182423,-0.4615372547122766,-0.7002117826755636,0.030816701724411644,-0.2724058247098607,1.2915698387420362,-0.7955024959794026,1.1163902670323296,0.4843116808458281,0.07117285636659171,1.374104702300496,-0.8424557477789074,0.2920005210287918,0.6980087339971393,0.7786635600677149,-0.5914887882733579,-1.8067546364483045,-1.404100105826687,-0.10324343405631609,-0.26178275695770054,-0.5997697305247253,1.3682025705969632,0.04903442372533817,1.362909911375292,-0.5663208206639058,-0.15957325443526268,-0.9496334531934921,-1.0053244311436216,2.076572590616887,1.3197534929121257,0.8499317428413328,-0.19963763415875557,0.048807474399127984,-1.187663537866836,0.617158872698121,0.3662347581057066,-1.1004215811048785,1.1040329735775365,-1.3167855098345012,0.5271331624579929,-0.667224577051178,0.23387292102774637,0.8041669445354883,1.826991838826156,1.2081172166219494,-1.160200957591975,-0.2787908642737854,-0.7894718454974586,-1.1297240476228418,1.199920854046368,-1.0700617720515353,0.26828417575649866,-1.6341719642221293,-1.2534574093058146,0.773382324254091,1.526554361435742,0.01320451407215345,1.1737439410689796,-1.1006512550199106,-0.3325557455357145,-0.0852477065875306,0.5442092698381311,-0.006085388972400185,-0.5149857790657323,0.3395781965228059,0.4103787301015662,-0.48584640926002676,0.08592897100222074,-0.40178187472220317,-0.07690328063318141,-0.6504208728541228,0.4904695003149242,0.6893663084160673,-0.4941813645363413,0.7009146939057473,-1.4843441354373093,0.2588061672816322,0.745816967502288,-0.10535908888156897,-1.1364674864373523,-0.35918948456990374,-0.5944373224390278,-0.15707057522588658,0.7675424232173724,1.061112821652475,0.7741507754005648,-0.2358927264398285,0.3722415298730316],"rows":26,"cols":26}],"type":""}},{"type":"*activation.SigmoidActivation"},{"type":"layer.ConvolutionLayer","data":{"depths":2,"input_shape":{"depths":3,"height":26,"width":26},"output_shape":{"depths":2,"height":24,"width":24},"kernel_shape":{"depths":2,"input_depths":3,"height":3,"width":3},"kenel_size":3,"kernels":[[{"values":[0.529699011438313,2.0678208112961043,2.267889418167423,-0.576248519811566,1.0761063107078244,0.4444780550964015,-0.6722733932907067,0.7145941032963302,0.726356151444661],"rows":3,"cols":3},{"values":[1.668372560564285,-0.09750251500918027,0.4496765177754037,0.8927942075249657,-0.29172751907102273,-0.7780691934626245,0.643271193214655,0.48206656967117395,-0.4601965760504219],"rows":3,"cols":3},{"values":[0.07506365625803647,-1.546556885026301,0.29461496660920056,1.6547470335956684,-1.6019564819320449,0.6844804511812638,0.7114243343949166,-1.1603355428796438,1.7161412135397187],"rows":3,"cols":3}],[{"values":[-0.8268209637032834,0.6085277387226278,0.25321510669475944,-0.4434052025174939,0.11033517949435863,0.5113783196833313,0.1783132180171934,-0.18047715952422935,-1.4364030208640426],"rows":3,"cols":3},{"values":[-0.05905775590679789,0.2680418396950771,-1.4546801187204252,-0.36885054509745796,1.169019202612189,1.2785458808252266,1.246986594720767,1.4939474247483802,-0.9012101740693708],"rows":3,"cols":3},{"values":[0.33307140742927105,-1.984591473715416,-1.6780384839038007,0.768333317904174,-2.2443702659814493,0.16914321302019034,-0.5361377494078946,0.3231332242503166,-3.183271727085005],"rows":3,"cols":3}]],"biases":[{"values":[-1.450622451995755,-0.06811761341863687,-0.6366193937462772,0.35824186926176876,0.06575802624805945,1.3512423488121927,-0.06067425025756645,-0.8863994305238715,-2.0683841392018056,0.30879914207508086,0.9782989176913749,1.1815686174467062,0.24033580412657232,-0.5274370375519931,-1.8211901413940197,0.3851792814388685,0.40228442147849336,-0.14477904132041694,1.7868267909009439,-0.08663958274157567,1.0445598282008248,0.7032088475660788,0.5752070110458608,-3.1770955163209083,0.2920904062418899,0.10075462548386764,-0.46543627940898935,-2.1099858740057726,-2.0697557314002886,-0.8809795138865752,-0.03575657827595369,-0.09515982493598817,0.20730302167606196,1.017956636477238,-1.1973669598611019,-0.29359555829916617,0.6576333695273302,-0.10617250179574543,2.266696190563771,-1.159636916230948,-0.28986458318268005,-0.5184698560902922,-0.9856998425669963,-0.22081138740333028,0.3474945724767685,0.37842332583345956,0.09059300501277659,-0.8350637144588219,-0.7475500471519171,0.32430254197840547,-1.836773978762246,-0.1814872996731314,0.2684700839639454,-1.7326308721296708,1.6423346826965488,-1.589115930141054,0.28172740152234915,0.04677311813557732,-0.9863617899557667,0.6263658990019784,1.5640605211665644,0.7183860364280923,-0.29202678975433055,0.09713445388972017,1.9438124814445372,-1.73950986126063,0.576410592720533,-1.10786601098986,0.2031480121765193,-0.8280098706475273,-1.228501937482444,-1.6392702041800378,-0.1885048058712958,0.28745154703020326,-0.36123990428401936,0.7450393004028024,-0.14118404362015124,-0.16668459317734283,-0.16751798560861214,-0.10953181582302032,0.4360386366738094,-0.6129530276602536,-0.5753176597625925,-0.5902848219501331,-1.9923407325266342,0.29641956387953844,-1.924233461361093,-0.15422523369631155,1.0984373713921332,0.11279774842126418,-1.1476133484360664,1.6372307673642852,-0.19795804165985284,-0.6171303876077158,-0.7197915232261309,0.9891856870953646,-0.6041729119446178,0.451471202712763,0.08075265698308975,-1.4325876243746705,-0.4520594265064999,-2.8195915408565497,-0.25423307604610734,0.6296998243403343,1.4150515597926858,0.5236660832769019,-0.3672727117033724,-1.4507538760757615,0.7770834398016029,1.7598347960446759,0.7581418893956801,-0.36565739387695345,-0.05165244833321904,-1.2912984165718895,1.3000926417881147,0.9959811886474885,-0.4751618611564483,0.11168996468764349,0.5759531730124554,0.37626130724969237,0.24074719692959326,1.6284612349833698,-1.9966055011798607,2.1404177384248406,0.03842025519541477,-3.644717954248793,-0.7205129534422763,1.052526625637195,-0.3328489311626536,0.5425105408658036,-1.4070921345579477,1.934400587762681,0.12395778322385251,0.314134954514024,-1.1480454146096892,0.2365870996632007,-0.11942630764066156,-0.5638126240761508,0.09808484531148369,0.47248104682363623,-1.935751367178405,-0.7299777950421629,-0.6140895449304323,-0.7529834966686185,0.30497645607508445,-1.6800275974014287,-0.7414798753345715,0.08331892785962516,0.13828900175671635,0.8279441529132087,1.38964073925292,-1.2135676527222437,-0.86636404343951,1.749539507462195,-0.10256553104837508,-0.4193477672265635,1.0917290556188814,0.04627465781812032,-1.5221277745918647,-0.8712062930227226,0.3199070728379446,0.05306206830920018,-0.5177563366112917,1.0835716482440423,0.95258795521152,0.39271704608715746,0.2889818756298863,0.3636171409956507,-0.7500785364832669,-0.2921738786760698,1.2142556773865254,-1.1322758939348312,-0.08773906799091837,-0.15685756814721596,2.9237230579265514,0.7324414582378445,1.6393521726210418,-0.8970355524853655,-0.007777251097745683,0.07931672130599053,0.15283465436629412,-0.27144781261265555,0.036616121803466066,0.10474062120311112,-1.2752517202874503,1.4819822960867188,-0.10358682460264099,1.232942347769436,-0.5712541530019822,-0.8796879916652677,0.13275255498574412,-1.4680772989380444,0.2077600892269024,-0.3109993509188898,0.7665389064379279,-1.0914865811605923,1.6740210080140558,-1.0418280982903325,-1.2497789269727542,0.10551188212836096,1.2194347435923059,0.49958185048415166,1.221700463095593,1.5924739271071584,0.42869945062156833,0.3243074272479176,0.2025271559096527,-0.5269855260187564,0.6262004158120572,0.1446340584309825,0.17767219496328332,0.2368092409706636,1.2394549328624989,-1.431899213369101,-1.0124862705297362,0.8966422850383877,0.9407459331050254,0.5623980765553838,-1.5492307995281815,0.12494959533026512,0.44427174595389046,1.1823603437998007,-0.42758440046567864,-0.6614611008206231,-0.3563554679264973,0.17023335228616754,-0.4864694620927636,-0.558255447451007,-0.7572465774674427,1.0477451467616872,0.1345107826918214,2.4087087551149438,-0.23277261394256446,-1.5472352010874433,-1.1236017769677185,-0.0942578451204589,-1.02550898231885,2.246554083592251,0.14676554510610326,0.9276839253510182,-0.42850040843371623,-1.5652613305627479,1.5411029240607592,-0.16053041068789722,1.0680205422937294,-0.1592042665023482,1.9733399406289585,-0.8302651851109298,0.32312953456961857,-0.1666630213912157,1.3118616048929086,-1.102162824454442,-0.5452387573951384,0.4459271617102365,-0.16532472173456828,0.07941497590832805,-1.3844381668338652,-0.3798936467130148,0.04896585067848171,0.25986218978554876,-0.9699186527750386,-1.5653803339420311,-0.4198239708580561,0.11278042620179171,-0.915225977420542,0.6452368133347128,-1.0779796045769514,-1.7872043712724366,0.7467367080005994,-1.169698652461748,1.8195103264966386,-1.436745102973059,-1.2872421850647864,-3.465004483116439,-0.35852279340189197,-0.23153865671614604,0.2853045494324612,-0.10147350896291937,1.6894729741143457,0.8329618227240451,-0.13137000227455795,0.23249930681705083,-1.1160146847332015,0.8052323338900966,0.7834684453832571,0.0913802974346092,-0.34780298728326675,-2.13544294313148,-1.1065433567420406,0.5200886702203918,-1.4939552910541694,0.34520855077961443,1.4277252135179783,0.03476486168108026,-1.5084624576801455,2.1747367808681246,0.3304272440035624,1.181190641518392,0.05923958058711144,-0.3880758339530134,0.568556204033852,-2.0183686957958376,0.37091969488665216,-0.1531275560973883,0.5299373349133698,0.3292425902585611,-0.6939713921120335,-0.06743222003195326,-0.46975671418773207,0.6380630709470568,0.000733745253827585,-0.4266792625025121,0.5940037213251179,0.36059499945568924,-1.4421390900181783,0.6426531778146078,-0.4000798827283756,-0.5653381338603487,-1.4062567761314142,0.14096913875291237,-1.1405727890910258,-0.5688107920377088,0.22598418257796082,-0.5654693855498479,0.035696002279884426,-0.17892094176874254,-0.41204247011584116,1.6611680933491488,0.8298387772827658,-1.4531157643643091,-0.4034325866395985,0.03875762050961791,1.0533980229552584,1.137774076215935,0.21777605995415078,-0.5874583157023721,1.6871123363665015,0.36790575796192937,0.08305947641328279,-0.47388462579753654,-1.3328980212285249,-0.06342637712826323,0.4795755760025887,-1.643371702663264,2.584195407163441,-0.6243963837734867,-0.3786378992740276,0.07874294751667844,-0.21453154566894866,1.9444629391829542,1.113689304882606,0.6219801371131704,-1.5254973167058825,-0.13877831222023168,-0.5342845422809616,0.008493311749168684,0.9638434885932636,1.3429268574085906,-0.25149501978309313,-0.2436415160205571,1.4191375864736557,0.43494427291173454,-0.9282998118793897,0.7244355946146324,0.5391826320448426,0.7286072933771648,-0.04580082870098686,0.6604821047378168,0.5275939515231033,-0.4912854574538672,-0.43071362526614454,-0.7531063477305413,-0.20629842440476273,-1.1920398409566937,0.9816950578687637,-0.10472318995708943,-0.8042529670390101,-2.21041978666825,1.8070590845951575,0.524108512540223,-0.947900353379322,0.9947782765427533,0.9456298277627242,0.5201906186025873,-0.26860074240769066,1.9358645053831578,-0.27116219174771605,1.201335147593343,0.3036527050298151,-0.5247013945209,-1.3433066572373848,-0.7992851188366533,0.4430897427411132,-0.8924023347928309,0.4760543349220995,-0.43139554181378187,2.552925239863889,0.21163278924358733,0.4074416675063334,0.15336796883958048,1.4775022950067482,-1.1219198757819169,-1.1515468061517444,-1.276693954355632,0.23326817200687278,0.12442972960524155,1.324166470309425,0.6140475901820843,-1.190436960068934,0.6487268458935407,-0.022244063564690462,-0.028548958101870532,-0.6667178236846806,0.9835881948773771,1.251021854554433,-0.09556136980039637,-2.290537325890555,0.6822739165966916,-0.2623492424965671,0.2985566092227904,-0.33534772025206366,1.5025279268218692,-0.8673018662471627,0.23868827216021393,-0.29628818106043464,0.9550594535860966,-1.404036933946852,0.10786563599075037,0.035485787593745516,0.04767875569902579,0.35449550003147207,-0.6472648054707755,-0.7218131457796028,2.060303775081634,0.06662915347355554,-0.15551412094226785,1.429839181624164,-0.8122519809154933,0.24986308230107626,-0.03776621220848952,-0.8710725712158459,1.0802868718956542,1.1716457082960678,-0.08229235713913505,0.49288263409798444,0.9515558636003046,-0.6585530481695194,1.293655842681313,1.3509412540463144,-1.9120118286850365,-0.07853356278228071,-1.17425758742471,-1.5263796459912709,-0.6313909736659132,-0.224121305010982,-2.189277652643354,-1.0455569461396084,-0.3635032984468103,-0.12426256537464653,-0.7877607959902283,0.43661183853178354,-1.1590650040638422,-2.0139006440284732,-0.5107143111395384,1.3055120896140149,-0.459749163073977,1.5683375752104156,-0.13243011266490276,0.6979709199749513,0.0988717400383253,-0.6452605426144093,-0.18357139678571338,0.24164869802168815,0.47832949596479374,1.9766801180050315,-1.2264641496581985,1.077259068945716,1.0233304646456574,-1.0523444434145612,1.2124520698074965,-0.05600408325532607,-1.176062954509033,0.8423184925379377,2.016973042171313,-0.34118703318591964,-1.6657198715741197,0.1596994264014242,0.7666621568269648,-0.14543052906705195,-2.5002897370200787,-0.12552089009108983,2.0088863828804864,0.5562347848699698,-1.0710653308979377,0.7082453622354011,1.2728418864117454,-0.5308343898726223,-0.8363232707465041,0.912836015576414,-2.726205600021947,0.09638142720233717,0.6530114166487118,-1.4302496252646713,-1.7496922993210258,0.3115863869992607,1.1492790274698064,-1.0717076122023104,-1.1689389522493994,-1.2686107964186968,0.7120432464052692,-0.1938824928902096,-0.9992888403276752,0.32734138716345634,-0.36136918275189306,-1.032695035938409,2.3856027434571185,0.6303010023803804,0.8250653812970687,0.008338010467821969,0.596065717256311,-0.15390692640026246,-1.217285041172788,-0.1664977660084542,0.49249988310948556,-0.33942289731561637,0.8151962272558754,-1.75579070311736,0.21616397086085018,-1.599531541014541,2.447883692929938,0.3442461368162463,0.13342389150771664,0.2887766288021168,0.5870330737386921,-0.3706275077207219,-1.0760273546851593,0.2056604244364896,2.083233254748021,0.1250343842007509,-1.8612320124352453,-0.6171012905841722,1.8521870503683402,-1.0314536818253057,-0.9325169949513622,-1.0517416820255834,-0.41815244335255064,0.027684015009271555,0.7485901625149725,-0.6757026138229468,0.5726616366195949,0.16582563131163536,1.4466391781411063,1.2677855218854803,0.365224845863273,1.0380727760813127,-1.0904740898791594,-0.2512880704945061,-1.1923097398320834,-2.139117498269483,0.8852941071457175,-0.33916433099243837,-0.15166211083712464,-1.9838627581052988,-0.020137946516454577,0.8539506736060902,-0.39453603958073297,-0.9166643959545206,-0.06321121512337956,0.9441639288262952,0.7606632565717085,-0.604362982888389,0.7471824829230188,-0.025374017722836137,-0.5875985100447287,-2.01556335688816,-0.8961063074487683],"rows":24,"cols":24},{"values":[-0.7509897240739872,0.001975149474581331,-2.8381143517345397,-0.4371896203336009,1.236870328188626,0.8986128667270765,-0.4526223382053605,-1.1848222537419284,-0.2579504563124992,0.9284010702660223,-1.0562494268127458,0.7466905476567056,-0.8171659951053479,0.2850809723143926,-0.046225977698936806,-0.33202550001091824,-0.8691511997222985,1.0853116090247727,0.6220783072586399,-0.17579592525001173,0.3757812576215906,0.8437327262036035,-0.18007950947520637,0.8286364661918246,0.349385532158113,0.2673122832328756,0.0038585864012983507,-0.4364613194081889,1.5088667807778169,0.15453253838353737,-0.5011907638242281,0.7478810496777792,-0.12223470815477822,-0.5413944126711396,-0.08770772035230477,-0.7058843841435467,-0.4143068727666503,-0.4562286614653808,0.089954435376846,-0.32403052108888547,-1.091676343599382,0.4242791019893129,0.3346340987079877,0.3483601346680066,0.8323018342396052,0.5504390911506287,-1.358160935331108,0.29701036825263766,-0.43070403361265575,-1.0982272302147742,-0.7267702289916226,-0.00005993317579613669,-0.848328068642668,-1.7799805760801075,-0.6373951597127254,1.209372115009398,0.6713724717481074,0.36377763814486497,-0.7665576097432104,0.368948751959824,1.190898834995025,-0.28066501031004387,0.40243889625106044,-0.7188975965574574,-0.8382823365806981,0.3873324598832796,0.04723907272609354,0.6614499856662622,-0.8523804771899233,0.6429307955114906,1.7053951556056028,-0.019184258278438393,1.9896938841224698,-1.0056489293200905,-1.8751111606041182,-1.0702311278390866,0.9161854658937955,0.05596042435061316,1.8584500347385973,-0.7245693844612169,0.7202914081282428,-0.26806133037403457,0.2664682956602092,-1.1466447138870721,1.9674142847179779,1.7307568577159236,-0.01217899275623214,-1.9522217487467093,0.7333778809636465,-0.6502616966921977,-1.0538244481549923,2.15539061132247,2.073793967817447,-0.617530762890056,0.6268333023254307,1.2633842209091353,0.2113195638312682,0.0016726679662335642,2.1340677161067796,0.6057258860184015,-0.7588525741426911,-0.7648884876290439,-1.4799582917529763,-0.36718968499144844,-0.06232653611018322,1.8309172779213334,0.46382974606786426,-0.8974948270173739,0.07791424731251367,-0.020683864614618887,-0.6469593336888666,1.3101899168949467,1.125764508107076,-0.4723904672201324,0.26334714512970014,-1.760559619868829,0.37006117568314156,1.4789464981536742,2.016536809804928,-1.288935060099663,-0.20377544263064085,-0.3792306764430921,-0.9081135222245296,-0.8279885234397717,0.4767220355596517,-2.280745185277601,1.0296785023736152,1.8859177583567441,-0.7015638380183463,-1.2516833139493129,-0.10993993129890228,-0.8890651535802964,0.07319677403307179,0.3404181892157431,-0.2434921264675802,-2.8836225229921757,-1.5608930691620395,-0.27954775005014454,0.8576488221016632,-1.2264725665213239,-0.7779430740817401,1.2995359881456017,0.2601606941136211,-0.7952032548409935,-2.1574715224249963,0.7372833973294212,-0.7473448587580753,1.075833961484696,0.08033523468832204,0.07486846228098959,-0.9359581364879795,0.544502074058798,1.0661713220816884,0.90156950162106,-0.2665181994631529,-1.3518128701310694,-1.250098891633385,-0.7783441210310438,-0.34292303701132276,0.844214854932927,0.2767256865716954,-1.126696098326862,0.5286112012996285,-0.07550620020175028,-1.146763874821753,0.38505494966989967,0.988593077596971,0.5754432883157498,-0.5386356089325409,0.17575730045436055,1.0581831813832943,2.215001430762183,0.4120327617982008,1.5020330172483494,0.06141648635629674,-0.5573400720596303,-1.6372731831461678,1.407277337563768,0.255153998136563,1.2329559154667369,-0.5548281853757338,0.6644955313518859,-0.4402824744629211,-2.4802658014607633,-0.8422418398130929,0.815634849277402,-1.3670604503244321,0.3803429449554965,-0.13011778908173,-0.04439189665004688,1.049358073826056,-2.178932114998431,0.8387180444540244,-0.728377542248703,0.10131927471555019,-1.9570317369060826,-0.009029486239227858,-1.2274262217211565,0.6797264319719075,0.3868994868157179,1.6128552371887936,-0.9131831814789871,0.9216388462804563,0.4726044505313144,-0.5709566726087477,-0.10948072212474347,0.4282994472610239,-0.16730201953419074,-1.40465608848801,-0.2308161344326308,-0.3842810003103845,-1.2232680426289781,-0.0864159749348696,-0.7365540171636656,1.5178096720346737,1.1243493360668029,-0.4020700693669871,2.274327168211797,0.007464627305938394,-0.6583505721568728,-1.4007679080199542,2.742881327397443,-0.8607129731213099,0.8123194697752849,-1.516163896237361,-0.47474479217042276,-0.8781394729343011,0.9116261930441,0.9335635146410713,1.1928895280742295,-0.4337560803443817,-0.5506395878005345,-0.453594708225231,-1.4130459248769724,1.0418710675952956,-1.7817126580604152,-0.36996897949415763,-1.2804425485308015,0.78236383457684,0.6119088833008749,-0.3950760660024977,-0.7663896387370527,-0.3768257779129117,-2.465651902623759,-1.37926019384082,-1.2674089402533022,0.014452197562864207,0.2831609813966086,0.014277891174773993,-0.7651117525300429,0.5578647070392134,1.1658676906171777,0.4673422097868303,-0.5700717538316763,-0.9136513376024518,-0.14149682118815912,-0.15243730389268337,-0.13699144608525288,-0.37252682792957403,0.05326828385917574,0.7869786569156285,0.784661080732749,-1.0219570170987289,-0.732751910303281,-1.1334969903972547,-0.7212200965779292,0.29354652171499224,-1.4980865171766096,-0.01044920760190438,-0.6608334115337038,-0.14150128905837175,-1.4422942521458406,-0.2716724485102835,0.8657211033008811,-0.055577978741993515,1.2824042549905867,0.9140387872035972,0.10555319161108397,2.390688868073761,0.488003623467447,0.11148366023326509,-0.30606775792047813,0.17711975219115614,-0.7658411126978089,-1.0819631632188145,-0.6658040104757506,0.7329048638319581,-0.5376326252840755,0.6001657593638261,0.09139214743975511,-1.4727881462948538,1.838813242780662,-0.0688889774293013,1.2225242428039436,-0.433755771231303,-0.5666453005105544,-0.8425246209433712,-0.544002700761793,0.6417810648814263,0.17404930622561213,-1.8599034688294334,-0.06194262633925862,2.798886452528653,0.15776858639105967,0.708034840261589,0.06589807777793381,-0.33331860837055993,-0.8486255742603355,0.10207725338179044,-0.6007034706939127,0.659262536805953,0.9098159924820424,-1.4327952307312892,0.17810009639263213,-0.015698809441006344,0.9710728016250464,2.2436553398900707,-1.0824854273486157,0.5188803529946828,-0.9852976275364644,2.376092191120285,0.9806929942412432,-0.06334140887182882,1.1851022905776045,-0.22842305364784174,0.24206888569137236,0.6113667016573967,0.1805408475692239,-0.9605069803489473,-0.2840999332594127,0.7752241041707275,-1.0522091752999365,0.6307652461122667,0.8480138511592089,-0.318080729044842,1.6571084501201683,0.8910327129484534,-2.354708077957845,-1.7091801222648932,1.116912510876011,-0.3717583907466086,0.4942229740589965,-2.8126693111152044,-0.1194357844472131,-0.3542104291253388,0.00930606874092693,0.24533597912130428,1.4090903296216923,-0.5653540453361443,0.49529797912774604,0.4492604871894371,-0.40838622480336284,0.10699343981623473,2.7866986310083908,-0.6089147561621235,-2.2727098593978785,-0.19689267781609862,-1.4927719957142003,-0.34328121113114707,1.1255819313226922,0.8977708320895968,-0.4083924603257209,-0.7172436316920591,-2.582969362161601,0.40107182232360705,1.794998121235555,-0.5269474063610804,-1.9729845403522603,-0.0646015761632314,-1.7787988607859448,-0.4050965370435013,-0.534434283885009,-0.8146823045550962,0.08701694323261905,-0.4264187474150311,0.7880351062163728,-1.0074374435793505,0.3598340180939828,-0.6643076493269232,0.6687456057551056,-1.0073519887009328,-0.9347417550352265,-1.1320556671313147,0.44944418188917495,0.3270557229855918,0.916472727329665,-0.2994665826303605,0.8928952968452414,-0.5791191843072392,-0.6266173812192245,1.2269606321783253,0.7787429464616202,-1.397948984237633,-0.4557514510331748,-0.489238474205657,0.22193213267330983,-0.8279555413908183,1.4256646458319289,0.5018753532003206,-2.156606864576978,0.39871791698300874,0.2317288908949259,0.3136992651390842,0.27783918345569825,-2.506771817939839,0.051129324026700444,0.7539033056584379,-0.25359842666542315,-0.47304441456156054,0.9775075564296313,-0.39411139848952875,-1.5958398013160715,-1.1237226257554014,0.7472081855817426,0.07019832203988732,0.19295961507395393,-0.4757701101914276,0.8538415988795133,0.4567975917338764,0.02006200800401468,0.5576864745690219,1.6514092966766645,-0.44337376797779254,0.47293472260223673,0.02317854610890249,0.9573621815099925,0.9288312019876743,0.8126924298447388,-0.18022364917243083,-1.3286962976675838,-0.7447557916047782,0.07538789992971077,-1.210405073933645,-0.7330403328337426,0.850531002090392,0.2827230474890096,-1.360204495163202,1.1891590268269474,-0.471953091124161,-0.8465785467379018,0.22150272430558018,0.05023897470313947,0.9880587087678513,-0.6303171566129288,-0.08996076084053009,-0.28468716723366305,0.004843753192863032,0.13643677191358444,0.36979006597630065,-0.9915030916658898,-0.09865609697875205,-0.16299817753902457,-1.164145833709557,-0.7491291999598023,-0.2894731854329366,-2.0686258487620774,0.15999954189535012,0.7556067563962513,0.7255222461128594,1.102015815624596,0.9066636986227617,-1.587129445972996,0.12552937785101811,2.000184519468992,-1.5795626798499065,-1.607706977335875,0.8793298244830358,2.1529481892637152,1.0227404873242822,-0.554638960630097,0.42358635078114,0.6111353033749951,0.38806049640748747,0.8213327117307757,-0.47117338345804444,-1.789244827804451,-1.1200087363584643,-2.320134031909594,0.20233265467463865,-0.10376685725523707,1.7218727546945547,-0.1025816488123076,0.4652249286349308,0.07180809620411546,-0.5294718134657904,-2.7238979578951,0.699907475310904,-0.6566176034811009,-1.3229752864088202,1.8727493257121322,-0.8235775413409138,-0.8217675533392863,-1.579190946826496,-0.2207170898968488,-0.4786795240477764,0.7816760473958888,-0.6171575830466589,-0.5681686011007764,0.06589056615185097,1.9219522122430683,0.6261711156677696,0.7058355430527921,1.4635314130726371,-0.5856694795726807,0.4482140633116698,-0.8102037343881142,0.9886235282913816,0.10762346060787703,1.5174074214857922,-0.021321952715612043,1.1408224639418432,0.09575046187943244,-0.7536129453411734,-1.964274243720453,0.03610242502855169,0.17833752471207862,-0.08579214060656673,-0.34626426053075704,0.3470777555531165,-0.895357970895672,-0.5078495690829282,-0.6051775702191328,-1.1528147094904664,-0.2614287513510654,0.023449317593141467,-0.04538908918990495,-1.8884305986004517,-2.029188438393494,-0.5942717273959668,1.4329923239965008,1.8276220514769843,0.982099822609624,-0.2889447579081492,0.5805264622445842,1.8739844053782058,0.27242331590897023,-1.1158133425188794,-1.8427431318604806,1.2849808324166865,1.0245934555944909,-0.18700403160045395,0.9655213496129514,-1.7260714060278743,0.537055314391627,-0.47596084811110917,1.6704562486146903,1.2545365349128603,-1.390385374577846,-1.2415905576472999,0.6672620572272074,-1.236010289785139,1.7255710355219518,-0.14266115028167123,2.0326617806586813,-0.2507896870202632,-0.08756296635507758,-1.4424426886113848,-0.4119054679885281,1.277326434856135,0.07783815595774453,0.40320259769111155,-0.6581523883855153,-0.633701672508329,-0.8686151700342309,-1.5833044870671362,0.8488796727775336,0.5492204434007811,0.14317364895921877,-1.3076047186167739,-0.7041191045401775,0.923587792654986,0.624971420488236,-1.1374483109030333,-0.9465629152902227,-1.991672058595638,0.16631067301014565],"rows":24,"cols":24}],"type":""}},{"type":"*activation.SigmoidActivation"},{"type":"layer.DenseLayer","data":{"weights":{"values":[0.004578592937836816,0.0037908293991315155,0.005741086592077929,-0.006453698915249078,-0.012475082369812361,0.0012955548277889962,0.0023458807168275217,0.00082136583929397,0.009998988979257693,0.007922835875107458,-0.014285313046304895,0.004063523741504398,0.008479396757398694,-0.003302847084259712,-0.013692097789986509,-0.005655840688847216,0.046588876657893866,0.002451891610794313,-0.002637228660599524,-0.008066231875092821,-0.015270517028441274,-0.007195707475847678,-0.013294735669297238,-0.008982000327440714,-0.010381202482274993,-0.002663525377257048,-0.0037980780256721513,0.007227702327267537,-0.003968767399602704,-0.0169919068340265,-0.0031970072958957545,0.00782182232135419,-0.015726618953082392,-0.009454810279291452,0.015299475258910095,-0.007591619784615049,-0.009919313181525589,0.02525778048732499,-0.0037426825465948915,-0.009019890231396367,0.006040411670306105,-0.010539446341105011,0.044943846102981,-0.006912115781067736,-0.0053375145986657435,0.00026085811930756734,-0.009732328608545318,-0.012347216942704013,-0.009551700124064833,-0.00694870842967048,-0.006253488089036028,0.006751384902527431,-0.0011398240561119055,-0.0062824011938000645,-0.013420312047705694,-0.0005209586368577223,-0.005099771680278304,-0.006041978567744984,-0.00632254230322682,-0.008815550211524706,-0.014065913288019254,-0.0024521614581740365,0.0005617961453006431,-0.012133422696696509,-0.011608554002209164,0.0005272734671330124,-0.013276403998295012,-0.018429839696485744,-0.0014387930583579956,-0.00997882698810487,-0.0035151352605714103,-0.0010037612340725846,-0.005009778534289179,0.00020835482559567584,-0.00723051051321459,0.0015189127961328353,-0.008258347513429857,0.004575261557324269,-0.010985160115426327,0.00020052056062813938,-0.008874846842412772,-0.0020260185776440624,0.0000091866646527343,-0.004083033615211972,0.0031732914567430817,-0.008778919838320673,-0.01517353233411002,-0.0028936406250896583,-0.014910337957136997,0.003137404995914296,0.004239012460298404,-0.002195165304429092,-0.007397776231443245,0.004760464753747663,0.01476054204828436,-0.00815058606818702,0.02045044031043467,0.0008821577514374327,-0.007015733159681221,-0.010583553610744196,0.00355139292558006,0.004511693306044662,0.010815773822339019,-0.009897998880533294,-0.0070187829922343774,-0.0253988176221978,-0.008521934760373103,-0.002208177315914201,0.0039034497744837252,-0.0010466053685801923,-0.01289905355862432,0.0021806262514274467,-0.002191438992193994,0.008016119037310372,-0.012797177054761914,0.004597604899128313,0.032092721117369265,0.0037991013260539265,-0.006344699954035903,-0.009413125844928514,0.023650181184307197,-0.0011529476632040072,-0.0019686080741519053,-0.009480052459451539,-0.004027121037805542,-0.0014106146183662295,-0.00902830205507962,-0.008024746133963251,0.026803376461239092,-0.01329370093858542,-0.0003210477316575977,0.002510088044280898,0.004044905993673241,-0.001653744225989865,-0.011949712043455098,0.004145504637464244,0.003775064200600311,0.0007078250161330812,-0.007850442394427068,0.0008576635256526695,-0.0005629639434907951,-0.006118530337024845,-0.008500823805529998,-0.010591014671773667,0.02909180859898597,0.003216158920883762,-0.010862269872135207,-0.006253027014581385,-0.0022287230775898605,0.0018287301471946063,0.0014205803814481026,-0.0031796615364525715,-0.012425182430150465,0.005272389054995604,-0.001999311310481404,-0.006902048466838528,-0.005052523869153267,-0.004593332745265024,-0.0016569606290111163,0.008307293127254494,-0.014590178681550579,-0.005456104591019398,0.04274519598369122,-0.003422388951912733,-0.028512347041427036,0.021891868638889388,-0.009681099179775502,-0.00045408690754153756,0.002636242570271452,0.004609269865491737,0.03259903590209872,-0.0013703579074372386,-0.017711114582936338,-0.00840906971405502,-0.004702980254400207,-0.015103490410420964,-0.004369232446945416,-0.00913323973480226,-0.01260136473724347,-0.022230951782619853,0.0013187127122457113,-0.003949476924606986,0.0019450163351885943,0.0007859625712277541,-0.00436678624613857,-0.0076267911033866325,-0.004701569709099902,-0.006743215213196151,-0.010505102205209912,0.0031110791729947697,-0.0005934469407246,-0.006702932424795435,-0.016826441526967866,0.0022400127042171564,-0.010185328479727144,-0.006619732357410537,0.002075426825589999,0.0015652868118331852,-0.004066516773840595,-0.006575708381057198,-0.024120470688910857,-0.005672472149952525,-0.0089212138458743,-0.0007592356906138921,-0.012324701825603999,-0.005474789672987306,0.002692700446499085,-0.00644671320305724,-0.005198480754411574,0.004348484532127563,0.0014215402990936823,-0.0029838324001418277,0.007036168033091981,-0.0134804048719528,0.0017892643561354849,-0.01028097843483064,-0.008627607996271986,0.016143067131660874,0.0035253916784441642,-0.008301170073606432,0.005661205493724116,-0.006055762070400984,-0.02168139561904196,-0.005090236697444134,0.013586412665262742,0.004442963607677973,0.005663353526522503,0.026751596268607583,-0.013141800624719691,-0.006530355576750115,0.006504007268534332,0.006631974088212469,-0.0018529179899784754,0.004435623670933038,0.007812762096585378,0.0007421729597193745,0.005271740929432456,-0.004248329142783125,-0.0027885431382717904,0.0011262629363720303,-0.010646448197899413,-0.006011804016575864,-0.0029034341846876813,-0.009717708141432059,0.005180358753126216,-0.010219613103508003,0.0033929112339891694,0.005084397267880838,0.008493237543117633,-0.013703047474487525,0.000014653860149680398,-0.005351547368878814,-0.010749801687589882,0.007204871356269023,-0.00909526377478613,-0.008615692496577307,0.04354402491810313,-0.0018684523894429486,0.002407920696951178,0.0009954859442206675,-0.000037550405607102414,0.008669993517381566,0.0027765684259101545,-0.012390766751954973,0.001232305395105604,-0.004662366080172903,-0.012033779457305587,-0.011928113551486045,-0.000405165181166498,-0.004555036593821363,0.0029388539171778,-0.0031649951097459587,0.023784012630166506,-0.007576244762035042,0.0029286174530992765,0.0031556563368777472,-0.0052820909152613655,-0.007672651507914961,-0.008162836040289228,-0.0015691046553601446,0.0020820541051904543,0.007682148492086636,-0.0076912313803168065,-0.010055104295277617,0.0014650817249403192,-0.017918180439774722,-0.007196584583105289,0.004199723898357639,-0.004712936197765617,-0.014005872798193215,0.03757001320532447,-0.01239005028040025,-0.01864083577084448,-0.009449177534365616,-0.00676603697941957,-0.011456210877273797,0.0005287407799473986,-0.009923272746436439,0.020509580512022944,-0.008728495692110936,-0.010140416145480344,-0.006199727620734404,0.006937503803625611,-0.009239293648353294,-0.007672191955094916,0.008546347557605489,-0.012767374058315479,-0.024583136882244803,0.000798999763411125,-0.0030518254820961358,-0.0066394455641773575,0.006851256231400851,-0.014665207181301243,0.00634043037047096,-0.009403445125445196,-0.004313134938556284,-0.0004969242925957399,-0.007043144958559786,-0.0008734137706267167,-0.012405410261050511,-0.013706408285241311,-0.012558156584778352,-0.0023787073490047082,-0.009057469497144,-0.001532486359309822,-0.00038974036946201894,0.00014818568126990117,0.0032449642250137554,-0.01646951432420354,-0.00756152665997257,-0.009693369703146793,-0.012808426251425281,-0.007446391592639391,-0.0035554829546929107,-0.0006482864133609198,-0.009112102271613985,0.0052001133085567775,-0.0062001699512450725,-0.014549342267813136,-0.0066337822563312405,0.003552794658064726,-0.00963724005197184,-0.007545861633574966,-0.00817744361403619,0.002465330349269665,0.030734082157715763,-0.0093201267709531,0.008013966148112681,-0.009825165253203191,-0.01303068250927794,-0.03049057024519174,-0.014163116415740215,-0.008357080668431185,0.001876048836435991,0.003100759924491697,0.044683693181504704,-0.01196719416661337,0.005324260802481902,0.008039457364757434,0.007686491922983832,0.0007449723443834122,0.01859069884699539,0.031144651072921296,-0.001685930276378569,0.006733871166595613,-0.000057531773785561845,-0.01581018860013494,-0.015106954870995275,-0.00925059612159458,0.00043473738396059724,-0.0004003071494280157,-0.0010932033243847361,0.004192563941075723,-0.013718675593944579,-0.014187688706730716,0.005828307428153851,-0.007020508408813125,-0.012668849348376218,-0.00030486276841834695,0.001053127778788272,-0.005771853212378749,-0.005587319932425879,-0.005803307355001231,0.002556719081988615,0.03762319484754484,0.002830325078249149,-0.0055706868856832785,-0.0044554351663587755,-0.008844744532735847,-0.002522843753437697,0.0005968626042590943,-0.001090370761670868,0.000863332693792056,0.007644148110360252,-0.006761215962870303,0.0065251082423556156,-0.0014689011971600707,-0.005752838505806782,-0.014492832538087492,0.0019227811698372982,0.014458585220966746,-0.0002226399437358239,-0.009057968353480257,0.0014277060055705832,-0.0011626019511185189,0.0027219706950557376,-0.008231949061081588,-0.008953941149326893,-0.012113807314446659,0.014016848632951303,0.0021208595046083344,-0.009884361414606633,0.00015920905915384694,-0.002558859371564183,-0.008555572389985062,-0.0033976124846183,-0.0012269565282019754,-0.011433842175638115,0.03211903617107601,0.0035642727808560776,-0.01672725054493352,0.006235302450235151,-0.014087662613038173,-0.0009598239756541114,-0.0014893223667232346,-0.002677342991001926,0.013377005276995016,0.0008552507824081213,-0.006359251772163258,0.0025193800838723946,-0.008350199907609964,-0.015303719157398706,0.0002644332785905452,-0.0032886948136996563,-0.007342929047406751,-0.02360544745866413,-0.01295974430509599,-0.012242972907903878,-0.00474252631156853,0.0032779906834987417,-0.003596674113937727,0.00008467489216060109,-0.009104567676534165,-0.0006254615363365339,-0.004410222493192011,-0.008750258496213767,-0.01218548780032454,-0.00224107955902685,-0.005413394736754528,-0.0013166498494216752,-0.01567139994615741,-0.01198309198692819,-0.0028842773295736325,-0.0013634390234758288,-0.00032706119216770245,-0.010418158702884933,-0.026583305640724815,-0.0017458374580166288,-0.009647019473449916,-0.007224119917281212,0.002428310477713364,-0.01061912250463143,0.0006301125789548273,0.0005226846387618561,-0.003806570310503149,-0.01181320820906202,0.0022322246891274154,0.0017791702998060045,0.003111392561955353,-0.00046162134887653037,0.001896514122853021,-0.00037483001239635205,-0.000040157170107277394,0.028417443386087527,-0.0025438146225606,-0.004465154588860115,0.003760278762386504,-0.013986674395668135,-0.029972942233650966,-0.010969415640268192,0.008658813149376854,-0.0011664680613174664,-0.011339809427941208,0.03595354891042727,-0.01166171982293791,0.0010620813515959382,0.01118566152439729,0.0017239482575421028,-0.0021963999354714225,0.007939026899726481,0.017044801450082466,-0.002566228286692886,-0.0023046579291380854,0.005264326088812039,-0.008410437561721244,-0.00473181027996223,-0.003930150917387936,-0.006878137728634771,-0.005619937005246388,0.009272631299115819,-0.004549062010481193,0.0005619409343675291,-0.000003013603709729887,-0.0027041380741147604,0.0024166420467239143,-0.0031611107604197636,0.002327943287329681,-0.013289105272557026,-0.0056418704477653805,0.002119086476788803,-0.0030466255968828364,-0.0007123692750563433,0.02453207623782525,0.0025494187217526385,0.003993612263595954,0.00007394592317391872,-0.006257682679418484,-0.00761322126229237,0.0023396123695155566,0.0037968380798887496,-0.006888661701101624,0.00404817824565485,0.0002862763727984075,-0.0009927148055588356,0.002168115701230231,-0.004526004480768518,0.00429787693283438,-0.009072258698125562,0.02328873130382604,-0.000995424164290626,0.0011028114761763065,-0.015099343847537076,0.00033227401858276377,-0.007265378232267013,-0.01088890030867342,-0.0091694704480492,-0.009653346702948996,0.0035562739424071306,0.0010572534788047849,0.0031198929403996353,-0.0065922166271878265,-0.018946119905628375,-0.008474331819996513,0.0026761523471918293,-0.005753852531231976,-0.00265537775493568,0.0477583551342353,-0.0037032948476011488,-0.02133512050714808,0.0006123253816314218,0.003872097251673248,-0.0017183632243756711,-0.0014795936450210745,-0.011993695600682447,0.02630406547655154,-0.005743255325851791,-0.01618696396494257,0.0008235139937218598,-0.008918532307081296,-0.016517296951978778,0.0003461271227835358,0.004152559228327481,0.001943737697170416,-0.031052895131044388,-0.014574483431159638,0.001983003032296854,-0.015661455615501706,-0.00857939162979764,-0.01581841669371263,-0.0014309204944724719,-0.011953060875352821,-0.006111829270664116,-0.003731127726215086,0.0002161055817977718,-0.012668655988364606,0.0005324764688397093,-0.01444588813267974,-0.011416357442211785,-0.002343094690002309,-0.010179254455402825,-0.010882778041305583,-0.007118514798552406,-0.004341098527653439,0.0019554995573227724,-0.03378980777533977,0.0004238263518112904,-0.0014139833195727426,-0.010751412469226134,-0.007296970602285561,-0.009897425154625543,-0.011318397064712011,0.0056010490057483145,0.000745348688899711,-0.005476217993943335,-0.011950273624107876,-0.0039058440844788765,-0.00006025833481872134,-0.0008881679306494809,-0.005063803944782705,-0.008783315571601518,-0.007629813362034204,0.032329990578277956,-0.0012341592998753636,0.005845524825165263,-0.00650473809235789,-0.012887012629462754,-0.01868138097440016,-0.005124517731580191,-0.0046718444875286005,-0.0011104983801392262,-0.002247206202781043,0.03758326068050609,0.0037340050455287287,-0.0020751877905822325,0.006493240573506176,-0.00366184962847138,0.001554165739093334,0.022666297831704894,0.016029455904783784,0.0007124733358241758,-0.010748224038798193,0.008174601878475705,-0.004692081816746718,0.003342352919153227,-0.010397792734626264,0.0018262359497102998,0.003019928645990747,0.004477616316467754,-0.005051791532388907,-0.01268636228028903,-0.012653365654725211,-0.008025378366873675,-0.008043982657721863,-0.006840239914540477,-0.009838270145157707,-0.006198839899879773,0.0028077948207928362,0.0024488913512968912,-0.008669132309622556,0.002489989004996073,0.03682326519400476,-0.008161681363469743,0.00003840159306204738,0.0030537972810688913,-0.014969362184595549,0.0014198096937650085,-0.008945774144223222,-0.01563245968604628,-0.008429562302915956,0.002630278361453193,-0.009818083389419412,0.0015364310264196278,-0.006696791651440885,0.0015477204344521627,-0.000983816913303674,-0.015315480152257173,0.03105928130709612,-0.013130843512296835,-0.003500797916820792,-0.00788134915465179,-0.015313542566752133,-0.001663013195598054,-0.0011629224767949551,-0.00995538294829612,-0.00243758573639924,0.0009097327260066512,0.003201986730235089,-0.012716866706039102,-0.005035947506159027,-0.005830770779486025,-0.0000020242520125581602,0.0036024960652748716,-0.014981605694038443,-0.010325852275599828,0.046661597629810064,0.004120930992592412,-0.018510546238879013,0.009152487238699799,-0.011036961260026677,-0.0035407379061687875,0.005686561747186609,0.00484865469002715,0.012800505758378862,-0.008914786188639483,-0.01312944299672882,-0.01574481807860853,-0.0014241508311978012,-0.004145784749618084,-0.007369498679625915,0.0056237009467091275,0.0025100153658216325,-0.030071510534299326,0.001879232490913576,-0.0073711718334893,-0.012605311286515233,0.0061701192378337336,0.003137167198166218,-0.006867731558290302,-0.00341292536185642,-0.008436279597456405,-0.014404862130353408,-0.007258860731074503,-0.005961634540524346,0.005723512790442296,-0.018217096275643118,-0.01648031901952923,0.001591969634371323,-0.005381519226477775,-0.000937507470526992,-0.016746174016602673,0.008999440921353217,0.00028609238877531007,-0.018793621914054145,-0.01552688101921902,0.005546983115928958,-0.008179799733169079,-0.004627493392009084,-0.008435398967167869,0.000771027112757116,-0.010171950177851899,-0.003513174232965486,-0.01381997421935294,-0.0022806647397200733,-0.00959422117504218,0.00883751334028152,-0.0003658544005421466,-0.015276554684536469,-0.007206252236524538,-0.0030735439825619513,0.021154443406354247,-0.011283635328888316,-0.000620902179162155,-0.0042535814677293156,-0.010381963096480627,-0.022348826210233555,-0.006800368901962905,-0.0003089691371199619,-0.002803122834039261,-0.010545292047207534,0.04420611770875286,-0.014355487180879041,0.004773062579447604,0.003153046094300593,0.006250945710260001,0.0082562232648344,0.012759523630324366,0.007332310806419582,-0.0030136968149395574,-0.01212762424230856,0.004275064312273968,-0.005214196683367172,-0.0023873544293528826,-0.012767024735490112,-0.003332551340576144,-0.006957025535372148,-0.006343318387961126,-0.004520186696340801,-0.00621149971537152,-0.015487230257038971,0.004533122491547366,-0.011927876386610685,0.004657614764806997,0.0033206689095667333,-0.00802771091998266,-0.012917026574673428,-0.0021395885760313905,-0.0005504425418536682,-0.0003871746185612139,0.05795037442108274,-0.009006421743436526,-0.004820610448927779,0.002969692384050589,-0.0019268848488931023,0.006091423503488485,-0.013783714229379724,-0.01256859998197763,0.008671173409691476,0.001638172237373703,0.000976757599541869,0.0022118793499105037,0.006115638833605608,0.0055916385902028245,-0.009868154711865147,-0.003592293322203617,0.015600029292972533,0.0010902137658177547,0.000423805387202422,-0.003218367640827298,-0.004963836321802908,0.005481235023620448,0.001434745067438962,-0.004643091454575027,-0.006647326652564388,0.023425704960939334,-0.006462105158631718,-0.013584095110386262,-0.011579571212033743,-0.01453419573394395,-0.004372500277803164,-0.00795483656724586,-0.014196554100240165,-0.000004929788987215934,0.06355191207628302,-0.011783492408125927,-0.03258305691426462,-0.010685208800084387,-0.0034851398971016455,0.0039293507234150924,0.006582053606515137,-0.010131012002562464,0.007820591360478753,-0.00786533044749216,-0.017929470938770654,-0.004315216482193004,0.002275839776251365,-0.01052511038760075,-0.008226026760640456,-0.005662551955085353,0.0013051132688740442,-0.04453849747108065,0.00988983376385958,-0.004540182308002587,-0.01265123233465663,0.001751664066127323,-0.004158190245936411,-0.009303789397690916,-0.011432898164284564,0.0005210206224689686,-0.003810251142878379,0.002841478430892082,-0.011596055696769516,0.0013029777517509613,-0.010827301025105334,-0.014702053481504739,0.0016662065238661106,-0.016954650915492253,-0.009686148992140759,-0.009521375261362569,0.008525195968989747,0.005399561264543319,-0.03302508914618306,-0.01439934469330971,-0.008247741488574614,0.0032295751751279123,-0.010310755762495445,0.00042270448427455143,-0.004836667199566786,-0.0007463663821023019,0.0008089707492151068,-0.004490736420396353,-0.0110785178421467,-0.005235642099555202,0.008381115866326321,-0.01486399149046838,-0.0033299425419315537,-0.0036576605196324886,-0.0024057708714598316,0.035817086324682106,0.0010836781159730966,-0.008667440520338071,-0.006049864658863663,-0.008610275380989362,-0.04850549978723931,-0.00015668131304818705,-0.004702335639165415,-0.010126308459096518,-0.012994525769614658,0.07282015792658636,-0.01201659657970948,0.0008798770417276015,0.0013048362009358493,-0.0011161974970338728,0.008427233129304067,0.04289683468996378,0.022605751696232912,0.002433493386754593,0.0010877430459694814,-0.006044962789759158,-0.008516310542666631,-0.007917717077072537,-0.00024464020366953785,0.00030282004487447667,-0.011721077616491824,-0.008342314330006213,-0.023937929521253207,-0.010130758984979164,-0.0025117299814742416,-0.007931542283496022,-0.01734628346316971,-0.013375217374069763,-0.00686080047977937,-0.00782445973350581,0.00014249177322252097,0.002169218253753489,-0.007768157052335579,0.0002548536960281642,0.10284595701383795,-0.003584611058225642,0.002679300926073822,0.008579678863996382,-0.014784034284724773,-0.006234632748035407,-0.013840310408412352,-0.011566057760564992,0.0023177791038802333,-0.001876907982576108,-0.01550127501373254,-0.008379900270252304,0.0017482493745246553,0.00681559048386081,-0.005337495280427596,0.0015598784366112552,-0.07400080998882833,-0.008242617749915677,-0.005022304635918716,-0.0030258001446333707,-0.014328949798403162,-0.007642482812766411,0.002829847187562491,-0.011014244197041867,-0.0007269857405111233,0.0777622880137706,-0.003621049731446081,-0.0030023372512316556,-0.007842972092827395,-0.006781368395183846,-0.017040659568186893,-0.0031207661002114395,-0.01490975506865962,-0.010814315966643099,0.07427307728938125,0.00014356647714681232,0.0007051390953242909,-0.1384903812289996,-0.011707108563391638,-0.004304452601184592,0.0023140105286718103,0.006078901031210056,-0.07729075733424737,0.0006797359037941697,-0.016159772119967438,-0.014729999936764014,0.0035879789384837667,-0.0025923002246935,-0.016182426696069306,0.003252354752888649,-0.010148712572785329,-0.05604744698579937,0.0007298781858386771,0.0005550851590874445,-0.0024830283427987633,0.00937604041414143,-0.00015849062142836155,0.005285304557384239,0.00022146078015828873,-0.003422961921647616,-0.0033665777761498314,-0.013510745052561649,-0.002728903534402465,-0.0032940787255158446,-0.016178275043373394,-0.013382656649352068,0.003725909991414937,-0.01355638754782362,-0.006968594021346519,-0.008541642684436745,0.009612869539351039,-0.0012621923488299735,-0.05327529480975398,0.013361844056910824,-0.008146579508823762,-0.014101769846705059,0.0006944850097398294,0.0037505568460565004,-0.026219132160959696,-0.010626389920096915,-0.0036388587521035787,-0.0042674987966526854,-0.008860782450770112,-0.0022802685456702787,0.0001702161429748439,-0.013574363352412038,-0.0035102469716892836,-0.0041164763661722375,-0.013373294498250685,0.09681943363433122,-0.012004764834517533,-0.00017292929297255344,-0.00013536057489378498,-0.0180203397554095,-0.0858932487443139,-0.009321601140111838,-0.06563853128933876,0.0006871472371866953,-0.0022144072370102684,0.18110648728036902,0.001484083943266499,-0.0021551723648508994,0.03195400936174846,0.0066577111184898,0.005287369429516477,0.0912588070220406,0.1414005063183607,-0.0023793410358993244,-0.007941970435429513,-0.007458414252662348,-0.009096521185030189,-0.006518524825298398,-0.006876871798642912,0.005967571379331529,-0.004812563628152641,0.006652169144602225,-0.06527831040729602,0.0006230250375584971,-0.006528262677173785,0.005804418345919524,-0.11630417381444892,-0.0015335072549985233,0.008747066290311281,-0.002457023668661701,0.0014465465777572547,-0.0038609373848480567,-0.011480639272708511,-0.009716030882490501,0.09666693162999908,-0.013726071787060232,0.006022868646339823,0.013795438133055605,-0.008672486994031807,0.004938203093726686,-0.002324129511937212,-0.011941006974971736,0.004519964231678315,0.0025632371571823634,-0.002213130285022579,-0.010845263729347902,0.008393859950922462,-0.009436889604417025,-0.011415990263101394,-0.008768831865262368,-0.008395269983972624,-0.001293736325497331,-0.000639847212106423,-0.004525787476517465,-0.008950364798486692,0.0047539803479757555,-0.007810910980007529,-0.009733779597753275,-0.013998524611784012,0.041614613969689504,-0.006561585101893371,-0.011241349122869684,-0.013699783187365762,-0.012911053542035462,-0.013538551921341693,0.0019684458789151417,-0.0055221416701600615,-0.0003554000080536581,0.10218729749404416,-0.004723948558711047,-0.06173173841483911,-0.060158775110401325,0.00032162517514012064,-0.009849439477136845,-0.006198192699660203,-0.001204152915262689,0.001992089669447283,-0.00589540409157074,-0.009363387648235518,-0.0053207262802983215,-0.0026614689751444875,-0.019860993556735648,-0.011313910680513363,-0.007268086353107624,-0.0028177368977558093,-0.10593328180080833,0.006289042623724588,-0.009389179303920088,-0.010750726758056037,-0.00675212918220228,-0.010135360510454959,-0.0018135765581100626,0.00012888847212209626,0.0006558770165043382,-0.002328995197027878,-0.01097944790674305,-0.0026815239407510525,-0.013234301539516147,-0.017826245302731462,-0.014872158937094855,-0.01270584193114271,-0.00819109446742158,-0.012626317764327783,-0.014038784125491689,0.00809045037579638,-0.008264184787155297,-0.08308061561542804,0.0040451159037237765,-0.008448849786747661,0.002315138169870842,-0.005584242950568572,-0.005848589089318376,-0.001234894630267603,-0.011687642821166999,0.001351231738992023,-0.011446254336490845,-0.0007318457056225469,0.004762541345076137,-0.0015614276738178123,-0.009886399007499495,-0.004633900161110821,-0.0002341382419860592,-0.0056423084242896646,0.096418167624687,0.001524965048768985,0.003853877255427809,0.0006331098219514133,-0.012000842059791572,-0.10754158716568751,-0.008689103245229663,-0.05446833698614332,0.006228744061419504,-0.012098207445032991,0.12307080203290634,-0.011127191562959129,0.007751887528108379,-0.0033108281921726134,-0.0026061273587462343,-0.0038390337795208953,0.07565092704096132,0.0000855184546799996,-0.0006775246908578073,-0.008461898323543752,-0.008707170701349838,0.0012233881431574641,0.0012456406685026871,0.0003202137917113937,0.0020500002323278533,-0.00469759406962429,0.001961883892233425,-0.058332225239962336,-0.011730904864546378,0.003755682470012956,-0.008063175087585974,-0.0525501137927658,-0.0023910210499628105,-0.005809723338728645,-0.006060161616100029,-0.013851684831026575,-0.003593743906514171,0.0024452838926393205,-0.009070209308058746,0.04284844201144534,-0.008537109470216101,-0.003263551467110777,0.00138309165228267,-0.0033344262760785113,-0.0009807727546623545,0.002297587119450352,-0.01023987228312611,0.0070725948706549,0.006383095932660128,-0.013406657395121868,-0.008961956900797907,-0.005873873004088711,0.004288925673562953,-0.009855708444782337,0.0010877245444916766,0.028416596780322222,-0.0034010082803097364,-0.005309348188091603,-0.0028619019908637244,-0.005576658045252824,-0.004153637584689321,-0.0006665009209388418,-0.011837143733949472,-0.007223723004361663,0.012608802383052271,-0.004908500384165234,0.00029716540915845094,-0.005636133216049796,-0.0194563792978262,-0.013680555416337508,0.0060059440050823,-0.015840095260951648,0.003182283166285558,0.060205707178460945,-0.008750731754509609,-0.03832654342445347,-0.010391092130311122,-0.00549988218090614,-0.011234455360638761,0.004593254080511842,0.0028142750559517647,0.013411939590836508,0.0021321979245335076,-0.0014188421772484332,-0.014927155819384126,-0.009624704221987157,-0.0027917058414205415,-0.007597169474294984,-0.0001313556347739653,-0.0021126962984202038,-0.0547151681935438,0.014047956843159333,-0.001245561150940222,-0.012248002304655666,-0.0004915485001726739,-0.0037514193845082835,-0.0058634080489365385,-0.006460392576156498,-0.015005578185768127,0.0005124472298738274,-0.006993881835095235,0.00069870682630904,-0.0032262344308990076,-0.006693385142452993,-0.009634673352033564,-0.012549336320627802,-0.005628964835165204,0.003506284971414293,-0.010852547088883543,-0.008636855025824132,-0.0004152457803456847,-0.047028906297748724,-0.007296822094578304,-0.005662352030656308,-0.004814865722811222,0.0020774910644294786,-0.008097046690567851,-0.003722787004419993,0.005116264273611447,0.0015886963992109986,-0.006968229329969802,-0.002937058257688737,-0.0015903274852532867,-0.0028460363380531308,0.0009898477377820476,-0.0021055788628284067,-0.007336283409076004,-0.0016745570752812525,0.034681989036306274,0.001432927659007872,0.008781834405315578,-0.006635985972737297,-0.014251480782823702,-0.058090772700506346,0.002033868452293983,-0.02160994662999657,-0.006949926634320963,-0.01179156838536453,0.04322915532694668,-0.011068239633307131,-0.0005844014753941406,0.016245144474567548,-0.005362033024430413,-0.0002681502568978922,0.018792571297612345,0.007101438516221235,0.002258441935207841,-0.0007098808806749197,0.005322082578955611,-0.013411479853419502,0.0020949791668800517,-0.002513718730368656,-0.008589422849953012,-0.0017293235787113287,0.004107338847400337,-0.015921598977686836,0.002533911542380326,-0.006893432750869392,-0.0027573231793379905,-0.008819967499702328,-0.012602400149380005,-0.0076433531242256405,0.0016037458057921862,-0.00037935651070236204,-0.0003169385691554516,0.00005956215643163287,-0.0035563923061442014,0.038586377174741504,-0.00844918291333946,0.000773035321050839,-0.007641343437633838,-0.015483308163815861,0.008571808365690691,-0.007752041689873479,-0.009770823211784074,-0.009814915684074116,0.009755333263408215,-0.016461150296661096,-0.005845360456943555,0.0014965899072664768,0.0009176791119793165,-0.011290693613667604,-0.009383045317184244,0.027730263525514793,-0.003718090486880507,0.0005880886332702642,-0.00558036123458728,-0.006420050033037169,-0.009793318302657592,-0.005393376564132474,-0.00963619284530535,-0.006634768972263118,0.00967847813888457,0.00426226135010187,-0.007729244657240245,-0.00889778248094912,-0.0016054469912229327,0.0017065628039278076,0.00306368470888154,-0.013857556259709905,-0.0034564139653970732,0.04607116936599338,0.0043114235973427464,-0.036053932435832554,0.004202013910482461,-0.009401261269457653,-0.002106047981428375,0.005578295864214398,-0.0004950538651677851,0.02048521689298504,0.005308563243626318,0.001309732721933356,-0.015527148521669785,-0.007136937354133362,-0.0013052837143444395,-0.012113479309841248,0.003277168845930578,-0.015050491371893668,-0.0374484166673435,0.0035921458875505857,-0.0032644774028127935,-0.0038478062740600004,-0.005197979877993448,-0.01385543092448216,-0.0070824477334867665,-0.0025203141314575285,-0.004629092275670747,-0.0029549540146925303,0.0027455101059957105,-0.013974604363310508,0.0027738483959374644,-0.0143487893054033,-0.006476005667963035,-0.013621742377874925,-0.008317091899385102,-0.004926808612769278,-0.006539727957676082,-0.0029276789332052,0.004035766529817077,-0.034002564983828726,-0.009903435784742754,-0.0024740391257966543,-0.013978425805416021,-0.011197660662720547,-0.007114534547226267,-0.015169674222321947,-0.0033205551867339727,0.000799947301216947,-0.006490958822038353,-0.001601451800374095,-0.014021540046655751,-0.005869512084335409,-0.011106342098979528,-0.005522172460578604,-0.012852077453456704,-0.00667429453757532,0.032632050161197135,-0.0013239141263160152,-0.0051064866219491,0.0019611193673932385,-0.0021209603769137917,-0.03173613190031588,-0.009375140781121083,-0.012669826659015167,0.006149536062301492,-0.004207099475624718,0.04697403185571223,0.0009088519614919163,-0.008232537095700317,0.009736627140482831,-0.002141646667271393,-0.0023135969151046286,0.010520551933526662,0.015675855391636417,0.0028103326712778827,-0.012193989018506324,-0.009295429248108292,-0.0019395517788437825,0.002115113404971434,-0.003411285563452793,0.0020545263647076474,-0.013418079357519848,0.009735417718265377,-0.014804510804671689,-0.007879113388967797,-0.009986346107016097,0.0004933957606240469,-0.003096312927457869,-0.0014985813012389907,0.0002217284516516016,-0.004162624902887815,-0.00816592459002341,0.008578118439276736,-0.0032478885455144812,-0.007898670108885682,0.03684567128719057,0.002401182544483391,-0.001850087509332181,-0.005186659679495816,-0.002123211581238792,0.004780231679677782,-0.007971544267443911,0.000838124617915496,-0.002951302570873531,0.0053439644524943585,-0.004642892966869625,-0.003268404164457968,0.008459168367744423,-0.004581272920387533,0.0032403802342627843,-0.0015790848596679255,0.043563501095941946,-0.0008853353050352324,-0.0032562703420491255,-0.0025449567358364947,0.002464168539506391,-0.003944255154263747,-0.0015854950745702934,-0.01430596570560062,-0.008944479893025962,0.0021759280713211024,0.0014600467045984345,-0.009192010073524453,0.0024046360115956974,-0.01755227727773076,0.00012421370317279454,-0.005101689886514007,0.0037097723247033992,-0.006155515598726552,0.03475873689867704,0.0009187633298787011,-0.03620815873549822,0.01086753821804378,-0.0005030936288379169,-0.009714812192077428,-0.00623381497979997,0.002028963078185844,0.020256524733027075,-0.006841338171928415,-0.01076162018366357,-0.007561222084674528,0.0013238431364472293,-0.019272551229503113,-0.012657565359228164,-0.001179990572229892,0.0021505070553614683,-0.024618582640210763,-0.012524573024065304,-0.0074118734031624845,-0.01200069505015318,-0.00823617838204774,-0.005859987366589682,0.00031706197845080334,-0.011647187233323112,-0.005336251860157666,-0.00031841521905282867,-0.011600343038510146,-0.007111130765109577,-0.0028289269064314068,-0.018669574259168355,-0.0022448135374038497,-0.006077247341087164,-0.01025334499751149,-0.00234714280412689,0.00037538692837624075,-0.007536463364675186,-0.00878084417112685,-0.03325313892569963,0.001218806843732935,-0.004869876645648803,0.003360560732375102,-0.004568990138897762,-0.009758344213725963,-0.0000492690965345399,0.0008435101310480579,-0.004574650908291821,-0.005001142025147803,-0.00204359537732879,0.0015455537799114883,-0.0032281917975251506,-0.014287694697965625,-0.0002449076882753265,-0.014648378984338482,-0.0004738777379196067,0.0302805383754629,-0.009322898635909158,-0.0059709533376073945,-0.001535763837392202,-0.0019793119335173508,-0.022502641804986553,-0.0022483767015880948,-0.0007374302493523848,-0.0016461267045012262,-0.006164300410568757,0.0296774313014206,-0.009633962999293855,0.006669525266402119,0.015766115867492787,0.0016206902831351977,-0.0024908118306557737,-0.004236739363642351,0.0035114175150995643,-0.009045134523830002,-0.00010151533272069056,0.0010697359824702523,-0.004091783159736666,0.00043712396357887114,-0.015338646737987679,-0.005514732824960545,-0.001284582247048612,0.00562266143135876,-0.005455273398675093,-0.0038248629413668014,-0.01123482670408035,0.007595185598663541,0.002517559942927865,-0.009665755525575519,-0.000204545261614556,-0.015504068411963265,-0.009622416758537516,0.0003955446989415057,0.0016824267993721127,0.0029111636802527812,0.06871118824631546,-0.004562400908374071,0.0005180014409601386,-0.009280144098759697,0.0008416690681696081,0.004783135414292359,0.003501779067340457,0.0007894763894697413,0.008324920071191509,0.009794236603724773,-0.0020346387289552448,0.0035559905629861223,0.009165480585209137,0.0016747842786394539,0.000998417290376581,-0.004276499791178015,0.06520131050673489,0.0012116789864587405,-0.012363463602888479,-0.006214331054997401,-0.0011074910659268852,-0.00177705082166597,-0.012955331569830825,0.0005368570616203241,-0.005821479404193612,-0.01564953962098549,-0.0010530383172440538,-0.009834112939314068,-0.00904552602641053,-0.011997212407114634,-0.004981261152548532,-0.007921181486220561,0.0026587356301136056,-0.004193516247170243,0.031192600253202984,-0.008199570869714139,-0.04577042055182237,0.014975322567215354,-0.00008340326965450062,-0.013710513649547462,-0.0054588666294210775,-0.012172377433457148,0.029475288369469645,-0.003245560664313648,-0.011321986584192036,0.0026510749229648276,0.004907381789109279,-0.011425402133642574,-0.012185463437208133,-0.0010179425103030715,0.0008891869649897176,-0.03922121418936545,0.008583484200731574,-0.011540016208130954,-0.0022666320096133147,-0.006911365632705378,0.001807365106584909,-0.008890898974746844,-0.010880697317871606,0.0027344570638370286,-0.014345659498633105,-0.00633646285877718,-0.005378225493114339,-0.01092496121332362,