{"layers":[{"type":"layer.DenseLayer","data":{"weights":{"values":[0.01960591732841513,-0.029134159835508468,-0.0099504937623504,0.007687489899790326,-0.022418492495959817,0.017914941619628744,0.022762233167511546,0.005467580776349463,0.0029253097848972627,-0.056069335383641734,-0.001142078309257876,0.02955054025343087,-0.0252141385919778,-0.019969715841864244,-0.04508007140381767,-0.03711123450457323,0.034474132636720244,0.020640576338757738,-0.03767558141348256,-0.02011933553540633,0.011394113481626231,-0.04604271985721717,0.015348143605428691,-0.044980604545750806,-0.0343903481786514,0.018084874033874952,0.0015156947813950983,0.008042913387604104,0.00944213354218045,-0.0016235516317432124,0.02394579539672242,0.032348622175081186,0.012372376335872553,0.01718884872782064,-0.015027477377000782,-0.029875213067169747,-0.00030611354713072566,0.04905816385101948,-0.024864512268819316,-0.019170598289148636,0.005461929107216961,-0.003691935688945383,0.011941054362342192,-0.028217586596613633,-0.037472095849026714,-0.023263392856602377,0.006199558084599224,-0.014924508577351036,0.011906881006759903,0.004903773810240215,0.0016288117673886322,0.01930346262241949,0.016957928423368636,-0.018735587384048326,0.016918805046897155,-0.053482574015084,0.004582173710668932,0.01674328564728667,-0.00784535147493581,-0.00602658358999787,0.014841936725799003,-0.0030293104284442947,-0.02358485112555328,-0.004592771203413815,0.015964432795960194,0.02603572847672228,0.006213555837123846,-0.003218156050906565,0.02372543705045127,-0.013071412403977052,-0.0035466424430117224,-0.0010873228282287524,0.037852016659659,0.002043728621725161,0.03511450627215466,-0.018514782487992865,-0.0542312441704203,-0.04574834196354622,0.0050485914429042236,0.0007575262401486256,-0.04592029534248431,0.022739318646087928,0.018032896549033124,-0.002538177831530315,0.009535916766743289,-0.02423612321598787,0.016548264421388088,-0.018247415685288253,-0.04416070233983633,-0.019200350036438506,-0.0532645678684523,-0.01764708003450124,0.0350036609796862,-0.07237023586420727,-0.021750840074358915,-0.001814350227936879,-0.0014360005892122966,0.024597011912624735,-0.010015940174413306,0.02070899927909373,0.0008037256633330361,0.02793881722648257,-0.05051301955257417,-0.037185738098220275,0.018242045265567292,-0.04707504422272714,0.0025607471992929367,0.02829246982537464,0.0020719285750778567,-0.015990101681706156,-0.004977496071719564,-0.011455421047732756,-0.016616523070757262,-0.017896441939521644,-0.02974578034282515,-0.013968615303784503,-0.041373539918286455,0.017435697912976708,0.03258226021296065,0.003983712970490082,-0.019895691566459966,-0.006437477844185271,0.012000838855596281,-0.0012123054999775295,-0.03895916352780686,-0.012071824825847179,0.007415837332737689,-0.0425531403763198,0.011338523832981492,-0.018694687034852758,-0.011506303500737591,0.00627933711658087,-0.023764690680325735,0.012399981854287168,0.023335669719755134,0.002593492945109674,-0.007333875741938652,-0.06357727287219708,-0.000918210353655214,0.021951632444450475,-0.01131887134799462,-0.018626693770054846,-0.03482794588327524,-0.03581051159506571,0.04646109452533275,0.027592536867640793,-0.03726192739554231,-0.025981459631797526,0.011079199916476627,-0.040313608723889165,0.018736855229995002,-0.05339690153929241,-0.04172741132239331,0.01417398480545695,0.014480562516101908,0.022272163887245938,0.015462814753414747,-0.0003526755791455223,0.01112204247189962,0.02717018914741632,0.0009801276247360783,0.012791158603600673,-0.021184032825006176,-0.02643706663946966,-0.005673808248395841,0.04531791776208729,-0.028339106257842268,-0.011258043953655084,-0.003948724841416429,-0.005751376802251686,0.014738556459490562,-0.01053385322517445,-0.01924969051044194,-0.017690118290748534,0.007172370741136194,-0.028081616643309243,0.013508433407408527,-0.010848231913540705,0.008568705503008782,0.013681948089025097,0.004638406317306297,-0.03096851424647052,0.0054268714818153955,-0.043036528785867716,0.003416729357276407,0.02122003123745239,-0.011073903793827162,-0.005818028792920674,0.003594114914456346,-0.009722137100071358,-0.02492606440106378,-0.003916430811430608,0.004870447958907737,0.03331126951273496,0.00021828083959508644,0.00813245255576533,0.019808614722976618,-0.0031577844336063165,0.002655027290166912,-0.006370405848257631,0.04287553198383824,0.005338852174234077,0.029650485572124803,-0.0036706274007531803,-0.04726115440714353,-0.044778709197265426,0.010629755893734293,0.005320291091754016,-0.047040991503825326,0.01412264868766513,0.017711432025789543,0.0017673749993443381,0.009364028978418369,-0.02496265015092567,0.019340855903695865,-0.018548001041765926,-0.0511209821446944,-0.016045582019711672,-0.04876078030810906,-0.0016567647858621623,0.0447121972012789,-0.08223330803547661,-0.016192405542175124,0.004565526399499308,-0.004379514961652321,0.014002638757148552,-0.008370884494375588,0.019548895802139477,-0.0116591885961903,0.010065585395319657,-0.04761455392384109,-0.038035215301339693,0.02765042288880996,-0.046516317356641024,-0.0032487203478472676,0.03093810866482685,0.0014366710322821186,-0.0060614051902369345,-0.01888003664973085,-0.018805119301404633,-0.018358645529564843,-0.012910713028220286,-0.023318872290720178,-0.011998647045879548,-0.041490620289476546,0.015989360317250123,0.042454741530065926,0.0042448736144184126,-0.01839316044281077,-0.007040449905878624,0.009853143202481707,-0.0004747990314809495,-0.028246604971334917,-0.013820475871611367,0.006481005287359964,-0.045058710158796596,0.010612078203504124,-0.03448407177853984,-0.008044248972409346,0.015219460540964612,-0.024458465966083004,0.01689602370553358,0.018272086943463592,-0.0014777612611382286,-0.008907169926969239,-0.06056683149504998,-0.0025591184566447415,0.024670055650131074,-0.026317238827739516,-0.018686298298370832,-0.046951966811107464,-0.033663211083956764,0.03803929309168634,0.009712528860361445,-0.05004303403661967,-0.019986959189610336,0.013721501642493139,-0.052982372152882914,0.013619896907807714,-0.04576744832762892,-0.030862868636820504,0.009590857007554961,0.008227543841577558,0.008971488957624825,-0.0007255194735329237,-0.0026944428399165122,0.013911584357633459,0.03591267535446383,0.0026356710352926286,0.022205012505164295,-0.019591842504968423,-0.027945771392155466,-0.01323971245453391,0.03358258279204168,-0.014403573551132089,-0.01622662375822587,0.0027207071235374252,0.00001955148363663177,0.012684991772123457,-0.014392125460424501,-0.03719336865529265,-0.0070974285208201095,0.01201046004366783,-0.02382044066703118,0.011686445741129115,-0.0014516189904729218,-0.006449882547678066,0.009150546907532073,0.012517135772087695,-0.034544292211596404,0.008844470945972616,-0.05321133292372644,0.008207043381149191,0.019334073295200236,-0.0038626548161865685,-0.017469829217977233,0.02040760083692984,-0.010244133504754825,-0.027226338073575506,0.000279311717237848,0.013202646140387459,0.02773557519400718,0.0007146770162521725,-0.0047585421890811415,0.024172819833771328,-0.007654080684246188,0.012526543084516836,0.0018312247309475469,0.031225128470404137,0.0005392464293781794,0.03489153457973851,-0.009198298012168612,-0.046037521159660554,-0.0350930984094921,-0.0002580944821995982,-0.000018017134398743335,-0.044183322530185004,0.020865682650171066,0.01601106833049779,0.0018844672318338912,0.011461615594585261,-0.031131329498098888,0.009269115755530714,-0.01024889890320669,-0.05657833353395402,-0.007191735247603184,-0.045048614614449645,-0.007506612293816851,0.03465281204980037,-0.06584997947893331,-0.017127436809428787,-0.001681595273800251,-0.015863240377641148,0.0215702437363205,-0.008441254663389535,0.0059543207496049015,-0.0177277324820511,0.023955007165943232,-0.039343088801483156,-0.03851758342117904,0.028792933458812956,-0.055438087465890185,0.0061171388467812,0.022461004989431144,-0.0005334109027558503,-0.017323532787695398,-0.016753261932772618,-0.011941420081146892,-0.013186777648520494,0.0026244611533653307,-0.019279595137408772,-0.003693445983299163,-0.04141577900862201,0.007905902920984387,0.044610164590136836,0.007512253209692002,-0.02614428630124012,-0.01277391200179783,0.008082356344871125,0.004709807734186404,-0.027220417121096924,-0.003960367771596425,-0.009082417100569454,-0.04545748432477997,0.02560118892901032,-0.03108499120537798,-0.005242743414509809,0.004912541072602031,-0.03508239384021821,0.02035135932967132,0.009292282064128136,0.008022161261537606,-0.002749754574956196,-0.049321003686798814,0.004779699883003499,0.028288849507057876,-0.014871318623319457,-0.018635750289461447,-0.04078958296478533,-0.031625944418719416,0.02888009127160546,0.012087345257155341,-0.03790894095178914,-0.02875443827539704,0.012115936707904578,-0.045718198762448356,0.017592212013995214,-0.04623135648011514,-0.028021339386556744,0.01124143168105119,-0.00023636948938980304,0.019839927629743556,-0.0016483222526699963,0.0125062717221255,0.015578482310804604,0.035085478551359135,0.008157651783642311,0.003012779771949034,-0.011510374623584327,-0.02626417292784476,-0.011864235692935803,0.043046236356152644,-0.02454896830606916,-0.03181993145272933,0.005160077834539648,-0.005244075097327374,0.009612721270544123,-0.02637451554776377,-0.03484093082870123,-0.017826853296247,0.013155152536436721,-0.012876983246899523,0.02506907968561114,0.0012169953995079049,0.0012396812040883418,0.010990454528075207,0.0031148721488967915,-0.029289086502587307,0.01009671043450304,-0.046938623509338306,0.01140490851667281,0.022001416457585753,-0.008343158411220318,0.001679131144833955,0.014499081010939548,-0.007825941011555681,-0.021027338321648662,-0.004377762323195649,0.005271393368914085,0.018634338385267752,-0.000985195789289738,-0.0050920664224042116,0.03299474590182233,-0.004243683140559271,0.008931090643291664,0.003783761160492208,0.041714496407231384,-0.00013568456420381736,0.027017734788325427,-0.0037168025145272975,-0.046053934730560915,-0.029438469542927125,-0.009374803629369707,0.0158760026409366,-0.030557075060998178,0.01089776330556099,0.02734352192317259,0.0009215760592354593,0.011947237442173717,-0.03658750435147204,0.005940248704115897,-0.01066476690258975,-0.06029840725209382,-0.007481388940856102,-0.043707922849298406,-0.010378720391129755,0.03111276248825445,-0.058304778261141235,-0.024441160346842777,-0.001389174715315383,-0.02256564128851256,0.02478504305904716,-0.0050962997015789385,0.009800726017363388,-0.010349436943341376,0.015955908279994456,-0.04975055977792585,-0.03432491946935906,0.03017910671046782,-0.03591007662830808,-0.00481970414769288,0.013441028440365035,-0.008882236607752819,-0.005858955130388162,-0.019355959466212064,-0.01604405775324216,-0.01430671167120532,-0.00850776176838159,-0.013874342554933692,-0.016296755677832807,-0.051821530937252586,0.024844320593953244,0.039863591278586796,0.004254278809392646,-0.02862247091300041,-0.021360882855996383,0.01053601703150125,-0.0059630164256417525,-0.037611867338866165,0.005233806483163778,0.0001382292007258816,-0.043525842670378824,0.01695631079942138,-0.023603686502201657,0.000055615513884413716,0.008761824638547579,-0.03144832897798196,0.010768982519761487,0.024173017101121363,0.0063753268699702935,0.003390834832970256,-0.05947576127960264,0.0010397444202808672,0.018235818430107697,-0.02662939955571706,-0.01996361247783886,-0.031670287019206794,-0.03652923516109623,0.03046898930648167,0.020293950832066164,-0.0353264227239458,-0.03250069474093579,0.022171831511002382,-0.04287284620327169,0.019776095167387996,-0.045131070444276514,-0.028136919274129812,0.02968930903045408,-0.007712515618592296,0.027841092312517194,0.006811773782552106,0.0008193630840495432,0.020085675187778696,0.03356449492391381,-0.0009255134479588707,0.015861086344070567,-0.011814743712642439,-0.032235943578981394,-0.02564146493604151,0.037165243660453554,-0.015951248317607747,-0.04182578954005388,0.00004511267263642801,-0.009441971291856225,0.0036098994825620755,-0.012083590771158368,-0.02208310121716238,-0.010421815676595104,-0.0017926256212946233,-0.018224661025341156,0.022709136276508366,-0.011863686669435531,-0.0034579751359831994,0.02013008895808708,0.012796262299311151,-0.018768068649182547,0.0022272414072049547,-0.042749168874414316,-0.0009479175422569298,0.02482376667050265,-0.014008056229060933,-0.00043542288087872183,0.016433915071483347,-0.0017883163201516477,-0.03222609826207565,-0.009807769123675788,-0.00011104705974354553,0.03718335214411229,0.005511615414564515,0.005559149178706512,0.027147892259006084,-0.012025219568531925,0.003078831210212692,-0.00989900262698856,0.038909169591263955,-0.013414544465437484,0.030042278159535283,-0.008119320454360967,-0.04083382362078532,-0.033865183030052814,-0.0005700196458962569,0.004939655494919013,-0.03381298799865717,0.02797675522584586,0.01973847713523852,-0.0029168053259863904,0.012913061527023616,-0.04003164214983635,0.014176625462186173,-0.004702565388284885,-0.04263134231155674,-0.012865129640638899,-0.030964382020844807,-0.01932280895234488,0.03238100324300916,-0.05839611721078916,-0.027412899292345052,-0.000675354060664099,-0.025683463517889363,0.028803185152342453,-0.005645941049092878,0.01300810306516034,-0.004508765456672226,0.011392678246247871,-0.04725007002611285,-0.03387361397324524,0.0324758316580675,-0.039750753052540576,-0.0032962656810702905,0.016978824308294366,-0.01858176822208098,-0.006878422746777071,-0.014040808808942689,-0.004619576227900002,-0.02353984252415193,-0.0015807900824490555,-0.020005657477065796,-0.014003088630519038,-0.03141955833714305,0.009650790626253517,0.04664557269039092,-0.0005173709336671587,-0.022669952221113957,-0.0213998677911236,0.022424902689190413,-0.007618387064890084,-0.03386447851645853,0.00827646433089356,0.004802311617521266,-0.03106671677916009,0.017695718020782212,-0.027679140184513028,-0.0010223072923335236,0.006103623088038814,-0.028048833096301302,0.009843098053162922,0.0074256898482707966,-0.010517618013088002,-0.01097546089763235,-0.038665929760027425,-0.00586977940673257,0.02063873848758095,-0.02740409273991034,-0.026134024108452406,-0.021716390087191673,-0.03661692436831368,0.028641149951500338,0.026472394979448668,-0.03020732203272526,-0.022531425861752687,0.021886463559405808,-0.03958320220641686,0.0035662556027222644,-0.034707612361479866,-0.03371611390902497,0.024893163141374516,-0.012520809599285527,0.024866691246611956,0.0012472090741294873,0.010624202375452805,0.025029977614301847,0.02986423166859648,-0.00252045816384057,0.009684982002586563,-0.020379020837147988,-0.034476486946982465,-0.022556703415983044,0.03158439483612946,-0.011654062097945964,-0.04873588417397145,-0.006943190709688684,-0.01463563667272253,0.010151089677131301,-0.008092782594021372,-0.021381218498681524,-0.011881758393821974,0.003179839541140457,-0.011628574369288729,0.018629210709576537,-0.003794766637327579,-0.0055496243339451905,0.020157522225157,0.0029384627871397,-0.02957958753800212,0.017712237659226377,-0.02877811670177446,0.0042889692995125815,0.02978819177253338,-0.01594061399629631,0.0015812086452576752,0.01862510906368881,-0.00917415930934292,-0.024133348722030365,0.0016349169801890971,0.0004996103214454778,0.020314406724898006,-0.016209924102751263,-0.009336601106027638,0.02638883103706333,-0.006369896990196543,-0.007072174053543611,-0.009932343746338654,0.03306989953270543,-0.008432035880550547,0.037649628651080506,-0.015579074224181966,-0.030256653718723582,-0.018084563205940627,0.0012275506746034046,0.001324857879133327,-0.040210153866937805,0.019636563896332,0.018643749537113646,-0.015417524851184798,0.002089740719880372,-0.030052620849221362,0.010730614012211169,-0.009105495720748364,-0.05447475115274544,-0.00012034915919534287,-0.025814555728452968,-0.01194789798180738,0.028459551515841758,-0.043115429458631734,-0.00831768520284062,-0.009201499205661396,-0.030401438524651502,0.0151332743624501,-0.00855297207805096,0.0105374313305673,-0.016943462672237706,0.02374387397530765,-0.030739283791296944,-0.0386854832485757,0.03280408766346181,-0.03840441305902584,0.007514997466798292,0.017166314136520665,-0.014857165324083318,-0.013227986845794465,-0.009272159363869376,-0.014835988943745186,-0.01347049940631335,0.0028556644512037713,-0.017756744225505498,-0.015615579043545769,-0.01930727775910357,0.00624048471181673,0.028476095322691446,0.01252212899938563,-0.02416267440963404,-0.014239413949615457,0.01967281668272777,0.011428005857807566,-0.02558090969458386,-0.008744689488395265,0.008758800256694817,-0.02396751779621948,0.016583160894154084,-0.03920568562526529,-0.01275028712337348,0.007153378504730126,-0.02986548494199292,0.008586390359035906,0.017273801975293324,-0.002410429152615943,-0.007822052305225268,-0.0405525526208578,0.008294704794082697,0.035405092968946665,-0.01722177490473904,-0.01796475627297731,-0.03214941219893835,-0.03392022898677935,0.029879413505940776,0.013634673767531592,-0.03968533175245137,-0.020003401390150954,0.017862761651630955,-0.049388940897914284,0.005604667467767479,-0.01944638316190155,-0.02867849267093833,0.030217952180400975,-0.0022040078282481927,0.02149450930494917,-0.0032105125903081114,0.004926684065973677,0.027748735288079782,0.037135547737801845,0.009105121784802871,0.013202311263543405,-0.01871342060484353,-0.024163033873112576,-0.015548463598986246,0.033308309146637086,-0.014738805109394177,-0.028850019283696772,-0.010794645912189347,-0.019220720805420217,0.007417995328931468,-0.017066405238788253,-0.025977009199843144,-0.0035290926197522102,-0.00708967664162616,-0.019788075139357642,0.021953245749638833,-0.009996903946352123,-0.010096330188370339,0.01605603772948303,0.002676281908809146,-0.0331525457855316,0.012811716050467518,-0.023901467544342567,0.018167973252524228,0.01894322313950854,-0.010350287400758123,0.00133005889735805,0.006822405870410676,-0.00033167501642229985,-0.017892860910790887,0.004452567188184731,-0.003922856646734187,0.022217009977793793,0.00029140930264552736,-0.007926905020801605,0.02836163238712612,-0.003125036297633378,-0.008857373093031539,-0.019931825389352013,0.03146483160514901,-0.021930196532524825,0.03356962698479461,-0.011674815016639573,-0.02915353585049417,-0.00872895954537445,-0.01703168017614813,0.010361584092645747,-0.04129111777310508,0.01945638720647785,0.019703609108879208,-0.00964919705841164,0.0033626420823215848,-0.020215334390551613,0.005960406096521733,-0.0008402769515162432,-0.05101793670920473,-0.0008196315539968554,-0.038162762504972636,-0.006850343481416708,0.044068988513087326,-0.04343815845006428,-0.01146849189426397,-0.0014909514021782322,-0.029480612795131925,0.03220149424557184,-0.005352515871177663,0.0016798451509775988,-0.020885999379964167,0.02283937981661217,-0.024282464378042518,-0.030034935606475476,0.02375643796887441,-0.03816999856954734,0.005785155478984856,0.026092124476865913,-0.01704478906902162,-0.001268630224631927,-0.020827773219637562,-0.015568847359645999,-0.01924394167755933,-0.0011278274221546017,-0.010252745973296886,-0.0016178443526013728,-0.03258735423801038,0.013312503111781933,0.040790240294118256,0.005619556476935728,-0.030743389242750413,-0.010730440936926737,0.012978583367118676,0.003429251148085252,-0.02831664945080459,0.003856963526503386,0.007190162742596708,-0.03190383855007643,0.030408614634400716,-0.039670298101327224,-0.00043108751129115235,0.008477643421147861,-0.02510451631417208,0.026983692466313314,0.015681962258187725,-0.0046905884664840665,-0.013803186233365045,-0.023167167973234,-0.0010327514746579192,0.02871045526407172,-0.03347109641181649,-0.019543781305293363,-0.03106252542407972,-0.02428057485334154,0.035452800152294815,0.01715765591883555,-0.03699028766401439,-0.025747057748145216,0.016409192730392808,-0.04269372248697362,0.009357660974710946,-0.016706372070055178,-0.0312569199716626,0.01777537341585029,-0.0007872868335285308,0.024296293461179966,-0.011296704737804308,0.008425029024082957,0.024570638552842725,0.02701576247752336,-0.0013020894031633753,0.00551066752279673,-0.028480106579309293,-0.022466433847818826,-0.022635530235978675,0.04032947792844087,-0.019912590912398304,-0.04292458939168734,-0.015402468135553963,-0.024339204096596793,0.003576311283757825,-0.009882601555221512,-0.03412447253130217,-0.009225747280387947,-0.0006139228201948818,-0.01153960661354888,0.021571243790580754,-0.0008813094654671379,-0.015942181637048098,0.009042809964863355,-0.003973896590120036,-0.03599022050196611,0.019230327870435,-0.023941972031555063,0.013744228930519317,0.03213995535246437,-0.011479137775979616,-0.001522738795887215,0.014946232265172627,-0.0029714597451164448,-0.03689181815494085,-0.014721829825441457,0.010282673138748321,0.02453375043233989,-0.022465784423857323,0.002259272658200048,0.009621214468393917,-0.022066779110367727,-0.003738531638879027,-0.01309688844449898,0.02722010791016283,-0.023089965170493824,0.02132517520578049,-0.006834748516112891,-0.0071061211478907595,0.001498710221274571,-0.009161897705779893,0.00541603684802968,-0.0381588564398072,0.018480982043653366,0.007042892819417831,0.0029939992041452166,0.0008416150781595048,-0.022972241717242162,0.004293642663660011,-0.0028613764156407333,-0.04050789453413655,0.0017879642423482536,-0.03157048616211224,-0.01167683354076529,0.030065014086926453,-0.054061713002419645,-0.01447489141769409,-0.0005256029754976572,-0.03744310304738948,0.031959636824208416,-0.00438779584994214,0.00467774177967585,-0.0015225470320665924,0.01465716136490649,-0.013495382310888182,-0.03624271574331074,0.031831134575040415,-0.032400798322759536,-0.004920818696753661,0.009572678424326785,-0.02655672797501439,0.0019383583337371892,-0.020001846595706148,-0.010213700139413579,-0.02207741790193709,-0.010063147635567087,-0.02178293600357329,-0.01613729732062092,-0.01925003785408223,0.01726953200450188,0.04238135352180633,0.011167134640301756,-0.03208301315811209,-0.030193419099441766,0.01840712080899086,0.0067055257265239135,-0.03819727377874897,0.007985527425737167,0.006223002279901526,-0.041433966921216606,0.040188953974550856,-0.024179313494605476,-0.01480187854434824,-0.006017774949554683,-0.002119919740737707,0.009224322253156768,0.0012262670324115971,-0.003326948127736686,-0.009340726421284473,-0.021830279388823915,-0.00142434133438111,0.03224446715112164,-0.0237753607705517,-0.017636311171562783,-0.023902430788867772,-0.01908498909882102,0.034037761272808054,0.010047525736959361,-0.018142482781795165,-0.015417694332570649,0.011000668726229205,-0.03203828026292958,0.017459361081644417,-0.020004935384779887,-0.011129090841198109,0.03241669329455758,-0.01699080878346772,0.02511304403055461,-0.01190806093119507,0.0037645443022427394,0.026947108435245993,0.024926116224607858,0.000042999034007410914,0.009775055049447154,-0.014447963375823868,-0.024304788142453695,-0.029808707863123774,0.02531020107847383,-0.011728891361780628,-0.049387576047008996,-0.0031512227063001655,-0.02805873714742912,0.0023816460909640755,-0.0228498983848326,-0.016322810651376363,-0.00058704131960822,-0.006069682976832836,-0.023695506077953035,0.02484029045047167,-0.008665237561181293,-0.01773560730448624,0.011785669606318312,-0.0026790876155218554,-0.040775570811802685,0.00593628296604633,-0.0009269590698592262,-0.00006725840903249803,0.04238157834833824,-0.027251221498525515,-0.005918058095776688,0.00864533738179322,-0.008102074302618239,-0.025221748765323602,-0.011751780200804854,-0.002626432764269725,0.035035922155877544,-0.02809899992136909,-0.006067121091239232,0.0012611518156234892,-0.010238445734199067,-0.00838110456189963,-0.010460451160505368,0.02372161417807372,-0.015686480108340815,0.02996911426444086,-0.008571521686180429,-0.0018683948718989632,0.005069688491404598,-0.012121042954557376,0.01826194237121615,-0.023887274176727643,0.015507265465125136,0.010548045715506582,-0.015168946789911875,-0.002731474873458854,-0.026875574860761153,-0.001624085205286875,-0.017944584703236007,-0.02907299276898275,-0.013102499669258675,-0.033067510616285635,-0.013876036925089428,0.03320361387191421,-0.041435751586262594,-0.022299695219120716,-0.02212179615770901,-0.022616577388515247,0.022173783806161338,0.006086110284176929,0.00569747770838228,-0.01753987610610769,0.009731349726662957,-0.0034804564980470518,-0.03377116849338778,0.026272375122567172,-0.027224572603808755,-0.003991461335622204,0.011830645836846277,-0.012849350105891591,-0.00536439929975454,-0.024209735376130685,-0.007153108016228347,-0.01555702672734837,-0.011665217486394038,-0.01777668498663649,-0.008205190004292833,-0.002242274111168279,0.011198974055378907,0.0187392625163808,-0.0005178264811320243,-0.03921738556707399,-0.014454712760110613,0.006187009876202134,0.01056617824868454,-0.027152900384857532,-0.0052360765138301,-0.00564200772792817,-0.02102596994070041,0.03283146299849651,-0.024289945634127154,-0.00040257627448934605,-0.0021981582694810976,-0.015007000482831385,0.011675329870003354,-0.0019344695048698758,-0.007346856951509045,-0.02265758849528005,0.018848769955121192,-0.02044487582292222,0.005435313552219709,-0.035809833426586765,-0.013874395100083389,-0.009361106402386648,-0.013216868820582825,0.031318595487671505,-0.0026330829699999034,-0.021198062023313678,-0.010061786755512869,-0.003935533099411608,-0.0410116352836862,-0.0013018548486466866,-0.02786515885430204,-0.0075793507908366595,0.026068969249554368,-0.022766905594875948,0.02983326876369279,-0.011578356565192637,0.004371999252305823,0.027435968016056224,0.023638836052539233,-0.0035069252597786644,0.0076879418132490005,-0.013111842718994132,-0.026740810595046797,-0.03980998381629674,0.037857037444800214,-0.005467256424124116,-0.055309556489820756,-0.011988834708203505,-0.033705480762340485,0.003231856652275288,-0.016234951374535563,-0.026330250003894377,-0.01691457587960059,-0.013865999182730475,-0.015931043313834513,0.02353076131095326,-0.006017811486206645,-0.03112688615903398,0.016742839683081538,-0.010316528629809843,-0.0345489844165223,0.014639883750737798,-0.0058126508779245325,0.004271074372555982,0.049762509967045544,-0.042105097495200826,0.006751775288757085,0.0075526101353809395,-0.018233843502200576,-0.02503382938829967,-0.003656182877036551,-0.012024023923076853,0.018657748123520113,-0.026120901166412865,-0.010241151535312167,-0.0042792284158071625,-0.005721487967580068,-0.010780783634338764,-0.03464216123871243,0.04242480557633097,-0.02262138836143927,0.01766484651780299,-0.00780429554247631,0.01867429263532591,0.018493978793442507,-0.013292474340844159,0.025568605937952037,-0.036632268954293154,0.021667839062549942,0.0017437794442293087,-0.02418031253174826,-0.024581411407958935,-0.014236895132351539,-0.005508495424943845,-0.008380403448710255,-0.036392827846388906,0.007098064896244355,-0.004777948021398544,-0.00009960654963983025,0.02686429341622128,-0.010746962562416277,-0.009089332143689663,-0.019729181418260522,-0.04887094822325929,0.02859677622313584,0.008909109032445215,-0.009953558204171953,-0.0136495482327761,0.01097035141875109,0.02324085435430312,-0.0038551956959885438,0.03787097422331731,-0.015788936465636436,-0.0031170654040197604,0.02692067797205129,-0.03164391285664543,-0.004467429076433856,-0.020224274737559677,-0.0014256586849023896,-0.0015769020899977055,-0.013173489480560931,-0.007818466365076727,-0.016555752379828217,0.00711185745300119,-0.0031372191754468087,0.03319279620217361,-0.0031404878065458396,-0.04236887239012701,-0.02897279600643592,0.006397353569143718,0.009220167348607835,-0.011982060098533394,-0.006863689482673903,0.014057548466630949,-0.01788227791228783,0.028250209852877937,-0.025689512257037014,-0.007832978773236762,-0.008154115922396609,0.002569940565406431,0.0021218009639290382,-0.0007800440851021392,-0.004352772789131018,-0.017404036217971635,0.02006316336307153,-0.010574267423846427,0.02475183507231243,-0.030184082384989864,-0.01794484517238235,-0.00490715887177537,-0.008854350095021836,0.029854653742020305,-0.0052126530698423665,-0.003783806597917834,-0.004635933757304613,-0.010519282104161984,-0.02329073391136463,0.012052347326392843,-0.018501320036142514,-0.008872777032650698,0.025823068160412486,-0.01451077661714319,0.03743875498635789,-0.02407419267885636,0.01116115115512504,0.02364522519228772,0.016591635386148426,-0.01810183223828819,0.008823350637128118,-0.00459997937509552,-0.014411519106038778,-0.03463633164996566,0.02200293145358823,-0.01276234889626126,-0.057286602383468936,-0.025627755177574242,-0.027566682221400747,0.019531521960970084,-0.00039741068399251297,-0.012815386518476931,0.003208203917897848,-0.015075817829115951,-0.00040643406219856775,0.04207063942261647,-0.024525099909455245,-0.024724456828345932,0.010773741947974742,0.002675822945135345,-0.022092782958156,0.006845097955285589,0.005903705874664992,0.017447954500818652,0.04837624383523271,-0.033181532325017055,0.01673237902190605,0.01883360409292697,-0.01741709832920844,-0.01945477465928099,-0.005578264681183654,-0.020827212215334952,0.03266450962851171,-0.0195813866567768,-0.02129486875194926,-0.02005221910976798,-0.007853311953577219,-0.013484415048681295,-0.027341577062874524,0.0230231748826971,-0.022799349828130925,0.019486976789044423,-0.01113583329881721,0.03856114755626783,0.029898454849228828,-0.02269796816210771,0.016561320663635568,-0.04071501704740326,0.022929564612013238,-0.01000219196880686,-0.012887232301729258,-0.02456545492724654,-0.0195922886589509,-0.014369488698512397,-0.0017535861979830496,-0.021963878680406397,0.01002543065661483,-0.006737012778806828,0.0000958508085992187,0.02311740189060999,-0.009934329234568913,-0.001976296047085552,-0.016960813515438218,-0.02996722500844623,0.02271344817077818,-0.0011505305912864864,-0.0005235440009182216,-0.021509571131325962,0.019616995007617988,0.02436176682374389,0.009335396812616487,0.033927740022946955,-0.013860876970047556,-0.00170526933124927,0.015136018362367616,-0.022027345322081834,0.010482063206379667,-0.010331667080465779,-0.004401601159047953,0.00897754366850612,-0.000495920996544378,0.0024400907171403816,-0.017210427157877208,0.01815131342382849,-0.00001673804078579484,0.029883595722007467,0.007422783254396375,-0.034178368422617185,-0.0293696120028371,0.0038398918892047313,0.006816149263735723,-0.011352696973288357,0.010333422684586443,0.017205724671742778,-0.005983553714391667,0.02475564178531325,-0.01719286613056091,-0.015091273974832209,-0.016162952983041073,0.008771052686425026,0.004641036791427341,-0.005285857906087046,-0.014204641747328318,-0.009973084792909316,0.035426721874784954,-0.011590375564073803,0.029056100141118472,-0.0333356608628243,-0.01790886387779495,-0.0038909954917311852,-0.006846678646213397,0.023934157632661143,-0.00421873844825399,-0.001965885456046598,-0.020902461918726935,0.0040749987206235684,-0.03730957967492355,-0.0017153928507664868,-0.019429460425899017,0.022098657770624662,0.03301882836101378,-0.009059528752206288,0.02510977927159788,-0.018195976904337417,0.002884213720344445,0.004080390139530052,0.005040178866976317,-0.009608929551171694,0.006997393083175559,-0.011043649640334129,-0.0108119005256927,-0.033756570480747164,0.024441654334910842,-0.0039345425501497566,-0.05013857078922938,-0.004422226302538684,-0.025332633834544368,-0.0018562885838954676,0.0025967759855210115,-0.011873003450444824,-0.008762296681412839,-0.011011476541905298,-0.001137381632068613,0.02072036274636681,-0.02196632259309021,-0.0169062657741778,0.009168673764156485,-0.015481958381158836,-0.013873708118500005,0.018245892780197708,0.03341403947843579,-0.0006844323175731741,0.031373259852683695,-0.022555759295090284,0.0047326426427595665,0.008050457019560519,-0.03436591362754929,-0.013970100443798084,-0.01930558059680711,-0.023711109267494788,0.016961248804342813,-0.012768703737102653,-0.00577417213002023,-0.02526610136789829,-0.017291693702626447,-0.0011534209256178248,-0.027979660305434202,0.02614530830709127,-0.01983046438884738,0.019149589291772722,0.003780180504919537,0.04928553500120804,0.040556576727410365,-0.005539972582542045,0.014371035836740344,-0.02633702923490491,0.016087681121505475,-0.02081361544453845,-0.017731780215739602,-0.014345515049717749,-0.014007243950375035,-0.0180608305503444,-0.003286759389915062,-0.02175962876942228,-0.010093771185612378,0.013503478714287719,0.006448683409179739,0.02243134479987173,-0.006362624277184137,-0.0012870387276142725,-0.040713831216061785,-0.03161810831773041,0.025487336558158286,0.009611628763931037,-0.016521231815196383,-0.012042605272943247,0.002937877065953802,0.040013670386274354,0.009007401329786549,0.028262161178533193,0.00277409459892365,-0.004592585634079902,0.020655284124371773,-0.02969613312016483,-0.0007640114354830152,-0.025213926185183155,-0.008467537758376472,0.007326350223619885,0.0015430783215932854,0.02233669630258608,-0.023893710025112782,0.03592455872469025,-0.012611874514931844,0.004448185102191664,-0.012198753960596612,-0.03410280291011359,-0.020298355995383988,-0.006497415709130338,0.01140564699022315,-0.003127811123587995,0.010799290691825773,0.0012834284642089604,0.010405105873612475,0.03424446465045722,-0.0211899062824344,-0.010850517619162782,-0.02151046211416318,0.0036161460554518785,0.001130695847176211,-0.013484934761028241,-0.007743995739287886,-0.01749250859842358,0.04560480180171006,-0.014708356379839815,0.018406547293074872,-0.01903936322619111,-0.006316182900819871,0.0018647706801836325,-0.021210431883044206,0.017656806107524948,0.0016868963072049345,0.002770944940769979,-0.0074569467430236425,0.006908727709451831,-0.01773461076505326,-0.005559423589779178,-0.01649762913790049,0.023189668623781218,0.02992314308593057,-0.015624143803730353,0.035159312391534345,-0.01680632496668911,0.0036454402706407396,0.016854037966868185,0.002169834445651929,-0.011265518477100682,-0.0013031245644176091,-0.0072430339195026045,-0.0115342563566814,-0.022377790057036825,0.016215212117085005,-0.0035139945457230166,-0.06525525039597214,-0.011949586685265348,-0.03019068842570582,0.007006320671209429,-0.013116208531747874,-0.027272716695567325,-0.003649640654666015,-0.024577603331455426,0.0011381441578061876,0.023682923866027886,-0.019543292606698064,-0.026195210306611174,0.009760656209443308,-0.025434588714851276,-0.025017718519475665,0.016978601207055567,0.027170996789811698,0.0015154591080989098,0.02932795858116679,-0.03104554766350709,0.021003390738243075,0.0074172579792610395,-0.03210611382938176,-0.020620259472067016,-0.016142381861052026,-0.01850465881023279,0.030965658427874854,-0.007755486520572738,-0.004287749142616387,-0.04771868388280642,-0.01948920016808453,-0.0019990820162795802,-0.02642504837968065,0.011651436236955989,-0.010451601516608936,0.010562857380294395,0.0003471326866003355,0.06988955822421969,0.0459557318315935,-0.003018483645869064,0.02635258639494918,-0.039843892204071134,0.014938954172589605,-0.013367162466376916,-0.015417850993554399,-0.025082641828494415,-0.018624725115184926,-0.0165818153464649,-0.010168954332964617,-0.015634067316381145,-0.012351368998557948,0.005314501454047635,0.006294226338994209,0.01025409611940129,-0.003930777304169358,-0.003966897618496968,-0.028700455517169588,-0.04014306559968884,0.009972251085526245,-0.0034719902441878595,-0.012366391732338443,-0.002452865378907529,0.004252773600626466,0.043121016267799704,0.00265610229378986,0.031671025902967234,0.006178242591410498,-0.007985803092839895,0.007735502766517577,-0.03281646790754163,-0.004906945148744336,-0.025088747032583365,-0.011590717914553654,-0.0019262165618855547,0.0030464722181484383,0.026652743020417837,-0.008590552876427746,0.04678125125422535,-0.007830204951126267,0.0045693687554683934,-0.01487225548229307,-0.03322086836259383,-0.014488634220403892,0.004161700257840972,0.019651445502882788,0.0005339624382395288,-0.0017303452176635923,-0.0003622201527943123,0.005025055559712128,0.023910699217452376,-0.011825789570766732,-0.021396966827715868,-0.02174146401343498,-0.003912776224574463,-0.0011309381063812143,-0.018487017916771004,-0.008270168897647145,-0.023318304442696437,0.05483480032349123,-0.012031022493997902,0.016739052871834935,-0.018471980650146415,-0.0046733921184852825,0.01828106814075801,-0.008765089916016825,0.01677789798074071,-0.0037156892641172492,-0.00828081750579021,-0.011483592900695906,-0.010166252384798532,-0.03166247438329476,0.010532439517250239,-0.015078124611794546,0.02930820352689033,0.016420914723644865,-0.0131807009736684,0.02165539469948083,-0.009233517066945715,0.010809200700389246,0.0028606867236420763,0.00035189065213044453,-0.010561075488647195,-0.007299360885502832,-0.002578617455651245,0.009623650215361833,-0.016421379168950243,0.01850268036611589,-0.00021504090850351984,-0.058618070677736486,-0.00855524925552162,-0.01444407119178392,-0.008690812020092031,-0.007328362264199617,-0.008371740900237255,-0.012103010422231391,-0.022416777602705305,-0.0021000980723308105,0.026176285000816642,-0.009492184368773061,-0.019271710965352695,-0.010313684026953063,-0.022719886289014328,-0.025963471977724455,0.0029105618693547495,0.037439415829400496,0.010359439325121754,0.01667916749019898,-0.014525386376599947,0.010223819186545056,-0.014837812828663657,-0.015845657637787815,-0.010286512821934157,-0.008434904821843281,-0.009927599805444819,0.008164301375402623,-0.0066569887453422245,-0.017119426805332495,-0.0290030853741515,-0.014604330685095462,-0.004060552581160291,-0.013882288298227501,0.023280452558016133,-0.018432806409067373,-0.009194641587652945,-0.0114214495978149,0.07331508583326261,0.041758972545324555,-0.00028044544656314653,0.008854282135391097,-0.041003413334934694,-0.005752730461392451,-0.03447311046163452,-0.02610930551868781,-0.007094008060803452,-0.00752966686005675,-0.026402570860851484,-0.019428765035182042,-0.01638988729667892,0.001604101033034721,0.019576553699969166,0.009763609361575205,0.010586498576953977,-0.02712195959980279,-0.011129332668144374,-0.022341302520681103,-0.03106822089492264,0.00034070249892057447,0.005105637539097207,-0.007592597870229061,-0.008183509542153949,-0.013944377657152156,0.057701476913450275,0.021259795766551327,0.018352382519554372,0.02522576098533548,-0.019810214466323757,-0.0005352148120447001,-0.03470620472773009,-0.00010808317758503957,-0.013466861601376756,-0.016607804691919022,0.008519399936786748,-0.013265725531766415,0.03078661001349906,-0.01734403767942276,0.049010573951658504,0.00170228202952866,0.003956702632742696,0.0022301772590659318,-0.011313781121512797,-0.01210243583407231,-0.007856526456021811,0.004528701719086042,0.006035558907997905,-0.007384932553384827,-0.004450063266016878,0.013896931884422453,0.024299104356056915,-0.017483919779547247,-0.003963187604968526,0.00035081286454723967,0.009519826066769795,0.0006612573621198035,-0.003493079096791653,-0.01235021019265608,-0.01435230312753218,0.037843415892018686,-0.010111902090819807,0.020284859699786394,-0.02175572195132061,-0.0006833996225296616,0.005527580569959051,-0.01290626945773252,0.0296340782616437,-0.00649257561687063,-0.00023888629325817494,-0.020560859556329775,-0.0036323641360964747,-0.021864186230607242,0.01558824092712106,-0.022503393883781017,0.006682248344448324,0.02395793885213302,0.003791903777943458,0.04142334820124619,-0.020578899423181092,0.010740552569182908,0.020448760225365042,0.030245570746881546,-0.008792117170549642,0.005505978313416908,-0.01165773643794982,0.011054065534516775,-0.03097220976181883,0.024308768039146614,-0.017142316646379534,-0.03702093363428927,-0.015145493987723238,-0.022661739823286852,-0.012590890601411123,-0.008627474026648345,-0.025158698991210822,-0.013075443578869653,-0.02230337282553851,-0.009359762881729487,0.030108980257971932,-0.01666384034721849,-0.019237266677098786,-0.0034039517311287943,-0.000019487210344152047,-0.03427164683771307,0.00979966171719843,0.017049186588355254,0.008458136587789605,0.03488919720307819,-0.026839119620235295,0.012927070375609584,0.0017302975883751422,-0.006217837924405483,-0.00040472967694216687,-0.005796375776040607,-0.0074547932942832535,0.02456559021577601,-0.007752235958213501,-0.013193163191573124,0.010801522560219988,-0.013473801233716599,0.002787694398479317,-0.01008295034481167,0.03760289004527769,-0.005060040143360213,-0.0011777574835271443,-0.008982968409948031,0.04838535772593429,0.03771538886295668,-0.020616662163251226,-0.0024517344026227963,-0.030300488438324776,0.005464343467143297,-0.01829375167901601,-0.008322503611571615,-0.023944424689707502,-0.01492066188164026,0.0016039113825047743,-0.017198927389547206,-0.018644875784013155,-0.0044194536213581805,0.016899686980550135,0.010903841874071904,0.021089324228060157,-0.0156816616968441,0.005338213596586114,-0.006611824080704276,-0.02714443550327214,0.021196860803698005,0.006827716729402192,0.00555361749278835,-0.013281091307097762,-0.006491467150452319,0.03213305804120805,0.008606982619554008,0.020023667661145793,0.0013585717411474883,-0.02283611336524578,-0.003948321008812796,-0.04178671685596055,0.0061144309527562755,-0.026026177123682603,0.0013172178174062354,-0.008794785131675914,-0.018812147908360295,0.012341349564645046,-0.010588763574054543,0.037881110208588746,-0.014252716819104207,0.023565422152684583,-0.009652318080391645,-0.013920991703032529,-0.0175650504566296,-0.006292181406297639,0.018227880339286056,-0.004731850074724564,-0.007607898039794913,0.007645444627518861,-0.00800171007302527,0.06139916084897581,-0.03703616061385313,0.010215998552481283,0.001608897654599362,-0.01625383317682605,0.01943598271610211,0.016023886095003246,0.0015230797489512854,-0.0120947761293065,-0.01511302320754703,-0.033031129499927314,0.034484238788730213,-0.03744638707331637,-0.048951437449177064,-0.023978914612284734,-0.026560671313837395,0.05120670335744145,0.009543208030070527,-0.007172656751717663,-0.028766098291714247,0.015693437157661742,-0.029148378759022587,0.01160468072459334,-0.005659475954688551,-0.01605873995390192,0.047681887954589657,-0.0293319826742058,0.06523159649523912,-0.024688431455232477,0.003956422963101515,0.024513619042781678,0.05808352181045775,-0.011311102659488674,-0.005043515299607558,0.004397978857126884,-0.02364151043224384,-0.04823226211586529,0.0537680008018117,-0.010072827079674846,-0.04453794092609709,-0.0348105722303391,-0.05177244549294809,0.021749094275483327,0.007911391271484679,-0.017165808398701504,0.00332296391128867,-0.03016286472179772,-0.006474963012487866,0.039560998472258566,-0.02010821950878023,-0.037667619370723285,0.009124429027016292,0.02142107670262086,-0.037217711167924425,0.016574749490084587,-0.02162527898869255,0.009744481326203844,0.0673294741369426,-0.04650481351517839,0.028283851539783158,0.024070485584404257,-0.019551670807255263,-0.029871076369159803,0.002553142525221573,-0.0024674463559411835,0.05214264932597991,-0.027530430543851025,-0.02443239771648747,0.046586571648881046,0.0003661746539996187,-0.035854350851840806,-0.02452349617621864,0.05854171794385505,-0.037331671197266006,0.0656685507498395,0.0030792016120240167,0.003807127194142173,0.010648961350522313,-0.016569972667360898,0.0280769246382467,-0.02494517778766692,0.03343645799495196,0.027173037748124813,-0.0343088266580447,-0.023326445819025474,-0.03394538089922921,0.01178574225028666,-0.00107166315310084,-0.03899432423852112,0.011352203818922043,-0.022747723613368295,-0.0020534303779800134,0.045348485035378576,-0.021763795084429997,0.003795578752878305,-0.019894182220999812,-0.05690871737745068,0.026318241386801285,0.009396105612494621,0.019783905162379958,-0.044699927906600226,0.020552692066778372,-0.010581299151980538,-0.010367598293790324,0.045050466876737506,-0.01113089677030588,0.0018136673840846189,0.017046853785549956,-0.040332034003656383,0.014172312014882324,0.0036433064887012824,0.01551575577481897,0.024027174152406457,0.004000645298238217,-0.013921238178520846,0.0007201178575027827,-0.012330699322794765,-0.003529449381683963,0.044978108039848926,-0.015735957094547254,-0.024624121964459195,-0.025711150807816528,0.022310687087052077,-0.0011187640418671987,-0.02337129938523587,0.026473104932377416,0.01760467223435231,-0.0250631889489924,0.073442996380067,-0.05439962625859428,0.002402908704571137,-0.026408800270533092,-0.01716365254918887,0.02562413769519968,0.04269191295492715,0.007825699570174052,-0.010666519719247758,-0.007162220420484633,-0.03630519797052236,0.019037657726632004,-0.04644613975370466,-0.055411170744085525,-0.023986292575221786,-0.033105621394411804,0.07744542081588131,-0.0010566706187900277,-0.011485507691632554,-0.034058647487133845,0.031880555952636426,-0.03667246414022574,0.010006084526528443,0.0037945757850592525,-0.04209147290817435,0.08511525212645055,-0.040272394079176856,0.08629189858026694,-0.05561599814892525,0.00009522599658037249,0.057111227657378645,0.04614947179417644,-0.012326111357370816,-0.002035656758947125,0.010893785856646705,-0.04857048503839923,-0.05203470922142824,0.07182975809649178,-0.020595426501428267,-0.06377956529884782,-0.04849006908019893,-0.0656368818664668,0.04419854777359323,0.00862804664026697,-0.04538389204132377,0.020319234316777065,-0.03891752219897001,-0.01955022065381882,0.06416097742766105,-0.029540813806920262,-0.04200469818864687,0.03144027224467189,0.0381533559571197,-0.053178548375349945,0.0005893391862601698,-0.031058751042850247,0.000675120437633908,0.08645557920321383,-0.06977694971834003,0.03451346542126333,0.031176906894356326,-0.05171905971802288,-0.056041163598425814,0.013198071773773216,0.00626976674302374,0.07069988932590598,-0.061536589659069,-0.04215539123466376,0.04591589750123803,0.0032919648333105756,-0.05138645398146116,-0.04764421341774075,0.07763201601016358,-0.04739175194989787,0.07565540319032489,-0.015663014692060884,-0.0027270442440348714,0.003818783445622012,-0.044023133647473095,0.04695289958634315,-0.017430135444134142,0.054960966823752046,0.025184624618616418,-0.0281117895075361,-0.0376688925214362,-0.03854096042871677,-0.011785856282695196,0.02060891245693332,-0.033995249336058415,0.031567209289226815,-0.0260683387191876,-0.031544329542430485,0.07076157025770483,-0.022698545000892988,0.010094646395854048,-0.047807275839841734,-0.07727384938366472,0.05149296168632336,0.025599384535161047,-0.013747966683564226,-0.057657091226628626,0.05317189641621483,-0.0009000005934135928,-0.015496594758020472,0.0746631016746824,-0.01820339077385439,0.025117733417315734,0.03810955709737453,-0.02624467419567087,0.039976667353603265,-0.016711962992303965,0.010084101882023222,0.028381748877222453,0.006422452274679367,-0.03671467150680032,0.005591089232182698,-0.011580129793191254,-0.011640446521255749,0.07018891505359423,0.0004692416889659503,-0.05086493148151238,-0.06866855393159908,0.02887969503285053,0.024823715175314925,-0.033300386239147745,0.040824986849757036,0.029832121705596543,-0.01980281727915542,0.038776039161807906,-0.03617413633781052,-0.00009971148494385793,-0.002021060132060121,-0.013289378475440412,0.018002128624343774,0.04317084994777481,0.014614038808206461,-0.01042185213784569,-0.04166301395711596,-0.009835953837315836,0.03453911907606628,-0.044182447882223475,-0.05339932243667262,-0.034830921631825905,-0.04692442013804159,0.05810926720800079,0.009603887097464835,-0.020928285646476072,-0.046132952524116394,0.030771946405232002,-0.024240024105735256,0.019520537939006363,-0.009325062029135411,-0.023377726889090955,0.03255711730066976,-0.037789548164042175,0.03642575653693087,-0.02604451977304977,0.012716370099053435,0.030881359429158768,0.07052760958251457,0.001600412188123803,0.008609253882213511,-0.011205629790907104,-0.02678413866899447,-0.044477572174352074,0.054204255625426696,-0.02460460915551447,-0.0385361579576139,-0.04821522300282047,-0.05027913362533198,0.020116129093200937,-0.011977384881200046,-0.04032410129723375,-0.013144940272247673,-0.013019557981238265,-0.03500428641820787,0.035396042953500774,-0.017784114729117305,-0.0010150676578866507,0.01954822403340652,0.021251817141447603,-0.043599853151991386,0.004001287072244661,-0.03577598392612525,0.010706893861830182,0.05836733366058195,-0.04646140470690856,0.002475955031696262,0.027232607511713712,-0.025899158727716483,-0.03493155428145174,0.0006748415348555406,0.011480844272190812,0.03846045530183643,-0.038855321220271036,-0.02159466765565122,0.053653440242918515,-0.011370653605223394,-0.02418840940224718,-0.04247029867789132,0.0731236644120154,-0.037746931041003184,0.04225265514581804,-0.018911356359247254,-0.021878010232166716,0.004695098563906719,-0.03831888159084373,0.022057378510317485,-0.004628384594751507,0.050606105022569826,0.0441107748224714,-0.022574594860508532,-0.016200379497864226,-0.04197883897695269,0.0176876821371895,0.0023906924700547506,-0.03706052496438826,0.002962578732352432,-0.030878021788315994,0.009195344313375197,0.08075082742710177,-0.03029732883267989,-0.008672820718261432,-0.021437895520595548,-0.06807553709624892,0.04741696864886412,0.02608468093937561,0.001865757434356497,-0.04143881419116569,0.03265934371228106,-0.0190051151632148,-0.03032727914639525,0.040424901904022925,-0.022531141617172852,0.02738768908713071,0.03751852689963201,-0.031442988514664004,0.027194384120976946,-0.020873864003400876,0.005093002436647872,-0.0006589428973151907,0.007092641555694147,-0.03803240345210684,-0.001020265926598314,-0.022543748764714985,0.003898122255769814,0.06605284712028019,0.012440008045247954,-0.035429029307142444,-0.053765543129356504,0.02903847281221917,0.0032242096208869955,-0.03943649560610595,-0.0010600813741570997,0.00892212581277108,-0.026257916435815265,0.04473034215212006,-0.03013678972068197,-0.02061747995569107,-0.007987845683545172,-0.016406859280551255,0.026776825918415924,0.03067233256258544,0.018016017491887734,-0.03215005589841651,-0.00896168271441543,-0.0026781558046071667,0.024149120935156542,-0.03909966725579582,-0.036971738903727305,-0.023762570197072036,-0.043958810492411196,0.06764294957124033,0.026554679928173508,-0.02263674923604399,-0.04516050168098115,0.025297540398695174,-0.016002831223635675,0.011808297882391594,-0.004879076633986119,-0.007529035080637348,0.039251622357302444,-0.019105334272950785,0.041257228643172425,-0.029335766846807738,0.015108218205890872,0.02493399771402877,0.05442399217117063,0.0159799446841032,0.009990398748273266,-0.026857492866419017,-0.024191944637154492,-0.030977757099156143,0.06689088831400407,-0.03358368340613528,-0.03338542884212022,-0.02404606227433885,-0.0372117337886612,0.015611389619589824,-0.010150790855706505,-0.050556167986026745,-0.017882434813825974,-0.0058180153407309835,-0.03242703824103537,0.024024068291404833,-0.012429347504675163,0.005226894353797116,0.035909174380553195,0.013823978364507498,-0.04839973719477988,0.003912580284642886,-0.02156243111632276,0.0002768457726097278,0.0572708804164865,-0.035808301742790635,0.0028247773438794875,0.021604701512179504,-0.03605781648283538,-0.0376008267938005,-0.007703669011798658,0.01172485366033331,0.052766174218278894,-0.03393372285914943,-0.007007244467006509,0.019007591504425596,-0.014139586731285977,-0.00700628099851012,-0.041605410831550504,0.064559751412436,-0.027715007362294094,0.04123268380685575,-0.010081646571402383,0.001492202659388626,-0.0026785724054859193,-0.039149717353039765,0.01721751648250625,-0.007041144654248572,0.0341020571101419,0.023364763307656054,-0.010474108072162175,-0.008681615100167227,-0.041563696330307764,-0.002734073241831451,-0.007774807492523352,-0.027395707135042982,-0.006906653709355206,-0.01954847041414127,0.009434264591292842,0.07002078722444097,-0.03478885489108748,-0.01899486473000211,-0.033578323606495826,-0.057479643509325766,0.03544695362414051,0.011013926264041402,-0.006109004644641189,-0.024507958146549602,0.01470904596886525,-0.0016682244057854292,-0.012560786658375704,0.03936758751396956,-0.03491500244804993,0.019332133679480487,0.04257375377107632,-0.0507852405880039,0.012678726910928906,-0.023002492070596944,-0.009069335330216166,0.008012925630602468,0.0022068537627442744,-0.028321972453821186,-0.009168240667804091,-0.018965227275743547,0.012484696801360504,0.06526532446850135,0.015608302532873606,-0.04342105015912833,-0.042744221602074445,0.028043780137200665,0.012766820483445589,-0.04315872784072864,-0.004603202979876339,0.013616739245712987,-0.022320151531618967,0.01466894870506189,-0.03749140794547145,-0.02035175283783728,0.009196827914409667,-0.0006336389689340623,0.019989895393212682,0.033618810605121875,0.01253568595201899,-0.015186309669278406,-0.013961969263461554,0.0034928938343070847,0.03613810648053119,-0.04875218163943658,-0.028285475537491115,-0.03609305168283709,-0.04424537382872466,0.04624296062626198,0.008514328795929569,-0.01806822192938665,-0.03586604991866652,0.0046662744191873955,-0.01266612318840483,0.01518690765578474,-0.009557017880452719,-0.023250296454942622,0.03185049249632961,-0.03362645120696732,0.014666393574186554,-0.029241373606661063,0.0010399937268195027,0.027391516179428397,0.06710850752877144,0.004137734998477443,0.012296949987577185,-0.005966399444674644,-0.02069204403913201,-0.02774824987545147,0.05762332203904835,-0.0268615042034259,-0.014149140409710161,-0.012544370511272773,-0.033802750352466195,0.004873313774191394,-0.029129945490383443,-0.0347027296663527,-0.01784364379996295,0.00634051285937621,-0.02642788132812399,0.020116145912395054,-0.0005610112461122001,0.003454427289857416,0.009969261455165966,0.012979835914231559,-0.03521259215059,0.01890654662552988,-0.02603808139164638,0.006377179632651577,0.043035427257105935,-0.033963518231046264,-0.017832160090933035,0.010576733426815945,-0.029049812380707116,-0.03456836583373571,0.0012605398303184693,0.018254971782826392,0.041427293341209565,-0.024913814935120095,0.0012603804597057604,0.03341682311311641,-0.016472263892581097,-0.01138618958488284,-0.028949722100679684,0.08115027867841844,-0.04073045903394764,0.034063488893406345,-0.0013390087153169613,-0.019064696471614146,-0.017405259242394118,-0.015838898678807157,0.01173662890373528,-0.01706258293281137,0.02971580576444734,0.03248511831554925,-0.020622395824330557,-0.015744797602506612,-0.041675363997505446,-0.0050219138923509755,-0.025928960739158794,-0.03611125642577976,-0.023115115627842124,-0.04006537221563333,-0.009877487048022422,0.07738326499243862,-0.030410894172667177,-0.02550040257784136,-0.02061781050314263,-0.049411658110547416,0.027880946708769696,0.0109108310745211,0.010434093064597097,-0.014139247213032799,0.000870768789927243,-0.018297409735801646,-0.03504173018729015,0.03271341395881311,-0.03157455824801242,-0.014802761269753786,0.022949606374852237,-0.03715117728665292,0.0029171596023763293,-0.014172206909836452,-0.01277632557163,0.000794691546557542,-0.01591375410687143,-0.018200768564569123,-0.012400603962195621,-0.012253156869213714,0.0025432355822964116,0.051213465162291145,0.01658009592985612,-0.03658529552237975,-0.026244230255929854,0.022806660120412305,-0.013875264656426394,-0.026266642892941342,-0.027809694553622855,0.014204346641209398,-0.03164058189583608,0.021395807382401252,-0.03697791580131047,-0.008781920106293774,-0.032502375645248945,-0.027783760617695982,-0.00008216421781522481,0.02861276708476162,0.011102182895422967,-0.014939802208431977,-0.04938765350800784,-0.013055698378274711,0.03210675195447051,-0.054316327332928405,-0.038625175733251235,-0.038527745569311114,-0.03967663140977842,0.05543614527603971,0.01042444686572679,-0.01478107314756553,-0.03197181799920657,0.014462583703207129,-0.020345873824255487,0.005186720860983796,-0.0271878883566449,-0.01943652865686919,0.01964743684141317,-0.012853233679481917,0.0141209629321483,-0.01640281224854693,-0.0008097238985717137,0.02649414879612484,0.01916766525532155,0.0069182774670060315,0.01029302073205682,-0.022209785018143618,-0.012780451065425096,-0.02761226711986117,0.052012710951701235,-0.022010745047992882,0.00774499987184254,-0.01653854696568936,-0.03512463265024125,0.030479801220707585,-0.005434803007448222,-0.041981212707750966,-0.01163207103617791,-0.005022650933948012,-0.03448166528521947,0.012620273664482831,-0.010247110556137102,-0.0028130395346668267,0.03859414160750398,0.02089347420641118,-0.05798289349530406,0.01600217201029363,-0.050836386947593966,0.002805943297767884,0.02378943421753838,-0.02655155674036072,-0.006030353293032193,0.01278977995183236,-0.04234316464582707,-0.02735213538218244,-0.01120640050023575,-0.0004800152508066584,0.04100049295425292,-0.018216968339945665,-0.009852783107891543,0.002459552259818208,-0.020027601912116597,-0.014781871853058643,-0.035129925923178956,0.035694773732325796,-0.027627893593552093,0.03928834609506336,-0.00011848313279240833,-0.03151811007060967,-0.023752601564998237,-0.02935303327532221,0.03807427775404141,-0.002835318845237222,0.039741825093284944,0.02941297723357465,-0.013083657257860967,-0.00891352533708033,-0.033954413856454264,-0.0222561025878122,-0.012288739971156872,-0.039788256128926745,-0.00547879333866031,-0.019324847492428132,-0.011955526026568672,0.05750955377646559,-0.03806922680369189,-0.01121677398193507,-0.02593390012032817,-0.03539827766924596,0.03093887163878316,0.006782098898391199,-0.023656806139470656,-0.026255360615064997,0.04667649057761046,-0.032000928484559654,-0.0412170464486552,0.036700863655192234,-0.04016364659782694,0.010321817087377413,0.02940365172039524,-0.007932611839648166,0.018627446859799102,-0.017520727959474142,-0.006373705671226234,-0.004837393743504539,0.018918865934311732,-0.025227169382446443,-0.006832486141351527,-0.03819686805990893,0.002399745664541318,0.05791444828409508,0.019004291976785083,-0.051375970113511985,-0.03468431144115266,0.03080986908127119,-0.011068249404519307,-0.047730074076413394,-0.002192131436310596,0.015846726139545624,-0.03975565161556752,0.004585109055299678,-0.02530832580317823,-0.008351890307526977,-0.0032386307124474614,-0.019611421663445632,0.005808876023815641,0.013459773901106498,0.000985797869117691,-0.013623847574060984,-0.035841077121608673,-0.007900645443152388,0.03314334550995497,-0.027556145717113067,-0.018480064019922342,-0.02185514150323158,-0.04443035198924138,0.03841609290825079,0.005843116635921712,-0.03299223820362322,-0.034956920970710105,0.00007735109792622464,-0.026731346933689237,0.0006116905757302756,-0.03416419795304035,-0.024833539187550966,0.01497051723739599,-0.009344703121648847,0.004037239946655042,-0.01959034111770255,0.014828737735855833,0.023336664803826596,0.020442277626881816,0.008248477014259846,0.014039833660592428,-0.004473826090863985,-0.015196973697636638,-0.012790222035226466,0.03198867990541311,-0.023282967354268363,-0.025769719243870278,-0.00945300341601055,-0.008055016684490254,0.024987687209476726,-0.0070106444667449586,-0.0357443289089367,-0.01340317539774556,-0.008270988367555479,-0.023866468480430773,0.030497503143365464,-0.004483313423763286,0.005956617356937958,0.025204163394659067,0.010599735475089822,-0.040367010818651496,0.01723117570639889,-0.02162732505288679,0.0022670032195050926,0.02464305625918497,-0.0057187662946629105,0.008799395281082676,0.011648351284085576,-0.027016866138409174,-0.025821409230473345,-0.012141031685732323,0.013716747699674712,0.024062077220728225,-0.008600418946278162,-0.013203815201507783,-0.00548881158543775,-0.013420236209653564,-0.004398576205252449,-0.017395166160770414,0.025232082085052416,-0.021464712985001903,0.01470312341253395,-0.012211760519896779,-0.013403807136618906,-0.020094941603916304,-0.027401308195616515,0.01074510980960444,-0.009041362139875483,0.02775714977232484,0.006267271481496341,-0.01687096037422919,0.003863422892886495,-0.04685032468138434,-0.014575586356113602,-0.002403701678429557,-0.052736853948828474,-0.00353085943505389,-0.02363899982723093,-0.005675441323120648,0.026344076132186235,-0.06345056321570074,-0.01745198611384672,-0.010022616023203765,-0.01714440329378362,0.025490364765983414,0.010664797133597612,-0.014619253793295366,-0.010288027189281252,0.03300386026835733,-0.02817997598816114,-0.015649109235471356,0.028592819948686538,-0.03174198163427188,0.0036559504926730354,0.0392036842521199,-0.009160854164480077,0.005047400224756369,-0.004402411706099324,-0.0023064193514541168,-0.0016906314099155012,0.005005069128268027,-0.004657010308833903,-0.004233369257575643,-0.015523153664845796,0.0035915802566167587,0.026807404198668918,0.01094376497907201,-0.03180190185756574,-0.03128037580874158,0.023620626565956926,0.0021762642729276156,-0.03209875475108001,-0.012740865325360576,0.005783231350234273,-0.018891373564098812,0.00799292896252828,-0.017919205608134488,0.0013973820441691666,-0.004816256377709531,-0.02074746787012283,0.00663327237043243,0.003454691522521942,-0.017836683937962637,-0.003068745907239647,-0.022234846276848626,-0.0011138035801371642,0.041000700569236104,-0.023692697923295553,-0.013595312740534245,-0.0223208138369919,-0.027385887103804754,0.02034535785799454,0.0013349057953089035,-0.024878637715651283,-0.03165051648532749,0.009065869457101123,-0.03299538602448191,0.006599799280759164,-0.03415512538798884,-0.009000579876352985,0.0057602334265014704,-0.00951315334453784,0.0012285834650116077,-0.020593148490081245,0.003519546668407302,0.017783319382349456,0.0261403483025693,-0.008866775833667864,0.013550418233206275,-0.006922115465144666,-0.016981930409009957,-0.0033993028115779397,0.032171992467697454,0.0001246275771599029,-0.01751963870520835,0.0018445826961328697,-0.004676290405619263,0.013215615407525244,-0.006918453677890063,-0.03895602657656305,-0.0004348264322469248,-0.012654163062142048,-0.007957202167362731,0.016047943132363487,-0.021197546019466187,-0.0021746284887378038,0.025495670869942966,-0.02119576010936833,-0.02083343376848662,0.006900528410640359,-0.024756779258233576,0.004412188461049572,0.011607927755843546,0.0019046802068469664,0.005949273597563223,-0.0010784836825324527,-0.01334045835810945,-0.012300247251836692,-0.015913543193557523,0.008710223354816686,0.021931955174432607,-0.0015731000783021025,-0.011260188364352665,-0.004575649913147188,-0.006811815940067438,-0.005494694520751352,-0.024590564135176594,0.0037238328219195795,-0.01062546697816585,0.01653024381357463,-0.004231391867355395,-0.012822908320243758,-0.010013718802739756,-0.020869688227696238,0.016539538963710944,-0.02514307435563823,0.018634733720309923,-0.0017726003835027708,-0.016859140889111644,-0.000449528894645521,-0.023885771621402742,0.0007099725880143211,0.0042596893726391145,-0.05543456640769428,-0.0010799445510741269,-0.01308919941058558,0.004290449623488013,0.011212988172508619,-0.057965672333507856,-0.015398845678159457,-0.0065294725547597535,-0.016971899944816377,0.011846706096244651,-0.009657062563988484,0.010375046423429688,-0.014936388839291555,0.020727286689179527,-0.020948100940630338,-0.03286800731061568,0.024239482496841686,-0.035913031109133776,0.008253114509577374,0.012258674210092607,0.009408567733476153,-0.0005126270218747953,-0.013401021423169282,-0.002330914788214784,-0.014400700452157912,-0.0026427456300427647,-0.011974727555362873,-0.0043262903703254595,-0.028234163764845718,0.010989978524249199,0.008976797138915846,0.006738620042103856,-0.011421516582080496,-0.005090882295178737,-0.0005124041274315681,-0.0038051549391119434,-0.0322227288978887,0.010349657835838083,-0.012792787973980264,-0.021600671820325826,0.017187183403520725,-0.0210534438406214,0.0031743286472490735,0.025054925042686815,-0.007115969421424867,0.0018381717285156141,-0.0018252187508079958,-0.012142269844334133,-0.018427439413820468,-0.03522511005248357,-0.005581887826366319,0.03231298377409585,-0.01665148787958323,-0.026685323471714952,-0.021924419111370774,-0.021814401941557437,0.022139762287637813,0.011511175404559095,-0.03778052249345676,-0.022759559232196122,0.009217761067280268,-0.04244759673936126,0.009676980591468744,-0.029055269934821666,-0.028571051739545633,0.008912727408239294,0.00538972745346135,0.013925082829115774,-0.020405995511539033,-0.00270490032435237,0.020167264545450564,0.030946343521250152,-0.014379660486249224,-0.0014008465312769058,-0.01320865581523423,-0.02586706935880416,-0.009361237570532813,0.02639935225747609,-0.0028685338572402965,-0.011165156619572339,0.0029854254143489413,-0.00401027568544312,0.009686646323345488,-0.019805717245088783,-0.029298254287134184,-0.005075296071703481,-0.0077329061305127355,-0.021630853307814484,0.020624828085919998,0.008225466969276592,0.0002776600740714999,0.020626753596700888,0.00959832611449534,-0.02434303360691906,0.004983480813387479,-0.029953251489316154,0.006151347961843408,0.021346018155764892,-0.005608421224301651,0.0008293255226805209,0.01696973918252365,-0.006053122775592548,-0.019206586597965272,-0.018615385517563757,-0.009847525391264777,0.02052063854452499,-0.008914918092788085,-0.006321140484729299,0.010661790061316904,-0.007084635076283912,0.00682313722987511,-0.014179281468091108,0.016828981176765668,-0.011612177310399697,0.02252524100960343,-0.007478988856457013,-0.02597031250538625,-0.020433277961421102,-0.020690726982073974,0.016531845188820015,-0.021871779253171044,0.010086013290439384,0.01474720450832328,-0.016359169555472907,-0.0020360180827474796,-0.031188670732623356,0.01637873754692047,-0.017308190532285314,-0.04714507519972573,-0.0010378270049654185,-0.019420970020124034,0.0021621339937525335,0.018044098486548397,-0.058848576664827824,-0.008643757953410831,0.005195711638415295,-0.025123317647626653,0.02106762487727075,-0.01956281318565693,0.0160215233048891,-0.016275322504144853,0.026377022677896784,-0.01762840670207157,-0.02943127710909623,0.03191405118213577,-0.0352727319547461,-0.003308139605135423,0.016347121955312932,0.015750469525706273,-0.00975273533124902,-0.008198871168903816,-0.016396154778796197,-0.010157884161876601,0.004259169939424632,-0.02853426533157591,-0.013766859476974067,-0.032852104130969305,0.009268014256691888,0.0235696186574394,-0.004045776318050812,-0.01668868524646015,-0.024346592696644378,-0.0025271055039771018,0.0068240794477027284,-0.019140604904896084,0.0014604945429185089,-0.0036766282625237037,-0.028309208688662824,0.018397544830444406,-0.02671693196307404,-0.006532455497859667,0.008249160496543112,-0.018581119119894032,0.008300664814522426,0.011400164433869722,0.003384198617352146,-0.014206572871472955,-0.05702388628894978,-0.0050609852673588265,0.04133203574005861,-0.01504185528270284,-0.013280320376869265,-0.03857708508106188,-0.047198762669481836,0.03240911917175585,0.014288416530268553,-0.031815484378255175,-0.01855879450798976,0.01382086540942675,-0.033216349024357675,0.015708597630589943,-0.023369028976618928,-0.03084394517315486,0.03197516699229258,0.004772659132012972,0.022924826967633975,-0.007191490068667973,-0.004170627993325406,0.014328523736723693,0.02470874645132373,0.005488581609769442,0.0037323977402533423,-0.02980178247829072,-0.023458699811084234,-0.00634013296857102,0.04159185684943882,-0.016902789986263475,0.011766195640958271,0.007846521594992143,-0.01569795391991216,0.012459738469939557,-0.025730989608176436,-0.03280351768474845,-0.022214475810014442,0.014354231259545007,-0.033804847311013825,0.011361889815131388,-0.0005336379813026135,0.0046207459481757245,0.015856169423442496,0.013841634792875007,-0.037940519070351265,0.005690598132962673,-0.03996642482790277,0.0028640033954771002,0.020984643503727852,-0.018370284018655526,-0.010517866817026055,0.012650480731167176,0.002365963198859141,-0.025037515990356883,-0.02297190387961074,-0.000959749771909207,0.021744419995487523,-0.004405217891032869,0.009064194973902127,0.018867286329950387,-0.020894403483737854,0.009970614656223516,-0.0021299494666832536,0.0206958610283091,-0.00609440719244412,0.03234112771260703,-0.01513901924696168,-0.044636878836573246,-0.02620884490353236,0.00758880888885486,0.006344231982243577,-0.011462367561015728,0.018298117804636475,0.015218004442252627,-0.007625714284336013,0.013016827110008483,-0.04188131982222591,0.013218571603937695,-0.008087312835628687,-0.038573042088046336,-0.010515864877592807,-0.03452652173093118,-0.0155078692779204,0.03315237776565385,-0.06565531195337254,-0.02955577678476324,-0.00702428044550309,-0.008796681927852481,0.017122231998769225,-0.0071949735136645175,0.025752012558562704,-0.0010658391108202556,0.012595270592324808,-0.03956732162684002,-0.052059651592529704,0.018805897639181775,-0.056196363348176535,0.0010279175695850095,0.022531323474434792,0.02669392962942175,-0.0022757828307921678,-0.004167594577323734,-0.017400019195385804,-0.03379751740302011,0.006125713663439859,-0.029040516209288294,-0.01720948062705771,-0.036844868803649386,0.008686769959683871,0.03720885748470196,0.006998328653793941,-0.02806587830476008,-0.025962618631068322,0.010179368194396961,-0.0018788188440135817,-0.03385419708479556,-0.0042974002523352445,0.0016791742942242655,-0.03755576640248845,0.0058277943886659855,-0.025565345176770442,-0.015095577357176612,0.024558443137233953,-0.008719569964912879,0.019176920980309084,0.010439777478678792,-0.00212805839728368,-0.02939249588391098,-0.04721485367599597,0.003996219134902541,0.040117671691788565,-0.0126978631918869,-0.010768537874543753,-0.04518055114242659,-0.043763544060052284,0.024237549304075186,0.003724660090857783,-0.03863114502560025,-0.01441956030008733,0.014242004812468175,-0.03334470071171503,0.009794367429328873,-0.034403284796377574,-0.02837831016814108,0.010580141755262352,0.0010443605076476108,0.007071971032012341,0.0010178211645036355,0.01292738422076684,0.01604434500126162,0.03199041791254842,0.01763053996871611,0.009204628628501627,-0.021376470387788928,-0.015822697756307902,-0.01617774075143717,0.03240942187075699,-0.03145696439153846,0.006082290241681355,0.003254303950670767,-0.009168033287230183,0.004769783274022022,-0.02990958273956833,-0.0170928221197336,-0.020798074891475702,0.019401285501894783,-0.018504377019957725,0.00544758869847862,0.00915163799089284,0.012550849227603666,0.003563371680268655,0.00637404834796874,-0.022878601929021213,0.013795605698027902,-0.039087641555186334,0.007573292741822271,0.02664599794890309,-0.014290225536523185,-0.02986055021415766,0.00162391803517223,-0.00035753071500350855,-0.020477909048110806,-0.004262520224249785,0.0009148628774131235,0.02919475624588359,-0.011207341684128678,0.0025394167866657747,0.030177201150383307,-0.022069466479215018,0.01832876075758674,0.004469462776781408,0.036966905224912035,-0.012976839846415391,0.015526247752441451,-0.029917936355477882,-0.034440217753505836,-0.01591564127139813,0.005320728600011045,-0.002922167397028429,-0.035325655384772045,0.018208602198023328,0.0027147537115172547,-0.0006166338607523336,-0.0032112222959461605,-0.02246628036035587,0.009470090884158996,-0.03266688248156491,-0.032389835364383085,-0.032322642143081955,-0.03568201249633576,-0.007098235886691395,0.03651599584717099,-0.06299863407407326,-0.036779675917384215,0.006917289836631727,-0.016758092923589877,0.02769738836726702,0.0022896982340780163,0.01837920931760739,-0.00520307929878458,0.003386899516107485,-0.028297338727334254,-0.049811706606367634,0.013206980904288273,-0.043025030903715955,0.008514476390836592,0.01846862983993944,0.017880841459077472,-0.007508960993089734,-0.03378614070069645,-0.028041299578933063,-0.029931313809686264,-0.026785851634186737,-0.024536572646527807,-0.027120001665003377,-0.02741029038728415,0.007091021256176423,0.045058586285306006,-0.0056908891291448755,-0.030577043297345455,-0.02417786443717035,0.014615582470107136,0.0011465963011561063,-0.03487067582077519,-0.010551788957648085,0.0018913599487714757,-0.04155297212994157,0.0051971882921106275,-0.024902218404698986,-0.022692607772032393,0.02150809993200466,-0.01026550618356829,0.013703554601238342,0.028731820199081784,0.007321312515362708,-0.016348188775100875,-0.06800628556661074,0.015037012908972892,0.03755140432391908,-0.005895359230236286,-0.01431550398792957,-0.04531251492384471,-0.04625541712027962,0.029343061410182513,0.012335252780302754,-0.05051269342111666,-0.029869075295609265,0.009006097683858454,-0.040434876108851416,0.011591591463109126,-0.06138295234323299,-0.03087515819889456,0.013808101307773204,0.010020434806115492,0.0019644296430959014,0.02097190672075454,0.005891703139012549,0.021076843425154444,0.0277506696949291,0.014544085415587911,0.022010807954391334,-0.01892637489871278,-0.022258404528604527,0.001643943744698913,0.04497256642482637,-0.02355059821220964,0.013038416660032236,0.018202732485349964,0.009215996471318943,0.0016926117395419916,-0.028600437517833994,-0.037120511518825144,-0.01922132821656454,0.020920507421003744,-0.01682583025067312,0.013628992752293819,0.004864336260542545,0.019983286244603944,0.0038738472194873876,-0.0029512331314870254,-0.027273087503879755,0.018042644801704442,-0.04000354830824599,0.009951777882073682,0.015270865967391634,0.0006710417777866957,-0.014744548690857107,-0.0009913708897898654,-0.008918453451161946,-0.020667493476291893,-0.011046752992412047,0.013784254551121018,0.025401359470671788,0.0033781138737027437,0.006967756278539751,0.021019102396327847,-0.008955831821306784,0.011566497317367743,0.0072944592809091975,0.03252895236100896,0.007522861890264327,0.012329632424436748,-0.011815314193098676,-0.048599719875194076,-0.03895647789142496,0.019338897102612995,-0.00514352608264029,-0.03075670083085638,0.018110773263067006,0.009871069098679667,0.015357903358540703,0.01770155593175551,-0.028088957118773353,0.01458207801312745,-0.0245157781016985,-0.038289840785917614,-0.01252703766621253,-0.04978456382879137,0.0017060252435909778,0.040136883475282825,-0.07259742055780855,-0.03724935552280978,-0.002597779956338834,-0.010362461687087167,0.011286794923183486,-0.014050335427367782,0.010240640617414495,-0.005206218154588926,0.013074906191794586,-0.054329463025414734,-0.058445250901467106,0.027395388723855173,-0.05377831097950006,0.006835024667506293,0.02209249599347399,0.02995219026093481,-0.006693254207598547,-0.010741462661590461,-0.0209392103343656,-0.026453793007456625,-0.008968247872664939,-0.03199540590976957,-0.01453881393711669,-0.03330725219240662,0.029922260409387218,0.03600562815453807,-0.00936921864804068,-0.02938511853789553,-0.01973111091808793,0.00946265837170136,-0.01566224215752064,-0.03039004819253373,-0.021678553544317514,-0.007431785146068938,-0.04591018750047018,0.012996920305597875,-0.028747246117653197,-0.013829069634608272,0.00766463146734985,-0.023142280039036088,0.013061382928833623,0.01620825068625584,0.004131769084841708,0.0036248964805286796,-0.06767657244551259,0.016496261794011716,0.0228666452923854,-0.018903542246926024,-0.008874699001529818,-0.03125709022352743,-0.04639695460509087,0.03244599784931489,0.027299580088082556,-0.04278936356017089,-0.03258367927339782,0.0064940236863220025,-0.05285408307333943,0.012543195264320234,-0.056190793735834015,-0.029534143702869844,0.007574169762146632,0.006122965609254563,0.010160030703910104,0.011895708538418457,0.0023626746765986694,0.014117909009437544,0.037448032968398055,0.001747065651785784,0.02298909947466296,-0.027937393813446246,-0.021918075054091213,-0.00774898807577921,0.03637376252845961,-0.013810005227077263,-0.009216801172653354,0.009009936684497432,0.006857420694860965,0.007279850645037405,-0.01071404184320828,-0.018840169257220006,-0.006616129336463058,0.02073255889765632,-0.025170343180862205,0.018441404208294918,-0.003877214035512792,0.013483256785277332,0.01633713344340944,0.005742979438580242,-0.03290359154734412,0.018485819493199187,-0.05405374809238373,0.006900345315861924,0.03179059490128352,-0.0014811905131922687,-0.00910179467926324,0.003229812132562716,-0.0143303103817652,-0.011686476539183229,-0.005399796844645332,0.01905534575922726,0.032732526195163016,0.017427740790514363,0.007271182767140001,0.028604927079438305,-0.004914462478550941,0.004665650357007211,0.008491530303581052,0.028991748064091674,-0.006611121441845058,0.032021111364821574,-0.02068264411005365,-0.0436881052392521,-0.03288820583711829,0.011854185697142045,0.012507571251558032,-0.03254684186459731,0.01558089439460719,0.0157727471391885,-0.002395536899797691,0.005067668186722986,-0.026777500575072645,0.0026568698224411183,-0.020114100481875185,-0.04630265550428686,-0.01226490576105274,-0.03950711525282333,-0.009103089820625517,0.041991822265922935,-0.08298389187031795,-0.024930854681782317,-0.00766837523455655,-0.005844401660182316,0.025520931084858027,-0.005105372915501992,0.01994752420708504,-0.003307762942260562,0.01055746402268132,-0.050778905487876176,-0.05071493466688038,0.03272478563381694,-0.04383296762336343,0.006243105042381203,0.019753570302238288,-0.007275053799976529,-0.0065277071256513355,-0.002156635471355714,-0.01817250906316059,-0.02894775654316825,-0.0033249664878524784,-0.017912939136268787,-0.012548800045454923,-0.04543743690468323,0.02942800047144282,0.04287073025157623,-0.004010902158975246,-0.01814543151038829,-0.008334834467540974,0.005800086732698494,-0.010688655973451356,-0.037609331886516835,0.0010495727709758493,-0.005446500091638067,-0.04473809236962996,0.008056944767535996,-0.030264241359074927,-0.017814723824332697,0.012633198653223453,-0.0346212079764301,0.02540705755444088,0.011742718189106004,0.004166250436554786,-0.003641828241497743,-0.05870126912876519,-0.0010707703221745361,0.023264856303172016,-0.021671648737638487,-0.009572840019315913,-0.04582613318176557,-0.030365321004159257,0.030310686319966463,0.027415740212526143,-0.04943604432137246,-0.0254454411484935,0.009645001887913146,-0.05730140476427231,0.002249986559446038,-0.057433173084786175,-0.0326707506012756,0.024600490688022215,0.011282118916283598,0.009305297509886696,0.016971636668820803,0.015237221248623355,0.021538704043969154,0.041797177499675965,0.009934306756560329,0.01629084650460446,-0.02402055706568023,-0.026154176400169114,-0.007057763916946845,0.035793455512479234,-0.016281318465771678,-0.020972573026977727,0.00638680702894774,-0.006907472307454154,0.00422529375731466,-0.011432886977381766,-0.020812072655371456,-0.0048106422838405894,0.013967137239793748,-0.027869083982912345,0.022807541586866254,0.006410403413040275,0.007933462556700124,0.005515855861076232,0.001166810937464016,-0.021793666505537417,0.020032617996676577,-0.04373989593703869,0.01399122381859758,0.027665348911599476,0.001120732213990287,-0.01911667978766553,0.016779867551068285,-0.011921041214497299,-0.024278162383283338,-0.007275929180182309,0.01208795345106536,0.02317400488862729,0.014299568047467893,0.000156545439214648,0.02118242593207974,-0.01046779041461913,-0.0007286345884988506,0.0037642064658976442,0.031883904334325634,-0.0008957217628026814,0.02352220681744306,-0.00994042678976754,-0.04275058805388035,-0.02930842674151617,0.011856996063867462,0.006456813181938193,-0.03681407817785511,0.007994663053472106,0.02002203799421825,0.0008339053173881782,0.01937856445528583,-0.03769556310821978,0.014904141978003337,-0.020800986418966088,-0.044715061067323654,-0.006334460133169324,-0.03620463215772489,-0.015922962984518754,0.03637028707240028,-0.06559334652220314,-0.03235038689233105,0.0008870144108928115,-0.0020075207794275907,0.01556353382050834,-0.010137164573091904,0.019359840924358798,-0.01690190504551998,0.0232201208621153,-0.051308968414791205,-0.04010214997813233,0.028330223091178816,-0.05405278828948165,0.0024930525441892075,0.012097838237507055,0.002638931831005483,-0.007761637244201563,-0.019646533306380717,-0.0031530079494348972,-0.015204600279796344,-0.002746713877582944,-0.028139935608530304,-0.0031914183499145306,-0.04659620130265772,0.023336689090644756,0.02928067692083827,-0.0026939371479504787,-0.01850959488351231,-0.007788675009195479,0.011845922051622668,0.0003915997180132441,-0.03196955075003133,-0.00818377947945443,0.007240005983706427,-0.04162435429628423,0.023822598825999266,-0.019564101020357987,-0.009346455928012119,0.009460336449134011,-0.030725521979891944,0.030456434770091162,0.019054826542951975,-0.003170219956664209,-0.005738783510672204,-0.05153395374974401,-0.0005715879390418048,0.02305795672313487,-0.01001961822139182,-0.020579725503952404,-0.028943174903638534,-0.0469276242688066,0.033535831022891524,0.015274142637471668,-0.04599292964885532,-0.026918706088021802,0.006825693094855975,-0.05831533757014325,0.0203899141303783,-0.044513387126877656,-0.027118726554939628,0.018673022541510105,0.011417219687386019,0.013598878308459069,-0.004441828380506671,0.001297513760040791,0.009806031499548198,0.026891494588077287,0.009443638168811183,0.004279833186344962,-0.02303725009164571,-0.023548960783181448,-0.0192597327217481,0.038184709543378464,-0.02269121947997203,-0.015131981913520555,-0.0047099082773722906,-0.0008511582048539113,0.009303414696199601,-0.014836966044737361,-0.03399533801568296,-0.011132394789263355,0.01660287375418214,-0.02821486001563734,0.004682070116484342,0.0040028815228592765,-0.0004688509033700707,0.007543611622049448,0.004554020878670983,-0.03109707702031298,0.001956422190438253,-0.04059942374351322,0.0032032317700789333,0.016486952350346903,-0.011179986076784368,0.000473074119462757,0.009547045323705412,0.0013934648487580286,-0.016575242092184934,0.006507689002339142,0.01848999602552718,0.02564186504053471,0.00613913088853285,0.0028004823873333485,0.020070148882740342,-0.01049715982538699,0.0018721557054156368,0.009786520330656471,0.03649639247895905,-0.0010428268671313018,0.026543138193679434,-0.008054997393220402,-0.058972348141672466,-0.038710869217869176,0.011032030789874265,0.008447835853058604,-0.031055367820544407,0.026161219277524426,0.015383081052402962,0.007211336971245242,0.01327560529916756,-0.027526425941260146,0.008899398286642149,-0.010834328965373091,-0.05285421201642289,-0.01662394580386349,-0.033717042280569,-0.01176874407677642,0.031279151133296886,-0.066504522955889,-0.02866519443437121,-0.0036638158629444515,-0.01676334283838655,0.0271770256142971,-0.006505655608794892,0.014027487871187625,-0.01579160929090693,0.013180497332019118,-0.04747232631058316,-0.038210283804856644,0.020900591159675342,-0.04553382708925544,0.001890173597452558,0.030548820745435957,-0.008564564682685377,-0.015975993906997853,-0.018680152715356464,-0.011780222058421606,-0.010460288820397012,-0.004217516876623845,-0.02391841951966437,-0.006215348323303888,-0.03696869575087585,0.019220757098768287,0.03621202842061562,-0.003795254969485811,-0.028916307733552863,-0.010168591269721573,0.022740245491093453,-0.0038455706392441008,-0.02352221516978531,0.00481505287570366,-0.004509730255178266,-0.043046335318340186,0.025002554273967553,-0.019241563335450934,-0.013379747900156582,0.01922612506298352,-0.019276199971657776,0.02898107018395068,0.026254780105630707,-0.007109224913509411,-0.006360701344832587,-0.05770262280788187,0.012565409871682344,0.032793258839524775,-0.0245226108078374,-0.012182628851470718,-0.04244208358689,-0.04220224402664408,0.03983193291847388,0.019648229075853233,-0.045720418349421366,-0.017493173190163983,0.017596952182713208,-0.050094492435337694,0.0025704620998034536,-0.0402532021507999,-0.029040504668345672,0.02542243261890382,-0.002275588008179495,0.012392820521286893,0.007946861511137245,0.007753860209278525,0.008623913801498238,0.037763827911867644,-0.0011022732334062606,0.007896339232312772,-0.007718039144501517,-0.019314482659725525,-0.006031820694972752,0.04832740879995878,-0.007372768587749017,-0.034291455905364344,-0.0005580518990351262,-0.0005545085940901073,0.014341376400242134,-0.007394154271870614,-0.035863836658071406,-0.017331028821162758,-0.004593706963831851,-0.018311504151294355,0.01821083509017791,-0.0012886613158912114,-0.0031344937660093023,0.019381656056096826,0.011409010280128997,-0.019220704446569363,0.00151176741213093,-0.035273390586313416,0.007617998119720654,0.02465554467763777,-0.006661012035482587,-0.003693330891702396,0.009339713094748901,-0.004056847412934719,-0.011442199663788795,-0.007777331355554347,0.0003532028923334944,0.02796010050270809,0.006944544688561275,0.00591631556251212,0.03317556635255087,-0.014052740062236673,0.008632255860553373,-0.010375843306361527,0.03900762900747929,-0.015296302320236507,0.03848702570176984,-0.00931151421797714,-0.035821973873733426,-0.023607313540443677,-0.0006782142859662448,0.009109588172306117,-0.04234006124731533,0.010448305582675947,0.02426929639359973,-0.011026584484410549,-0.0007149010398590463,-0.04143405377154194,0.0145456694123869,-0.0016505002725570846,-0.0510883152467609,-0.010343191164149033,-0.03553585652336597,-0.004172339738572547,0.04403623645352638,-0.05422386095430439,-0.02740772305686238,0.008163336411000682,-0.01988879589561879,0.027698694732480555,-0.00926862130349318,0.009746675023238466,-0.009385685443397358,0.017709889863819422,-0.047163038250555386,-0.031227663729504553,0.03168111273342524,-0.051930882929144294,0.012206725471904116,0.015564337151972935,-0.00981270703442107,-0.016453565888602806,-0.017479466269145823,-0.013143491792720308,-0.0171682077471979,-0.006990280329708765,-0.022034776355118944,-0.013718091948242944,-0.03221173273990849,0.023757687490465317,0.03912402174333721,-0.004484024256899659,-0.02174985957762515,-0.0124207153262243,0.011912666642630135,0.0014277314173196927,-0.029140154349743236,-0.0033837235881053283,-0.0005268802015117883,-0.026670734650433136,0.013188678143967085,-0.019839941885396974,-0.006690950932715609,0.010327931231165852,-0.029573737363166687,0.010805357226617027,0.010220893553407025,0.0028196400621910526,-0.012273555103994756,-0.04246265287712725,-0.0016559786460709853,0.019834928307437404,-0.029487090682738828,-0.029364703797682364,-0.01933841657651282,-0.03954609749694132,0.029439877598353828,0.015439681486927839,-0.043194785222052175,-0.013811275400704056,0.015234465872809994,-0.04208515985422574,0.008195154349156799,-0.034029121599285644,-0.03328098168575062,0.01893224596521426,-0.008289155264907344,0.02410668108104645,-0.005704847679808046,0.0024401299480540117,0.006514938418469997,0.03752697958117658,-0.00792935621843565,0.013925496665678924,-0.02170885967553405,-0.02684470117354351,-0.02494801979771389,0.04020705589673527,-0.02236400772359812,-0.050534774710649384,-0.011692513502789477,-0.017214853729944055,0.020291307668464414,-0.008489116504675398,-0.034876276356239015,-0.009233060303085048,0.0034296650025215877,-0.012914975266862952,0.01663432123273254,0.0057579980901507925,-0.00102625919567844,0.01958694819586616,0.0004419958551650061,-0.03393005593509551,0.002132922138720387,-0.03272420577384429,-0.0021173229665004847,0.035725100689769716,-0.0073521933411276365,-0.012387597259029557,0.014841889317462748,-0.010053605027061773,-0.027769505776517767,0.004804218307759916,0.008852195623119534,0.022551473640266422,-0.006708646254711914,-0.011896388990404263,0.029646383078087805,-0.009080901563099,-0.010194849516994306,-0.01516455840739556,0.029253499269332725,-0.018384361912349875,0.019181911305223672,-0.002054785173381581,-0.021846373379363213,-0.03176027615917923,-0.017138676910521126,0.01160801413983219,-0.030059839695535447,0.012121998083270044,0.012157016003743167,-0.0017427931323866052,-0.006374629956668,-0.03488421482491314,-0.0007484948579660905,-0.014021110362893968,-0.0481771744165574,0.003487776517043234,-0.02379807352396549,-0.012028277602186407,0.03714202984229066,-0.046973306138849806,-0.022758609570058916,-0.010614438706901291,-0.012997768515965171,0.02563976689806485,-0.0007026730776347884,0.006188392301472371,-0.007710454909362995,0.014742590893462273,-0.03890025832347493,-0.035617532071483896,0.029507788306579137,-0.030701966626294118,-0.00023381792024562923,0.02745116966194583,-0.033443976083318276,-0.011554284769332155,-0.01292137229572069,-0.008013829494536065,-0.016360694601169484,0.0019855121339738954,-0.015521330086847326,-0.013382673428950416,-0.04071034008874991,0.011045845479674908,0.04265027842583375,-0.005727612122631139,-0.02640868342560799,-0.025075716865218003,0.015185331607782257,-0.0031203042898847967,-0.028590770677437635,0.007692388632977543,0.00915390311827,-0.029620689106203364,0.018940137245354746,-0.02488195264990391,-0.0018298297216360548,0.006574300169902846,-0.014773577098815419,0.0182791752596986,0.006269909003320664,0.0004988505069994363,-0.00975477985814751,-0.0191706343912813,-0.0003559215750796774,0.028845217421228312,-0.02912059040913966,-0.030222517307275445,-0.026398431241203228,-0.03151296293628165,0.03859105697704179,0.005636766553517905,-0.021129416543589904,-0.01601847916325705,0.0031749298038676165,-0.0455491381508822,0.00209015788053325,-0.023857661269143817,-0.017163012485174822,0.022645330402287098,-0.011246389576574044,0.036365660502281356,-0.014954442229394996,-0.003972980238554399,0.030366272218983286,0.024798958475816393,0.00497150996258572,0.0010825060793940916,-0.016438731708380144,-0.026568533864086363,-0.02572749630405781,0.03398470469263937,-0.02030342774556322,-0.058686891582209126,-0.0201660819250562,-0.02937011212677193,0.02249426915921609,-0.01251019992346263,-0.016084749002111112,-0.007957176662782034,-0.017089454041032646,-0.015193399706390727,0.02767886688938351,-0.007805776447075649,-0.012174974118595753,0.014223440437140576,0.012465063445505326,-0.03586383231850734,0.013983664917372584,-0.024100543128585276,0.002568613424240745,0.02981888865249384,-0.020365585379788494,0.0004639333719877481,0.01568958936654824,-0.015535416152290659,-0.03174873014863994,0.0030101252653508756,-0.0044563229171793485,0.02530384283049247,-0.01787135045191845,-0.007117164208023987,0.028768623547267808,-0.004598359021152235,-0.009950821418174499,-0.02093086975227707,0.03480540411635854,-0.011368728022801573,0.03179235831384052,-0.011754488760023099,-0.020813657804170174,-0.005886747760319588,-0.00689822692744553,0.00754112708736067,-0.03567360790670624,0.013023503000251095,0.024257973081882208,-0.018617184538348527,-0.01210243066945312,-0.03140257170709277,-0.0027346970272227986,0.003182473515581212,-0.04464885740697842,0.009172523038694704,-0.03452736475533357,-0.005229253851446709,0.041792793314038824,-0.03570301745805398,-0.020026539034065927,-0.010000407953096218,-0.03712591345249406,0.02199156773978365,-0.00876457700293837,0.01908311993832312,-0.00893934703743031,0.010900363244779922,-0.011887662311674175,-0.025806787656883334,0.02277229472063569,-0.031135387759757195,-0.014409726945210742,0.01975904642887301,-0.0469314404320169,0.00946107840288966,-0.009603944560056815,-0.007022575514174657,-0.014559435260904793,0.00944374356594876,-0.013401912990137174,-0.0004716654580990232,-0.01938460008300092,-0.007107656317017571,0.046032627149176567,0.008927220626004758,-0.030165639048506613,-0.01722090192127387,0.022364514027825782,0.011880997371243835,-0.016389344902470272,0.01282543111966557,0.008685754386635684,-0.027167345211856143,0.049018090073359714,-0.022536713128338867,-0.007681711772213861,0.004041137722669186,-0.02205942817375892,0.004665000363703723,0.016573122956335944,-0.007801844629755968,-0.019883164977892585,0.005190109560361635,-0.006964327756331327,0.023049003129456312,-0.031773871158523447,-0.03158979409986928,-0.022164297007728654,-0.020953441149294733,0.035519518080520514,-0.001335187635061085,-0.018923675216997032,-0.0046369421714772575,0.005123263862574948,-0.04635974173044177,0.010038990627770705,-0.027939409782330664,-0.01741018228241185,0.033468765643837335,-0.01728822126917388,0.03337780207417843,-0.030727106014743485,-0.003979121803166475,0.018696305249425785,0.02271101685287847,-0.010841960822076117,-0.008368067829445217,-0.015207306056504544,-0.023628508565395927,-0.03203330514512674,0.036334625073812556,-0.015680851346119462,-0.07850472680874934,-0.020327965322012757,-0.037298286608681314,0.026314963662514953,-0.0017761876457934745,-0.02567422463610324,-0.013036846246350556,-0.025433936947500783,-0.012057832278302988,0.029779882342795397,0.0039089880284656495,-0.020645703001531353,0.006651128413599455,0.0005191493612639145,-0.022804259911833987,0.0013793616946534241,-0.01224817674377271,0.010841573496576214,0.054302792434712525,-0.02493383475827237,0.018333628009473486,0.011570243490142212,-0.02161387030056545,-0.022311355090839487,-0.001597525189044337,-0.003600455249432882,0.0319642122828432,-0.03214658669203449,-0.02205379961197646,0.01598639687169932,-0.0018298852433325458,-0.021480469740324047,-0.021870503573909482,0.035250800328873004,-0.024947297905147055,0.039309513806940116,-0.0031453864256766086,0.015509276875803446,0.005459958775788334,-0.017432624173937736,0.024081837091420755,-0.04255068748795188,0.029868774644388477,-0.000605669768266551,-0.02857627159281539,-0.023849843038933085,-0.028605057815218788,0.0049557767932587775,-0.006340987342584111,-0.028992536533033422,0.00710254570576671,-0.013459672254749937,-0.009418608218806855,0.03378432513730914,-0.01387304465761667,-0.009396166935616033,-0.0191786704686128,-0.035768381379522304,0.0245252703392647,0.0018336908765541294,-0.0019512962459765236,-0.013665487358062675,0.022830523863469246,0.0008927410128330532,-0.0070781904509440415,0.02620709636386832,-0.027594227548278484,-0.011385441001797572,0.012917181958618964,-0.05769397795994965,-0.003898528673999711,-0.016116389164265596,0.004422122449929839,0.008387073000584978,0.00006455825721125364,-0.012989847246267215,0.000015693231804543924,-0.002706103212578969,-0.01556182130099512,0.04412794938327752,0.011308611935807726,-0.040959590379897694,-0.019012323845013137,0.005419619595714276,0.01591679826331338,-0.01800924900632964,0.0044362663933025966,0.00030017964064371866,-0.023423734155596645,0.03135296710255907,-0.028867594681113343,-0.012907498776211845,-0.006245646238420341,-0.006803542473656739,0.011171470767959357,0.017730392594655725,-0.004652890341226558,-0.012366926512776008,0.011140436439675478,-0.01460298369317097,0.02177362568273311,-0.033479890603295516,-0.012459750494975459,-0.01681052644844733,-0.02036210155193968,0.04676300456105584,-0.0021761879843312133,-0.02148243028420013,0.009068799124540342,0.0009071462063638521,-0.03804950066165967,0.009126883610249364,-0.016532741445639303,-0.0203575919103534,0.03592538809620295,-0.014910079019075179,0.035185319266417735,-0.010573038771635821,0.009494447377449857,0.029122070475401975,0.018161278029477503,-0.008786064879236645,0.005517035543078279,-0.009726508411502889,-0.030817615183801952,-0.029320230669678586,0.029424391493912867,-0.007724631540346612,-0.07788999353098534,-0.017337298708100142,-0.03794541637278446,0.009819359042499348,-0.004709657313864741,-0.01974633114823156,0.00012823190112429988,-0.01823203580351857,-0.012031689572912561,0.03762590783841456,-0.005921457628993544,-0.013462753030362061,0.02035370454720049,-0.0019151919919215734,-0.04021608058407875,0.0016866912319763114,0.012124813236718745,0.011379641234296745,0.04595462591430196,-0.023690780912978503,0.0023911250490684234,0.017114754186421933,-0.014307382684517476,-0.02830574891008579,-0.008830786555170009,-0.009556969113898283,0.0352062472016565,-0.02696277541876119,-0.01249157294123409,-0.0035894339224243708,-0.007049859183873276,0.0013597377666754616,-0.02036646316872358,0.03783117834993369,-0.020368748388354736,0.03250747044304027,-0.009971832732892124,0.02032874012470694,0.025918961637338325,-0.009582711233050555,0.022290966050059497,-0.0357717907077537,0.01874563699725268,0.0066196438900918255,-0.005993173238659618,-0.009518988700511558,-0.01959175492602122,-0.009532041083066996,-0.010611848254246034,-0.02204928124843251,0.0013010973288810933,-0.01691482232943689,-0.025405871218513978,0.03677813611610417,-0.013683528400740093,-0.005842707392232678,-0.018958825585624353,-0.049630716838374264,0.01889716221464585,0.008626690850723933,0.0015824826695438883,-0.012254816656189048,0.009728306275894397,0.01368615493348277,-0.015591228609846427,0.043738670457054894,-0.017162790303397228,-0.004813341282356379,0.026142415653657568,-0.08677922930610549,-0.002182303031456698,-0.015645160377745947,-0.0007526305724710946,-0.007336607737953888,0.004256805764585612,-0.004044294092428823,-0.015254145283296487,0.0015911571853207663,-0.0015400650851613467,0.03902842189471491,0.005465867031613409,-0.044769007275475496,-0.02615728181407045,0.012911870510366583,0.01958420193485102,-0.0240203014207837,0.013335275884070949,0.008738122603613415,-0.02629476213655579,0.029653718532620874,-0.035628480662810796,-0.007904934949302831,-0.014409203818590274,0.015889272386855113,0.010720400408330959,0.009670113547804959,0.008203851321655367,-0.016855762382014354,0.024458628420780074,-0.004185374162189635,0.02569311985431952,-0.0320903854667065,-0.012490341759683117,-0.026134146614875613,-0.03062569539135513,0.038725818378033135,-0.004675348000475081,-0.003793500512477336,0.014145379947963221,0.0034404280669312736,-0.01527975173966383,0.00257866082530776,-0.026604806244278474,-0.009909693985281257,0.0368680311663226,-0.00021767568380809925,0.03080927175404968,-0.008297479305054053,0.005435779187166836,0.01945711578607974,0.01621968068401478,-0.001621140559270585,0.003929213773073254,-0.023840726428003754,-0.02711726315253445,-0.03487868868208542,0.03138054248064855,-0.032726919020633544,-0.04405299691785005,-0.001381931706378892,-0.03320961189069918,0.013326430798948278,-0.023566783305101598,-0.02588302595906494,-0.01340886271866504,-0.005816137161452882,-0.01322563666633124,0.028524940064785096,-0.01919173383146892,-0.015846102454631077,0.007912628772826414,-0.00660432624879707,-0.042636395898226674,0.00858196356682684,0.02347075919703376,0.0023755717901689697,0.04350283371173048,-0.029579124504620396,0.0005854766409206187,0.009803317861486185,-0.02750438757997133,-0.02964394765675872,-0.007408523345851882,-0.0022117010870981962,0.018851780973977963,-0.033345297785937526,-0.0032225573162129612,-0.021465014895284854,-0.020335764239573503,0.01427692748475687,-0.005341644017886587,0.033595916181711885,-0.01148019565200696,0.013643648072987668,-0.01838698684853301,0.03168730712383725,0.033868407147054094,0.0007432090101065123,0.019068424537472317,-0.046862589734514994,0.005342545734301218,-0.01372036402434607,0.003547500183829455,-0.0011956176725913586,-0.02232247882448965,-0.023248309805494364,-0.012022188209530516,-0.021800490157694922,-0.009767365644588966,-0.02617404758055301,-0.01455767840934853,0.03488199245180981,-0.021463453006603104,-0.009517128640314787,-0.01899820314350183,-0.04346748291943727,0.013897184287980476,-0.0022503781271322855,-0.014198998593488471,0.000637796533235111,0.006374432518428335,0.038495382536288786,-0.026797135255318325,0.029520698960624626,-0.035502936295505015,-0.018316043024973656,0.005564515362264589,-0.07072419969765693,-0.013088006813739509,-0.021176057683001244,-0.015747613413063796,-0.013980620457457004,0.003328216845991577,-0.014305003729092724,-0.01959667789463422,0.02344480090158378,0.000631321247695309,0.014380920340155121,-0.011930280566936648,-0.042330326214731054,-0.022641229108963372,0.018549071536057643,0.02177903052247033,-0.016565170427185402,-0.001131373426443582,0.0066648193943456245,-0.02202871204904051,0.048553658051115105,-0.03922007417014776,-0.01740075792637498,-0.02654955732117013,0.004643644246262227,0.00782215736776793,-0.012556095478286483,0.0025740795967711646,-0.03362468111492965,0.0508922926403016,-0.004391636431303898,0.004651254271012971,-0.018438781667216252,-0.0021128602508375493,-0.004991532331292128,-0.024649924591609685,0.03326120098171978,-0.0062632398406122355,0.004966277202017586,0.02123830627665677,0.004227695440874425,-0.01817120843092223,0.0010681346273997197,-0.04798669484355685,0.00022011144737426935,0.04618067626217341,0.013901524392273152,0.027997410333228955,0.015237059769656053,0.006591168968007717,0.0146158892098708,0.006209596755843025,0.009385214281761887,0.001521464957049519,-0.0293138098731805,-0.005221108701895723,-0.022779386284603315,0.014464775333406357,-0.01369766477576028,-0.04700440113542347,-0.00908562221723247,-0.020798830506896782,0.008708559384737607,-0.019158583067352818,-0.018770555059745144,-0.023710491536915144,-0.0077754572671547674,-0.015600040502833626,0.020517283935590613,-0.021964740911287115,-0.010592595708626723,0.011364798905304773,-0.010667529306078461,-0.03464519531395568,0.0020194606605371383,0.05318696404791941,0.013097237497624084,0.0485363345492773,-0.03225151353456871,0.004747112439189553,0.016228670053018385,-0.030931248502975447,-0.020865137061520784,-0.0006949370841254759,-0.007547775465115701,0.01960914393942281,-0.02362980773798237,0.007177117417831712,-0.032199757681313036,-0.019431562378607558,0.005145538426019233,0.005649016384529987,0.020688751966987398,