{"name":"CNN - 2","layers":[{"type":"layer.ConvolutionLayer","data":{"depths":3,"input_shape":{"depths":1,"height":28,"width":28},"output_shape":{"depths":3,"height":24,"width":24},"kernel_shape":{"depths":3,"input_depths":1,"height":5,"width":5},"kenel_size":5,"kernels":[[{"values":[0.10615726216592353,0.655784214012042,0.47826234313773014,-0.3156794391509569,-0.15417318617592296,-0.4106644488628906,-2.6294865733802544,-0.7530661930843846,-0.07880867253628145,1.4540348568185277,2.3344742793547826,0.6387566437862154,0.6508957831089336,1.1062118764002404,-0.7791523215336239,-0.4155677164777314,0.8287031652017486,-0.3679233963690563,-1.239728978860844,0.42406702952423686,-0.5191578683883159,0.2829381314273149,2.1341955745512964,0.19313837590116276,-0.7125382580552748],"rows":5,"cols":5}],[{"values":[0.21467852925874886,1.1637411189170983,-0.9740678467685863,-1.7138987384498234,1.439929476124653,-0.19526833886226735,-0.6119954112741272,2.4177228809004365,-0.25102974396138494,0.5885397239466107,0.1249034367601836,-0.7102357857733171,0.39355974997531756,0.44920832502461416,-0.88458105312055,2.1442050272010302,1.5426020543013705,1.1387461037860591,0.5539096083814188,-0.34895753104636235,0.4503819801612888,-0.6725766853804961,-0.3207821512744258,-1.5058070084632393,1.8456201638082415],"rows":5,"cols":5}],[{"values":[-1.4762527911559908,0.7119476917498946,1.5277584321006654,-1.5830897127864925,-0.34494025596512073,-1.4998796248631374,-0.1585347421051604,-0.7224050429188801,0.10129057939345347,-0.5298658316074788,-0.07168897350327927,1.8629456836295666,-1.0663918294474326,0.5806511959490466,0.005913170242837741,-1.1338946245655612,-0.2991033033353248,0.6562505702714779,-0.7147459884982115,0.08449469759840915,0.22477485178618387,-0.24124223462321184,1.2121517623453368,0.22373463986329528,0.817216879393229],"rows":5,"cols":5}]],"biases":[{"values":[-1.3601316722579202,-1.2612386050108562,0.04100312468172128,1.1718398956557639,0.5675196206935248,0.33055940651222193,0.9395032692998344,-0.7246481206218203,-0.267097646478945,0.8205438154822652,1.8652303476224907,1.4158215882774843,-0.3138669784023137,0.4886304726267988,-0.5334839848014311,0.29540718650615383,-0.043226415564830666,0.6543133212504926,-3.123876871227283,-0.19141299252147737,-1.1380896434652092,0.891746527184157,-0.3535916169588476,-1.2560279644888463,-0.12457836230913802,0.2645998366021364,-0.23022832524025683,-0.7847969997433774,-0.20375515852910678,-0.8311446033945235,0.5330967612688655,1.0645684368540729,-0.49120660694639845,-0.5310593522711085,-0.3064842499821317,-1.4101674376433584,0.4409119417815139,-0.23046842177429144,0.9761855895463144,1.026917479057206,1.219040818947789,0.5093844852292833,-1.2635574610174114,-0.6939331175936521,-0.12263320811662505,0.19992729377954319,1.1425711629317346,0.40887345294823874,-0.6858368781913327,1.672650029031016,0.18168188858077824,-0.7068631491938214,0.8509748819058713,-1.6900908771423264,0.5722887079418039,-1.462922357660978,-0.8435562938144053,-0.13976996248048948,-0.758228247076425,1.9000978921890161,1.7730490295413726,-0.30689684971220643,0.6358903427317826,-0.33403142826582904,-1.3943804904233221,0.9016988627911493,0.16497969392390027,-1.2723280463788262,0.7821990055937257,-0.809510133564652,1.4589712028141064,0.12275205739557085,-0.588911464953505,0.236403378007344,-0.5854656351694253,0.4048794043014235,-1.0537734815465871,0.939446284949258,-0.38735224740084234,-1.51158267898014,-0.029108377840264304,0.3443788836871832,0.4386924006993025,0.22370748641669314,0.23536620595641689,0.924931677757838,0.591830234895494,-1.53807237569703,1.8489175760629173,0.37141536854310264,-0.18464652293131376,-0.3588389336700691,0.4443988488364434,1.28313790466309,0.17613225060458312,-1.7378612244092302,-0.2078948280373133,-0.549554452230879,1.0503027233135642,1.0948798342935264,0.45209456334132603,-1.2181107672409726,1.445377167340389,-0.6004142911443056,0.07574696351409782,1.671394914486744,-0.19201408305055073,-0.013294677608615996,1.3082739651793458,0.9766930652293226,1.1563613652321962,-2.2913165920613965,-1.4716221318950862,1.1916943675784617,-2.050006567022016,1.4132529072118551,0.08207882940771613,-2.795050332392577,-0.2487932937795651,1.0470383361239033,1.8252005663771698,0.4559598605251936,-1.621450465529712,-1.1457565270485057,-0.8084398936461789,-0.46619551405104037,1.407098491210853,0.9173263500947086,-0.6148127112606591,1.096586413914033,1.1349603189934216,-1.1748662608641394,0.3516013603786459,-0.6181636134172772,-0.5218002256680536,-1.6055501990896592,0.42813750444785,-0.22611529883982784,-0.08597585180447773,2.2584696724618056,-0.4784123103211253,-0.36313763001370736,1.003817050025637,-0.39732802775645604,2.22317578704401,-0.09342879233117674,-0.6106992367722993,-0.08333702262250169,0.20403430018669094,0.33992483149569497,-0.5520891610803901,1.4401077749796267,2.2657850159367947,0.4704617758027161,1.4112131503746055,-2.4895273110259346,0.7076276002474393,-0.7448347714061069,0.5122131729887003,1.4720642023566624,-0.311978683827642,-1.553310654900638,1.0065447701256067,-0.17017738590594506,1.1413730643959379,-0.684565631065397,-0.40623775331833706,0.03627431435348763,0.6187451244987366,0.9198109952050293,-1.3704739367060266,-2.0319802195356527,-0.7639474591999361,1.1556300700505766,0.24821634053916863,-0.16470831980373388,1.453765644323485,-1.915702398413271,0.058683605767172554,0.9442277925687143,1.260825246035685,-0.881488814233841,1.026371961441787,0.8200261361700644,0.583831065843942,0.19284702326036818,-0.8682677053756639,-0.7065619693448368,-1.0282392843909274,-1.2236159531599478,0.8519274169326523,1.9017418770126298,-1.3530685916312069,-0.18519118967970888,1.0270671023441942,-1.1240790630939645,-0.15020886085715776,-0.11634550248610753,1.0255280332491299,-1.1189755970631556,-1.353981218804951,0.872599925388024,-0.03799152185846009,-0.26235757318163744,-0.7299379478095408,0.5474048537216774,-1.8017872373562847,-0.20015396922699874,0.8565374808923185,-1.0513830227798793,-2.0913206799783035,0.09941100599512542,1.3193762637291455,-2.5197463263259627,2.161428333907772,-0.45657033407842157,0.41564524650575146,0.3889159719329701,0.7060313699365325,1.482163071896896,-0.12821261148971363,0.30919811477504855,-1.13366094842311,0.05955640193121686,0.38065572358552313,1.2011476715735148,-0.5072691467503531,1.5204510777941895,0.3337828821905307,0.00456960334978472,-1.3277927947480026,1.689285162667372,0.7124687027716478,0.5968484226692117,-0.8482749371673598,0.12028608784128285,-0.32903649485519576,0.9487540343412204,0.019908259178648195,0.13104529351173197,0.11833573718105424,0.40780511323477603,0.9267766041328084,-2.9333840423440347,-0.7631140800819725,0.3860632345721024,-0.5395293116172514,-1.8675579405313103,1.4934549088194182,1.3802244108191015,-0.6492876887888331,-0.11508846824842628,-0.564827602586276,-0.7030770282784613,-0.2441775393841433,-1.6075447028442227,0.7120621085027936,1.1499920457282176,-0.5985046744777607,2.0771673798114865,-0.2523373604420718,-1.305132553569061,0.8297537974545781,-0.6024494395177732,0.10732568673969171,-0.7812387509666842,-0.11118679469949247,0.016718693696592367,0.18581917572290377,0.11243562336898982,0.7271497540624727,-2.347170084085702,-0.708838145572081,1.7443588348808112,0.5363538806391782,-2.4131098977322565,-0.3434487571662729,-1.2621411848073552,-0.6891324501559012,-0.0061451752761160095,1.263349245340459,1.087524691685991,-0.8556306143124027,-1.9908473252743242,-0.6136095831698767,0.8158333830115976,0.5139591095101841,-0.6346152015348157,0.3346680656658281,-0.22614692931668232,-0.8899032589919026,-0.14667071415308566,-0.6540465984170554,0.26287384778330664,0.7072841938365221,1.435104339431399,1.0485335269115332,0.4815338960582671,0.0626426718600388,-1.1391905668600142,0.6302668238976102,-0.12004792918428946,-0.8120493968136586,0.2847310581239765,1.5214406896527806,1.0741071235964326,-1.6515586804990288,0.925633518799883,-1.6065820578397019,-1.7485084681992247,0.40724945573135496,2.2266864709364595,0.741807025068771,0.7070547697854604,0.9615170001193984,0.43748953848150585,-2.096172798106316,0.5915874522773206,-0.08830597796512647,-1.2365145362504804,-2.4363313259347428,-1.2250467823011855,-1.1503874073387046,0.11858358329830257,0.4044625198582893,0.1316493560521655,-1.9164632453637314,-0.9771729987850051,0.2929360545409292,0.0681267579110929,-0.7168442497053071,0.9549353350211033,-0.9222466612852671,-0.6213133292477359,0.7272328307362016,-1.417481323054847,0.5962700765085248,0.7796269227187335,2.6846603074785023,-0.6295822733779077,-0.7377174766015698,-0.0790633961779759,-1.0803307940957372,-0.7040886424548208,0.6077719188390376,1.3299899474185441,0.07652964822380001,0.7818137059774557,-1.57986589987123,-1.1765323863605421,-1.755093706707845,-0.7089952582345886,-0.9306457925442407,-0.41524145608620966,-1.2143630495158275,-0.24023432691569743,-2.7385706511267496,-0.4435247283777955,1.4540422626100737,-0.9480867496047677,-0.05299079063886646,-1.166674857792967,0.15723604423355167,0.8027287665903917,1.5901580411818244,1.63652840368882,-0.004326203411865404,0.5874939963181982,2.3154579559122563,0.30518732107813723,1.6311094291702832,-1.3723729248410228,1.0502326538463027,0.7880537305952653,-1.22477859917759,0.9586722795315635,-0.6245254189205399,1.2576451578534626,-0.17906955655783888,-1.2673045504494902,-0.5791233075160691,-0.7900734158346148,-0.5385624049878722,-0.20963468028022156,0.8725873389555997,-0.37747064219211407,0.7293503338692158,0.05632449896488931,0.13844234106273967,-0.14145958287411523,0.4107907241139728,0.6049795272549158,0.8124494265107239,1.4936625259640264,-0.6962128743381292,-0.9262422130403696,0.7072944900481265,0.15617211969184883,-0.15056794652988362,0.3043819686667895,-0.35267569430530343,0.6711645957351929,-0.7086625292559008,0.8958615440793531,-0.9984794907238794,-1.1149393699580445,-0.39862704758558015,-1.135602111634004,0.8182291368668217,-0.41748887127043965,1.073980773476565,2.123897268649129,0.6279885387181464,0.951748710111592,-0.8498884538596138,0.17335306517934843,0.05386105449524479,-0.11454055565423318,1.1606734088619162,2.263968478066281,0.9847399926526422,-0.5826730256447155,-1.4566364147283142,-0.771810002246646,-1.1839944810043723,-0.38570219948464474,-1.6005045731947347,-1.304045006862048,-0.076737288350945,0.46890397083753615,0.32396275453258383,-0.8942796820826513,0.698885065956192,-2.121119548022329,0.850169277721963,-0.35484223145598,0.13433451092577078,0.09507876715143422,0.7552620070233826,0.27489127237323174,0.3411387980817518,0.8393660655690893,-1.4916481149982528,1.516743650171161,-0.3265841700961732,-1.0700747043900554,-1.1784885981815294,0.014017526158852604,1.8543338059605203,-0.4403196861771774,-0.6720813706204284,0.2706215155273954,-0.6475950890149844,0.4499037369041661,0.8987677000198228,-0.2777432891690293,-1.1036209818270788,1.3524987524182213,-1.012550153473506,-0.13136615996406767,1.4554636131611858,0.400142779307749,-0.1260150764239618,-0.4938171287429149,0.05472071207224657,-0.17257143408710968,-1.294921052989013,-2.668869628244946,1.322723912828932,1.0349229837988736,-1.1889024893130598,-1.2338679696204147,-0.6421515976435014,0.36571602827488386,0.18217977042580163,0.6573849498159676,-0.4566577017875778,-0.9488063853937735,-0.4471927166021922,0.6289557065644569,0.4652375871459403,0.009435568440377117,0.7234439996027691,1.1579042011843754,-1.931123651313592,-0.4957034592245277,1.1072886332131668,0.7687348571485039,0.7945405801240415,1.1893153932963865,-0.7966575769350679,1.5494872710263743,-0.8724355797711546,-0.4387246186854984,-0.2203772719032282,2.520927133455032,-1.14095934532582,-0.007916871092564781,-0.2548868507823441,1.9722348924051358,-1.55302511895541,2.004417389709902,-0.5291372534766258,-1.0786314907515806,1.4806936979455987,-0.23300424045402376,-0.3674269533999724,-0.7217001215857982,-0.3307700335458321,0.44801479031295766,0.620291431175018,-1.4826363448364024,0.9353840111502504,1.3591515793555002,-0.16561003655745488,-1.221479360985866,0.06856625022964757,-1.4944816533575525,1.5198410955367214,-1.67148919838312,-1.4260676205667315,0.4713350756028203,-0.98030669046669,0.8635214713935347,0.08265112201486835,0.9901288532006319,1.14799009780428,-0.6077280934674301,0.3661009605690301,-1.4619195350192569,-0.06144518138623439,1.0071652533251547,-1.0354763238595854,-0.5242788956900639,1.6730182337110833,1.1658553101596019,0.10590790135035505,0.3181952406339219,0.5120331556865789,-0.06049980153240586,-1.8691264094603908,1.5018543446460006,-0.05767102908039323,0.19126366938659345,-1.9482372384560314,-0.29876543129861705,-0.7047553685359764,-0.23848371869097196,-0.6550284062626646,0.9740189211210876,1.7889460239429105,-1.0331390634707662,-0.13350473610457403,1.0147832208062093,-1.2894053975581832,0.1514775192399005,-0.04478636893306476,0.6385966617993565,0.46493235181207737,0.7329064790448069,1.3211274651137126,-0.21676204793380438,-1.380254329116724,0.5757814811132258,2.5407755763844477,0.8421382345207272,-1.0134102612322233,-0.697680696941866,-0.7947017960760936,-1.4106110820133555,-1.20017883649864,-0.5041047191243484,0.8768601526255893,0.5576310130092562,0.3014811246613939,0.46991881566862903],"rows":24,"cols":24},{"values":[0.2772833920678136,0.4170167450137604,0.9807269726187031,0.2142088959390134,-0.32370646769706857,-0.6275636504812673,0.16894496166557968,-1.0948388289674762,-0.3775644112338979,-0.10933386010206307,0.460681866314174,0.7910097964688535,-1.3627913765080675,1.0275302291726056,-1.296706742294987,-0.37416784747064924,-0.8666905110997256,0.009171141934406029,-0.9902960163709753,0.3807214942798378,2.610031368354487,0.22070999047167766,-0.2308241218436105,-0.4719597070820826,2.4306865607706163,-0.2434092053386938,-0.7500332919935503,0.8851083127351451,-0.2918377196237857,-2.4535791748847275,-0.05648261896590739,0.6436217997514242,-1.89257818785655,0.9562150911924006,-0.03579761388128268,-0.5630466340377055,-0.31236056793213873,1.0649548845182724,0.38271539122742315,0.15692470618519022,0.1949445822335318,1.0300190661892092,-0.42089816349004666,0.20540906323051375,-0.2582123946269638,-1.5425851249178273,0.9647818714968828,1.1198026235474081,0.03166827329620379,-0.6376926612599061,-0.353420357581639,-0.37931935939589073,-0.26711567401503244,-0.9437148883686154,1.6742354972126485,0.4939722448486483,0.15029826644133518,1.6699786851861784,0.758046587815339,0.7222122142593894,-0.06283905358846784,-0.09500351729709194,1.3764118482028318,0.38080740743941244,0.0866755159280707,0.9627798588689737,0.5282884105418062,0.41976518368049065,-0.08924203089890478,-2.1428813871835994,0.3087637390117946,1.0863638616674558,1.2850661382482045,0.7667644491274874,-0.5546036264392018,0.3199103788093845,-2.2813221751894375,0.3294584973796913,-0.5766580186773598,-0.22892810155918192,0.3712605303082685,-0.7943784826826396,-1.2129901702365475,1.1016918942336338,0.2135674612357371,-2.0959939156189917,-0.13501202435848347,-2.2503171215692057,0.10749599971681695,-0.3107494689082787,-1.6287436902728858,-1.7118556250816914,-0.8100740763489339,-0.3808886194797276,-1.0818348418833543,0.09202361578436287,0.7403518524215436,-0.4103920770668733,0.8883068175749276,0.6789548606189222,0.1811014004039069,-0.5334438871141337,1.4157530318826645,-0.00846114586965489,0.26937903209941644,1.37641188331407,-2.8153999228939908,1.2657957742533679,1.6249490051371809,0.044419493375291115,-2.2514168603484777,-0.6880842922414616,-0.5639458868330928,-2.2594753999206474,-0.014831608734105772,0.021102387117569312,0.3114543504502135,-0.09132242968387103,-1.6888249493064686,-0.8887952305445536,-0.2725965383938835,-2.3606489189724336,0.4239721172122605,0.6753897513506169,-0.2856456284483384,0.47628097902979,1.7602612530317032,0.8972756418152327,1.1578750121824004,-0.013362816502510082,-0.07021740653812063,1.9804857457811176,0.7438479706164395,0.9475220112715581,0.6049920479805357,-0.8651689425177617,0.37584538051205246,-1.689115470995866,0.5532756341260604,-0.343915588519972,-0.07414192815317178,1.0589581529973668,-1.9688533630767397,-0.7448234967852002,0.9423571779094039,-1.6802023793826704,0.19695834464703532,1.8140088415639128,0.8329186636623838,1.386951077104328,-0.7851979276025414,-0.7476762812345412,-1.4813615409829544,-0.5058829512883304,0.724527274305068,-0.29656792265710186,1.0273825371987335,-1.6543014141227033,0.819867556130739,1.0376934146191579,0.25541334355193673,-0.5280290858386493,-0.8585171732520755,1.7400448140959868,0.4784870899595664,-0.5138371340290953,-0.7205928303436205,-0.805002444646213,-0.9411079982985784,1.3488302144439441,0.275575170704618,-0.14570279000152334,-1.0161291321121408,-1.6861528814874467,-1.5147317748255176,-0.3703847914828073,-0.7865360662896599,-0.9819221058838103,0.8287363576414942,-0.26715267333449033,-0.9149691134742257,-0.08214266202388687,0.5260472015619324,1.6899086045973428,-0.8146523354099396,-0.22738210883396287,-0.3468698014469217,0.19741342301573334,1.0368332782189018,-0.3338923821982694,0.17118887830998644,-0.9371712802926819,-0.47938261345934696,0.11110731264025155,-0.39836265119977526,-0.028322557195561825,-2.086365989844766,1.2103775587265717,0.9325387947193367,-0.7931097667811238,0.3717615640707204,0.9878416545993455,1.5924631068499466,1.8357434854248125,0.7717474040351571,-0.3888869152155055,0.057849680227267414,-0.15296049919430615,-0.7255833893168913,0.14247059399968914,1.1875361810002707,0.24457454409674476,2.129565686886883,-1.5834250128457907,0.4224843262901706,-0.4786636628948629,-1.192720602438128,-0.3825299918008105,-0.3923652736820995,0.3428871703695131,-0.7549859506612131,-1.026859901603869,-1.5775097319239813,0.24105842584955706,0.42862504249996686,2.296296992696362,-1.0578358498017322,0.0027804315894285996,0.640164935216464,0.3689034682047795,0.008195825901499903,0.19704657170463916,-0.5371500757807005,-0.20298561582578328,-0.5373300170999181,0.7596349407324626,-2.0687577189835036,-0.6121534313941955,1.1433025944750415,-0.6865404122206413,0.44525209605839894,-0.1472598789947728,0.5618954856137757,0.6418504756893678,-0.4433363832044468,0.6827737978797978,-0.038187523854455216,-0.524302396568849,0.964333279159282,0.5325599285316325,0.01723694322594289,-0.2903036571710749,-1.2742206922844581,-0.5915100261628459,0.15395685616430926,-1.2527131327913164,0.6415608105021438,0.4786147996714648,1.5727017556486806,2.0339045643566585,1.107570967901577,-0.23260093172708113,-0.34999982370149507,1.9911407004717137,0.07748061153893203,-0.8089302351432002,0.08904554989900391,0.11796513200876266,0.35165877331152545,1.1007093096473035,-0.47566628112170856,0.19690571927478265,-0.3906450869437643,0.37132348572525525,-0.7025987426241781,0.43575374018519314,0.3874267654768758,0.4800325642454743,0.2103707682712766,-0.34338184880522105,-1.2957616462098944,1.0360612129457012,0.7261047047774866,0.4046469047079581,-0.049497805172946135,-0.4803077375780842,-1.3147433590067248,-0.7552140327711887,-1.2160673121390584,-0.2288010526839178,2.061830239456032,-0.9339548784214956,-0.42028536433555763,-1.5580434819097735,-1.4826589773543035,0.4905810458229416,-0.4505749854260877,0.42302320440596414,-0.27203857300000667,-0.7517517583885976,-0.614713478973358,2.3851990706613684,0.5424459464301546,-0.883367604939241,-0.6893077487652393,-0.41549175921884907,1.1771723678520574,-0.5748779259936858,1.3266887204666877,-0.051840062026733164,0.8564741623140004,-0.3481133913755939,0.9096699519776861,-0.6042944245283078,-0.5021790556110887,-0.0735246941297278,0.3370489342248998,0.9511744232833015,1.3647965115934075,1.2546402610405147,-0.5122791871617843,-0.24322348018808695,-0.31128626512337737,-0.8055766746138486,-0.0024006713229163877,1.4777575346531222,-0.18837009535405366,1.216221526926674,0.33197899270085823,-0.554659802303647,-0.5710871086533199,-1.336473439909572,2.4200276682695296,0.5279477336570235,-0.13959031359068655,-0.5085218457502317,-0.11365617061728579,0.05395527927874792,-0.3289695769127225,-0.20086849839120025,-0.03361274464844665,0.8799354041457523,-1.317417827450481,1.3421533417043718,-0.863716128841119,-0.2499729161306158,-0.9888699702377979,0.31786313473240135,-0.6239921366821627,0.2625021347154846,0.280042047734086,-0.5094806384245816,-0.729504036843058,0.7486507136018924,0.17826067904742177,-0.822627757170248,0.8779566983501488,1.7869556401759683,0.5708925310448774,-0.3789255252118366,-2.9549554611041486,0.5949906114702906,-0.8033456327487847,0.8970146414368325,-0.0961877459805268,-0.19957384587716917,0.3421524463395293,-0.22129642038280134,-0.3899816167809952,-0.8846362706921247,-0.012519007351198005,0.38015032623005873,2.695760713328461,-0.08218465295374051,1.2104932818358216,-0.3069659805424461,-1.380422485104563,-1.2855322082988232,0.7915698961867584,0.7010680208736598,-0.422299515338818,-1.7994817774221423,1.9544290961359871,-0.3349945787954905,-0.3205451260993841,0.8845236579424683,0.21107298566351018,0.8891944320741866,0.721774514180187,0.5870688369673072,-0.8605201184710882,0.8915069769198012,-0.9978466180890357,0.7024936480883236,1.4152088038805088,-0.1696864061193152,0.8103493430274138,-1.1051920150137489,1.730214393457576,2.5283709229158293,-0.08419926078254729,-1.7511509725262417,-0.573163668241344,-1.6152501057381012,-1.592838812039156,0.44393495923886844,0.8231172650989799,-0.09179202090627987,0.6082242390316865,-0.9077596805808252,0.10272992689940914,-1.0874165734576133,-0.3273557070776156,-2.1848610884305666,0.6779842393422747,-0.22267031081965777,0.3341952222346852,-1.4553300913066332,0.8905208620439644,0.5564400326699244,0.28259085048033566,0.9965407229833405,-0.5942934688935531,-0.7341270035174781,-1.0963746068326292,-1.5694558003922996,1.7928045084656385,0.8376187895438608,-0.5320968827565296,-0.28940270322279965,1.0377105794308388,-0.07427622955642806,0.47595884478460493,0.23640648017099924,0.9365517953452338,0.6793661770347446,-0.511015619208987,-1.4300475115590832,-0.13353221601359622,-0.30973270068842423,0.25668255600726386,0.15914114305101915,-2.3236203058355933,-1.0150912519847932,0.2463125676097521,1.2675236202865274,0.3243605491406891,-1.0007874844674431,-0.8317421615409886,2.6828958098943123,-0.19098736348835535,0.048160646643645826,0.4710161874749036,0.2715630997622811,2.1127580736925173,0.8463431241237579,0.21823880485542027,0.4804778370703528,-0.18819625570333337,0.5299987391724033,0.4292604997926918,0.43366029412767,-0.7763442484932239,-0.5793277354381694,0.6361079368879652,-0.22290439106651028,-0.4576028017424149,1.3365169981411267,-1.7625262076663013,-1.5155025259097532,0.2853475852978383,-0.1083661228853685,0.5157977395103137,0.08916897298209192,1.0458813322523994,-0.023674497624093405,0.35442001689194547,-1.0187414442196627,-2.073018949683286,1.1236701969333287,1.9682882769477696,0.2079597862818624,-0.6748036014160312,0.8735785506895237,1.4204609933893602,-1.3549291123228224,0.6847195122730151,0.7701533267650786,-0.07783083620665848,-0.36365817954606217,-0.7192025351283027,1.7343526201213155,0.33034455657303796,-0.26479014255394423,0.7531807620322424,1.9559775695585486,-0.046405853862626856,0.12673629717714352,0.26974756644960063,0.19034110968109932,-1.3034395349387387,-0.5849221998421176,1.2503746962259774,0.3339636765467625,-0.28764749174933213,-1.6519875489030065,-2.3160015173287274,-1.4494308120299326,-0.1582604388907511,0.18856089631441336,0.17832531468083002,-0.5366736483900847,0.7485369336629685,0.05647205078716533,-0.6900314753289971,0.3692900726004114,-0.2658653672742768,-0.7901578427471989,0.4729324193815758,-0.47940318762459555,0.7532116662851582,0.615594115731576,0.34649343120248877,0.24892400206942583,0.4736038436749605,-1.119158085622847,-2.42115035210165,0.6944899673640426,1.2969636856121587,0.5052941625999828,-0.83690933862049,-0.5974914638055677,0.4546357743721194,0.5897538421412655,0.6849409617216231,0.14088780990918315,1.8715583063342502,0.07951105628586419,-0.37330947039998247,1.1181808409622749,1.0521632294502585,0.33945283030799644,-0.785820229317775,-1.3506828199428396,-0.5220681803196039,-0.577319477552979,1.4231742576457995,0.21856713667039068,0.48589319261880554,-0.06699214100577233,-2.6868336674226376,0.0593377625982789,1.1717045989994694,-0.1761096834294945,-0.6699339808404506,1.9793847700668312,-0.5873007889035328,-1.8788657026490303,0.3986267008483091,-1.3990877769130399,1.0737393875094572,-0.02441814171992529,0.5538093525904797,1.8265800980579616,-0.16715622906898187,0.08571561694241173,1.447375697509298,-0.7405959246176285,0.15874817006822534,1.907833183457242,-0.6486786613407489,0.3974160242192011,-1.9069854887390396,0.48935229611521514,0.3328876370737796,-0.10831299697988878],"rows":24,"cols":24},{"values":[1.9813701179470684,0.18044292464023806,-0.7942478150861578,-0.7058353899870587,-0.3501696977161536,1.2326460116429918,0.48852973447422066,-1.3810698990257244,-1.8618029462597114,0.33349645247127974,-0.6337766584628417,0.792788855656355,-0.11689205553164203,-0.36724220401529317,-0.7699961446522591,-0.5082701611516331,0.5744003894613299,-0.11619219388799187,-0.2791502904206244,0.9749472918870639,0.5714053603969411,-0.3074899985572827,0.7370294678663099,-0.9047088232253004,0.2437111524730395,-1.3162860738538453,2.671194129874371,-2.28947440497568,-1.7104968573323733,-0.3038044150881544,-0.02885391922274307,-0.5294660311972799,0.7696695401172604,-0.4270543850704653,1.352096864979818,0.6439963367122916,-0.22655132485294838,1.5052636770767,0.9220802240761209,-1.5445787112384828,0.3243349657291272,1.1368887257729114,0.24925696044771764,0.0233470799243439,0.4699484115054307,-1.6437824770620368,0.5963127706795204,-0.9189935825563676,-0.968142047207314,-0.27176958984630023,-0.31230616323826815,0.07840311179605168,-1.2811062722472732,0.23343687898085527,-1.1431107071033637,0.7178707187840271,-1.336901023078973,1.075841413327047,1.4497029259963665,-0.4492347476287698,0.8819697342437893,0.4784631258367771,-1.0529888619969996,-0.3280859392014129,0.05949857059885204,-0.4702155260842924,-1.0436864084095563,1.300672484315982,-1.8601224673924246,-0.48706985755463167,0.6013450207130806,-0.857995603340098,0.06869932344439655,-0.6023091334582845,0.1819317424841328,2.0633927927160745,0.5326765792542834,-0.0033634591950959074,1.6464559078287606,-0.08966816811176642,-0.7831827949851862,0.6762721657356188,-0.08543128395158603,-2.551477750250877,-0.5959767710585803,0.9560919147796086,-2.6729363818339533,-0.6528536191046029,0.2887465903168438,0.5405533235013061,-0.009775048335224702,-1.708878107900793,-1.3275637233085433,0.2947080219220773,-0.7419383507296528,1.0598233982296006,0.9451866998470734,-0.7201459745929006,-1.3699043637959307,0.04499219515499913,-0.9138303396657773,0.7706595799048018,1.2910778942057668,0.4256438799334771,-0.8560719259530816,-1.4185766310891978,-1.6774902026058192,1.5159503534108092,-0.3601642943756217,-0.1403296329126145,-2.472860288869289,-0.5184425159183508,-1.4619160834363851,-0.6682610723701468,0.5990383688226254,-0.71004158542535,-0.4241307402735923,-0.37506933748487653,0.6353486740901886,1.0366132134100912,1.5226639703675977,-1.3430955648598073,-0.6202001897798566,-0.2520052637417986,-0.38767566323929586,-0.874514934080257,-1.532143587592858,-0.46616988187837954,-0.1840690018675883,-0.09055260391005937,-0.335685316961418,-0.4037426551857908,-1.8955011927919034,-0.7300150951694497,-0.4564465555632916,0.28399801751188786,0.746765811018742,-0.9708281977211998,0.051474587735498505,0.899465044662086,1.4475015676063918,-1.1371851653409475,-0.5355158516049672,-0.2942834969219761,0.9376640971230202,0.7514236832586922,0.15907861103265297,-2.022645171866483,0.42432353871066253,0.5836622546621573,-0.10073498394062044,0.4830016595302088,0.6922415365994613,-1.787837257389038,1.635159224040356,0.9775821379563435,-0.7165898670421516,0.12159208063722629,-0.9783124939829146,-0.0670375561092652,-0.2900456947119501,-0.09259745935943967,-0.9367156866680779,-2.8233284002291397,0.14065822065660358,-0.3022044892659483,1.1762305855042678,1.3174295847893334,-1.7396814702758474,0.40037426820734545,-1.2272416960191603,-1.3588774490692186,-2.5096091732134225,-0.37672289767331024,0.05810523519682445,0.39155833971353354,-0.4728811451047802,0.27381167515277743,0.33428791042320327,2.2946198513838194,-2.31159220270723,0.8100702370993524,-0.5223024189565424,0.0836589994269109,-1.0484056881646877,-0.7107125556544825,0.4118355517355455,-0.9385953754104311,-1.0080253904692704,-0.2901372275844355,-1.9674062560260694,0.7842338456972271,0.6069311970945627,1.8058831477149944,1.6614784391515949,-0.4736327054877483,-0.6051234615595054,-0.48366421847249574,1.7905376814169884,0.3750864814843929,1.621172678171952,1.102585135906282,0.7014427636329303,1.7158659338216686,-0.3105314628329613,0.7609875408490329,1.2007967594018667,1.6054165609275914,-0.3653419921094767,0.12758306061236438,-0.34473115714386426,-1.14118419441391,-0.7182436484289226,2.352480040143519,-1.2103175940469006,-0.3261795029493819,0.06301678089913801,1.5931521761257428,1.5649228929582626,0.939190815688519,0.19962553471146705,1.023552549416199,0.09625374963751487,-0.433360182211797,-0.119619332937203,-1.565187418647697,-0.7527002311392167,-1.2735075616145317,1.0198017700714563,-0.041227362835448554,-0.2417486604336682,1.3450967173117345,0.28635248416526016,-0.350832242471909,-1.1276093211024172,-0.308752696337008,-0.6890580765227308,-0.5355092238162822,0.2521953981873362,-0.2688973661161223,1.240685434816954,0.8447803932946769,1.4290054063573363,-0.8621671413934469,-0.08158080186812403,-0.654239941094318,-1.5851047198251724,0.14639048699709772,1.890686956598627,-0.48564931978296066,-0.6365147626733577,-1.1306070979618426,0.5580294853555826,-1.9773113807489988,-0.5642934825479671,1.3614467437458182,0.5004236276736261,0.3324773237584571,0.8015189404708736,-1.7872998569717087,-1.722204287586397,0.3380468922603606,-1.124649327819606,-0.13384416414378367,0.5077330229225153,-1.2462166916762132,0.28812342467992574,0.6249565876109304,-0.1614997250638563,1.1285041533652251,-0.2900721847609795,-0.24232263864978432,-0.6709803229505352,0.11632252213015022,2.5198494489071286,-0.009123929878026233,-0.6781373763800533,-0.043706947122994035,-0.918555929687289,-0.12530265743152808,-0.8816407668942221,-0.5534432065964761,0.6602060919948698,-0.4367409909728036,1.142293815948579,-0.9037044324753223,0.019047892262997287,-0.03373624967927984,-0.27171609391673957,-1.4699788958414957,0.5181042176800287,-0.012059799511725679,-0.46223813259789726,0.9238328246393599,0.927626527765765,0.1907368911799626,-0.15654100186679148,-0.10852068215240251,-0.8490642153168925,-1.4499617474784838,1.619090211002796,1.3204765228876874,-0.04053979283288453,-0.09402902668067394,1.4590131432029578,-1.3873179246131808,0.16260942479811696,-0.1809692393606709,2.0338819317904013,-0.3469315292206714,1.051184340257008,0.2846594176340448,0.7625518928632065,0.4224133253122779,-0.9907867575422046,0.7885609922600386,-1.6699142797673239,-0.6926899589729097,0.12627752698010705,-1.7706596558492051,-0.8760483262197688,-1.5787748531222559,1.5315065767016418,0.27559953026803974,-1.3417606233601813,0.6997723966209117,1.1540249491859664,-1.583154099229066,0.07965414750252228,-0.9662324839202068,0.3890305405844513,0.1317525632531171,-1.4065428253616254,-1.6353142371758673,-0.23017189797440102,0.8845738637533971,-0.1465825916506486,-0.892767835507718,-0.16764189036016577,-0.4093539780568833,0.2951271705197529,-0.25634200256575806,0.22668811762591148,-0.39338453475328744,-0.5618019596385474,0.9173770383054627,-0.5041948245001845,-0.8063211808842385,0.04291769562508835,0.8297758941312484,0.9912922094915736,-0.3355430638055894,0.1014523253701272,-0.5620052053889097,-0.9913125152547545,-0.05508694584414095,0.325990344807301,0.58263586767293,-0.45228903652850655,0.802740375904158,-0.3276482786934812,-1.7160441914295075,1.0301021399057821,-0.25200371439571667,1.792125442801884,0.8954707393508684,-0.25776636074126913,0.47220841431815774,0.6289817399114831,-0.3059403990177206,0.9865154547397083,0.9687096024652825,0.6520203693349189,-1.2319695385635532,-0.9208521596509078,0.29037469934607013,-0.736366608190288,0.6901498693853942,-1.4802564472907211,-0.7322122355925279,2.330290139982602,-1.2279670946847172,1.067601227005007,-1.3527671275334707,0.16970936078962778,-1.0031421414226642,0.5729691776403828,1.2259410808644158,0.45782423892328195,0.8430170307075163,0.37083644616528527,-2.659446666736565,0.4419977470514746,-0.8659005050217582,1.7228526525697683,-0.6106890436465561,2.5788630024081307,0.2705607968359329,-3.012140663002357,0.48279075912275504,-1.01982444916654,0.06439880083766102,1.9563395621709565,-0.4182285133506356,0.5565083426723072,0.23933492791675978,-0.3643602149765403,0.09005374575948635,-1.337215917597661,0.3741794280695368,0.379417831317428,-0.15933484816431898,0.240193560080217,-0.21419483998489336,0.6911736467959916,0.6698788347110113,-0.02979193143353448,-0.2003112399029674,-1.7133692063884511,-0.5785616006946791,-2.805652262001926,-0.5200371675499461,0.49900291762384047,-0.7389132111997749,0.24677618321893105,-1.3872168734792374,-1.1804929423033208,-0.09167755442244796,0.30588246520567713,0.9020696759019442,0.5667481450965796,-0.7129925168331919,-1.2887797132979555,-0.7395250213687286,0.2632935215458516,-0.6985802449775702,-1.8177328512105,-1.1738052542361903,-0.7073824985236137,1.0487638561095831,-1.3063467680515803,1.4495491523886737,0.7456930943789823,-0.9704661706550529,-0.4924320948120574,-0.2564455559948178,3.199637111750372,-0.3140208953641632,0.7284301263850261,0.19507032154225237,-0.008189996616604887,-0.14174606808072862,0.30512832913440807,-0.32428482779953316,0.48626242652771257,1.3615098131040975,-0.031988887362643416,-1.7190839943528464,1.0499239484383676,0.4238562944847871,-0.8929055287523391,-1.5231325471268775,-0.32718868501692316,-0.1795822200537918,-1.586195207192417,0.40730061054741623,-0.6337950102827514,-0.42455022997306224,0.7209982624840124,1.081915955314224,0.6171941747802104,0.20564568426650703,0.36685841604878583,-0.26017737414804004,0.12850346344007868,-0.8624553218887941,1.1221987267604585,0.2966686894516584,0.5946764364678625,-0.6340653288643404,-0.9214349549438032,1.43313099729945,0.626732005902487,0.15292235274161706,-1.4274821003961442,0.09271058676614485,-2.021629873940611,-0.8730925977493966,-0.7494449139867139,-0.457223664449372,-0.4109536034520195,-0.6845486731270911,0.7948667256649287,-0.608127632547683,1.044308616769211,0.12381169115332114,-0.05690329612865763,-1.2670277268871475,1.1216141046051527,-1.3497573359682005,-0.27248104867422146,-0.07696605133887857,-0.1909628503057359,-0.4617506303674248,0.102959645583661,-0.47143673702548183,-1.0332500685385426,-0.2651128060575614,-1.3208931869972327,1.0694946921971207,0.6018809981041496,-1.052899736049584,0.1814994618669329,0.38146698542056445,-0.7908388544088957,-2.120086660142237,0.024223946044733102,-1.1293899978461797,-0.2177877505159584,-0.7598540346805738,-1.3082269353398708,-0.7880169541644069,1.4683229065259278,0.24735788576616097,-2.769025278848219,0.053947415583253666,-1.1141351246156592,-0.7077363459476718,-1.4768503451479682,0.3250914599436723,1.483718112831984,0.9171521244936442,1.8688295309437748,-0.682065147042919,-0.07557676360723131,0.713813303054144,0.5672002430102501,-1.0774633452600957,-1.3750270913141178,-0.3951213395682331,-1.1302108719037915,2.3215216539814727,0.1839666408944305,1.8062326442811276,0.5267650452216612,-0.5464408156261219,1.2826327957705708,-0.7575975471053328,-1.3228477538279668,-2.2978161947375417,-0.5758792080336947,0.9204595756855869,1.2013487079057317,-0.1493652077131955,0.4870758409912801,1.7589944815905434,-1.115895784916043,0.3595748109330482,-0.5361362789525619,1.0644330339713834,1.0440440581332027,-0.5200488383983828,-0.2621709404164734,-0.0980846107866532,0.0363081931479714,0.47273069684489655,0.9335751974358412,0.696444562671244,1.2652149320098725,-1.2586269657944846,-0.4900514015082469,-0.3947489317250092,1.8847958595358598,-1.92490494222959,0.6561478279837492,-1.9270812394010721],"rows":24,"cols":24}],"type":""}},{"type":"*activation.SigmoidActivation"},{"type":"layer.ConvolutionLayer","data":{"depths":2,"input_shape":{"depths":3,"height":24,"width":24},"output_shape":{"depths":2,"height":22,"width":22},"kernel_shape":{"depths":2,"input_depths":3,"height":3,"width":3},"kenel_size":3,"kernels":[[{"values":[0.03424524671519955,-1.421992801515871,1.0591778498850046,-0.5232492756389835,-0.08794348796870342,-0.40423195923521726,0.4808636173336256,-0.10621436399030948,-0.2373080832332366],"rows":3,"cols":3},{"values":[0.37180745473933363,-1.4565749225373095,0.028609134816173866,-0.4849979619207089,0.881266286385548,0.2512537838133165,1.5153121318329048,1.4881868421817883,0.690870963972691],"rows":3,"cols":3},{"values":[2.0711217988241946,-0.11460805908911968,-1.8654259165473224,1.0318036399177413,0.4332143092458064,-1.014201908159622,0.28689575428531194,0.10533674117871443,0.2792141465587037],"rows":3,"cols":3}],[{"values":[0.5553566867786437,1.9512008039974271,0.5570975365556969,-0.8078030981138169,-1.7153469479364332,-0.5350305669814173,-0.3218956637362698,-0.4780130571568309,-3.1432262403772837],"rows":3,"cols":3},{"values":[1.3790884255829383,-1.9631600055291796,-1.3315935513889159,1.0032820515448955,-0.002893523810393608,-0.1698029257298982,1.7050700325821588,-0.6697372569019963,-1.7148570812951072],"rows":3,"cols":3},{"values":[0.7669522780681677,0.7746004216487425,-1.2154949640264365,-0.7747709038419324,0.5344198684657857,-0.01280997433522649,-1.2842176444145537,0.3227804988279436,-0.7169181168320347],"rows":3,"cols":3}]],"biases":[{"values":[0.6987972634753091,0.46365236806875976,-0.8973689010077888,0.7137318611773452,1.3169981394879124,-0.5013503328122925,1.1635730031336882,0.20367195307821717,-0.7253236871391433,1.4205064634266273,-0.2771323325531888,-1.7553993114701651,-0.8397322695758279,-0.5860992197400586,0.912437795019986,1.3974702691582401,-0.06362026439647818,-0.4548607578804125,0.9121808138645278,0.3975662576427991,1.5265126833075722,0.20113270214648077,-0.06865749700563893,-0.9127828968070654,-1.3140478110785492,-1.094496082416522,1.9119803630670213,0.2507459262356816,-0.4427793098848714,-1.6331753984969377,0.48177336729423714,-0.508956091181827,-0.19700583123772608,-1.4458095432482092,-0.19808391669452974,0.11503918149701102,-1.1694270069245045,-0.7521488276271426,0.2313006497744425,1.1919898632450774,0.4069475391025756,1.1970392455981118,-1.9091393862734372,0.29955264016174,1.3614883079689188,-0.041004506118800216,-0.4018113743510856,-0.703939739948727,-1.3329560275225916,1.3969272912304311,-0.9834857299010836,0.4104354101928531,0.40569592802416776,-0.20582309333025636,-1.923187023505725,0.45935642751226236,-0.16432543397330857,-2.121221689257639,-0.10426604501104945,0.5149220088929967,1.3556553752882023,0.5186260316374606,-0.4739258569961868,0.16740861891373437,-1.5993204785161428,0.8906929147068346,0.18616494729712724,0.620286676871402,0.5786961761389848,0.7060241016395266,-0.4014410853055764,-1.605158148480588,-0.9756686361973191,0.6261243028019952,-0.5718113287442974,-1.9923242273356816,-0.6315579523347364,0.9480536266899385,-0.7103947328607566,-1.300570576708164,1.0163895874305489,-1.6955088713789586,-0.1487510873450342,-0.43452233385916483,-2.3480923598700203,0.22584462645684247,-0.16698377536978926,-2.773496981451867,-1.108069651734889,0.44106708440135023,0.396363793144901,-0.06860838330877037,1.4518134246300753,-1.4832788220928148,-1.1652146509954115,-0.89966520250027,0.45975306252849535,0.5189392846564481,-0.5158606245759293,0.5493254657009672,1.5561759919839535,1.2427711432436572,-0.4488881277898663,-1.229161600207658,0.3658826319502568,0.05509780638899381,0.33647189513240583,-0.9950241554268837,-0.05267690623809049,-0.3983905955421413,0.8478114042464385,0.3586742218528091,0.7338796452749088,-1.1064214229595646,-0.21396980263879747,2.644346320071069,-0.42647302271331716,0.18018480457053687,-0.738213106402659,-0.7004005707947546,-1.0430558779123098,-0.9470719950667963,1.500445601583914,0.9610378851809779,1.529660006867925,0.7515655019194203,-0.2165649492654182,1.7411075548822101,0.12040718357655057,0.8590393629485097,-0.4492381919141624,1.1381729503422178,-0.8856797226677382,1.8856635433292224,-0.20183623678422663,-0.24830778627957878,0.6529977770409485,-0.5246404759694858,-0.08862104148292596,0.6925379123174016,0.33795435377950606,0.9321155305493847,1.2859278683733073,1.240404942151355,0.9648283917025299,-1.5381481028112947,-0.597868199890196,-1.6158761451132264,0.5087955023042556,-1.0015982432465238,-0.8163172974806352,0.34534604068392216,0.5806136694343824,-1.1780995894020747,-0.7314912836179602,0.07742650642901389,0.09862521841115535,0.9642407690408661,1.1613919812697018,2.766334475199363,-1.2132541155369823,0.9879895249165573,1.4881238911940724,-0.20420600352778584,-1.0717562818431516,0.3201856719813519,0.6515762774847338,-1.0834063909174774,-1.089033262066375,1.6684208119624064,0.40289630806758125,0.5446511838837509,1.9183347659379804,1.7154137601517034,0.8979021277534596,-0.045756803934792936,-0.5599805444957542,0.35613806019976046,-0.9004504209055851,-0.0480860467189333,0.8987282256408667,0.7964027376425599,1.3890271013792606,-1.058351797435586,-1.2566480824175361,-0.2960359512949549,-0.6434478164389227,-1.4640110260347958,-1.1542676953389683,0.6379984418867455,-0.4138456452777195,0.45806525656954955,-0.6942064292573734,-0.7053633924687691,-0.08564838921048921,0.3861728506173915,-0.1917384121285502,-1.3033905953373053,1.3882568776892392,-0.032217302775920886,0.8784493974478861,-1.487411829519194,-0.644488552714526,0.6947825646918872,-1.2561392093402064,-0.1071724171961207,-0.7087031629605269,-1.88543912274719,0.5981435441119863,-0.6917986218105604,-0.7881836418907303,0.5288336144225042,0.5142699107230199,0.1519812399213608,1.3139927116428463,-0.2117440046135314,0.13189943318117675,-0.7987732124383751,0.06494279483221124,1.7767428873527789,-0.9438595400375759,-0.4170925180516107,0.46808361814663957,-0.9628425011825995,-0.6961011220957574,0.7557057891186003,1.5696706248909313,0.8291900929421364,1.0673450057529001,0.05925482031294571,0.8781740338990573,-0.9889931223652763,0.1481552072301939,0.725908644567476,0.4259263415605762,-0.10868642339711616,-0.06413636046129678,-0.2742750972339688,-0.7106269048104176,0.6482261449892676,0.5551855373384998,-0.46933710697030767,-0.03490665008644583,0.4817600491859997,0.8414106686752176,0.2838169208656956,0.7106948313715237,1.1868532983695061,2.265890902593864,-1.0969484903937823,0.33794182746811313,0.9242032661972831,0.810706237266465,1.543226991168182,-1.0010566225591004,0.40272622693062504,0.5937515602275333,0.9919494967360762,0.5371839504933793,0.3896546200208121,1.5099184454517849,1.3369418668436481,0.9176244011985689,-1.9026450793293013,-0.3045305723896465,1.299875172972662,0.43620325639557816,-0.5102244217579331,-0.8462519139517307,1.3397273050202325,-0.006169896942527631,-1.7032518884363137,-0.4759000671886176,-1.5334080084256143,0.4807562392256141,-1.0602627890931189,1.668180776124338,-2.1571402338109897,0.8293761662037448,0.17425290517535186,-0.7527838034509468,-0.8436649565009317,1.0520770065502025,0.653446154843839,-1.4127860645286996,-0.08930618121233289,-0.706339647118178,0.523145205127501,2.0829614328876147,0.42071404940796553,-0.18130312409876756,-0.9602628109165815,0.14566218617121898,-0.6394822565818273,-0.9736108923578287,-0.6710275504544522,0.40321240204142866,0.36661205834035987,-0.3029250768025817,-0.5852216266311903,-1.8564718595524867,2.261924364848779,1.6405157286128451,1.489544990627267,0.2467308861459579,1.6897357428907132,1.4266010461332423,-1.8804272774463768,0.9241239353561268,-1.151578407613484,-0.24689835428027987,1.1602464390494824,-0.36413789172823,0.08070727463454727,-0.589438558038985,-0.6234963684541647,-0.32130247171260995,-0.4630396523024412,0.42292818281045197,-0.6511485443431647,1.4704760758426993,-0.03766517724344892,1.7506016598164107,1.0984600168135663,-0.48591419276794706,0.25980144670300515,0.09872665086368543,-0.584452303782718,-0.2881794257790039,-0.8358516896581013,-0.3298325675547697,0.9789471622617237,0.5191505703131543,0.4359601253749477,0.6253536121376292,-1.0678607975723708,-1.6117884632545658,-0.0798289749292736,1.901653431302519,0.22003337051209698,-0.8613587878103071,0.1432026865447624,-0.534847584144452,-1.4644581286823084,-0.2965474135769589,-0.3068474332522596,0.033145104425056374,0.3317470992497009,-0.5012742965745358,2.8677848112021587,-0.4415194625113903,-1.495559970746857,0.782697504139606,-0.1947036443922998,0.05020550975658294,-0.27732471293970257,-0.8508985517773724,0.6627003714154305,0.11644868931419419,-1.30227488050454,-1.357308639656535,0.31139215511817997,0.04931529608527416,-0.2840561579847358,0.4845006853498242,-0.7423919323506529,0.8037409781208407,0.6065483601899674,0.6548934064595638,0.04897138617690623,0.8446181968060703,-1.1913946531609336,-0.781147251466576,0.14761865551054365,-0.23198051894935315,0.3931712718745219,-0.33766691458123455,2.1798875690869464,0.29150528901556316,1.2605931820673824,-1.3365233184047827,-1.5143473107499343,-0.4244799373813509,0.24219538177444008,1.6736031013855244,-0.08335702926586028,-0.434221979418563,1.8186323968898113,1.4117316001489835,0.31480718837450905,-0.5602929364295491,0.894327564128243,-0.24660993210745016,-0.8326313577618635,-0.41395807720271394,1.0406642145584177,-1.1665400735549083,-2.6053859264127843,-0.002470158680405801,-1.2937849543717237,-1.8661410934958786,0.5681089311701336,-1.4500550888278056,0.5159915111287829,-0.5505390239884709,-1.1256179449711856,-0.6048073972652303,-2.1388612667798417,-0.525074788632644,0.8323073782491474,1.8668213663518438,0.040890514318610904,0.05626549345316309,-1.9369031885988863,-0.1654713958045389,-0.247680693669137,0.07146639956637837,0.09396574819024449,-0.13058040158579387,-1.1210870795096497,0.06908322173579926,0.5117142486084516,-0.46986326008460133,1.4382934842226944,0.6585231040259886,-1.153527791053431,-1.1242918622815103,0.3695034929976862,0.50849767720601,0.355518853560016,2.500702121853728,1.1571723570899708,-2.0318607136770983,0.6269759655372429,1.1982710850393075,-2.706880538232212,0.3234014156532392,-1.7651964970201366,1.11744817544118,0.3561863572712953,-0.2141139589425386,-0.20415745091333698,-1.439044655543882,-0.9860207623689864,-0.18806970089272385,1.512065506897537,-0.08832905637111182,1.1381286745201504,0.6247719113204966,-1.6648644540968476,-2.0429097685283772,1.1370137473263917,-0.6310316528715666,0.8576902344847931,0.6885041091154174,1.1247233936094514,-0.08255802626356364,-1.0259006076985386,-1.3396483871891192,0.7804526252109167,-0.6512530230113202,0.4844325028433358,0.1193894595416283,-0.15933816791993055,2.4299418315660595,0.4217732456477803,0.3894283654424819,1.2329781779271602,0.9020535560719134,-0.5437088184894411,0.4436478724274403,-0.7206277568915328,0.3920432805557068,0.7250737565585346,-0.8025750595046562,-2.064637048974006,-1.2652044902942803,1.9078911170552395,-1.1325567751791201,1.0550438704833944,-0.5441967338593339,-1.3129545968152385,1.8999374444063233,0.8530651199663198],"rows":22,"cols":22},{"values":[0.1888113744473813,1.5514222287641173,-0.9519532469590999,0.022334338198018215,0.2229223115294959,-0.8965215645443556,1.6452049302348173,-0.3122442197586066,0.6094648446782807,-0.6145641151165495,-0.9956117951597061,0.3972103867643252,-0.5369122268470956,0.8417797673429308,1.5175025769538766,0.3629598122188897,0.5449510548502486,-0.03465973113337434,-0.6471728188517228,-0.6559948171732971,-1.548122050280488,-0.47876963945613654,-0.7871183746576101,0.6620395793346131,-0.5835142180534139,0.1770276451975492,-1.1398451824762903,-0.08567116389368498,0.5428751971194224,0.5077953970856118,-0.37695465903790387,0.5756546884266894,-1.7155440577371617,-1.5383045803907633,1.2461572370181577,0.26688693292737803,-0.22499016960229307,-2.14047065706957,-0.1832326657464737,1.5800126604922098,-1.6115171671163513,-0.14359165820621864,-0.3789528387139631,0.4656624388020808,1.527488269782362,1.0481452306276011,1.5027911213584917,-1.1629301816074464,1.8361239073456832,0.1620942283934253,0.44039242128260897,-1.1560590011811025,0.6948305770391713,1.3224459011101057,0.13213664458825358,-0.307559974340924,-0.904294286969392,0.347986642992385,-0.6222846336186982,0.5252752668104272,-0.04106065179519685,0.750263034804536,-0.7630705128847903,-1.561211759101943,-0.5136596098664471,0.8893004547815928,-1.7420546209412102,-0.5304255830490435,-0.6718274741091398,-1.62295318999384,0.9794991654255717,0.47094362159755054,0.7110199736137829,0.17651839024115973,-0.023810590243865525,-1.5371912338971188,0.8291272703467716,-0.12566211362450203,0.806513442357855,-0.5392462208535702,1.3922590280337837,2.0890904178178977,-0.5687766475371645,-0.8410577164018698,-2.0255864631835063,1.6132946617666215,1.3747513912369511,0.03701698125760997,1.5426640718601605,-1.4180933044587025,0.7601924173208477,0.8521647499630965,0.3868872397178511,2.7128425920655754,0.13340712706955837,-0.08495320000295094,-1.0843915150565517,0.5338626073795609,-0.995974706321855,1.4034717237477248,0.6526276900622805,0.46040782469068503,-0.43239497262882143,-1.2135256588192302,2.1250611987440244,-0.6534841766612701,0.41650436331548857,-0.9653330068641921,-0.1484081527690152,0.7151210626814777,-0.22221623797190215,-0.550586226573995,0.4062297160293443,-0.12090893915474277,-0.716064357313221,0.4850323894664888,-1.800615188025468,-0.9788527886170499,-0.3035609880550932,2.1751677730475407,-0.9801402090397568,0.0905628751948366,1.525308747511057,-0.7746365304977937,-1.424961639307745,-2.1110043554400892,0.013640518532301624,-1.9599140267295092,0.3155255979585579,0.9337493344078897,0.19340955370202587,0.2561221310176644,0.6093059104882544,-0.6313578247590643,0.8888812190492744,-0.12559468058797188,1.286504130274366,-0.19313968354638886,1.78668755208856,-1.5909915053420876,1.5870923266180283,-0.7477202436513756,-0.8086072192705674,-2.3522878977905997,-0.32363212045647405,0.5149584855135872,0.9196128903969709,1.718184915612015,-1.742383469713191,-1.9442407178899,1.8688955743473217,0.8034097160723261,-0.42156408531718986,0.6698084667818605,0.11411143695471418,0.3166463415072389,-0.9692294231426538,-0.7810156873830982,-0.6025774148515034,-1.0592832891645387,-0.17505576269551396,1.6217690636995126,-0.6980563102575679,0.17743752289249637,-0.42675413139746277,0.5065866846831051,-0.4528874065782057,-0.9386611680174229,0.34115264507648796,0.3357214480254028,-0.09889405531184499,0.27437908453578813,0.46626451243023587,-1.3944106373173446,-0.3266654267405362,0.35081396021593186,-0.6456515892975355,-0.1554920902863831,0.5778607604038575,-0.09143351414915116,-0.1376559397180388,0.2623468591579731,-0.3033588817899447,0.04966098505084398,-0.23533237630762424,0.43227656758200744,-0.5255582767929377,0.03229467225310326,0.6715689905108363,1.8454024977584254,-1.0904843061335818,-0.6227750069979708,-1.3137834770096173,0.6206802986287945,1.746653025324175,-2.0249854182934106,-2.8866840216409617,-2.049558831492333,-0.04358190326711283,-0.28847129209839173,-0.5648723027021796,-0.4949742647938262,1.1180650399818377,-1.5806325101658314,0.5927513761391666,-0.4785954705036492,-0.6342526544643854,0.47198370311201304,-0.9237120389258048,-1.3924484084296025,-1.4339227142880668,-0.08267267849855502,0.7580926272958847,0.7576564055424171,0.18018088273093466,0.6892572584404246,-0.017977555125519063,-0.05592916073425196,0.1982641219667019,-0.35122805808986557,0.432012733473225,0.6448968437593158,0.4411921789570407,-0.08889584474170034,2.3334730896190825,0.6070758663650404,0.6130280317913667,0.5989938452766358,-0.6696986765758759,-0.24036448353040896,-2.4964538609805014,-1.9730259590112855,0.34936428863066965,-0.15776402625342625,1.2239764562328082,0.004223651535932188,-2.2660814356421093,1.3497762498313473,0.4786005102345587,-0.037891967672458816,-0.2120031895942418,0.3225149023279783,-0.3729335764351036,-1.6776059733043158,-1.5388597533495552,-0.12679007148944516,-0.4063382266180282,-0.3103205711595163,-0.9986626347021391,1.5733879075524413,-0.7711213012399214,0.5814333332285125,-0.058129144789216804,1.334963573431794,0.6614914382963071,0.8282706183766537,0.019617326624476763,0.568987340449734,-1.187007039356746,-0.7442239081983715,0.26566979609752733,0.9045333328643345,-0.8795208634910601,0.9976043431678953,0.0660143464131721,0.1557325933192039,-1.0043894048034538,-1.138956421129896,-0.16614330610253414,0.26039336037743666,0.6321075245391679,0.23708082746890502,0.014208084339622545,-1.814672239640812,2.412354048396736,1.4252103673266627,1.382134887872244,-1.470229127552838,-0.9521149530744611,0.518157481449392,-0.07546370334473522,0.48639689499209704,0.011642580229215554,-1.4517851630182965,0.8348313065998689,0.5264418412271586,-0.20517387588316413,1.2372138926412721,1.0283405617341757,0.10247057257747415,-1.399372623348367,0.13409015825861953,-0.225359071823215,1.023149346718595,-0.24011432582885256,-0.3813433536232133,0.6062944981364431,0.014474294332938991,-0.33113411107429325,1.1767889823604463,-0.007383348019329177,0.06428717306921454,-0.9116803602987046,-0.5874974599681638,-1.5893384108814654,0.06230206757441344,0.07669663437641862,0.1443737313015881,0.2446549185903344,-1.0867277352027989,-0.5833811647920194,-1.6762285139869,-0.16330482451965125,2.5575755264141615,-1.9946282183759518,-0.8119260227194263,0.8935448893163063,-0.33517280716106557,1.5662213294958374,1.2573144025896428,0.46607247165839966,1.231475192932421,0.010632138297106087,-0.36393691830949054,1.0465197152867758,-0.07658840323972373,-0.48172043090492905,-0.41889589489512913,-0.6447269786528778,0.029768636893959515,-0.1467092680896395,0.9089729662725455,0.8531457976476379,0.6642862171831972,1.5174919784789491,0.12977198056107303,-0.7968875261857075,-0.0102145778695983,0.7610700240670687,-0.36526257734825757,0.6528898260104752,-0.28234800331523546,-0.6747814210727527,-2.555689463213808,-0.43884705987306233,-1.5416393332779246,-0.30760820040312986,1.4098529202989267,1.0629623106788921,-0.9378777443989346,-0.3338264766604996,0.13995458034685246,0.12426561903445663,-0.4695432394244869,0.4833851386611785,0.34192845003980105,-1.3649376569328187,-0.4862313604921906,-0.28746392179205715,0.2115863970131252,0.5207404972419801,0.22554734967271453,2.0060695444677266,-0.18890699232325803,0.2390344481150289,1.3019830394542937,-0.37409357659589015,0.6818870013266393,-1.0725411421555677,-0.5765447774968423,-0.9563225484775736,1.4624457929738088,-1.4957979553091734,-0.6578518432348057,1.2843796944414951,0.23140074152052942,-1.0496555393846243,-0.6825448841479546,-0.05009351283075895,0.9643622714488651,-0.6449305171819801,1.2389501146232729,0.7174809211700791,0.13358931875759378,-0.6937000038390547,0.2109611936419586,0.3597029858580987,0.3823377186609667,1.1150197719338089,1.7615096348474135,-0.27365288991252024,1.1773016498920243,-0.9822389642401829,1.2791524757556978,0.10156720091106144,0.7335708886585752,-0.9725819403523216,1.2775268409837726,0.15052667935442135,1.2910465271280307,-0.3644892806195716,-0.6989571028544019,-0.2290590200080141,0.16343487969697557,0.39679569035403517,0.8768347586727422,-0.5413503872297003,1.509707198964336,-0.5473387720668211,0.834723137682826,1.114837122603992,-0.7047287556677148,0.08636692451763005,0.22638754559980645,-0.48566035032475885,-1.0170126310566074,-0.7992084770564188,0.42580530072584677,0.7194930314194061,-0.4953786661943397,-0.4847662412243002,-0.4997040548302316,-0.0640234957781454,-0.01697429187588298,0.5140091188539674,0.5558228023235113,1.1084676713459056,0.21101816630411863,-0.606010655769931,-0.7740184381252442,1.3525975011138485,1.521614346524035,-1.350657654455363,1.4695499997305894,-0.6267781580650617,0.8429102910331977,0.8560036190560496,0.3125566883260111,0.9499373268769766,0.2375558671730863,0.270912331350525,0.7948330161411686,0.33723287917256245,-0.33700286226339765,1.4160774167247172,0.8241293914099985,-0.6045960874133236,-1.1367194922491146,-1.850620624059883,0.030092117161933406,-0.8295454635066727,0.279744119112349,-0.44100696030675995,0.1366979952461577,0.5695053857436462,1.7895697653138734,1.1029262041653358,-0.11621222688517278,-0.4493337258876402,-0.28659589025464716,-0.7273302900029813,0.13099225600876158,-1.6280551823689218,0.5060458836746361,0.5345448638405871,1.3606143290942654,-0.23365007514293354,-0.17474865003087642,-0.8001673006561039,-1.2152232139007808,-0.01592987490682099,0.2957711026071211,-0.6656378055909684,0.6447015455732468,-1.6301980963414384,0.7360546015499908,0.8644052574636328,0.42883578515204757,0.586687924251264,0.8237788871075701,-0.1485175679130713,0.6245364513058395,-1.540349576884954,-0.5808084891583414],"rows":22,"cols":22}],"type":""}},{"type":"*activation.SigmoidActivation"},{"type":"layer.DenseLayer","data":{"weights":{"values":[-0.015200260826378783,-0.005191111847691059,0.016149381658887327,-0.005352338568481267,-0.010577170068169191,-0.0039797940603562825,0.00522169747969607,-0.013621867282937943,-0.004464249945601524,-0.010137751174557823,0.005045901001607163,-0.011497338857993587,0.009884150987744431,-0.015716293646233784,-0.008252549586259188,-0.0044496933369256465,-0.0066713411357863335,-0.017261451002819513,0.0017537470409750675,-0.0031843136766258632,-0.0027109399285300175,-0.00099339156441263,0.0010714015958644115,-0.009609353612604985,-0.010806417243003593,-0.00018014856494285802,0.005549334468202057,-0.009326067728054745,-0.0008287508952321866,-0.026404710487158114,-0.008425216798669121,0.005693810376274997,-0.015482759259850291,-0.0025409824950457078,0.01231498490563282,-0.00944542592454538,-0.00029135434298008944,-0.015028159749106944,-0.006360816619439318,-0.009867215581106306,-0.0007215769621137816,-0.00046425781588123625,-0.0006960255293136921,-0.0042090347129287746,-0.0017167393747857009,0.02020110673594006,-0.009800912914305945,-0.00559003746367927,-0.0027079839028473314,0.0008365587745025702,-0.005156445677623333,-0.009491445696294676,0.018448515081515286,-0.007052874727333665,0.01962752038429048,-0.010910333817520787,-0.000902071601697847,-0.002910113784758601,0.03640514607132883,-0.007189174755680147,-0.007574878283459474,-0.011442225374466198,-0.005614065571760379,-0.0057507403134543205,0.019724346705132127,-0.0010996253716048798,0.002595245106422645,-0.00999743766747515,-0.008190421754740095,-0.004667916824382904,0.00800615091582698,-0.0380249028766077,-0.005727758891221835,-0.012415364019400335,0.00013607468390694976,0.014992503794636902,-0.0002989820726873718,-0.012865366179442188,0.0017448925238981317,-0.023829096965334168,-0.007684456450395466,-0.004193061181768865,-0.006112021158901661,-0.005156625755745177,0.010141502201231157,0.04371670977236604,0.004496728822220576,-0.014512416122330146,-0.003303297859676764,0.0017453791096245642,0.004593611817128968,0.007661421862526547,-0.008996623663793104,0.0033160371588123873,0.007369012902008611,0.00585613697139424,0.027554492439272833,-0.014546176293217332,-0.009735416356000568,-0.016911459848836505,-0.010376890091964448,-0.0012692605877438396,0.01752981718485039,-0.0009123200365376688,-0.007718111040756318,-0.00521144577497426,-0.007098720004861943,0.006332901376136811,-0.0025248803589484575,0.0284936769901303,-0.015251013999191453,-0.009332259404994946,-0.01606379605898811,-0.007377452565142637,-0.01094264876464191,-0.015498457318826472,-0.0012045448740255476,-0.012541526020805244,-0.0034699782888515307,-0.01702650550177022,-0.0155377442116455,-0.004084914496162907,-0.004417824235484182,0.008029365507115109,-0.014204076322887308,-0.003811479354554339,-0.0035518364323052355,-0.005818317029333931,-0.012082818798067909,-0.0034249410371414704,-0.018639598586501566,-0.03835702649513971,-0.011831467074401717,-0.007344796728462536,0.006783758180997664,-0.01517320641960261,-0.0017013672680176726,-0.006912143088057664,-0.017665967605097255,0.0023991999836049695,0.044494359419937,-0.010216182323279184,0.002270707163786798,-0.00034534531110853845,-0.009711714746222646,-0.0163435278173441,0.00654016214829371,-0.0063142673606821275,-0.012694228137819718,0.0006373154618238133,0.01985903174597608,0.0013073818430116443,0.005447894859141198,0.006066544574634538,-0.03936131801257642,-0.012804245038969991,-0.00915767446770225,-0.025081813748877614,0.0030282380003245095,0.035888061106745056,-0.015479113947509802,-0.009988275474194291,0.01604833749555202,-0.012398972965526734,0.003223350489762631,-0.00761517310484806,0.006415668099805352,-0.0021132702344254612,0.016556949831247374,-0.006153942667563411,0.0024476674524587716,-0.016688553263257314,-0.0009470940529807286,0.025228797821298422,-0.010711569694442218,-0.0000777544611701293,-0.004106375357595173,-0.0066019381043412335,0.018156870648716458,-0.007317213255079176,0.02567317791228546,-0.005365487926974745,0.034411557427667876,-0.007169619641021774,-0.004702427822120987,-0.01249614006197565,0.05220317948174679,-0.017719260064717544,-0.007849040110858133,-0.012335339843869699,-0.010993063070732568,-0.0017582197535725877,-0.005939881677723546,-0.00449395680101681,-0.0002796998400092999,0.003631877850094566,-0.0032569875297046875,-0.007964948158139149,0.0005337574705369845,-0.04763923297438713,-0.011694887873804086,-0.04080355608056792,-0.011331416250686416,0.018381229194411396,0.0008547425815359325,-0.006912932147716247,-0.010460865675006958,0.0028208738516159347,-0.0015444333097676258,-0.0012368909597469371,-0.010707337932558536,-0.01237136589716785,-0.05152531019538056,0.023541892594812302,-0.004341309789882552,-0.003944694449172441,0.007398022624612726,-0.019196775113972164,-0.002287755655715147,0.03266247394846822,-0.03278156803120979,-0.002595947683902122,0.008672050354531008,0.012653680348953618,0.04203087993590453,-0.005091415706823719,-0.011920783345006375,-0.008990447143691663,-0.013218467401602221,-0.010673999548035468,0.014929688297919005,-0.0033822242016723334,-0.031133142687858318,-0.010586661743624633,0.006933315101773974,0.0072005631812219265,0.000414867801262631,0.03249705725112153,-0.033284616934984364,-0.014956162948010566,-0.006656257617381541,-0.01914843650857671,-0.015751970644489917,-0.006282869366841818,-0.00801756449949347,0.0020533936044509708,0.00455311376134703,0.0023320584058698557,-0.015010731205981325,-0.0011935608531887885,0.0036461585924881645,0.01303339594566757,0.010412217101586253,-0.006032885985500501,-0.013668923852250053,0.005591935553384275,0.0022312376933120524,-0.009013106554265564,-0.03595221165928477,-0.08784385253922526,0.004201928531537807,-0.013082595981728026,-0.0020152850163416757,-0.00847849553699378,-0.11321229642731728,-0.013525472493126656,0.00978890434727163,-0.007188873261632956,0.09156311165988541,-0.010339142599432577,0.008830100556870913,-0.0036666659879687888,-0.011656405046667604,-0.0003426925833820404,-0.008814763596279205,0.0008012085796041058,-0.002041752907728727,-0.010995253016703236,0.0297546912120088,0.0021008254355328196,-0.003148475862009291,0.00022725169170195291,-0.09557888835696196,0.0031273023966667266,-0.003445824968466638,-0.056038359812592455,-0.0028169979654769487,0.047276957701818605,0.0032544812321759317,-0.013566549976169092,0.043262062109727134,-0.03287423635261068,-0.012323602166321711,0.0033414881924886514,0.00007872923917856322,-0.008714664426403411,-0.04206548645386807,0.0014817952536733345,0.0005530084313151637,-0.02494200608844154,-0.02081111623504841,0.00831799298037498,-0.003783264171140015,-0.00015632146309074076,-0.0007847658287511801,-0.00582841688198089,0.10442612259821117,-0.014985689577195555,0.07438435993513265,-0.009549011803672215,0.05359123745966322,0.0016170284403758876,-0.004583705964240684,-0.008225699691983097,0.11434610270490753,-0.00845149303179861,-0.005025892359847492,-0.006374802423871893,-0.015465081308727736,-0.0010092074167074288,-0.03685490036785599,-0.0017542614417832814,0.03731885179369332,-0.0024574417564227416,-0.015766965968562655,0.006749540013172127,-0.026055591696243503,-0.042653963439493535,0.00017923706990510967,-0.11350481637118212,0.003381411974008314,0.01831379145301844,-0.03160575366895216,-0.002003027694124338,-0.00468093307623344,-0.036488359174595454,0.0003209029550004879,0.01745897853175141,-0.0006180811662131163,-0.00007394734256118108,-0.1993686567850388,0.02077914431533917,-0.02211606247241593,-0.05918003978817456,0.0029391885203966517,-0.12411112918396563,-0.007606118032656169,0.03149527226172339,-0.10915269406964948,0.0022770060579457106,-0.006909632616088652,0.008739711932657431,0.06622927707101575,-0.003265812609583627,-0.012369277177659298,-0.019939526753805486,-0.015276180148085381,0.0024836762762404214,0.040196342484402584,-0.006094339417440438,-0.09398863298095539,-0.010186492351914253,-0.0009562910107135925,-0.03523096602641452,0.002037815985311715,0.037029205694186614,-0.08575190531774263,-0.00877305874804956,-0.06045496664367861,-0.09205234781183533,0.0026724400595592845,-0.00033850599397882634,0.0023140509916590975,0.0024100310532021523,-0.008389280962764412,-0.10489552520898239,-0.012691448445106637,-0.00869832057510891,-0.0056897570999840255,-0.030250559654945438,-0.03095630176377308,-0.004528946675289912,0.0021078940838820093,0.05879614919439859,-0.001787651300541114,-0.004212133176580057,-0.01076934036382919,0.0010607915795001848,-0.005793412315486051,-0.001829052608286867,0.007903696688185968,-0.00021222138394151176,-0.08162729345849846,-0.01512037901851487,-0.019150438590462403,-0.01187334281914632,0.05757232625575194,-0.015077841194279736,0.002528530119245265,-0.006395617247043898,-0.006722798817406512,-0.010106547203718319,-0.011348575627615081,-0.011829425216490426,-0.00361865644488337,-0.006163332775610507,0.07116545593730712,-0.012011301799923775,-0.006141875891340142,-0.0009416654826752624,-0.061966429708353865,-0.010088234989977478,-0.007509830722439349,-0.02916200063735111,-0.014971312634822417,0.055481506657310144,0.0030027385307177853,-0.0014600719997510572,0.07654575599263254,-0.06133335327042488,-0.008351080980914295,0.0005166850994095368,-0.005980766627249519,-0.0030495217302456356,-0.018001788873182822,-0.009371444326909544,0.0020731075217227733,0.03136498384408283,-0.021353322552530404,0.034789775133862874,-0.015815425970004526,-0.012185638526281625,-0.007314865786858092,-0.013105741360085568,0.08880484903477037,-0.015414337611640239,0.09090468464608435,-0.011695618684637643,0.05791343931907536,0.004161255021969111,-0.0016067155912430995,-0.009336985122025883,0.0013122958382825558,-0.06926082324773207,-0.007555617868539102,0.0006580791561274675,-0.002009613755815002,-0.008360830351497211,-0.010831568228063533,-0.0033813307986579767,0.1092338381212706,-0.007421560828916458,-0.014717575522456781,0.0030145495424234036,0.023562918392508802,-0.047578042227311865,-0.0010691024357109655,0.014967795757075594,-0.008872016596768478,0.03251826462171653,-0.005323292923882718,-0.005860552865141157,-0.004612845985717275,0.004332919760412962,-0.002298158097541736,-0.0009763447321321124,-0.0018612050156470382,-0.004464728186894903,-0.09095338268835426,-0.048946155002437264,-0.045934503969824035,-0.09732565804717236,0.008005294987107548,-0.10650564014361653,-0.00959816961167584,0.028876059889601728,-0.05334881126332508,-0.005177265196367672,0.0030414062752730864,0.017964990332005305,0.07257205918320477,0.0020998647054650673,-0.008524180494377646,-0.01676671940148471,-0.0034216850552717774,-0.004990358227621721,0.016786234088277938,-0.0063765867898494975,0.0014840671275053216,-0.01093134579019685,0.00488232922913346,-0.04617727869994852,-0.007566843874116254,0.04238219951647717,-0.02125061836199046,-0.005377803187147211,-0.01256587047265408,-0.06313844072588608,-0.014851638784402947,-0.011454841706388838,0.0007353834465008123,-0.009812489865655213,-0.007103416373996203,-0.011463357046397534,0.002428098871230272,-0.005953990821205705,0.004333193687281507,0.04755371852625464,0.05313716253417971,0.004525384244045419,-0.0014293345264289883,0.08908940340907236,-0.004175470124492177,0.002751223086738997,-0.015084712962807915,-0.01811608079007384,0.00267530297392432,-0.009896579698041025,-0.0051615274017494895,-0.0026452041930141628,-0.03845838064493362,-0.0022302606730031614,0.004619622966305323,-0.005721663315929184,0.038350622871524596,-0.013780027396463349,0.008778101246645225,-0.0017577792502063137,-0.00633167998785968,-0.018761110938323396,-0.011746204964334808,-0.007360494167621397,-0.005697033444258048,-0.006989686249163716,0.04641493186457079,-0.0025728422168547673,0.001620691266493918,-0.00730398004255016,-0.018078592195676563,-0.012638183031193947,-0.011738788245942933,0.004283245997381535,-0.015494331327054198,0.04959875844466723,-0.013436230409709255,0.0034430474944896587,0.040457216566059086,-0.027154369848390238,0.007346680750754941,-0.009386447503415982,-0.001369338351408892,0.0027158709477682038,0.004682737420884708,-0.010733637673046362,-0.005916695253705323,0.037729094751532355,0.012351735897370122,0.03496171725656589,-0.01473535621495275,-0.003972304635579204,-0.013528622091043892,-0.0009869289379627953,0.0671079540898112,0.0030665739863161927,0.05548853555677211,-0.0026879800668737977,0.051792741490506625,-0.010622659369301526,-0.010286888537438164,-0.010161243549425379,-0.011394121762633653,-0.021382131420698156,-0.0011787030413544708,-0.0009249341977051957,-0.002443328286556414,-0.004199868935977466,-0.022473334086325198,-0.00794199511055727,0.05344730027619187,-0.005622019285020315,-0.006174164558206194,-0.0031452113341077837,0.028714734744493733,-0.047126827099133246,-0.006124200569265759,-0.011113256121282925,0.0010520133702363536,0.027420102434712348,0.0008211548153233021,-0.008275387287273136,-0.00037445106427565314,0.029165155177554372,-0.013417831653630053,0.01533071998231815,-0.0016525178933537365,-0.012238692858842644,-0.03317109471894034,-0.010186527289476624,-0.04624468716300645,-0.0735798862510777,-0.0021537771399174933,-0.04880137981201509,0.0026637214590322306,0.018414245200680416,-0.03151331392303559,-0.010921920597828235,-0.0032865456314572286,0.028829971929083313,0.07048807466668887,-0.012551107859276194,-0.0009580638070547245,-0.00890395436443124,-0.009721776103512889,-0.006681895899241975,0.029401199654968468,-0.0052305999541610035,-0.011990585995126424,-0.009254571942301993,-0.006276559889696526,-0.02500639704543985,0.0017273353533875035,0.04868128212822802,-0.022303960229353045,-0.009699110433948818,-0.004011265960788984,-0.053741778215688395,-0.0074865081683773765,-0.00923814400375268,-0.00003897958759373978,-0.0026274897753317573,0.0018729358278013497,0.01617172284849778,-0.009550571631362291,-0.004383619701825483,0.00979283164754478,0.04030895133931496,0.06017095500457528,0.007465847778244372,-0.012206401740857865,0.05436022876610959,-0.0017597658343640546,0.0015134617267693138,0.005217318042599931,0.010313126136115243,-0.010361265357693867,-0.01229797534372675,-0.004677688843945928,0.0040319927531840775,-0.06525339374817872,-0.006734062810109057,-0.0015092675150016927,-0.006703894808543039,0.004160103123012011,0.003478264928583011,0.0016039979502521274,-0.010501042251677589,0.0014577013025233964,-0.0169352530572812,-0.005756605397465369,-0.010491301470088197,-0.01357108004326288,-0.008464736122029765,0.02721089937606176,-0.013247823919001393,0.0035588196777106085,-0.003326939824533488,-0.04102684713532232,-0.009490259003315607,-0.005666144222747937,-0.000591095440353227,0.0017496830582333389,0.02957622981910005,-0.002593363477862706,-0.009562415572487803,0.002335322027837166,-0.008915692132317368,0.005732191421265874,0.0036296569267671975,0.004161318006753328,-0.012341565207817144,0.02731957982104525,-0.00810095514026589,-0.007167413591524654,-0.04927540368332766,-0.03704286547691773,0.040124437498720036,-0.009667103898228542,-0.005043287113801892,0.0014245846739631054,-0.007847696208306405,0.03210872903210205,-0.0024688546749953924,0.01497208312684418,0.0011929580905857128,0.026157017010585915,-0.009793167002421227,-0.003644438408675293,-0.013740592404704186,-0.0052561200824376144,-0.06736016032809271,0.005653460150485936,0.0030044266964805695,0.002873955089862544,-0.014866484056962503,0.001721846387950983,0.000030418298150163283,0.09924375321693031,-0.008125793437072242,-0.014268222815733977,-0.0071439226564017225,-0.03986698712369358,-0.04651998018677796,-0.007519751471053089,0.037108960372808926,-0.00038902831219354405,-0.010232783676682422,-0.048969852089454244,-0.00561421978532761,-0.009874380110249157,0.02571550929847567,-0.005817567309499562,-0.04163544755552943,-0.004866116678298116,-0.01452606650718853,-0.08421453445045066,-0.047860097448187804,-0.0016967160534077362,-0.03920863052330894,-0.00717533524854264,-0.10854013790469068,0.0042507133913235965,0.0025250580146845064,-0.019710017305247882,0.0013817148910441601,-0.0036086648196917617,0.048912176958463824,0.02484267466183397,-0.0009563207879746359,-0.010282711408990635,-0.019502644922127884,-0.013821206760877185,-0.014418169117691856,-0.06207630538227539,-0.00287695790207521,0.029270466933485603,-0.00429920114838661,0.0013378419882801662,-0.021563507698487708,-0.012349260355597386,-0.036232464037543786,0.005632859308507467,0.0011929613479815802,0.016416122150490268,-0.01979136006773932,-0.015085074563038628,-0.011083690203698293,-0.007754373802404951,-0.0066162497587645645,-0.008939815656557307,0.0307639554641319,-0.012149619130235137,-0.003799164691702314,-0.002966875949894564,0.0604026348267923,0.0631346617447671,-0.0068946405715710184,-0.0014947919097981757,0.00907408336867186,-0.009241177077560132,-0.011453906278794081,-0.007408519458326833,-0.004776479132751265,-0.012674592454890552,0.0027025453993284776,0.0016163515502608825,-0.015162034155102339,-0.0016390564351479978,0.00004190086848439729,0.009650335630798344,0.002741503905258644,0.023139686941470054,-0.012371680786697554,0.0016071578222323745,-0.0002778674184455615,-0.0032107873895767278,-0.005002927430464816,0.002653305225305897,-0.00693154380412743,-0.00023949290797043983,-0.012120070237218755,0.030388780998753948,0.0038522959603954823,-0.011180861124621995,-0.0014755071965376254,-0.00898814040572627,-0.0030356017100997067,-0.007614843642325644,-0.004004898714235194,-0.007586425142305498,0.022042844433537493,-0.013638432171372143,-0.013020621119844379,0.015077107759476674,-0.01010503817711272,0.0025087136444049154,-0.0037883345755299956,-0.0008029272050842595,0.00009074607081345684,0.011978931748193021,-0.01378525852386364,0.0007158797622243819,0.00568043581491181,-0.00467899614057631,0.006534568242835279,0.0007385842681520231,-0.0028691887106995933,-0.012613886365520594,0.001916722726773769,0.021714404346549792,-0.014661667051207578,0.030084782194035077,0.0017868771807727367,0.03131237055337883,-0.01055714595010002,0.0033280851425308293,0.0038569487235715757,0.009452712930629848,-0.022003287481292922,0.00553017899841926,-0.00947494279547611,-0.01450518398350623,-0.0032141705658852307,0.007467737967067173,0.0016496938992176414,0.01751484020899544,0.0007477473796383112,-0.014196733582172494,-0.006688421326354359,0.009560598188895111,-0.044531434125299384,-0.014387587942992091,0.008066577526222462,-0.014874092411282801,0.019132249313608872,0.002200000453656267,-0.007002286670220379,-0.01059840599923437,0.009229664941980133,-0.013560927902965677,0.010641212622295042,0.0029023765457172196,-0.01048029838316503,-0.018523436407854234,-0.004516830629004957,0.00046140255348193246,-0.019333959972355146,-0.0016864128704948845,-0.023817080771883686,0.00017801778194643516,0.01704195292464786,-0.014854995943106231,-0.00783953686275785,0.008639625349255234,0.02981277006713641,0.01933350530011529,-0.007196698695242648,-0.007050000404042327,-0.01940033826451754,-0.0018603387152576205,0.004790540738905181,-0.002774293079651604,0.0033908710584119785,-0.0054535607128068115,-0.005522633168960212,-0.00280384702302513,-0.0017966992746332618,0.007075915332104879,0.014185832654641817,-0.007491806845230701,-0.0051086143990022965,-0.0015459822213691086,-0.016137776158130165,-0.004642239208310172,-0.013295331384821488,0.0026998432177930396,-0.007201686216601527,-0.006085144278596989,-0.0007480052830242678,-0.0045925682043416165,-0.012617747038293397,-0.0024507113524634594,0.028157916340332493,0.02978079470488041,-0.007811140379212501,-0.009973086467120291,0.027841102541872033,-0.011714760498455585,-0.011064335274527048,0.04393610179246447,0.02049704414830992,-0.012147651463976014,-0.004921709988530549,0.004960450152309917,-0.0039047280147177397,-0.07627505969797159,-0.009259231598533499,-0.054081780041390554,-0.00441399884663743,0.011692367842494346,-0.0005054318960836495,-0.008451616942929494,-0.00592194936443924,-0.015280129660156651,-0.010056293216692143,0.0022597942857105324,-0.00078347716022155,-0.010191849613160628,-0.003712711065357744,0.07905469431206957,-0.00813653141513693,0.005516390432842737,-0.00818798542926926,-0.041863786138520945,-0.003182183125171361,-0.0014686203360224253,-0.005586603791006545,-0.010622673129003725,0.031317369403969,-0.004466831461003188,0.002126408861615999,0.07236749073803483,-0.06325754034200104,-0.012739230020657607,0.003235753892049226,0.009763464668204552,-0.014702850652252417,0.002126705190604943,-0.009915432598210693,0.0017420401662977048,0.014077770234560427,-0.0036080239493740045,0.040552844342897035,-0.004690591450525604,-0.0010067702887837419,-0.013801141373926714,-0.010751044977403796,0.02976535591942216,-0.010253324682473147,0.07396026932331927,-0.0054193011513484855,0.04828089832730935,-0.005838497174890465,-0.0014585539235000145,-0.011516499255307963,-0.045524986215702196,-0.028927985406756826,-0.0025492776857888246,0.00424900812851049,-0.00863780538756577,0.002433505157342732,0.03747276859070522,-0.00200808069003779,0.09483621289145944,-0.006411727052017744,-0.012692796276146018,-0.004477287034952714,0.06149069138725399,-0.04774941147623278,-0.006162994305642444,0.032502537823590735,-0.010896684119678314,0.05278657159470734,0.025841478206207556,-0.009825423794491963,-0.009443790701803411,-0.02926898957137257,-0.003381315635950226,-0.06703202651645343,-0.015323207795307018,-0.004014702794807815,-0.0005213080425468511,-0.028304719229320863,-0.050205679074625344,-0.04587023182620508,-0.004007655714801727,-0.029021396454222446,-0.012424921801616693,0.025999616707930707,-0.0642159750207253,0.00454607076598847,0.0018733001416383899,-0.0012952347339283419,0.070632714783174,-0.013751697849362077,-0.0050909666952761645,-0.018672739203125236,-0.01393897925018367,0.00005516472239429597,-0.002370188696414279,-0.0025631852547312443,0.023765701814931553,-0.0006228145082214828,-0.006969600264500198,-0.021424693156312465,0.0045965083912564465,0.07141263502734617,-0.03380173801057215,-0.007245119054913927,0.01603498148056226,-0.059189518691140745,-0.009235486034990517,0.0012751861981117622,-0.004168718431318839,-0.005473139511926494,-0.00046704269096590535,0.018880721635749772,0.004012973914709689,0.002638726506158049,0.004294070356188038,0.06783663494645872,0.06051003324879258,-0.003823962749645976,-0.004840508274710123,0.08619456877256476,-0.013073640995540196,-0.00857609179193641,0.021212885814923803,-0.007237901567233182,-0.0034594189828699323,-0.0017501580053013606,0.007215914161357598,-0.00932412278585024,-0.1515845481585958,0.0020204276148731576,-0.06049669780920186,-0.008391181596073256,0.09552457738900423,-0.0075999203234843335,0.006058350536819461,-0.003568119726673203,-0.005234016022123912,-0.014988061803593333,-0.007893778579574774,-0.00982375760439454,-0.004393331303913687,-0.010764330103098664,0.21252751002712078,0.0019015552247802884,-0.007908140159728566,-0.00622366085291836,-0.08099601424849084,0.0052040354532882525,-0.011591694840899463,0.08596009486510997,-0.014087413141168757,0.08440424695924403,-0.0000030110441133029154,-0.011974481012011743,0.21578184193038089,-0.16801744807210464,0.0019461667347228269,-0.0026785826918855134,-0.0020843174494005823,0.009620620256048616,-0.06736093817304425,-0.004209035487894907,-0.011916933901673622,0.25967086818289375,0.20826178513855667,0.0858489329108116,-0.0062250642794806545,-0.010606937434214897,0.011815462390956164,-0.0025260692877897535,0.15366623906500088,-0.006975324332034862,0.2257064661572954,-0.0115332858744475,0.10353629949102189,0.0056235280989520514,-0.004550114320457996,-0.002408043402115611,-0.20674952244147402,0.16654089756942078,0.008628466924115894,-0.005115448821835552,-0.010791062236327427,-0.0007352615303246285,-0.07279658382665904,0.007129449004799921,0.13085047588219556,-0.004783877008185706,0.0007250355479971031,0.00903619163894776,0.2554706683862973,-0.040987133365687184,-0.0009478032465043086,-0.030187884844540904,-0.002996677446323215,0.1573731879322832,0.2374206032252421,-0.011874713649154442,-0.014651981618146438,-0.019170238254398255,-0.00634150734984983,0.021564301175478855,0.0028534612486472064,-0.004963691435278441,0.06752449953790353,-0.029068594032092044,-0.13990070535788712,-0.23673757341556018,0.0020975093831072235,0.025609492742286275,-0.013724671332848803,0.1039415161130403,-0.10791738630910988,0.002254266035642267,-0.009469299262292376,-0.045610384319430985,0.15917072405518742,-0.011998684166558884,-0.014877339075870378,-0.019108762045110708,-0.011240265712659738,0.002646287938284739,0.2322711944153232,-0.011159598746266474,-0.010486382072306758,-0.0028414780958383352,-0.002150684748320505,-0.05220793895432544,-0.008486927899623967,0.30268278497982476,-0.09511110661098154,0.003360548547848015,-0.004169003245384963,-0.12858878549227948,-0.002182105605650246,-0.01349500780649944,0.005547386467387572,-0.011479704900308009,-0.009741505797136953,0.12716569900377128,-0.015748476526473192,-0.013239648337455088,0.000362150905813341,0.0757176914351788,0.1304363307448178,-0.001008766641011042,-0.01222871651421743,0.21803907551917454,-0.005011372138134402,-0.0023272785397425127,0.017680117297652904,0.003943845173398167,0.00006513783094336346,-0.012948341527098627,-0.003283912123566879,-0.009776558715902177,0.006271061307743113,0.0042283414768441085,-0.003041386579658438,-0.0027512922851555804,0.022242669421941964,-0.009736789130209797,0.006240211188779361,-0.005966398502152818,-0.005680088990325479,-0.016578005305721656,-0.001154553193577749,0.0031056746394802536,0.0013971839062626658,-0.002749394369358239,0.02018066479763421,0.0016915056939472426,0.0037712633754138675,-0.006871551818033238,-0.004469082622211692,-0.01445576461521789,-0.01315587408374295,-0.014137523963708364,0.001501769212697207,0.012636152284292193,-0.004368835696820883,-0.013253422013322675,0.003029498766285505,-0.008116676113298861,-0.011901345407599014,-0.005817053397544756,-0.004510300778412166,-0.014534847361551325,0.009170546230869634,-0.015373262701140734,-0.012377418085132805,-0.012332318133126375,-0.010453220574105896,0.014294756329683186,0.0017679960244154833,-0.013795575274643998,-0.007029818051313426,0.0017940557157503773,0.0042970801980416725,-0.013731778328700258,0.02004047524187565,0.002032977534690228,0.016854773436927963,-0.011287255413203379,0.0038216424690640403,-0.012295607901995569,0.017690453916518304,-0.022275777072596255,0.003504092313582494,-0.0037205761891249095,0.0010745597870516408,-0.00911093571105846,0.020395657689343576,-0.0004584878372663992,0.029678367957634826,-0.010682774739948577,-0.004026710476852652,-0.0028559263111385892,0.00022333409387551858,-0.04507463039164104,-0.0037929545794642577,0.005054248037884863,-0.008554328270571206,0.013810394655540736,-0.0021414314540787378,-0.005183763534422762,-0.005697700704463602,-0.01797660804057963,-0.013117736878906598,-0.004000294842415628,-0.009846414991051903,-0.008743596552075877,-0.0005827779198362482,-0.007563963904705808,0.009577399572072074,0.0029131193299829082,-0.009759860216323952,0.00771407119003361,-0.005660384804036096,-0.004434743235581166,-0.010511687638781343,-0.007750198051490474,-0.004814778703272413,-0.0038610415432243647,0.02623000499549173,0.004052181025918526,-0.0005361487779560404,-0.006482952352474254,-0.0012401927030740165,-0.005881764102777429,-0.006891893702676849,0.0003847582813572738,-0.0013839518932993082,-0.00040368108254216145,0.0010947727851843858,-0.014078797849305174,-0.001145129695193704,0.007240271851230518,-0.015478994042327231,-0.009566740028005172,-0.0016956992928106897,-0.008290167946396627,-0.002091841214629614,0.00238999994134876,-0.009608955652910409,-0.0015964004875309765,-0.005315759442898817,-0.004067121039737066,-0.008075393952230187,-0.015494961828217997,0.004071693443107112,0.01584929811001228,0.007859709343908634,0.005533178962612462,-0.004251424138714469,0.014357138064803468,0.002803524424870622,-0.0005529541382517366,0.05175851515533627,0.017973751866077536,-0.014563979305750171,0.004735412232488652,-0.005711563180655245,-0.007846074081524688,-0.03461507991855043,-0.015311126926748962,-0.06930685410798745,-0.015489885065860435,-0.04296261162333597,-0.002541760701749219,0.007253949321906789,-0.014200087808207612,-0.015303518548921037,-0.001522358578867271,-0.007015153089294774,0.0010512940362732836,-0.008580341045132207,-0.0072155231382196195,0.009601012183406355,0.0017029924442875243,-0.0140139057269579,0.00429532220991849,-0.01811972438236252,-0.0008563391485084239,-0.005153309235133983,-0.013069658089505318,-0.004779533224164611,-0.03811347603959718,0.0023000876978163456,0.0014813070995630135,-0.0068954998095195705,-0.04379309344107111,-0.012589886325915657,-0.0026130884767200514,-0.000744505989706028,0.0006088954098368834,0.060150652561889256,-0.006067703981654103,-0.006559095017422697,-0.05266329723790721,0.010834212875653927,-0.02786866699196802,0.00012854953187922569,0.0018534843616935103,-0.00294780051183355,-0.013104645315785712,-0.060769872228778304,-0.010715832268519021,-0.010859503309621932,-0.0015890528593195817,-0.05083844771333824,-0.00783016954820593,-0.015496243052414049,-0.0023818303524984702,-0.009111027800723889,0.04550660667670198,-0.00911792416476543,-0.008661433877657044,-0.0073930824237346884,0.0035595029680295263,0.0808969919124126,-0.0011299147742449413,0.02062059152333132,0.0034793614509347503,-0.014018597242887742,0.009520364824720087,0.03505180015788752,-0.038768658199959664,-0.010853558941884344,0.037081809173558064,-0.009083699405200265,0.0025902232708312663,0.0320181776476154,0.0010186126782278293,-0.011835411010808287,-0.0023029558651695937,-0.015385130686009559,-0.07984078047089543,-0.008868594630273877,-0.008923882575992654,0.02866059721801368,-0.10238348225179413,0.040456931054116456,0.05560840677274644,-0.0046456316384651175,0.022606540791228927,-0.006373692572594299,0.014059603709883297,-0.06489077471340719,0.004779094883881008,-0.0018992225853073986,-0.06368160851638592,-0.027744685296421854,-0.008294953572112622,0.003166588451293776,-0.019991729480126327,-0.0031336709102043883,-0.013135483284905271,-0.05305243144221957,-0.005691551787258986,0.0373047123343667,-0.002782853030410615,-0.009520798287953746,0.045989153077602436,-0.01265464554737377,-0.04179838199871277,-0.027637970102901217,-0.002002781683074036,0.08116083927704576,0.041304040180281165,-0.00916848891463041,-0.004893894392633554,-0.005392955369060424,-0.011720240940028152,0.004340188104965983,0.016165032955343172,-0.0019266058562449658,-0.013304277565632421,0.004860351212556746,0.02779038044817658,0.017470163389373666,-0.005944033590819713,-0.0015244009389183014,0.0011008440569214703,-0.00534586221370208,0.0006567905759910476,0.07318304702829813,0.05525503589102183,-0.006983404406138393,0.003112702812945707,-0.003965124538146969,-0.009278967993753917,-0.022214883300474844,-0.00796182440881016,0.004134589807230948,0.0033911481579892884,0.08450961469559898,-0.013374339297402615,-0.00857902644198742,-0.008369925402603685,-0.003880497703986104,-0.00866750510215666,-0.00037770856129354667,0.004610670960945017,-0.010978172782766244,-0.00439377768554647,0.049421786592984664,-0.0010276188696934602,-0.012753606994867422,0.005727017347662784,-0.03996307376698808,0.009449469864363198,-0.01524684040949399,0.013441840491302327,0.0014933983225221775,0.047525144690086354,-0.00202069120638119,-0.0027746183040758387,0.0905394674267747,-0.036907645459569226,0.001733331327232986,0.011342959925204996,-0.0035701454081271855,-0.012752953131077969,-0.0947877357283142,-0.002442691608243616,-0.013891447718637132,0.14027009679142102,0.08777914334044744,0.010905290376071476,-0.007847988589351299,-0.015071017777672729,0.012252564258128066,-0.0012167319156742892,0.07159594411205812,-0.01554640972817177,0.08920149814286098,0.0021934552298542016,0.08864162259926363,-0.006203446987628251,-0.012043092836600851,0.000923411022070443,0.025748009310027287,0.1481554621838963,-0.0070453147665338325,-0.0015237351634180818,-0.005923363764096697,-0.014655507107539373,0.01893385705038553,-0.001424886407287369,0.05053888579894102,-0.0062451892035025325,0.0018458588240672423,-0.007707466345024283,0.10057268389476524,-0.0451435716135847,-0.0011174078648021758,0.03743910299553239,-0.007244006755984753,0.12790757887329535,0.1522855508529664,0.0017683618815077674,0.0025283812244815537,-0.03417449228433984,0.0012185042377997207,0.012814449939047108,-0.014610183100545356,-0.0050601797432406745,0.09621002649781268,0.030491464525996603,0.038084848848646095,-0.11321733143198784,-0.008107528797102354,0.10409527874123148,-0.014476494828689925,0.08714154373301246,-0.0900521287349059,-0.00961515177157087,0.0006651950556677112,0.0005812795870407844,0.033012143346574,-0.006736818982744555,-0.004241513389349298,-0.020139800802611338,-0.00985593270324999,-0.0024071589734823724,0.08968455683264058,-0.013662243081986275,0.008516266280802758,-0.012038133215332435,0.0021553472901923686,-0.01197526387299503,0.008029812923368185,0.072118506811255,-0.01315019675499159,-0.000026441155213802768,0.0002730758422765002,0.06860444678090497,-0.0036879673643781083,-0.003284027776952369,0.0015358336362009894,-0.00798108115766227,0.00903296081240477,0.008147322288631088,-0.014939865710493676,-0.013867867260430333,0.006851094152859239,0.07918457315134637,0.04388567667540626,-0.004348327440206697,-0.0002399945636296876,0.1147353739418734,-0.0077066628553441536,-0.006219171974437488,0.03481006192989599,0.029637495467282914,0.0014699663222727444,0.0009186183749508026,-0.002679872814119895,-0.007331863185281237,0.017724090485391544,-0.01351912240768887,-0.023419971432538822,-0.015360244755069362,0.12126804984406554,-0.012006688623822839,0.008287788452662618,-0.01126208853439326,-0.009670257384333608,-0.014080999239728342,-0.008656231581366917,-0.007476255841146225,-0.000435641917932501,-0.011938094574893358,0.04145848543382424,0.0022311845961198585,-0.01281310525920357,-0.005658587140848957,-0.1226417889394169,-0.003483112291158029,0.0007339666490788248,-0.09681616220331196,-0.006905880479841904,0.07637622150188783,-0.015289292440753532,-0.0002920004053774974,0.07108268597705288,0.003755993732888233,0.00026763472046774725,-0.00734609505273248,0.007228260864434559,0.0016893905734731013,-0.03572186239864162,-0.012648327820455753,-0.005326526928462575,0.011514388716499797,-0.0935941654389699,0.12148047060404808,-0.011552659811780958,0.0027329809174467274,-0.005004124333947362,-0.009288495000222736,0.01665501845294607,-0.011574396128317685,0.08787827317673252,-0.008229052193232401,0.15895476881023754,-0.005698514337433811,-0.009882960382247829,-0.009206006529774722,0.25615397198630263,-0.06579171124417924,-0.007794112248071883,-0.00613838336578023,-0.0147564892887253,-0.012709386366301601,0.053423602761623945,-0.006948883619454186,0.10273601298510353,0.00022743220175194467,-0.01124762830788151,-0.003495723212209223,0.0025458956255920927,-0.06003557027052637,-0.009358129111293632,0.043601010503915925,0.0014376379306690406,0.06750364253946421,0.022496634106594356,0.0004391550125312811,-0.0028215585411516275,0.009880476698838207,0.0028339424303929885,-0.04404822272878833,0.0020522320931504892,-0.0029661824907948036,-0.008281471385131219,0.12633224232212495,0.07543048854905517,-0.06486822509784339,0.008229004668721306,0.05640818872171461,-0.014760601506381539,0.12115295476496343,-0.07943800691459406,0.0023767570994471156,0.001020457720784147,0.13723004528158406,0.004114616163830509,-0.006063443858338489,-0.009672990778516377,-0.01245789209564781,-0.015112098013145557,0.00393571178199634,-0.03695298686197405,-0.010701320026800335,-0.01860482110177019,-0.00024221765697568257,0.0058334754938089775,-0.019099462861450443,-0.009014439258649264,-0.03912344826663184,-0.020161855954082684,0.002021740329589823,-0.005952592190234637,0.049575071222774714,-0.010230230395722531,-0.016396240257392995,-0.01324181442727481,-0.007843871970780524,-0.0006139680822460492,0.005638580910153008,0.0023998456456995154,-0.007129231877818563,-0.0021861088813947037,0.10230943260585265,0.0458312546524582,-0.00740100815913793,-0.00778034700570302,0.056118340134588204,-0.006251875977171139,0.0009417221618069749,0.07192506265791525,0.052181454864363985,-0.005694320852158143,-0.013966256949864754,-0.004991386387453951,-0.014650733522295732,-0.0286232610911754,-0.0013172685090662329,-0.011031252300324083,-0.010319806884234948,0.06916864976324251,-0.013618993770285097,-0.0007845884319025232,-0.001899409933952335,-0.00902258649415998,-0.0081203009225517,-0.0048022198996355145,-0.007899670730243369,-0.00021508330316623737,-0.000628611696954478,0.09022404852223717,-0.0060058562736266105,-0.009380258195427683,-0.007666552265123799,-0.03510233735083179,-0.0031374773401620596,-0.006565651360915136,0.050211758817013195,-0.012826313936753451,0.022262341813147825,-0.006554754880958801,-0.0013192021830882254,0.07425518928189426,-0.01823760479584864,-0.004647222980300853,-0.012219910635101427,0.004163802171835287,-0.011019741837690654,-0.08294141921027431,-0.01469246489934077,-0.00882207680815828,0.03152940442888275,0.012932285848217784,0.013970846526359416,-0.014029492865648138,-0.000764732910817434,0.0007762680035924057,-0.0135097392146256,-0.013810078128843085,-0.013582807264797186,0.060859686724453105,-0.010544145342002795,0.0667713017773085,-0.0006451554333308463,-0.009665575886703776,-0.007980029107611412,0.10018667053327822,0.015327222049182862,0.006497617832906908,-0.011516735257571183,-0.014075541526382837,0.0007652751785160656,0.07995691800531658,-0.006065740914081166,0.10047122544429496,-0.007102067643765166,0.0026071670487214146,0.001829979073966521,0.06599110771829318,-0.05391244039538187,-0.007687756132697938,0.011361380875584992,-0.00030733995022762175,0.06074545568611663,0.04315908049951914,0.0014298179882966406,-0.006073390992893437,-0.0525626019435935,-0.013462778290598559,0.009567298380487222,-0.00023234260518028072,-0.013563046843463348,0.04243566977859982,0.08127473168981342,-0.0028731375030443197,0.07981301110038319,-0.004774887601224417,0.07198684314813053,-0.013193738240693252,0.03907971576369118,-0.06244800100517216,0.002874234725206478,0.007431252733911505,-0.007147441208641266,0.0004925928677119996,-0.009418902095491516,0.0009633333429631443,-0.015579903391456321,-0.01378753942930984,-0.006424862421309895,-0.007873456677617298,0.003786275656495499,0.0335070049016112,0.0016657775202492324,0.009953076033881465,-0.03095881828850802,-0.007448742695936686,0.04309123018331441,0.029211012287012058,0.0004515172793353636,-0.05099975057903754,-0.04064912501401063,-0.0009511016668082417,-0.01597003159189252,0.003826695621281722,-0.013471021535268845,-0.0007891916131870036,-0.03388332883204605,-0.00012502723314488284,0.00020445720801778893,-0.008669246625808487,-0.012175887325100969,-0.0018660830986318338,0.004656505153956257,-0.014985873842601704,0.03917881581605126,0.002043561785360318,0.00111320472874581,0.05705695654805022,0.04797704152918237,0.0010688179213142735,-0.0014351874034950615,0.005369210231398667,0.0039429488715105295,-0.04447102396198341,-0.005666143519768352,-0.027517321295820612,-0.014132824870711451,0.04988561314857223,-0.001731320425351608,0.001703816143340129,0.0003093277903580192,0.0031302461198448586,-0.0011505585460291309,-0.006881158846017122,-0.005494814905137428,-0.00404370956467932,0.0032541784554350277,0.04934611210566417,-0.015318263319360804,-0.013457820181390632,-0.000683159271899082,-0.04729195145959265,0.0026738498205045678,-0.0031208551532200977,0.004708759615141291,-0.0026568431904792186,0.04522537699564541,0.00005779161041511103,-0.008512527903225741,0.03285540869710197,-0.0001026356111843198,0.002201729637421637,-0.011838513407885071,-0.004497262869024751,-0.012300748150128766,-0.05255331243118914,-0.013544419003210847,0.002251182231547938,-0.058987137926393686,-0.07410553460442268,0.04681383614500099,0.002902979113590973,0.003526687489037997,0.002515859725009172,-0.009204410477340224,-0.03567249010687332,0.0007387611730927668,0.02407539741026135,0.0033801464522940196,0.09119844550739309,-0.0052221301680068595,0.003328641457393373,-0.00045278159980714235,0.15486505680467227,-0.08399597645905196,-0.005860750057028761,-0.003671217428397147,-0.00129073664961266,-0.009964136273982484,0.09517634721626737,-0.007024538146435583,0.06957032552489739,-0.004064625405287793,-0.008269629108428685,-0.0055868513059394685,-0.011195308030227676,-0.05306990573782631,-0.0006592887620207904,0.0293858674072107,0.0008075823696670163,0.05054083714633877,-0.04014851993109422,-0.004137608961198038,-0.013500141034180577,-0.0011667819936617293,0.0035655071447770847,-0.043226593013113386,-0.00009558734615981916,-0.00953698767343173,0.011785103224842497,0.06214980750521814,0.0317324982829649,0.10950762588022162,0.0067911617458908035,0.024580037131303533,0.002974065405195398,0.034965166608444134,-0.06027720675517917,0.0018306272045324125,-0.0034494212969917305,0.0598763140193649,0.01839590682396472,-0.005224057779381615,-0.013250113080105343,-0.005904669449853131,-0.008028656251589173,-0.012255308158874776,-0.0965775533702134,-0.004528314420981354,0.04324570291042354,-0.013987109222236923,-0.003883894348462613,0.01009501281374021,0.0046704906585826565,-0.018789817717224152,0.024882173123027308,-0.011657974695568432,-0.04326837240517958,-0.025762972177510834,-0.008140391960354982,-0.006152044088438479,0.00274455082888028,-0.014869049690889848,0.007072776172644282,0.0014715884468177462,0.000670422944227899,-0.003209981764810145,0.002745144551365819,0.04399475932879263,0.03225743943203513,-0.0030272638960496434,0.00031874787741727407,0.021748424949123924,-0.007309077320972327,0.001617700418689716,0.02115488102553425,0.013346515384145104,-0.004034387945279516,-0.007172975058229323,-0.009489424605367388,-0.0007432777904180077,0.008847351860772063,-0.005617783157180778,0.019665291172158643,0.004278455269390272,-0.005443330913510448,-0.004264835621076519,0.0010193032984652107,-0.011927417040890224,-0.010927300862821758,-0.01548305718200858,0.0026112950030613945,-0.0025236049085046843,-0.0029133323836359,-0.005652850380827489,-0.02893214669300741,-0.0004191053599497717,-0.005319534066023578,-0.008580571406280614,0.013857569355769175,0.0021449095736388703,-0.013928247177811333,-0.005800151679027585,-0.0052022589615239555,0.021932583106171372,-0.012155263436978047,-0.006229503977967919,-0.02202875384983005,0.025835506499897246,-0.010636648072927298,-0.006045780306034247,0.007407042818997383,-0.013501884326063801,0.005274945003506921,-0.004536192872063167,-0.012566130761009138,-0.005437964691392522,-0.019945245471837913,0.030412266049926327,-0.0074353330182019865,0.0005276863198336414,-0.009621473202652879,0.000685907800294828,-0.004033932474267984,0.0038998710722571,-0.002838252717040846,0.0010455444542788646,-0.014260138283783997,0.0005622652118302902,0.0008428792326219899,-0.007197388561455157,0.03163473633876288,-0.029875906335052146,-0.008797368352030207,-0.013998669209384487,-0.010269275672228101,-0.014898779025940055,0.015305191601449674,0.004290922265892929,0.022380556542331703,-0.0001386195083476614,-0.015235647620522671,-0.0016805183263702607,-0.030759852408835844,-0.04638080993133668,0.00015656719705716774,0.033530133703745926,-0.003426094098188018,-0.016299332237936358,-0.02335412820596719,0.003630942092841336,-0.003359633714791516,-0.0031005430660564185,-0.006299304512145386,-0.004458430173221897,0.0032221289180542102,-0.0030272969893370334,-0.009459169063731988,0.0067379679926090385,0.01738096035340371,0.026002142420014543,-0.007271128480415813,0.013408012080660033,-0.0040476524976929855,