{"layers":[{"type":"layer.ConvolutionLayer","data":{"depths":3,"input_shape":{"depths":1,"height":28,"width":28},"output_shape":{"depths":3,"height":24,"width":24},"kernel_shape":{"depths":3,"input_depths":1,"height":5,"width":5},"kenel_size":5,"kernels":[[{"values":[1.0176851237925304,2.0196188028238278,0.29010532154852003,0.639773634890641,2.103134100952754,2.177211250845274,-0.24664276933808296,1.8604343698861623,1.7104453686263887,0.9522961197399032,1.4806370173374725,-0.38721006108863043,0.5306588358260689,0.9522701738694447,2.0939417330006402,-0.7653313984902045,-0.4976754302363926,2.049627450889559,0.8451451953915375,1.4031423754217152,-1.2917878618091918,0.3848483505228501,-0.5069939549777082,0.661726377768109,0.5910423460754755],"rows":5,"cols":5}],[{"values":[-0.7790332333524062,2.0878517508767094,0.4092470616421505,-0.6533045893976653,-0.4597411156938363,-1.062667115338073,1.1805057158753574,-0.9019788132131581,-0.3207301335477029,0.8133051397271942,1.017947544242189,2.507405174842576,2.9104888752145133,0.2306154373783425,1.5190617451998476,0.6433571596365589,0.9432530927388766,2.1898070246927968,0.48601638198484065,-0.3778827867175427,1.8756037710509497,1.9331459846245078,0.5445865765189696,-0.6020684336580019,-0.052191387464484554],"rows":5,"cols":5}],[{"values":[0.7699747580111823,1.052526024568744,-1.435530426253648,0.540619707187931,-0.6524107365259977,1.4518900566804098,-0.2959607297352538,0.8148458205596923,1.4833051003485775,1.0843912304080312,0.8025141958822825,1.217791695576544,0.304607607410348,2.0917566486939583,2.445889227709389,2.0949262580563226,0.9542686538297857,1.4926627966151615,1.8448534722124488,0.7027975375075337,1.096710290078643,0.31988395105197187,0.3428223497702701,0.9138861212937321,0.8779057943028135],"rows":5,"cols":5}]],"biases":[{"values":[0.4982802854548623,-1.2039518121700636,1.0944527490385676,-0.37114679682200974,-0.49676240374059144,0.628417218793894,0.5397152144305528,1.4672639663330969,-0.6366275725489366,0.18053021798801236,-1.8245986927292088,0.7530163801903568,-0.6454704840976428,-0.002974458666042388,-1.364389014382601,0.8111513710806113,0.5677701253104799,0.5782270974397835,0.4308913548846854,-0.2779720161548558,1.2454900434762661,-0.6821166108836354,-1.539483154214274,-0.46394252539121067,0.44931712874114066,0.3545862773894742,-1.7130227007816452,-1.8548509171217882,-1.341512721112523,-0.6450187249015773,0.18786351031297516,-0.5100857963004042,-0.3305822845380088,-0.3458085884840842,0.021538914873826608,0.5213963830268269,-0.3111133178418554,-1.8944624975549296,-0.7540602509489738,0.08929442323576406,1.0337899307945302,1.8554723709574592,1.5162688563617122,-0.04342466463757814,-0.43847231199341125,-0.22200347802110018,-1.2322381310620256,0.845130609855142,1.4077971386834731,-0.10953927620577793,-0.5673472598919928,0.24836218107168742,0.8161642152157882,1.1493209272840466,-1.0706204600735332,1.5795532679976827,1.5456194610047178,1.2313245186235091,-0.5545097699935664,-1.5301039881119964,-0.8322160152248957,-1.2665408973960333,0.5389190227497386,0.3899606850317164,1.0616982851098968,0.19779709532282008,-0.5310553034409161,1.2428427498934698,-0.6565060057645143,0.1695400708150558,0.21876959834646376,-0.66889343706905,1.0116252339440248,0.004001189583649974,-0.9863365536419809,0.8561364025361196,0.834702074353344,-0.5663655423428565,0.05073907431790916,-2.4007860273709842,0.9464986881343219,0.611231801609045,2.1506992799890594,-0.5683307939910764,-0.15313756795336242,-0.7252559023049084,-0.9018726948798559,-0.38757288207647733,0.13287033616876132,0.04848728820196289,-0.021201109750797784,0.5214527653359887,-1.9536424875486307,1.2974382692085515,-0.4525081432269395,0.682022086242595,0.31134643955376456,1.087317083924355,-1.6632963366731401,-0.9504012788391092,-0.35410393978448557,-0.5046496441077888,0.6362963809855007,0.02244058610294742,1.681949303849701,-2.7551680447956524,-0.7055917048664777,-0.766816861594226,-0.780624357947167,-0.24753792226746743,-1.6323053558607516,-0.17794956971007758,0.40202337551578327,-0.11312320540993434,-0.9388598700859121,0.3830800830732408,-1.4120002493478856,-1.5284922021828826,-1.0401157759453783,-0.9861188378474232,-0.20729801549679208,-1.0982224884773044,-1.5666686061959287,-0.6696232969901723,-1.2594366350708794,-0.5038105520921862,-0.2888051596834203,-0.08704864909711264,-0.9885596567038973,-0.7302780690199489,-0.8123375639832611,1.4073959979145916,-0.25263221460173124,-1.3575740171029023,1.822107863222871,0.8572561780921183,-0.16990533957803053,2.4799519068738314,0.6779451075373427,-0.7063639495281899,-0.6301930413403608,1.6573720801115923,-0.2848748713830077,2.104071780837938,-0.9667502170208613,-1.1909510568954687,-0.033480363081955254,-0.6130892686306216,0.6072207789221954,-0.6625648662454019,0.829491410040444,-0.5076473582133443,1.9767826152621617,-0.3876255789939399,-0.2915356129413188,0.7047297205419258,-1.637674969716389,0.019914229280140087,0.10623153853371385,0.7572001988390076,-0.0016495159956371732,-0.9223217000719934,1.0434062242937832,-0.10373524694949403,1.642607885944563,0.5458569031697874,0.6086307677061771,1.4146387756893275,-0.4873387154788096,0.20631318954942668,-1.5646319967598017,0.010276419155486232,-1.2890949875789854,-1.0481924655426433,-0.6359891971384621,0.6238956236269281,0.7681285047322512,-1.3534420588949567,1.5392049240284857,1.1244977110683967,-0.24575931186138422,-1.291809199623673,-0.36960654747726346,1.1814104424530252,1.4679411498967276,0.3800938409106422,0.11478504361376185,0.3399357963351025,0.6876186098586384,-2.0007220528576584,-2.799041413030547,-0.6004639127958497,0.6830572343339423,-0.19374373102372827,1.4429500684403196,-0.29818164153737675,0.011415230792287628,0.19596080123755688,-1.7320346643256441,-0.1015836844591764,0.7724844367232769,0.7992010241927276,0.21693454615600757,0.6953461506724117,-1.4850031418178329,-0.04978288803206681,-0.6645228775069203,0.6971091584335133,0.6966730909630148,-2.0618252848700904,1.4452397320933126,0.8593408643691156,-0.9555323151365489,-0.9311423630642326,0.09458264314182195,2.5239113915340443,0.056254011443988026,0.7003751032098197,-0.6699971650775371,1.1493357276138791,-0.009330819846721173,-0.9198035012792722,-0.3291735737966275,-0.23915420952345712,1.4984322538540902,-2.1267352265855273,-0.7778559403091103,-0.0681530692638668,-0.5857380509775931,-0.13499167138501245,-1.2214583339769227,1.1087764010019172,0.4496364608101374,-1.1255223715850078,-0.5118714713181515,2.015436829292738,0.12388143123589249,-1.3376473848165298,-0.9980510535146903,0.14919558935642202,-0.7019399326931369,0.4104397125940519,0.6891953016098171,-0.3655437195974346,-0.2472294929713326,0.9716348650863269,1.139416007042493,0.6263071512194852,-0.5125927680305672,0.10612411442988429,-1.8779381250841485,0.9020361698982897,-0.4136105647830476,0.9178845156296495,-0.43438351598441505,-0.9181373591625588,-1.3051962372287325,0.9518991138116418,-0.15633286746806666,1.2866773752438478,-0.19554883501140136,0.276939875261196,-1.3991118341378432,0.6627911696414476,1.1883165838713847,-0.5620453376760404,1.5368125305040048,1.8477746251196663,0.5732838286899224,0.6920204818268371,0.5106262348582874,1.158801099157367,-1.3349521022194446,-0.145854031438024,0.9675806589299814,-1.3119276442561278,-0.6680151092560167,-1.4660508100430454,-2.0438664936579105,0.5494214839293818,-0.07861485690157015,-0.6021476291585216,-0.36751893240024064,0.20937164872810277,1.8129650379016748,0.11629487809219653,0.1990871445280299,0.06607649485980684,1.6973336877990135,-0.2906737931684477,-0.4519812999966956,-0.8102749766251164,0.20598131349278712,-0.6159956217913707,0.790197480106399,-1.2138936010838208,0.9253916303853557,-0.5313649589612767,-0.41016822725729235,0.8521695628274436,1.192336515061281,-0.2357250839802276,-0.2102123810520983,0.4848568867937792,1.8862674839549087,-0.6818148409400033,-0.2557797623090614,0.9060568013543696,-0.9626733339023023,-0.5059859674023275,-0.4844714993231733,-0.4680355433405821,-1.440224556242323,-0.07717505703281416,-1.2602972619684016,0.533662617182953,-0.46940031429409085,0.9139893795385651,-0.3475387047870327,-0.5746466521415002,-2.103159241452542,-1.625402718664966,-1.1192652224192754,-1.1843991111592005,-0.91580277442061,1.6505423535525248,-1.3708399974491545,-0.03223869255382731,-1.1880178890458952,-1.7401698245970374,-0.10706751314320419,0.40345236175015575,0.6695685976318186,0.5041726618557469,0.7029052266763733,-0.8121341992780772,0.8917085427624148,1.3753803811549765,1.4082335547394982,0.9439766384749719,1.3362527377376519,-0.8471385779067104,-0.6326165628474295,-0.7268143498168973,0.4454457078636389,-1.9744684009046316,-1.2488001824737247,-0.11487378139991718,-1.6166936648405117,0.3902815511439487,-0.489098821910349,1.4076923314693008,0.8357269723116313,-2.081753753287835,0.3342787512529143,-0.5472306804143743,0.5296154047743037,0.9352475406567022,-1.5080657982304466,0.9948742251728765,0.3243029313714042,2.0703351057707002,-0.5505221480637867,-0.06887558779179925,-0.6612975698825355,-0.05744385083112925,-0.08398607409054686,0.6151619440801671,-0.14350053560658094,0.024381967862021087,1.2176340841558033,0.44074641723193564,-0.39853556420779956,-0.5380445935080171,1.2239262018243298,-0.2052415699281597,0.6467454060591666,0.4930837182034367,-0.6410348575132223,0.35567209729759014,0.49101919166591634,-1.5401463436619562,0.7403540022244314,-0.5269545668620726,0.36045990958208607,-1.1016398316893437,0.8144605760719326,1.2022197176798737,-0.9910481829958698,-0.7815782377584508,1.066813642905122,0.6931892290501618,1.266439634214393,0.6662501497975871,0.2763763304395929,1.3021650826069047,-0.5759546423174452,1.7111954834449723,0.15873656366417377,-0.9318049537360412,-0.8305773221279822,-0.7460819042815093,1.4356151936414583,-0.1494980366741859,-0.1775741423133985,1.4880647052941995,-0.5143596041114991,1.201070507549148,-1.0742372727651772,-2.2165690674160805,0.8125541837313512,-0.46490749514593704,1.172827628242279,-0.4137630537060284,-0.2660513684516488,0.20748551768635448,-1.3892529431537142,-1.2178799215324012,1.7289702935837863,1.4551214335747376,1.873563985444872,-0.2104589816268861,0.7502313941365577,0.05182096189239789,-0.9934137061752769,-1.89123032403637,-0.3229381010522494,0.6488918456283166,-0.09765298998702784,-0.5684656248316975,0.6282281277692456,0.9264557819597519,-1.932695042615645,1.2453519527196122,-0.7041440050601427,-0.5548245014942452,0.02992947150043404,-0.1300275918624546,0.5396861936723836,-1.9920382339075715,-0.42050356743902856,0.09085420665603233,-0.830830501651142,-0.49201907131204037,1.2498817132591447,-0.41306455606113285,-1.2815948532987755,0.12149645358048586,-1.16636667987456,-0.11626711569895826,0.5581787976829979,1.031666378980542,3.1322193522053428,-0.6241158396407481,1.0554068513460722,0.2554559408520765,1.1940174350679797,-0.08317247715755875,-0.656563146862947,0.07942177030070204,-1.2354079317111102,0.5178993387367832,-2.041171150852957,-0.3342857864352985,-1.3452628838507088,-0.6318962791436225,0.3179597838909312,-0.1838503544518374,1.4543794802852423,0.33879292784554327,0.9522712640834815,-2.288452974885396,-0.6363082082212755,-1.4919321108542904,0.3134331208881378,0.23502335503150723,0.3306626770778082,-1.045221684659236,0.6492523219240172,0.48238382189971757,-0.16414907260857092,-0.896086572764833,-0.4571421799766707,-1.1026099129370992,-0.6939091756548881,-2.294479943561864,0.6424108070433371,-0.03930534508278227,-0.9115840798263101,-0.7849589447759755,1.3924265964593086,0.35534391599616827,1.5355001550721659,-1.7405032975351329,-0.3500346721483664,2.2713567187971635,-1.018409764282957,0.5227692198185944,-2.2359913747534708,0.5556404062718123,-0.31656919936884187,0.9250197187374738,-0.05827206025968423,0.8928066273874332,-0.3889636010559945,1.0195318614559095,-0.3402113714870607,0.7462750817064695,-0.26450848268695637,0.6212827893749804,0.4533091530518421,-1.1130050061671604,-0.35065008966909733,0.8179526701019604,-0.49923465222130037,0.41691921522466313,-0.5724988709330737,-1.5225036744833653,-0.7301757283933173,-0.6101616498903075,0.11122625709314016,1.6267969958522963,-0.5959669807866824,1.2389068372066356,-0.5929736954866451,0.001921030612112573,3.4472668642955258,-0.1693041520127862,0.29200376866682476,-0.198129156689264,0.2498151273330281,-0.6829803322073857,-0.7933133512597247,0.8732691489865567,0.7388776612354236,0.5010918818439365,-0.3717393516630372,-0.1098541242690052,-0.760635759727144,-2.040494632761712,-1.3642957469565475,1.4189215375556454,0.7033054221657873,-0.47602595740691,1.072584776708967,0.6135458051462443,1.1421190554293765,-0.730606209478008,0.5201932896940478,0.1808375032685987,-1.2437113382010434,0.5300065220630118,0.4063502968044661,-1.2047101104769493,-0.45601350962221066,0.613927255032884,0.3433770754810933,-0.057391109021449616,0.6512541250151422,-0.6444556958225592,-0.9176269589330617,-0.10517505276566541,-0.5211509172451727,1.0756382236123851,-0.9721854774804914,-1.1781872865323229,0.4935355779342614,1.119526763300433,-1.6368237763709033,-0.9551252733740512,-1.2322660144394817,-0.4805171255102607,-0.09460813269812665,1.4310094188426508,0.6325342125927804,-0.10397002341942918],"rows":24,"cols":24},{"values":[0.2624298591787146,2.031071921280965,1.4246319767865017,0.8631610768361104,0.8588121885888772,-0.08121426324376962,0.3826638537335563,-0.12405527088008014,-0.8152871652240592,0.5941832037985194,-0.43555278557853505,-0.17642790224778768,-0.14085842948690513,1.0185591815766446,1.132154724786577,-0.2651660721830875,-0.30159224914171,0.4930053038299539,-0.8559910849457066,0.6550427313417179,-1.7205363930383584,-0.6339972947851755,-0.8799908190534391,1.615103236155459,-0.5854380014161713,-0.9356291771435459,0.2230601185130787,-1.4340307091340805,-0.39850422770113075,0.13193096457869224,-0.6474016105718173,0.2697153696713519,0.027836354943464064,0.34089976716263704,-1.1706171533144811,-0.10065814844753511,-0.5363767434044779,0.6725602680867099,1.564564552123893,-0.9974110908854608,-0.8485869037343856,0.8207094428374316,0.9151369428406997,-0.23723241444988705,-1.8596620591752513,1.4866442346199495,1.2332123543096078,-0.1915810825319503,0.7226230161229831,0.9988030678975267,0.3643475367977028,1.773063315722542,-0.6498962713982825,0.5353143116859639,0.08516346546862837,0.7576765999916356,0.6398834883923915,0.24959885659378162,1.0446930999313917,0.2595905056485354,-1.2745695208088228,0.029198112237351147,-0.6329930726024295,-0.4362571686554058,-0.8706653510280238,0.12097670314715332,0.895265803823861,-2.3533704036677334,0.5085536164674251,-0.8546022747990796,0.2655927103073244,0.41951648348755155,0.6299944231024429,0.6419820825517383,-0.8972323125845607,-1.1193519432592784,0.04172683683548095,-0.8435882359034245,0.22712123051987484,0.5324663403222871,-1.702108396134426,-0.04759885825342895,-1.1950670292409218,0.20800442124822424,0.20383817722880956,0.32581439643280075,-0.30217989488221153,0.26651179626550436,-0.5153003255016909,0.2938533276522961,-1.3066883213971665,-0.7704838069623121,-0.5102906461572794,1.4127197122121105,0.3649547098851745,-2.1597628835628995,-0.32293693238684623,-0.7382743461457874,0.35483759778032975,0.8377159938018087,-2.007676867993709,1.6087045962529327,-0.5550407351567445,-0.3376775575500545,1.086314939412468,1.5135948939481627,-1.0425788915111613,-0.13433615021910786,-1.7688584345689928,-0.5882774789922661,1.2389175289501488,0.825366930129573,0.3533255220119627,-1.013063945733234,0.8283704873639705,0.47792329772726894,0.059499232306091734,0.15092707851649118,0.12411452505324917,-1.716858187933783,2.4255893528266004,-0.796415933953614,-0.5693873165177248,1.0554348786070333,-0.30205878774531086,-0.5234737286730671,0.13552325156114706,1.429470389003964,-0.6256831960667242,0.8979827929140104,0.22086717959412128,0.9625036646312691,-0.2289494887316052,1.704553878704604,-0.002390955125856432,-0.6793381367238673,-0.6182416788806009,1.5306360499104843,1.2386832283046068,0.7298861844534839,1.0512754029546627,-0.1369787163471041,0.9219793811884797,-0.7436867268692104,-0.4442885689663397,-1.018096401316245,0.570366845831781,-0.6391038016174089,0.1069504141183809,-1.0720683274914564,0.1761169032382289,1.5668564315462197,0.33592808075515324,0.42210902702299274,-2.8508610968027117,-0.4300112086740522,0.3926399289284561,-0.9860540954307008,1.2557528711404926,-1.0178846920000426,-0.42504024397750745,-0.5690022682196654,-1.1911752382199197,2.724348528297733,0.1837665329167143,0.5910725582113127,-0.22697994547281114,0.8062061601837662,-0.33865440479512826,-0.88993582890445,0.18636544188634066,-1.8998634700957429,-1.471755523383985,-2.021482134796938,1.6759228675110878,-0.7969708085248598,-0.8243749724098113,-1.3737496038772077,0.29589747609613287,-1.8533717126966944,-1.1991441676677135,-0.003923069625488144,-0.6071606797090803,-1.1737441172337781,-0.7993822425512789,0.758492690123285,-0.23326490862878344,0.7298479201329275,-1.0811090513665713,0.4307349949582557,0.9864962135427585,0.9128296381823633,0.7830235883183342,1.188740721731029,0.48898625470472135,-0.44871619770811316,0.3853097932604804,2.857289113988045,0.7206538433286341,0.2306841982746346,0.8261562425234075,0.5246941800799869,1.1543822295162824,0.47685389358173375,-0.379049078164687,-0.04203411438569888,0.45908384786713907,0.03926126425002446,-0.09311656651279789,0.8124636779793294,-0.20393589279928656,-0.3936054438651642,0.14495127032727034,-1.3497659457557065,-0.261178922349621,0.3742933555711467,1.0872314532706724,-0.6326629283691435,-1.9033885403708595,-0.5540595165805088,-0.2504535981810417,-0.2319925839833783,-0.5858941491336893,-0.454960932788748,-0.23851451281127467,-0.36974041626329796,-1.3262761185145924,-1.7393251502046934,0.5994491965672777,1.0976572090712793,0.10319636481607825,0.5061432449859938,0.5430542455727356,0.33908423111889063,0.883919076099078,-0.31715890715796186,0.7462894040582051,-0.24853964288692781,-0.9426388527915973,-0.4068833747562678,1.3300039702609066,-2.0192850156583138,-1.0275218717213046,0.6713714223176256,2.066164501148277,-1.1658139573900106,0.5918234459978323,-0.8279143915270109,1.8980450720305317,-0.31021169786634256,2.2791320373634107,-1.4140509855870294,-0.5494934990231257,-1.5337423801136287,0.45874173026394716,-1.0362447535435266,0.9174820241127307,0.36778321219655147,1.2108009084250437,0.20683935458747962,-1.1666530328878006,0.45608158449407876,-0.15440655203964151,-0.6304742217238736,0.683588133377274,0.6927688744897033,0.7093480937585779,-0.06671530664927454,-1.506967310749048,-0.31177195923326956,-0.5416289380179132,0.12629660290235248,1.5673720902895516,0.8381213029777184,-0.29839147972110736,-0.1947467301901343,0.20777298102579664,-0.4329047772493186,-0.18648679585446432,-0.133779306039715,-0.5450886805005516,-0.21056080455204493,1.3529747418291889,0.22480504259889517,1.6879991234402063,0.48877555087259555,-0.2978903092713196,0.04857826094874322,-0.8479983932023787,0.5751263483158334,0.6071615874475532,-1.336359414060464,-1.4727224483582444,0.3901328349086553,-2.6296145849932877,0.15875835141499423,0.9915052462785942,0.4558083358461575,1.4722575302056187,0.9510303416720699,-0.6759605501992175,-1.6942358346054383,0.9129899263177081,-0.8169656010201922,0.07743512782831889,0.5554032819305397,-1.579867050154426,0.4640961980236249,-0.3859674806962806,0.9121003346404776,-0.2849096281637163,-1.647772970109049,0.8935179598146403,-0.8715419144023369,-0.12701176919224785,1.0297176217613924,0.07337931610816043,0.4635172730567222,-0.818149731460238,-1.1365235869245003,0.9769003521750711,-1.3180053324730732,-0.1150962273171969,1.761723235498479,-1.2313159170588184,0.3340529752437813,0.2962513734930549,1.722327065159921,-0.20338570382968754,1.366184139586928,1.0986944938783614,0.7153613261541844,-0.12164790720379749,0.5620209567957704,0.3100787736189715,-2.583809669844616,0.15623214222997395,-0.26825432833134377,-0.532208754893232,1.3580805754817478,-1.3586209212503841,0.7379786961268076,-0.21046516198908954,0.21836973653320055,1.1996988931761174,0.9990515452054224,-1.6169922303542295,-0.26711852485816207,-0.10131796205030914,0.07925814251920932,-0.6827881839168445,0.05921667744919452,-1.006222464341416,0.6045843906413869,0.5369120006480932,1.3434488760544574,0.10417781103580641,0.4512624850893216,-0.7780786590738372,0.03338296310389072,-0.5039181274897668,-0.9899402108363795,-0.07744674454975249,0.6376846112815366,-0.45759529821913714,1.3694553889512313,-0.09858506870441534,1.1421627592511356,0.13453823272084148,0.12082482910148125,0.386448582911726,0.6644962773763592,0.5016262743130346,0.896464824804994,-1.4040205470924738,0.08594007865268488,1.1752844259813493,-0.9682779577455682,0.5849980722163658,-0.7405393046372661,1.4484390278100765,1.1372048939244186,0.9327535294088586,0.526898470711449,-0.7058801467740122,-0.6276746769158777,0.6473483154921503,0.8781442159218246,0.7162946339585212,0.6921678381958296,1.236811178033737,-1.7895065518793627,-0.9916484947797426,-0.32854735562816473,-0.09849898744918288,0.020460560008574862,0.30799379908087826,0.017634651840028496,1.8483492749122692,1.045426932846916,0.2566657839830485,-0.4255034070123452,0.19395096271856624,-0.7728083443001325,1.524217862512432,-0.48621042035085255,1.1126977278728323,-0.23636776012534283,-0.8576357737755042,0.5823269399492915,1.0444462848802025,-0.2281711078333477,1.2005019391896703,0.062094650146559974,0.3567321972942431,-0.5072673426352603,-1.344156951132896,1.210292942313723,0.35120647476802286,-0.6142194541450317,0.9009982426768564,0.49626430556360934,0.06688726956916607,1.6401051037343974,1.294739917479231,-0.15091263605623698,0.5407414439511633,-1.1878685109230016,0.09612266200209514,-2.3401628924604307,-1.5302338297346614,0.529976401516877,-0.014967914938552278,-0.01933590933990016,1.7792865467100556,1.208679384125362,0.3293859686386687,-1.1353094875005783,0.439717563883288,0.867454281015554,-1.7497475006366643,-0.2329162372108287,-0.2924617548140642,-0.9665086175819909,1.821594134312507,-0.37021278196945456,-0.4833268587566719,-0.593251684798088,-0.4537739018866001,-0.539772731849006,-1.0318709368565633,0.07977332123383497,0.7511097980998993,-1.5983790943400407,0.36263710536507604,0.9020248157280429,0.24505013609920404,-1.0229516125401539,0.15421423293309372,-0.07878884334584159,-0.9022749524634499,-1.878414714967458,0.43408878900121906,-0.45452430554335377,-1.6856837990593332,-0.5339934652443136,-0.4566343311713292,0.20726792517037418,-0.3777074874636203,-0.715640155465098,0.6170842906239863,-1.7398120098270973,0.8646666592428517,0.759079884766356,-0.918718104693179,-0.7387261657285364,-1.0456606856389024,-1.4806664387897082,-0.4598175394759249,0.0045842187202452785,1.7213580906002754,-2.24973061482274,3.106744981212728,0.3673593426260266,0.6823646162212734,-0.3801310065754336,0.5399869758464481,-0.8387496307319661,0.7524823733680237,0.5620473925151183,-1.2742872152678104,-1.8664570786980867,1.2030745916563035,-0.9984681773671376,0.7985147359193279,-1.6833592755503064,0.36175973551417984,-1.3981395138488515,2.0886829053462965,-0.7471438845542795,-0.1704459659058274,-1.5448301503154607,0.09516537318520715,-0.45021340493454376,0.9527173657708643,-0.8630082993942859,-1.355253897864145,0.644675570132392,0.2654624408104787,0.7004969491016695,0.97418190070565,-0.05094607169744381,-0.8959966261640826,-0.5988729550146881,-0.7502581026411936,-0.16429440434946446,1.2989703030984026,0.34797302757200843,0.39534557008998483,-0.7645357490264487,1.066623082539924,0.14412561543835922,-0.8477644517123153,-0.49602836686180485,2.5873504510994056,-0.9094494514356034,-0.8011667148622927,-0.0766867292083067,0.49884225649300706,-1.2212704310676508,0.985229075903789,-0.6742950258654038,0.535497048193441,0.9177347800967299,-0.415804725190171,-0.798555733586669,0.2001773986308335,0.7639897832319331,0.08513497851567053,-0.29520887647518257,0.04986883091719435,0.6030251389841543,-0.37428751802931615,-1.2929139360108994,-0.09685298252310841,-1.0556701746961155,-0.34635631556450175,-1.0417787467802786,1.007636432502342,1.8028173169889379,-0.04560269979055709,-1.0015814660268112,0.5523477096572547,-1.1514686744867264,0.3414034545111022,0.00137443068982257,-0.69952431391058,0.2928962554210843,0.44602595988201654,0.8783999027895985,0.2855718615619617,1.0024940634061297,1.4268374578349379,0.8722998302720109,0.49119147150510944,-2.6820698498790096,-0.4838253193463935,1.240451865452989,-0.5584200642922521,-0.4113635962210954,1.8683857880301762,2.6241958216232604,-0.4751919631030822,-1.6799092378800604,0.12234798308602035,-0.4505718795734119],"rows":24,"cols":24},{"values":[-0.8883570772223496,-1.2105391675080512,-1.0693928310125198,-1.3970155909979356,0.5127276916271923,-1.011943468819901,-1.4338910100038325,0.06921056593530538,-0.357872154303427,0.7691643429220936,0.08000900726425093,-1.7135986593919217,0.43457107226830977,-0.040155579075142785,0.25381714701888297,0.484007551097208,0.3869458841226401,1.2540123162459893,2.4937794631060672,0.26764693205792695,-0.17375819493901565,0.4913406467195716,-0.28863285309735,0.11476652179811647,-1.7992140671417451,1.5873563075559898,-0.023487199950716943,1.2049367381542795,-0.9617273840000493,-0.0408441065544306,0.20128441944939093,-0.4889474700644145,-0.05987488351724493,0.08874064221295756,-1.314983822492956,0.9224259356995651,-0.510181850918697,-0.561555810660029,0.17944036526309295,-0.9271748412830786,1.0783143542134104,-1.227004374177673,0.9160710589122438,0.2643576063126314,0.2964272920781779,-0.9809837504061945,-0.05211601227613404,0.8013162162423693,-2.0802832790023715,0.9186437002627358,1.2615920194511965,-0.6086571222493853,2.5945376093709345,-0.5090534505957978,-0.2522895021952085,-0.6309771208349413,0.945064459459869,1.038721591290902,-0.5875704660553396,0.5528885097338541,0.40956860455299854,-1.6291190451126776,0.4779791903955719,0.34508560571972857,-0.9511354683098135,-1.2323573937488381,0.8710581741913058,0.6331863601034827,0.9827899425995955,0.9158190308639927,2.0158378111085087,-0.34863090973021543,0.13094548520213461,0.7905740023704995,-0.7248503483345003,0.5417717352648436,1.2518190220784706,1.1329214399475815,0.8495282322409714,0.3869880661411629,-0.014743736506452011,-0.40897324437491905,0.6598327766058201,-2.1572143709780467,1.4009907664448427,1.1300253794410933,1.1223030635782152,2.1933040596835824,0.15246337214370517,-0.23977814170930195,-0.3042552668882949,-3.0006187724164364,1.2676021518583391,-0.7585070159657501,0.03657953671681181,0.983609873549603,0.32938615091543066,-0.2802349272467898,-0.969857286863884,-0.33122855485324676,-0.08984018075929369,-0.8776728187859801,0.807922997249052,1.1353774901885545,1.0902629313757395,2.1019947992594665,-0.15766374873578118,1.5280507394326563,-0.3798789110362974,-1.1497774503177363,-0.17585320999871848,-0.2957312849146395,1.8781682579180983,0.2234400890248277,-0.35824715048009664,-0.7351056592708759,-1.0608093279134114,-0.8236619049539456,0.4753133409978131,0.5624416678087858,0.05598525109760415,-0.8428947891895173,0.46872281920373865,-0.6921546548478678,-0.9468828378048928,-0.8262302640560946,1.3915596358439772,-0.6486471394564549,0.26152478833931175,0.4947645800892753,0.06695717335874234,1.4212798220653189,1.1402633677095386,1.892340209295452,0.3037746402329974,-0.15865119501139846,-0.30479762699363405,0.193265873076883,0.6278284072165958,-0.4212969164750856,-1.037898044985297,0.7801513547569117,-0.4232445613003557,0.9653739584472855,-0.012098185070334463,-0.39790141275046526,-1.8887971443986884,-0.10615442353503249,-0.36463423245772913,-0.016014872094794155,0.5642412303446357,-0.8612735440450421,-0.5885029138732941,-0.9987171093288503,0.7832749215034861,1.3212107869102443,-0.7600258282686235,0.5870266325661488,-0.436182557741528,0.5416126546781191,0.4338410776216021,1.1997924996798555,-0.3140475138209051,0.9367226232873118,0.40638551411014234,-0.1814099853543209,-1.0099596498402557,-0.45736998807566676,0.22016752382407545,1.037414088054966,-0.5316450490031398,0.4807543713667899,-1.534206620277891,0.9153698129950666,-0.6760922767621329,-0.6090336385387882,-0.3464308006858617,1.0819929610273484,-0.9527240086884746,-1.0227983341109403,0.7442256378643269,-0.4327731905415149,1.2030008938610415,1.4962842707732318,0.6336324160720339,-2.765802333635131,0.16029361391862343,-0.8764329774455828,0.15770406932428374,-0.32983020592875634,-0.37364262995225006,-0.23990047073624152,0.37127747803289834,-0.5036901909521394,2.8945609373502426,-0.023640437878072705,-0.7649917886738008,0.8197417749677454,1.674213527924562,-0.8923940017413386,0.48818404677029087,-1.036857039503929,-0.4740583279158568,0.8597101089882816,2.0289386068460877,0.14581320648487267,1.0388322903724696,-1.0186057931024333,0.8044629178693291,-0.4906764173402944,0.8427524477703224,0.3118021328526615,1.035011579673297,0.5907490212372948,-0.405196138511949,0.1993426322723947,1.5282486205986308,0.9378376039087912,0.19998619246131732,0.997561195606904,-0.3615355048166731,-1.1149809537497575,-0.048858150963574515,0.9209098632136067,0.3694875995280477,0.6396533802475305,-1.1669525486595596,0.4792222026359787,1.653395663716613,0.8250237162200132,1.0483996398791884,1.8994190012016339,-1.2892664423609415,-1.7803176846317952,0.2774221209554247,0.6134217395550793,-1.9290552399544252,-0.6033838330463621,-0.8512240171051466,-0.4759155750989082,1.7203623491865359,0.717988965815779,-0.5957556841666345,2.883182517807675,-0.09986971413442586,-0.4334298673786496,-1.032961564812308,-0.29919249891864236,-0.3918369235892051,0.024406397878950842,-0.49315693243990955,1.3038708585684362,-0.21923459481418248,0.0586912528517311,0.9472447503244655,1.4349633780547717,-0.49749386851902444,0.12286800982908885,0.1622266463009936,-0.9447387879635102,-0.24082287527503457,1.6290385774935603,-0.5442845401141712,0.0795935327862369,1.2070477573235123,-1.5768133926261116,0.001701454022629399,0.03346039032356092,0.18251018224780194,-1.8211481346392138,-0.5574738385433015,0.06981594235466274,2.661237469876382,-0.34628871107377124,-0.19177290998175753,0.3254178693783547,-0.4619887502958842,-0.9380836179194049,-1.9024930543579488,-0.9314106800074287,-0.7940023279410398,0.06438194969055996,-1.102067738842787,0.6566085937025676,1.6677678581878115,-0.8024215215413731,-1.3243582363362134,0.8308674569420337,-1.6379395969192374,0.5568215685414802,0.45179076359066267,1.5385754316770703,0.1641326223137294,0.5308806778997147,0.1476357955619087,1.0062280426960009,-3.0307312323526565,0.20380419324182414,2.641520595199819,0.4799592159319846,0.7555841572187797,0.30945301924419316,-0.3883592700684844,-0.4888878192274419,1.0563640296856607,0.1272192376460502,-0.8060055492685279,1.9809209344334258,-0.25368258271781985,-1.5658472194767385,1.3985596597822465,-0.3951042486991996,-1.5507052488734423,-0.15228966255562099,1.8119449079831889,0.9459750961112415,-1.2614866957665753,0.9789519379625466,-0.8755514098446239,-0.9001190760424423,-1.2779065204411517,0.6906031282333395,0.6006124884015156,-1.111538724318487,1.5202103146481887,-0.7723928546289405,1.86061048566543,0.28699107800273227,1.4719515980199678,1.3369501996386082,0.605514809466614,-0.26015824620454675,0.7714691063285766,-0.396102568597621,0.31297642793831915,0.7191610932224398,1.3355553780563314,-1.7107752627064108,1.2455342643891123,-0.3915501301157262,0.23004732561829422,-0.8456322746904344,-1.519660812964654,-0.39589993292261183,-1.2178660393964664,0.20933091107180687,-0.5588618498750997,-0.2387586265783998,-0.5362130974870983,-1.6710342330744903,-1.4646834484537823,-0.36802931813348483,0.9496561410997202,1.3806202053712564,-1.279662987872975,1.6691538112800692,0.06483318025020539,1.1761179413839846,-0.38388075022507157,-1.2830288869631536,-0.5350917754800815,0.5702395746512702,0.7574926412613712,-1.1613326525511178,0.17547909292973768,0.0076097393196200855,-0.8949867324335121,-0.45730208695890906,0.982445720505883,0.47072753364456815,0.30242450787682096,0.23286221928017078,0.5677721233848683,1.2690990964722717,0.33299647805222027,1.024499666383405,0.8478061411591095,1.6898924889337474,-0.31843137344179967,0.690159551924548,0.05713926402994059,-1.317858844574849,-1.2825299926062608,0.34271439419370564,-0.7535740153101379,-0.32933020177612216,-1.4319479446488639,1.1923388465780944,-0.3950606282547833,-0.5961236125982322,0.6925210891843994,-0.3225017576338893,-0.5981779148693998,0.5172737628338953,-0.5480971773355967,0.09420986064100785,2.141079766026078,1.3417528080019745,1.0805762076756535,-1.0468241483332141,-1.4211982604106046,-0.33526986174792534,-0.03258395590211364,-1.3943608430885106,0.35491024297181173,0.12652101175340863,0.8698119635472276,-0.8936170559190542,1.806480128474171,0.44890076279892405,-1.4031169418089882,-0.3580554562779019,-0.39759204269292925,-0.2577285748121274,1.3619606182343345,0.27811807713443815,0.43100205941703085,1.1900066616932397,0.634251360178104,1.1123317317193673,0.017446825960248057,0.5379600516726433,0.42963049410977316,-0.27872239585968683,-1.1370155317598614,0.7271629069282455,-0.15841264225504736,1.250575808121553,0.5143230829374141,0.036345559662825815,0.15286279274591488,-1.1111891262773956,1.7545780442157464,-0.14451795934725264,-0.9148109517876499,0.21303670500880567,2.0695566103081116,0.858767814180054,0.14040933873576733,-1.0282292192172957,-0.25688717631872243,-0.681570734750703,0.7599956314900856,-0.6815312855244328,-0.517207510030312,-0.299181245253189,-0.6343342307243849,0.3117624322055014,0.17041807259876815,-0.5968403581692383,-1.5492471172798943,0.801726799373526,-3.1708503581562093,-0.9015882644880999,-0.4137424577440308,0.764916732809065,0.8126373479857621,-0.10713148464317764,-0.6737654406025948,0.3621788593941195,-0.7102077847938447,-1.4253708111369177,0.16881790175314507,0.03495853499512687,-0.036682110945135155,0.020858080759740622,0.9648091166190566,-0.7872685645370615,0.7153106390331262,0.16105519786261396,0.40149012235982084,1.405127219862388,-0.18828279898599323,-0.2921448982462743,-0.7335991579970856,-1.0667112520482596,-1.4272710356251999,-0.6379573559303054,0.22507883258529798,-0.052497168810375985,-0.47659333372240215,-0.235018673573789,1.484092343842709,-0.2695910312283856,-1.851140547077772,-0.062254207694535935,-0.8390923605193903,1.8849912231953858,-1.6204706074004127,-0.7035244254534642,0.1284261631472841,-0.11584907515677526,0.1975206959334015,-1.4938809809219546,-0.3224214605984974,-0.5184843434573205,0.45195586966612034,-1.3023476220610555,-0.5943278242402705,1.4396448150016736,-0.42210517655853064,-0.29567565112616573,-0.8808820824310981,0.4232867368905099,-0.7573318709787284,-0.49645931897310536,-1.0849347370422646,-0.18653582304461147,1.927145085346496,1.565469433919953,0.5611021451642022,-0.5029436683283534,-0.4411235201382326,0.8124276097826699,0.3006989803513498,-0.41168754434829535,0.15617801345156196,-1.016005463105174,-0.3306023056941203,-1.559541626876939,-0.05294602527315312,-2.414053704369059,0.9524126967307162,1.1670582481169272,-0.9869973333582458,0.13246281432565965,0.6331415499937982,1.2547123931142525,-1.5589923956435041,1.6765726302842108,1.1447757748638672,-1.3135595707244159,0.360806772294076,-1.425479703514096,-0.28688171484149694,-0.482126926464695,-0.2851671703215969,0.3073362651740762,1.5807559533185138,-0.8368723501786448,-0.8115178813141446,1.9289574051680154,0.0660263012171173,-0.6288882403287078,-0.48510938159874023,-0.5691943430072085,0.4314048714913947,-0.08493489741541271,0.010792778563120331,0.009437735950744985,-0.9552148517464967,0.36575899392063727,0.7568487932267034,1.1155707028106225,-0.8919030852293391,-0.9415478229511001,-2.8195057936773096,0.5623759600333154,1.0475339158136698,-0.6662262590860183,2.348272599336978,1.5463163350666616,0.3140714289819871,0.47874108867039994,0.368172163131293,0.2543712910337467,0.8026331805402969,0.3500808912597445,-1.5852710461257944,-0.04159909372274484,2.889596118559499,0.5258138930250629,-0.037434128291508995,-1.7866064574408802,-0.19863470105761183,0.6497368464596291],"rows":24,"cols":24}],"type":""}},{"type":"*activation.SigmoidActivation"},{"type":"layer.ConvolutionLayer","data":{"depths":2,"input_shape":{"depths":3,"height":24,"width":24},"output_shape":{"depths":2,"height":22,"width":22},"kernel_shape":{"depths":2,"input_depths":3,"height":3,"width":3},"kenel_size":3,"kernels":[[{"values":[-0.7364702366267832,0.3333297179977443,-0.8522801668129005,-0.26011604124994503,1.2852566473052744,-0.7688181021351834,-0.40392852062498313,-1.8503526623111741,-2.2804630928671354],"rows":3,"cols":3},{"values":[-1.4471898024326644,-0.8509264157545029,-2.271404159428393,-2.112845986395639,-2.826772162345635,-0.341393333512892,1.6013392568501255,0.7257226069782585,0.718865205951697],"rows":3,"cols":3},{"values":[-0.3893156007830596,0.7282308345648243,-0.09189938220244118,-0.1009181355640184,0.711674558333394,1.4981179245380076,0.9176182245013795,0.419412221258495,0.4865572288229576],"rows":3,"cols":3}],[{"values":[-1.8878576288628452,-2.019205154122447,-0.7317511749571235,-1.175447286134287,0.3443700158897816,-0.40598817459273845,-2.3835755907900356,-0.8700390165463803,0.8698915159958858],"rows":3,"cols":3},{"values":[1.0076467753900906,-0.7304646558064949,-2.244510642633545,1.0622217751993095,-2.436134436756349,-0.4814541030157943,-1.4888490879068093,-1.2848145002091496,-0.36697111499502155],"rows":3,"cols":3},{"values":[-1.0571198729010656,0.8576606891980622,-1.5144796365002635,0.8985665779420102,-0.703482582766994,-0.696726566246172,-1.389702370168835,-0.2514530446552796,-0.026767786508759887],"rows":3,"cols":3}]],"biases":[{"values":[0.3417228824773174,-0.2901586877338388,0.5388048493397424,0.43549638759423537,-0.0761324895340542,0.6171847946472012,-2.210363003900429,-1.4546680885541832,-1.400554301027683,-0.8517350247787919,0.4692070160884382,0.6371556382122541,0.011189901050880859,0.5119310563477352,-0.32781249404774654,0.047617922514064735,-0.1965508895179684,-0.7973230802842776,0.2113205324048973,0.19656135927827534,0.2567127775491281,-0.5952461804772049,-0.7440062534902296,0.574248577273073,-0.6514774459562551,0.4199825136367733,0.5267932383316253,-0.9829436795052584,0.8731511376966808,-2.652342018884127,1.380151459064013,-0.48751594825138633,-0.17123335999423273,0.600738786072071,-0.48477919496775895,0.5428105843664507,-1.5514731266612318,-0.3596919144731866,0.5536568290975187,-1.0733900472606028,-1.3028734679475422,-0.3172172635345092,-1.481532701890043,1.9898374311163636,0.4169443961852067,-2.667434327013502,0.0466683620654131,0.8243052187687859,-1.7154892509754143,-0.6528353103214994,0.32569419980215464,-0.6595702854276306,1.574085067318865,-0.14696151672966773,-1.2528618152642241,1.6901448184141303,1.0860246294031681,-1.1684649946609198,-1.05062630193844,-0.8859168619258702,0.8484055806025672,-0.9126486194372706,-1.6339149900519043,-1.6557099879956458,-0.7030567720116604,-0.31514504468153914,-0.22719924190839233,1.8536918231948423,0.9994595782568417,-0.6281693803316549,0.3606727037613349,0.16588596667232125,0.2039718993290133,0.43352420772733796,0.2046623133841746,1.6152603056620272,-1.1354694338428697,-0.41682166080300265,-2.3125335152980098,0.2645355813970501,-0.3796987260005596,0.8853688834791038,0.6241576639920295,-0.45058838068565527,-0.6799685764878282,0.2516029896792896,-1.1471502125531452,-0.7011624165674687,-1.445956561574196,-0.9623786558917801,-2.166064796091134,0.33285716505203417,-1.9014805117068279,0.34602293594160866,0.3266445977920889,1.121521836042877,-0.4890630528430253,0.2137092571238551,-0.3705443489399325,-0.28776916254343304,-0.5338356447838041,-0.6241712496261148,-0.8107156533858662,-0.8063727306574581,-0.675708368543594,2.2230700250156428,-0.4018065650789347,1.0218634754199754,-1.5639028248849538,-0.5728438422737767,0.8251118266917954,-1.1197801392003297,1.007678166078895,0.5069966300290734,-2.0203807528070143,0.6474839592372753,2.14102216491684,-0.878611033552431,2.419135488685015,1.36214960679083,0.33733365293213097,-0.9266931186586064,-1.1215534498793345,0.5041131105857529,-1.6855184233249538,-0.8447652179181934,0.6253961923856737,-0.5145642712864109,1.2437449203565676,0.6153319102805201,-3.5043562100565215,-0.30983390754691714,-1.0077831246435438,-0.9545398475443464,-0.7435364166713151,1.3108240456490836,1.3082738686971758,-0.40670248874166565,0.1786467308667232,-1.2469354316612298,0.20686777534048906,-0.01573217747785821,-0.5381953562081844,-0.17392813144548744,-1.223965564729626,1.151558188956732,0.4577794105055127,-1.1838243470443088,-0.27949061986784624,0.2977683477440081,-0.9906131195366864,-1.4268923700985598,0.5176435113522421,0.9149360539999596,0.18381405266843517,-0.05180513910030753,0.5622522198123229,-1.3050401823563913,0.05335011172489925,2.202722858280564,0.8105775663937453,0.03656157999474228,0.07692010046285531,0.29932510852272687,0.801218555618911,-0.03748439574466731,-0.2419851307939798,0.2651597142210857,0.6624248396727767,-1.3101220999277419,-1.1139240427801498,1.0085757170661043,0.39855333070197785,-0.18907751818013713,0.37586659768219866,-1.659496957877576,0.12215703507028712,0.9252280154047502,1.2555981125029911,0.47816668133323187,0.047313541784538525,0.9564734830857946,-1.6958454364346554,0.6556294068419118,-0.6085535345547213,1.9887820307597541,0.2500263651175337,-0.12828456757069212,0.7835243792098897,0.24417686565784066,-0.6506395915592749,0.6917123189635506,-0.48775776873106047,-0.404440934979907,0.1825621904133037,1.4222824145354036,-1.1421606918685518,-0.9676500602382316,0.6113889681484646,-1.4058324880630175,-0.626913595773653,0.8620293445605766,-0.1820384658791221,1.4044833915023216,-0.9237591193993644,0.6877289066910512,-1.5638529688128053,-0.9870718370137546,2.1990623275441883,0.22297912536888556,-0.08111305632971691,-0.9698507899752686,-0.8407302117487745,-0.9146717201762358,0.16709635849568608,0.08550340584739043,0.005648644695339912,0.20278981421202935,0.22276008381659848,-0.5648728980161072,1.7250204006270986,-0.6555643301421837,-0.5052411574688616,-1.6729073016439513,-1.0296911868703347,-1.1107978188905316,-0.6481657058789898,-0.21275057984566006,1.393420497523947,0.7034152284379356,-0.33010442820011165,0.43160561390522445,-0.6077553101660502,0.6928678393831131,-0.5438770465111618,0.7029807558116029,1.198108394729478,-0.2538988356062566,-0.0813764959908469,-0.7222420664397724,-1.919582819010099,0.014766622982798435,0.8036744564050762,-1.064367183906556,-1.2156039033162758,-0.4827678637615827,1.4974382870312364,0.6128136005310938,-0.5782410953988725,-0.9533600040311937,-0.8782171168336146,-2.484828928706821,-0.28722670961757457,-0.8369314057179797,-0.8881213863130867,-0.21290156311901356,0.47365806303436103,0.09231951111592354,-1.163536035732251,-1.0906652178451919,-1.205526649162379,-0.5268248151836561,-1.436061256829169,1.3570837261202626,1.367950229256908,-0.6899073274655593,0.5665334355916609,-0.2153247744790534,-0.660838280340966,-0.8422359734998914,-1.7874875956760947,0.44932807318842805,0.1364861949286033,-1.015081056582288,-0.20989219048578808,-0.45069747108514163,-0.6691842795708939,-0.5919028381377872,0.05732488182829593,0.8762909062559866,0.22923686939814109,0.5766021599133884,0.1554033025345921,0.33274945616597884,-1.6218894493577662,0.8396659719206575,-1.5290146699019003,-0.05895416734692012,0.8598331620800154,-0.3961556327861525,1.2050549480494184,-0.952334680929288,-1.9649652898182048,-0.03732411069043738,-1.2368333294506038,-0.7355879176332707,-0.03462631677361569,1.0464558938019028,-0.4140324105407215,-1.3460224662855118,0.6589794527801244,-0.2687939299894862,0.7247119648800296,0.2370036243087493,-0.0405692630959593,1.523573851018246,0.09571275522409901,0.3979376721990161,-1.021779017276983,0.9651315551733797,1.1136416621586538,-0.758598151057844,-0.12367411595248085,0.2152909238394682,-0.365974760709898,0.08251727142769878,-0.5592161297823837,-0.46880510838349626,0.21076397915793602,0.7423991405325406,0.1824837024532925,-2.247417763440313,-1.0515378100490909,0.8172480006192699,-0.18853714837979604,1.2346842883369957,-0.07590797895310918,-0.532967125920399,-0.17076441789278501,-2.035217812225139,-0.1356626125849213,-2.957246525478255,-1.3610236477490003,0.10965650231781214,0.5200750579844268,-1.5506219818340792,0.9624942214901799,-0.5047409645228547,0.7764900856404169,0.15038975092228807,-0.8942138050198418,-0.5336838201491556,0.19059284307258256,0.07493574990379812,-0.22036004662724845,0.140342335148074,1.0590323163680562,2.6551721538422983,2.4662210244397214,1.194002453273051,-0.4762259049360603,-0.35005544679917017,0.8847494443318985,-1.9187477871654062,-0.33444452605464087,0.3303294120931443,-0.9804990403993933,1.0285967105291833,-0.5262999954594509,-1.1741378226396355,-0.11384679007757653,-1.5866707377665714,1.0303124068190133,-1.0457065013181623,1.1213467920336324,0.5991218635944242,1.22747247047386,0.2702549489001159,-0.01670397105541137,-0.5987788238672472,-0.45442347417328366,0.4934970838873288,-0.22840397284515512,-0.1588660561816408,0.45951151603867885,0.9876102113201259,-0.6251440952075988,-0.2941885112315106,0.481942253310924,-0.07863055519958112,-1.3087686737288473,-1.5240600513535483,-1.2074622001960138,-0.009709916001489419,-1.0182381615310476,-1.8692355089389894,0.21175678990001115,-2.0246590314507156,-0.6977157125981379,0.5345041670714321,-1.1570316612247622,-0.2563708673053732,-0.17052841716862377,0.524068918953336,1.206508655725678,-0.0035970661594124168,-0.3914726307581958,-0.16014845058126492,0.475538429967131,-0.8883866231794415,0.3532115085447827,-1.1641809040535562,0.06646222582223427,-0.5725230047983052,0.8488594723085557,1.9377477060132007,-0.595545713556395,0.03767517202499331,-0.12114469643328352,-0.27186907508133984,-0.5363769648581335,0.4519948064841266,0.21658976271185082,-1.0155198125574871,-0.21115415984670194,-0.20868073132795759,0.5822592735065117,-0.6345652797419206,-0.46622299981264825,1.0372256661044854,0.37791796075996537,-0.18342117855417236,0.046168153604688816,-0.9919122770108271,0.3686470522611644,-0.05553281325889835,-0.2411912758638761,0.2840118947317616,-1.989815533530798,0.8244767634010857,-0.09101418707353473,0.43884919576276993,0.12969779916511318,2.763610458087509,0.016599167312417146,-1.0412954693260954,0.5552678295560414,-0.6180611608229999,-0.6782574911783495,-1.2087510193302318,-0.6971617403261182,1.1825802383009067,1.0406193491132036,-0.5914991018279298,0.17513822984934843,-0.21580182536950523,0.8237153117019297,-0.4370517730408994,1.7839372419947743,-1.3842384545036628,-0.2789087048423954,-2.107915237730937,-0.012677573362485444,-1.2752401775114837,-0.5764836353103384,0.2042642632038181,-0.8026159570894372,0.03300870082372287,-0.14553461621857286,1.2704686919969372,-0.07873392057107659,-0.3735022518468476,0.034432388188564436,0.27934523010924245,0.7477428645410441,-0.32638094333833734,-0.17667931135544598,-0.6116731116723745,0.18140118340235237,-0.005196967349735724,-0.17126658195552197,-1.5764945029762116,-0.06861384805151206,1.3165800732668456,0.7211897453029077,-1.0056819790317855,-0.1634729027477409,0.09949439849842738,1.6248950529083614,-0.5310983490164755,1.7256131020377634,-1.7591932147218126,-0.3824464226839963,0.9988101241389798],"rows":22,"cols":22},{"values":[-0.7167612965010953,2.2202677519576626,-0.460915712659308,0.5369248265909083,-0.6562096538081779,-0.5221190635951414,-0.8103731855182532,-0.42372582671150066,1.9514461054296013,-1.0442348652690725,-0.8807509547965644,0.49560320780311323,0.5406252760502217,-1.3857253143225756,-0.8945414952437315,-0.24286050957975155,-1.317108280178808,0.352877604669733,0.12317191335505011,-0.6858219818763859,0.034623101079416366,-0.25415490989686695,-0.9892070009022194,0.3514352600124695,1.1031123694163738,0.21708674785906137,0.990845132479648,-0.6261753479213717,0.18207121480533459,0.4970477966826999,-0.828950354857469,-0.8155933908486483,0.304234124540018,-1.7303808091793886,-0.11883848078059711,-1.597865298403136,-0.26152884702110923,-0.39363886699747813,1.5428758014665886,-0.8625389885173526,0.8323066920948817,-0.59166497356176,0.7587065729392146,-1.4306588655926646,-0.4147224747806807,0.2641352901020641,-1.0450589808911879,0.4213499443968992,-0.8359483028547108,1.0782345735551295,-0.06777180658386367,0.4300631253831541,0.4621864251072456,-0.5752523213346754,-0.038960070158667835,0.14038569656844954,-0.43106129555782136,0.4172174768362289,1.7554560652132787,-0.04699403051465464,-0.4276252941746468,-0.21257833277760424,1.5296373325488044,1.1080210391498286,1.0316085989150632,-0.17002286391308413,-0.11558540988094275,-0.9685920999937121,-1.2732077041471113,0.7980536230747897,1.0473509024251582,-1.3941110082628114,0.2610021303798228,-0.48352669592415104,0.2821214423424926,2.1462220428274015,0.7140903950876032,-0.6957117984953771,-1.4298153037001404,-2.026342097589066,-0.3047295074817003,-0.45461606398139753,0.2286465944128588,-0.5261395501595758,0.5091170006667155,0.7479301099166789,-0.18439214716911315,0.11212996548571813,1.3067189253515479,-0.6443493571725692,-0.25675366201289285,-0.754749280046059,-0.6372975429385641,-0.09494151421254765,-0.2456803959159914,-0.19775108627732493,-0.6617031724514714,0.040809005681740666,-0.33308120445967115,-1.025352201738013,-0.03625033970215208,-0.6340178602935634,0.16290390399493276,1.1739257465186337,-0.020429936761187033,1.789677080256986,0.7095440529756991,-0.5090406304878067,0.023693439655057737,-0.5000989157046735,2.4175919785706266,-1.2748919059969765,-0.17638395452571712,-1.1127960090742621,0.26755295692502423,-0.8068215015120028,-0.40501681398887657,0.8029901488170519,-0.4421063624659171,0.0022406123110209953,-0.29351125724428534,0.7387133793307991,-1.3899440528173055,0.052974751074639115,0.8012444807827483,-0.036974526016056726,-0.647582166437721,1.2812499784738387,0.06332706702433083,-1.1549874211997346,-0.9591693079196179,-0.6823635821408213,-1.1834884133514616,0.7906815534498208,-0.1931468245544043,0.12068235865062081,1.3081562299485547,0.43311704304329474,-3.0961789134468787,-0.5156574091419013,-0.5311389361227372,0.8004204483965902,-0.012665427777121131,0.4922677749889501,0.33165336407961193,-0.38892159560075557,-1.8311052854814152,0.4242333340115022,-0.46088229231231914,1.2145422190772979,0.3485941205223277,1.391225609371591,1.2461000287532775,0.9048159357097051,-1.1057535850621465,-0.6499504689079848,-0.5670465766055464,-1.061447114797012,0.1514868740825784,-0.4243230234191488,-0.44789255867606437,-0.3386578733285964,-0.3628010134172735,-2.2950097060717596,0.3677029501890559,1.782566789593337,0.3744167648286163,0.2342826434812255,-0.8486861678416128,-0.780192492414197,0.7886860593947166,-0.25899161448806357,-1.6625326837479737,0.956814848104586,-0.7741576293135308,-0.9320360554887984,-0.9893856889112165,-0.23360499735658957,-1.464710487819116,-0.20573226057071103,0.22607156659981353,-0.2430970464031221,0.006348442286240558,1.7033612834589407,-0.6924898170008327,-0.37550314034980703,-0.24866820724845543,-2.1601494572566606,0.6864286289994852,0.9059419072606051,0.23071403494568526,0.07722029076197151,0.45430087383863454,0.06934642338601914,-0.57265045614184,-0.10105908727830817,0.6245895662170972,-2.027582085850887,0.04326182835221666,-0.2692208844894463,-0.6883534442949358,-1.2518003778574345,0.4345306653202129,-0.658098769811184,0.3188495428182422,-0.3775307694755492,-0.3669258451452945,0.34695409022302864,-0.4158516949220316,1.5830061097884367,0.7860173880651574,-0.6868654261282685,-0.4058559743552438,0.6221934100159043,0.991188705050759,-1.0484711936403146,0.06295368176148877,-0.6746144463494333,1.27966271888254,0.8172556537419758,-0.11425615974254981,0.2538946433987415,-0.8860693059311534,-0.885788690118496,-0.9800987208371684,-1.4419333555518052,0.5790376830439538,0.647582480077147,2.0698729453006472,0.6626592333159874,0.3986633164364522,-0.8791337697445368,-0.12384759047985462,1.9762408503899662,-0.22225990536573567,0.025190737032074435,-0.5683140920563645,0.7098312751964853,0.22120911226298606,0.6558379948919829,0.09298351700602046,0.32317978374849093,0.43378804474804494,1.2820529054009155,1.5193178990186489,0.008564386191128233,-0.8068087909543038,-0.027709321301920654,-1.583114284206607,1.5555985241215695,-2.413993625088932,-0.7970892821486799,-0.638132484476581,-0.5778653608103147,-1.378579845605586,-0.5599158981499484,0.20100499545699832,-0.36635663769801713,-1.3495339911343125,1.2171833340113973,-2.17312497994409,0.5447425878711893,-0.911470042592945,1.3649625628512427,-1.587847979938929,1.5506021464005832,0.3630090505257559,-0.6160192222458338,-2.6059819003291556,-0.48173507335906995,-0.5888157802378646,0.9427561865661346,-0.19171564323005308,0.4211987534623143,1.8899454597725815,-0.7717502254898595,-0.40764592316910775,1.0714315868841109,1.134438445851509,0.9863655443642207,0.1040019240750213,-0.8177627721018121,0.6162241573568042,-0.14402219512122932,-0.808239552363387,-0.7086036886418233,-0.6717773571088528,-0.21495384707076556,-1.527429922719138,-0.15140120993318398,-0.1127043192238208,0.12434054953364988,-0.28538165433915097,-0.7402764477400634,0.3196903378664864,-2.405270952946291,-0.5668193710135082,0.11829969216070073,-0.7978405383238775,-0.6068674860414339,-0.6945921121075849,-0.6416355140765299,0.12693105489003212,-0.9252174327821348,1.4907495791235317,-1.004249589040934,1.3212252476268467,-0.304188218647605,0.23175983374443868,0.2910588807852487,-0.340982629171287,0.8451507291552531,2.1309643453882323,-0.2654662875279633,0.038224756166272925,0.895376138487068,1.0254491737224456,-0.15199572605945824,0.3866117942555379,-1.063256988252115,-1.2288448690633484,-0.02623144063017161,0.6153258518792994,-0.9379063111491206,0.17833321203756664,-0.20639995907668476,-0.5527631652895204,-0.6634075309230889,0.5708198471586893,-1.4565292234628,-0.8104640678210221,-1.3275181800290332,-0.823202777258537,-0.6994557353739305,0.4986521474964724,-0.06539426271855121,0.42563708629697444,-0.6514364638315369,0.1431532880415138,0.7749041354677934,0.49107877444509196,0.15022630066370302,-1.103557329092159,0.758669238060474,-1.2827886175808123,-0.7621286821679131,1.2102083403859503,-0.21052543767870935,-1.1579781269024723,-0.8529018967582848,0.31987552783073536,-1.0199399557491433,1.0446305903304092,-0.621784070663469,-0.3683506211311756,0.4474559399110336,0.5250670583240689,0.2979052568362256,0.04054203673415356,-1.4936464968944643,-0.7148304650196955,0.7621640929384901,-1.7122044758633812,-0.21601040395245755,-1.1135590617514446,0.07057171064089912,0.7226385609682704,0.7856297657624827,0.6733874308519764,-0.06087571466872263,-0.3802900893065431,-0.8835298413754455,0.9351088845694532,-1.8827768526033455,-0.9443498771274123,1.9946837396343424,0.13143190284274398,0.08647112615565805,1.5052135946707283,-0.6942732014816206,1.54491112946688,1.4199570688727077,-0.13679911923018875,2.1159194324779502,1.1541458398595863,0.39612422448380175,-2.4813435893213014,-0.10070543271802981,0.34920661031310996,1.0355082534658766,1.1286545848174667,0.4255891000232205,-0.05637696683407077,0.6167849147289164,-0.6974611526576859,1.6257388395140955,0.5485781270359855,0.900290399307305,1.0911101726288985,-1.0930400251908399,-1.3748629939426757,1.363092979693978,-0.754610160515982,-1.1972796199385674,0.20751908636783487,-1.1016203048724802,-0.9640578299671997,1.349849630328039,-1.568880057654284,-0.039063140628311746,0.10292388794738755,-0.9847846193865508,2.54230963425413,-1.1490900260048251,0.6002519902214762,-2.5357489901800854,-0.025408115467914622,-0.653279060936411,0.4345380005917702,2.120776934653791,-1.5928736002230184,0.5329435757830491,-1.0692160439654226,-0.0664896826671548,0.8876454880337576,-1.0308315606642287,-0.5486031354881534,0.5828814395220373,-0.255824636187882,-1.325506455604798,0.5132304228653879,-0.538984630236844,-0.3769268450355963,-0.6457832399973649,1.0486256746755556,-0.551439680303101,-2.229043454335978,-0.2910182009126034,0.02464003502596712,-0.182297402461915,-0.1081575925578465,-0.8279765311229738,1.2048211901974395,0.42613447706206437,-0.6236985539823223,-0.4718971541676994,-0.8807411423316653,-0.5996944841357197,0.4826214155460924,2.537926933855691,0.7146557556882801,-1.2297928473867243,-1.8317395215478218,0.16256486507678747,1.4277268290675593,-0.4089318239331364,0.40996714628451947,0.46538631566673755,0.20590110667468642,2.0222193308330074,-0.07015205047822892,-1.6031365363689198,1.9768593269068602,-1.7326563077023374,-1.469853999873523,-1.6317899923665702,-1.1058541228064254,0.535368668074584,1.205113198857076,-0.7031544643115449,-0.4423690213759113,0.00880616225269674,1.3807878946226189,-1.208842091723042,-0.7128623202866925,0.9506747073142081,-0.40234034142388503,-0.44699221562354663,-0.9251688469017918,-0.15046209255038162,-1.7997727969185704,-1.2246907198071773,-2.21754798986527,1.5444146674697485],"rows":22,"cols":22}],"type":""}},{"type":"*activation.SigmoidActivation"},{"type":"layer.DenseLayer","data":{"weights":{"values":[-0.2944315024933263,-0.24332351165869964,-0.32310643403688366,-0.25324969009412546,-0.20545388979080975,-0.21588385223210488,-0.24363623362227887,-0.3362099801868418,-1.3081210770986071,-0.28910465763136695,-0.45221950928156196,-1.050268275869406,-0.28476207794489017,-0.3277173002934866,-0.2855917706622994,-0.28562280590371164,-0.29419057601451815,-0.3160858982027708,-0.3038965201494012,-0.2593868721506075,-0.23438846825822643,-2.319355968693168,-0.267889612324915,-0.348814740576881,-0.25739458480351984,-0.3800642531264977,-0.2892157707323288,-0.2921623518680221,-1.011004599146048,-1.3814409148371922,-0.2936500685816755,-0.2969116228164465,-0.345101020427632,-0.22619539881475756,-0.3188243188396171,-0.2348787060891501,-0.30754452463120246,-0.3180762145278661,-0.33850434652870376,-0.24741216759437334,-0.2162825559725144,-0.18145319122211925,-2.248887756735835,-0.22196075534519294,-0.1985697793481586,-0.3084085002755293,-0.860223711539235,-0.357606757057138,-0.19973557957089963,-0.2659112344603614,-0.29364012081996316,-1.7131096162723292,-0.9307853445118855,-1.3750285484576739,-0.30098437073223655,-0.29777199639203994,-0.3076619662009832,-0.33393884724836925,-0.3288243902993973,-0.357812181500344,-0.2938730988224458,-0.32917415508145503,-0.26129725491203504,-0.2398264581837122,-0.2882332662386328,-0.33909445465749743,5.969230819562044,-0.2882672055259165,-0.2638104879580801,-1.3895437040902696,-0.27936549631317326,-0.2942526384512874,-0.30177786550472563,-0.23875799971039793,-3.653686706467338,-0.2535248169696524,-0.3470495815105913,-0.24054751291240703,-0.33066582044958664,-0.21200938362703842,-0.29946502858189383,-0.3052203333918807,-0.3113635425402331,-0.3051729202338271,-0.3012201613034722,-0.25454139214557814,-0.32132430112193333,-0.2454740913213854,-0.28961418393691324,-0.31082565669957973,-0.2958195779855058,-1.7443718626816982,-0.30743651554316664,-0.3273231596699652,-0.296887668855984,-0.30580285496154225,-0.31240253382523325,-0.07049121526505774,-2.2100328245443897,-0.3007795357816577,-0.27199476328914873,-2.0059829912311278,-0.5791618906967165,-0.34471154623570144,-0.23365792222252138,-0.34013133145645397,-0.2889755350997322,-0.27063896623414935,-0.2266387307236713,-0.29001967709637133,-0.3368053953099254,-1.1714138832598042,-0.3057028649353428,-0.19637822999862006,-0.3460537209799825,-0.291395694460218,-0.30156370741378663,-0.23301492770600055,-0.3304865985545546,-0.2824346226578407,-0.3205691727911611,0.6638324789528116,-0.2957321478545128,-0.22842246512910502,-0.3476704253165548,-3.84884652294209,-0.35403354077133803,-0.29432540820060543,-0.2919369457654386,-0.25067678199226967,-0.3179195023232075,-0.25696150867978806,-0.20348075211337208,-0.23469424260623886,-0.22247951933451052,-0.34183179681883596,-0.6718356166106297,-0.292601666387394,-0.4504789737026735,-1.7358318779213655,-0.29484652167444375,-0.3298393570955119,-0.2874413418576323,-0.2949321596501099,-0.2949723606945634,-0.32942491238581245,-0.2986707464030149,-0.2740342923359397,-0.24044723378778884,-2.3072972065427266,-0.27850372553307745,-0.3566859206190392,-0.26071087199662774,-0.39541667182240586,-0.29061180482550375,-0.298060307420513,-0.9658119203585648,-1.2931298897905386,-0.28834497511271057,-0.29002531610098875,-0.3400123981012159,-0.2016384213942554,-0.31669834393096713,-0.24647449218811285,-0.31630484215161675,-0.32940567243187824,-0.32308305983210944,-0.24744229585818475,-0.24022251088372945,-0.18293005847471092,-1.900036607655766,-0.22554474770040445,-0.22683705645736457,-0.32097847474848606,-0.637616535226337,-0.3533997206795923,-0.20658106210073354,-0.26191937037924745,-0.3006962374670997,-0.25093751109008966,-0.9334958933463551,-0.7237239102844811,-0.3190910545046532,-0.30660032999375153,-0.303406736641992,-0.33340322863742644,-0.3314640067730315,-0.35193105310264783,-0.289266885552603,-0.3420127524219502,-0.2521323926958027,-0.22770436628415477,-0.29748611745217,-0.3376482224372427,8.171456042283152,-0.30008148803751616,-0.2685539130476833,-2.9718933573652366,-0.2738490691228882,-0.2841361461016863,-0.28953970624093994,-0.25478862101978417,-3.6726038911379484,-0.24744970786033735,-0.343497046281158,-0.3297722821820681,-0.32768136853700314,-0.2307175893863411,-0.3035872622039239,-0.29275957156484655,-0.30667419914562344,-0.2895082190480284,-0.29830938336263496,-0.2662846971209595,-0.3393155692597755,-0.25321013620376154,-0.28188884451367935,-0.31832840814801333,-0.3062643525896981,-1.7324347004121792,-0.2964768899782014,-0.31950359292801456,-0.2886862323469968,-0.30488911691221426,-0.3194833363814972,-0.07941983354799304,-2.6482088790199607,-0.30064539338342716,-0.27219324993011074,-2.0628844571236256,-0.385188328025022,-0.3706255610968866,-0.23304959594566732,-0.2843011218100071,-0.30209480880984607,-0.26085993584634526,-0.22358206006038228,-0.30005383381746964,-0.33087741387208947,-0.42704912226214203,-0.30226884939494864,-0.1988573955742154,-0.3540168610571847,-0.300608769353821,-0.30111478408934617,-0.23058724347036966,-0.32127028536800867,-0.26926234759907747,-0.31602688492807923,0.12285261726595299,-0.2943543392447588,-0.23418862590166292,-0.34536215931983105,-3.832799201416966,-0.6551749486700756,-0.2981120638427646,-0.286671358214269,-0.23851202137986266,-0.3178531168912963,-0.24938034244368845,-0.21976636025692672,-0.22765432644941797,-0.2358672350291961,-0.33609425269513465,-0.42854751630534915,-0.29877698835797845,-0.45720445424000944,-2.0890054483480465,-0.2954005357197921,-0.3408379194280825,-0.29131695193830426,-0.27934525738072713,-0.3023415131388221,-0.321473500309706,-0.3001658523811856,-0.2558083223874971,-0.2460789129059138,-2.3086765699419423,-0.26741636339404784,-0.39376493316550915,-0.27421887293539204,-0.37850406970123407,-0.2861025180788426,-0.2981842663340125,-0.9815368979955574,-1.121828510680669,-0.2856663572206381,-0.2965361487699542,-0.3449830625791019,-0.18362181777460018,-0.3166869985413877,-0.24868210587746317,-0.3077118866237972,-0.3331150985588817,-0.3334943595246342,-0.25790253868598983,-0.23536381729858588,-0.1635034498276124,-1.669244844728823,-0.22003038052726595,-0.2355470778282326,-0.32212539872522317,-0.7918949475908795,-0.36916834834788476,-0.21363874681591674,-0.2574635597631145,-0.28802974033335815,-1.9736064810131875,-0.7200435159344577,-0.8551570583661406,-0.3227826501465469,-0.32241028796394094,-0.31936449895220037,-0.3335898111254774,-0.31226153780931404,-0.3504629788165768,-0.30080198740891306,-0.32751357990239344,-0.24982922356495707,-0.22538944257801366,-0.2953822346276489,-0.35237137478408664,4.014905028366315,-0.2899811825197427,-0.2714179984840218,-1.0954359460074894,-0.2704000551725622,-0.2837521393733305,-0.29527476253323753,-0.23797182516524568,-3.374276866908535,-0.26236059705509096,-0.3398524291969264,-0.3198430777985004,-0.32641188518447906,-0.22351566992720223,-0.28846191027522555,-0.28975439700386874,-0.3143891171895083,-0.2978836827949896,-0.3065512533691436,-0.2486534898089233,-0.32771010123386146,-0.2507355619315348,-0.2846251959506183,-0.31297732649210847,-0.29010004671678175,-1.712194592740837,-0.2965533771765971,-0.3340939479018854,-0.29600537649293684,-0.29055362730642864,-0.3268807565202432,-0.07147378744069752,-2.691209614934467,-0.2953529343885159,-0.2600228849730724,-2.2029006209293436,-0.25038666009969285,-0.36577606616651975,-0.2232008268792865,-0.16636340058844773,-0.2852854819404024,-0.25616193291469613,-0.2144934522037801,-0.2922159530799913,-0.32164267009258507,-0.2831701725035362,-0.3068190540302954,-0.1911008758776712,-0.3353562809239176,-0.29328749717868907,-0.2989769130639427,-0.23348778738354808,-0.3248983784430754,-0.28275550868792976,-0.314738746627504,-1.5580037103364113,-0.29956321961742527,-0.2261963267352481,-0.35536296931218203,-0.42167557492238855,-0.6411123814800708,-0.2874147884133292,-0.2899648992819409,-0.24099531881986433,-0.31913441705707174,-0.25864363700027515,-0.20564947611238613,-0.260984348341266,-0.22298087431311026,-0.33974829941540663,-0.41300954744965296,-0.29713866411082984,-0.46311777666212145,-2.246890328661441,-0.2877091708084387,-0.35528193473682984,-0.2792877724430292,-0.29147805136399246,-0.28662556211407547,-0.3175017973842573,-0.29973787700209537,-0.269751432293122,-0.2512247987723816,-2.021714240487252,-0.2636843129692662,-0.4302599860468704,-0.2690579121449803,-0.3868972073791569,-0.2898951909851639,-0.2961484685662211,-0.9602030736282322,-1.205426519488415,-0.2988774200335576,-0.29504928301452327,-0.3340598969486329,-0.20623337205247405,-0.31567117568007674,-0.237193370931142,-0.3244136634110201,-0.32234448880768035,-0.331502462666437,-0.24293917809063753,-0.22882746008129326,-0.1809664213314621,-1.5546128921069924,-0.2306722538753297,-0.25784823538841456,-0.31525704899860535,-1.2837522039274663,-0.3693195026511236,-0.197073953418906,-0.27679848210784613,-0.3060236041868922,-3.064698321472262,-0.8153151735282139,-0.7734399393906451,-0.33485332282947666,-0.31547924284490797,-0.321877531213191,-0.3328269067791355,-0.3273049886875056,-0.34913170286837764,-0.28283971344720005,-0.34206929357693955,-0.26284840583139657,-0.22916892249118598,-0.30922830353557834,-0.35015901149760287,3.52409041234557,-0.30253726623224375,-0.26247788208955286,-0.6306077033381874,-0.28343844086069087,-0.29025857060579346,-0.3001469805348064,-0.23694390806608484,-2.7249383004993266,-0.2622648134269925,-0.3496861593329133,-0.3036392313197361,-0.3249582037505766,-0.2132944969287312,-0.29492871837877005,-0.30574049823657146,-0.31241384026623337,-0.2946138771184177,-0.29587756379910457,-0.24855865978943623,-0.34432953752841705,-0.2752581795361583,-0.2947552241771838,-0.31077391176039754,-0.30366830273126566,-1.6167670561990037,-0.287740566901065,-0.3314289149649243,-0.2875702862304913,-0.30099038669333306,-0.32707564313949317,-0.059238116205976576,-1.771289803250178,-0.2964228467756856,-0.26525383967284066,-2.2419340980542803,-0.8733850421379373,-0.3745469210328786,-0.22619722556027988,-0.2272439042054072,-0.2990368460622997,-0.25359142746335667,-0.22366980273460418,-0.2870920355640572,-0.33066867377918474,-0.2976940085582182,-0.30027058405630747,-0.18552954683772419,-0.33929891932826656,-0.300966410608666,-0.2891093983906694,-0.23461570796360579,-0.3239500605612145,-0.2863154032791444,-0.3261693037557657,-1.9215371898182283,-0.30453014863483546,-0.21993219061186947,-0.3487945268422376,1.1783508033494936,-0.011073401825227959,-0.29983272371993924,-0.2792169626194753,-0.2381505149717829,-0.33049928264179684,-0.25678177687207,-0.2036998265675463,-0.22364958152549694,-0.22027375965541973,-0.32942682756759983,-0.37133761220906963,-0.29212821734808386,-0.23754398696060236,-2.5205295325763855,-0.29271557383642477,-0.33657784135279967,-0.2852787962057138,-0.28216237572063485,-0.28550283730450277,-0.3250458838496529,-0.2995313222326482,-0.2507575943678689,-0.31834360611325635,-1.6313992201855612,-0.2453638632669224,-0.35569620156800036,-0.2682849270765556,-0.3847281868737218,-0.3050719693891698,-0.2921019979925949,-0.9654623039387871,-0.48967538918871967,-0.28148177842543404,-0.2928428572647947,-0.4356893486206661,-0.18305849587385664,-0.3205609988823853,-0.2488711241841152,-0.31416684753993,-0.341839815625741,-0.3369514625499338,-0.2549058768620474,-0.24676115850358277,-0.15499294678929249,-1.468785829137005,-0.22991729098217814,-0.29931674559990445,-0.3184846526165395,-1.3628480071999027,-0.3494962144059812,-0.20887571703795785,-0.2599644129409776,-0.2978192203942964,-2.986518591925703,-0.8302605236546585,-0.4703239016919267,-0.31134489408692617,-0.3261986653606191,-0.31379161401625477,-0.32021355226779863,-0.3207227584480722,-0.3619397188312808,-0.295852413902617,-0.3315387291221648,-0.24745508293838497,-0.24167116395545274,-0.29631172664827626,-0.34008451403731565,1.5567304082733502,-0.30774627030210916,-0.25729697222288717,-0.7050457912313423,-0.2702536952576958,-0.2806491531716866,-0.30539617133404523,-0.24060585191136008,-2.9956349459426392,-0.2529836619004018,-0.3571497994929536,-0.33282492937134167,-0.3223834901569471,-0.21627915955894186,-0.28897646468308047,-0.2921812390261457,-0.33944545396722026,-0.2957220240855054,-0.2880624894822275,-0.2618640412751668,-0.3228580967824662,-0.23243062399842707,-0.28182457755944373,-0.31747899095784815,-0.3020383550582775,-1.3809285253119372,-0.28976540770333425,-0.3313901851014571,-0.2953714961719451,-0.28581804793830445,-0.17647785118302603,-0.05610988836084571,-1.533573380912021,-0.295465909697512,-0.2679779724838714,-1.6656678077237697,-0.8344959482228163,-0.3508120700785123,-0.22859532091357335,-0.038717481175136036,-0.299527859331101,-0.26686778900987157,-0.20021322791517845,-0.2910083076112548,-0.3376655201557816,-0.27747785492937455,-0.29087936567971096,-0.1620142267297021,-0.34242476279178113,-0.2939073830122649,-0.2900442110675809,-0.33196199987731606,-0.32644190095740544,-0.2793537134637982,-0.3287933239765481,-1.6460917357593945,-0.304247671700474,-0.32111879430831347,-0.34885720389393376,3.671833415041778,-1.092603386214204,-0.3001521096317541,-0.29065243342224156,-0.23817865242602565,-0.23288668007998636,-0.25126835289675764,-0.2071297319991743,-0.2449564104222439,-0.23001062271864514,-0.3322711504112799,-0.8830057382608323,-0.30274541214492057,-0.2187889005775684,-2.287857608148949,-0.29078169278740873,-0.3400779506803412,-0.2926218983549731,-0.28986325199016716,-0.2945969797817824,-0.3186692367914834,-0.30765268893722003,-0.2559320834187861,-0.24068859134746778,-1.6161056953289499,-0.20804046390244962,-0.36297990491292337,-0.2708968112409108,-0.38096607933809584,-0.30334555508024336,-0.3070981557909561,-0.942368518151611,-1.1609917302118749,-0.2828810783635657,-0.3008205255927637,-0.3447544377491014,-0.22011680844079348,-0.313684379001319,-0.24422037738422736,-0.3105615789698351,-0.3201182402515305,-0.3233416644398554,-0.2569582722145543,-0.2226956036453618,-0.16209118416175855,-1.880252727926609,-0.22305303621692837,-0.26611294836342,-0.3129214744590463,-1.366445715711754,-0.35732336865742087,-0.20847637939290573,-0.2579522035878423,-0.2951434837454998,-2.994301525286683,-0.830699142380107,-0.8088247435980676,-0.33317974164876585,-0.31272612932657784,-0.31736149849032264,-0.34654632068447777,-0.31944015202497034,-0.3643667881712634,-0.29503459278379485,-0.33932057270258814,-0.26369196491799374,-0.2221813001375777,-0.3026407327856014,-0.34115524829524846,1.3772128224114577,-0.2923288268925255,-0.25678112294093686,0.09359009660719235,-0.28240992304358264,-0.28221759422911014,-0.31045052241587406,-0.24016934660724767,-2.8063547435274336,-0.25989730918022497,-0.35263571248911457,-0.33030554870704054,-0.3186857297337371,-0.215082810016579,-0.3016032604985459,-0.29437650122077597,-0.40921494792442387,-0.289820602245111,-0.2905001003826348,-0.25986793894332183,-0.33339008186751634,-0.26821693885240117,-0.2844839045718437,-0.31485179717456907,-0.30245826070942267,-1.43323387553737,-0.29368891283142756,-0.31308652676317533,-0.30226847032428783,-0.2899271912090659,-0.3145837950809022,-0.050502182154243354,-1.4293552973488763,-0.29450406326378653,-0.26444373857763087,-1.9025722999556265,-0.8157294943202981,-0.3685909603424075,-0.23455914497525318,-0.14519609511667292,-0.2918785264949556,-0.26884505736969766,-0.23037335622273103,-0.28797818348294973,-0.32800921929396953,-0.6128027259475876,-0.3014290215275055,-0.17861633616678518,-0.3360432907279381,-0.28917628306310494,-0.300760216313266,-0.2299391775255944,-0.3327386789534999,-0.2754671960399896,-0.3282037221073724,-2.2574395427959892,-0.30416887459133607,-0.32481588860236754,-0.35429127788820647,-1.412351837857234,0.6354736905212822,-0.29335352281922883,-0.2637488020296981,-0.2272604283241416,-0.23369038014685384,-0.23664791206159988,-0.1082215162427532,-0.11596344574366957,-0.31278890848799,-0.3467312025874338,-0.3736302157663623,-0.2868563396191135,-0.24522331646465745,-0.9547847827194204,-0.284828404834961,-0.2856462033677157,-0.2766662566643084,-0.2729277038094264,-0.2925064269493138,-0.30983808594660917,-0.3010156108008581,-0.24171722755813088,-0.3324074779058362,-0.8112043836794115,-0.026112227358985645,-0.3756896371584304,-0.2710551778073626,-0.32852925011560646,-0.300027409562809,-0.2965391106316325,-0.5279438580022197,-0.4591446806559707,-0.2776942083931789,-0.2957310672797917,-0.44552860681792483,-0.15557843895326576,-0.29867066115390783,-0.24042713804902166,-0.294829703374961,-0.33428667533710427,-0.32357341665047534,-0.2505069922349036,-0.23776399287981237,-0.05524354214289038,-0.4053032136650379,-0.2381879004457303,-0.37748633308913987,-0.3025698932372472,-0.7141976903083667,-0.33337677867797444,-0.1997326777388797,-0.20441947401611618,-0.2885307494346259,-2.669055515011518,-0.4095212592290051,-0.2848334086682667,-0.2230541997232682,-0.3837626529395647,-0.27040585055677646,-0.23625737301252472,-0.31549778428235103,-0.4461329630204226,-0.28194713304749347,-0.35100505783162617,-0.24619218415391214,-0.24849442846571496,-0.31147886649143736,-0.33768059297465963,2.4369142574258937,-0.28678089289249625,-0.2695595905615312,-3.5214295778340627,-0.2882544185234629,-0.2884501283007625,-0.2928203504193217,-0.2528595771370289,-2.9535761662005404,-0.22772528104473713,-0.35342449330449943,-0.3292014218544521,-0.3060846616717615,-0.22386292930493643,-0.2846954856963889,-0.30004155479261024,-0.39446133935230576,-0.302743693198308,-0.295446159072836,-0.24889228082387535,-0.20636651440624387,-0.11402661125176436,-0.27886438946375164,-0.33371865331743045,-0.28792473340987673,-0.466111998600477,-0.302274314077228,-0.22376559945799065,-0.2887019499518658,-0.28843667359359654,0.019320355727913515,-0.08276419379032024,-0.21522129696904593,-0.2862324371048702,-0.26710375340146164,-1.4749836058559644,-0.8409947436938477,-0.30481801869927266,-0.21951749431177653,0.015539014938304493,-0.28340809486055235,-0.2466849604532208,-0.05682715123269829,-0.31026812598009607,-0.28911611358771133,-0.2552295624759641,-0.2923781093767337,-0.008171758748091089,-0.3421655833056973,-0.29315930891740205,-0.2837053038039849,-0.3242683806459147,-0.320175216194519,-0.2649139622040586,-0.30262717546430506,-0.9162583334847235,-0.29666119300538396,-0.32747582215085325,-0.3448687849746476,2.929498710645792,-0.7460864334983652,-0.28957908133080135,-0.2515977242137878,-0.2457897896741796,-0.22602896602375228,-0.2591036822058907,-0.1217156284440745,-0.10993598138874591,-0.32317889804170086,-0.34816912568653535,-0.3593225715598039,-0.29609133023595025,-0.2391485672728203,-1.645335696509469,-0.27197414195093805,-0.281690252424508,-0.27426051668308604,-0.2920605678417638,-0.2975158086011924,-0.3080554787846615,-0.30326638201879197,-0.23579972477145678,-0.3343353955941088,-0.8565931216913534,-0.09010011279187297,-0.3677189904551461,-0.2655787261963191,-0.33779925050895376,-0.297348046508149,-0.2923742292325842,-0.45942048468781443,-0.5566925301205994,-0.25842014701919686,-0.28920416682054556,-0.36089210641786273,-0.1727527263826843,-0.31539428477369247,-0.24781468853909006,-0.31300264755875934,-0.325719094222675,-0.3232772521142581,-0.23791346395176216,-0.22820517785083533,-0.037149860907923306,-0.48143400447263873,-0.2308649693043077,-0.3618093286336855,-0.3084048773009474,-0.45671484247740685,-0.3319700905103396,-0.21400142337730152,-0.2203702305470974,-0.29052906514546817,-2.623321975129117,-0.39624958325896414,-0.329724897213007,-0.25057112899022355,-0.2933918989846896,-0.2943475523218381,-0.264976994931071,-0.2994597465365837,-0.45063283712177604,-0.29141234278662703,-0.33637267564926776,-0.2463089710210762,-0.24592605239657309,-0.3268692766627696,-0.3528437931892263,4.022221931337657,-0.28895100499858856,-0.25902955066184036,0.5312403884745803,-0.367489825890146,-0.27630243051173287,-0.30081166454297253,-0.24644456542917204,-2.2728412367000366,-0.24005048847242888,-0.3421454761489644,-0.3256449245499351,-0.3199797697805387,-0.21787698799795635,-0.282038586794689,-0.29491100336639126,-0.3958420974752033,-0.2996807428702873,-0.2913385028813868,-0.2601855068370421,-0.22471919497335638,-0.11779187191137995,-0.2930186395208917,-0.33492972799602666,-0.2975833436467669,-0.4019891792924463,-0.2922988786348765,-0.23519518316461138,-0.2878792578724278,-0.2857466997597833,0.03582146194685991,-0.10852926343262505,-0.5775060318718481,-0.2905856833259938,-0.262429684321855,-1.6101598772789931,-0.7953937608569465,-0.3266728642012655,-0.2356356555914376,0.040643316302501446,-0.2728300090388916,-0.2497842719130643,-0.08697179079390635,-0.30066158639102664,-0.2890189223924956,-0.2771827499519222,-0.2949366187936178,-0.007279020323122332,-0.32481141344791226,-0.2928903777080303,-0.2943261236228982,-0.3247091864658661,-0.3273930369587151,-0.2750129975968801,-0.32008853463141407,-1.738678751660351,-0.28451795280374154,-0.32368731810312323,-0.34009195930991143,-2.2285705488555454,-1.356149088050508,-0.29444752418656317,-0.28192625878824623,-0.23532817404400722,-0.22233766985384787,-0.25715504585053267,-0.1677275449636064,-0.213565489231223,-0.2278415578560527,-0.34160288264089367,-0.4229419248352506,-0.30386836324775335,-0.19764721605562438,-1.684239548257636,-0.2946373049879126,-0.3131355469400892,-0.29303034905048736,-0.28598690819607836,-0.29608832010155756,-0.31895816438564156,-0.29484001836510526,-0.24749751884034654,-0.32746621101027384,-0.8834262994751071,-0.10253448338244547,-0.4408291810865334,-0.27774868244720907,-0.36968148553380065,-0.2989785871396932,-0.29374839556341914,-0.9818243141448255,-0.585039090225639,-0.28748405085119594,-0.30114688144173385,-0.4432306550299754,-0.10201131231758435,-0.32750475688791075,-0.24902434812968804,-0.3146952266835434,-0.31719716503371215,-0.32918085446474576,-0.25460286597910303,-0.24025787393583395,-0.08465968381250011,-0.4499943640816187,-0.23355617947553892,-0.340453168332434,-0.3056428139819266,-0.614172064352608,-0.3616934578086024,-0.19902080183600196,-0.25063862635743167,-0.30185759857451067,-2.7107388950611044,-0.38864590853856706,-0.32944030342769803,-0.28013527517029013,-0.30654053910324336,-0.29279054176340674,-0.31118793987704113,-0.30578184055080754,-0.4364820690611537,-0.2795140517106022,-0.3489553606541729,-0.2638080136048409,-0.23612648252031485,-0.25739003827469653,-0.3438853629977893,1.1610290092239526,-0.2946832684893265,-0.25796400966701727,-1.459037285895915,-0.27568218033810954,-0.2812470868183912,-0.30102554820508576,-0.2458378634226224,-2.637356906706314,-0.24824662473518824,-0.3430123325585299,-0.33255731260884325,-0.3281110975808393,-0.20710370974584155,-0.2911300543656448,-0.2966496359751599,-0.406174979827772,-0.2945368050805627,-0.29078077467042446,-0.26402863726292414,-0.2756200937818611,-0.19074806662627594,-0.2947584301657484,-0.3166800156296798,-0.2890022060381386,-0.3699964090409822,-0.28632621305868045,-0.32755907502497167,-0.29516027167620457,-0.29693588623376044,-0.1617744066652343,-0.10667474197167284,-0.6891638053016867,-0.2889381931556808,-0.2663943686871635,-1.6417088260037462,-1.0777862653213022,-0.3459289082448812,-0.23989972057037107,-0.07193117031531418,-0.28511574286197483,-0.2497202094838367,-0.16088499259476363,-0.30082608808079353,-0.2972562322879362,-0.29274564799030656,-0.2914650117470657,-0.10568572946559106,-0.34677526485250415,-0.2813229483013037,-0.2867545365062327,-0.33372854686760567,-0.3324619533852446,-0.2531178972351201,-0.3210425802380872,-0.21279480652336163,-0.2937498722578107,-0.34058318106501767,-0.3497041513208564,-1.7729996869796765,-0.012126337103179648,-0.2965412078465532,-0.28034425829119175,-0.22764418069805328,-0.2341588586866041,-0.2468699107587198,-0.190277419664454,-0.2887635633675623,-0.22069590574333525,-0.3437168861626305,-0.7731538367722842,-0.29530675587535754,-0.18807530124356706,-1.3024667842278006,-0.273184964842731,-0.31494986250108387,-0.28654581500498133,-0.30299780207495125,-0.3009511988602604,-0.3173524432283406,-0.29663883648582073,-0.25415847689526716,-0.3242781086790371,-0.3202742997816356,-0.26890261548971206,-0.437669216931429,-0.2691151225396897,-0.3850699135856417,-0.29518536354475816,-0.2935552218642918,-0.9401544966191822,-0.8453567563321415,-0.2894837800394855,-0.3008343502583067,-0.44297183166402304,-0.11563228953269289,-0.31926790567427055,-0.24091171259974922,-0.3122699370613675,-0.3277680544521799,-0.3225156238478794,-0.24685956725411584,-0.22406386304004433,-0.11945980188809427,-0.5306730488632433,-0.22489402900398345,-0.2934068654076616,-0.3085664554920949,-1.4247330067037174,-0.35341947123252554,-0.2017857601715576,-0.25525096690471705,-0.30130565246005014,-2.5221328707443673,-0.3771982422473618,-0.39097278784441974,-0.29500122970188714,-0.3088898520159843,-0.31004768693831186,-0.3133364806812622,-0.3201832319010341,-0.3604775849202153,-0.2843478375506657,-0.34333862920573804,-0.2596130689601252,-0.2362249764262265,-0.27298472994584483,-0.3449720123260656,1.8884187343038201,-0.29388737076398497,-0.26316835870775435,-4.395341697963273,-0.27013173272360524,-0.2873172655354171,-0.2950468060937632,-0.23496846951628148,-2.794691272620127,-0.24892740472865776,-0.34870458207391686,-0.32123336559876664,-0.32821986191775965,-0.21560786224704562,-0.29585334276196873,-0.30240467438030144,-0.41239134648280806,-0.30011788216985585,-0.2945817198374456,-0.25067564573845386,-0.3063174687227043,-0.21355602235116375,-0.2835484112651571,-0.32778813708228327,-0.3035116011484545,-0.3645909337238876,-0.30429691555654004,-0.22203579903819445,-0.30270700609494433,-0.29665114723262737,-0.11014176315218242,-0.10292925456120898,-0.9250463672344892,-0.2879569792728041,-0.2593517732698917,-1.8454038456750834,-0.8665604887570876,-0.3625390551429752,-0.2370663106317751,0.059620227539144005,-0.28783923817254087,-0.2689770711140127,-0.21667258893484326,-0.30771664673737,-0.30095536778888826,-0.3703818691945997,-0.2944658728452324,-0.12159505407319693,-0.3338621446041932,-0.29744304660757037,-0.29359524166072476,-0.3210463458112528,-0.3328261111239825,-0.26454581061449245,-0.3172555734327734,-1.224473487844545,-0.28329230602800215,-0.3414441049340778,-0.33644612270109064,-0.41192497834086056,-0.9521855753957839,-0.2990803429938361,-0.28947980298397136,-0.2389805299067049,-0.21954985188330986,-0.2596595099520871,-0.22636951461801816,-0.3499983760523786,-0.21953709558802917,-0.3397839325770048,-1.6499668583259717,-0.28881841988561197,-0.18776116539098137,-1.9551941989311081,-0.28978516626707185,-0.3560981090300194,-0.2952741955976098,-0.28640634889250804,-0.2858972605229854,-0.3192511730500051,-0.3054481624169982,-0.25463776879233235,-0.32378017476114046,-0.3047755054851572,-0.2796431404776129,-0.4383809391211861,-0.26163581242391365,-0.38675089073217706,-0.2982536548242977,-0.3053793719299863,-0.9316658574516782,-1.1493843515130184,-0.2987194982907565,-0.28766294918217045,-0.3532114938871816,-0.09200128146063981,-0.31847492509999403,-0.23945262411261958,-0.3220905190747436,-0.3189050705517579,-0.33250387572927614,-0.24750735619268474,-0.22731921754372603,-0.1541222120214479,-1.9961989618301248,-0.23087300663375457,-0.2854751900311082,-0.31730437953383256,-1.6553587257112934,-0.3586291296688492,-0.1899451623235326,-0.27312032184439433,-0.29782778094176776,-2.450091254273818,-0.3852281774204996,-0.6909626713321386,-0.3439785598365592,-0.31715935872593315,-0.3357398950959963,-0.4379265898662437,-0.3279048817300967,-0.36102318445238557,-0.29480865210564183,-0.33824416392688006,-0.2638944176419237,-0.22877656833355126,-0.30239010068570876,-0.33359958537260925,-0.44602926091671036,-0.3051329276433544,-0.25836808936124656,-1.1505716666836068,-0.27386269794605084,-0.27982763043291803,-0.39000303868947744,-0.2368353728977856,-2.6618984919318533,-0.2636974000758439,-0.33763269718047295,-0.32537017502571425,-0.3211589892654524,-0.21437449129441116,-0.28506705543415384,-0.30672282201322715,-0.3872120626837675,-0.291792759126717,-0.29287779971081623,-0.2586310635793134,-0.3524235546695283,-0.2966160910851822,-0.2935819887718595,-0.3197931937384132,-0.3063533296638184,-0.5369018635869988,-0.29297491473839676,-0.23467306181727995,-0.2924648805903273,-0.30048330052095984,-0.32304782987027986,-0.052461806840506976,-0.7746781271660883,-0.2887133039290569,-0.2719552497200938,-2.0419573559418644,-0.8359648973769359,-0.38665707542326505,-0.22673160522472074,-0.33993212754062385,-0.2830444306581659,-0.26591526610221955,-0.1624371371881702,-0.2913562842722627,-0.3450862367346994,-1.2278242612217296,-0.3076265589335457,-0.16265982780503993,-0.34341337093168967,-0.28715080954809963,-0.30143587537732447,-0.3127975741501179,-0.331482994341846,-0.26091182636636107,-0.31288083232262776,-0.5630951048196899,-0.28731139365439,-0.3451458183819135,-0.3428854845579581,-0.3976911267823637,-0.5670351926778823,-0.2878250200287358,-0.28208475274455463,-0.22930764148854413,-0.22558256511090438,-0.25724639091632573,-0.22658760865968067,-0.3449225652877093,-0.22430706999633504,-0.33407859721774746,-1.7792242727159593,-0.2969601298241301,-0.1902011591589472,-1.9415505812577958,-0.27756617978577364,-0.33570090793661383,-0.27215814424511087,-0.2815753531616138,-0.2956071255616827,-0.32156688068762274,-0.2910950646720554,-0.27031420186189353,-0.32679685814389997,-0.3086420039605243,-0.2776431330050693,-0.43541773618478535,-0.2641751480627341,-0.3912620166303084,-0.3071066199261768,-0.3031808614244851,-0.9241356875742273,-1.2441867886619926,-0.288856390244746,-0.3001703467163713,-0.3678953714602269,-0.09999327522621905,-0.3140831224546832,-0.22508986155837576,-0.3050204318261881,-0.3264880285434389,-0.33842867932671356,-0.23974373460232226,-0.22154866962991704,-0.12775799880307118,-1.0599169715897019,-0.32689137063796836,-0.2797971319584462,-0.3121756866331431,-1.6013965713066405,-0.36490789037176186,-0.18448449507194234,-0.2790284129569502,-0.300434969906074,-2.356852527881743,-0.3731449452799194,-0.7403294615045961,-0.3287487636744215,-0.32908597017813224,-0.33422107407482304,-0.43402578007918946,-0.31551510167228725,-0.35130091292830284,-0.2715982929124031,-0.3362548332748376,-0.24923691594955058,-0.2318680267528947,-0.3026169430832864,-0.34500676983265904,0.5474743487236092,-0.28862591007459293,-0.26973638481518786,-3.350353737307889,-0.26774231622608186,-0.2828415657554566,-0.38989519651876337,-0.23699896254257335,-2.7875231846546438,-0.2629166232565562,-0.3446922806311153,-0.3190343133880876,-0.3247622711065786,-0.2107039965351276,-0.2987511725372013,-0.2943701304838361,-0.3998655084623097,-0.30387904278710803,-0.3021745641439906,-0.2515128053342661,-0.33899824940457407,-0.26556624786237965,-0.3031778862206099,-0.3264653083767673,-0.28833680450078186,-0.5956698963408489,-0.29685332522430186,-0.22111458134651868,-0.2888383045832072,-0.29055934075363926,-0.340006083763567,-0.05498131316746321,-0.7306350100462937,-0.30422417548688774,-0.2602518749264573,-2.2724802724747097,-0.9096486366280598,-0.37410598121641375,-0.22774546118487343,-0.3405247061564943,-0.26408982639358214,-0.26004607669252394,-0.1769884030846757,-0.2941336722727936,-0.34247089762810373,-1.5987720448756786,-0.30699197318714183,-0.1638718650708983,-0.3303249125828524,-0.28811290696346237,-0.2949047356577724,-0.3311832555832511,-0.329059579782903,-0.27560529014302587,-0.3099067613638683,-1.1266678406690107,-0.2906613276368014,-0.3312346793537604,-0.3548124002928241,-0.9249543409716,-0.23013083678886914,-0.293830514135762,-0.2854212204530741,-0.2043784048285718,-0.22304561478803842,-0.2582057806368687,-0.21795617496191572,-0.302289714292325,-0.22768326438464953,-0.3377491650026062,-1.2673030989848038,-0.29621826876427915,-0.17581636102279183,-0.9893488113558173,-0.2460585391023546,-0.34588580503710764,-0.24752378855178342,-0.25427659208745157,-0.2896566965365062,-0.29962740371448204,-0.30045517035763925,-0.27079266029474225,-0.2954649479806038,-0.4389909840929969,-0.27214580073114825,-0.37767400434015513,-0.3094405706176974,-0.36653669932294,-0.2887986108215028,-0.29623474398804545,-0.9704322810162136,-0.9420404225842454,-0.27519993427415523,-0.3009125914317177,-0.4486726948301634,-0.021109130454923648,-0.2987255318327388,-0.20566950511357762,-0.38494625092820395,-0.33437160382559084,-0.39680248144769803,-0.22138759818299833,-0.1971599283329482,-0.09374785828654399,-0.18855177700574938,-0.32098291211726654,-0.29106249897081554,-0.27637216785830815,-0.6810713147579279,-0.35367970759208095,-0.19599257299733794,-0.25907003882284185,-0.29133049692177937,-2.587854048315986,-0.3726047934964571,-0.5466908519011211,-0.3028169579037474,-0.31837261470568745,-0.3187627101683654,-0.42393251866687065,-0.2938347005890908,-0.34252409555930674,-0.23454829266431787,-0.3571044513766157,-0.2470166398484618,-0.23403681333110302,-0.27584709528072804,-0.3300057890629726,0.6485949134161249,-0.30067129596331194,-0.26174050330824356,-7.170671494244086,-0.33578792566050886,-0.2721224768425208,-0.35776083064153674,-0.21777311050155884,-2.4191200951044585,-0.24373558602673515,-0.35085188107159526,-0.2399072967244323,-0.37595465751780893,-0.2007793417642828,-0.28104132690710387,-0.29095448532946966,-0.38164548505607654,-0.29605817799928197,-0.28702508574546454,-0.2546583251131945,-0.3207342827395823,-0.2531398987850488,-0.2975149357492867,-0.31975847567729654,-0.2893609255527191,-0.4041558892190123,-0.3030918875015425,-0.23648369892860344,-0.3000464582440335,-0.29412824667299414,-0.31277986108284256,-0.04005466097325901,-0.7490815132302473,-0.30291737931801144,-0.2621630465646133,-1.2896388838055408,-0.9388198219608493,-0.3584653985738273,-0.23441308630145274,-0.3389061616117063,-0.23344053041117868,-0.25889070000752623,-0.03618683848411211,-0.3143577310592552,-0.3444118155813182,-1.6049470448984882,-0.29283896698516687,-0.13933230716569894,-0.3199146934258043,-0.2582033099418937,-0.2952169209702472,-0.314725615067653,-0.3247950199073631,-0.27004306197108663,-0.29301384906688005,-0.15523367654367087,-0.2812992109922112,-0.33543645716652615,-0.3467571214224629,1.0316273618266776,-1.8249867064824847,-0.29365190214981124,-0.2847887686670946,-0.21782169489553962,-0.21964519208458547,-0.2546636608943048,-0.2141103486990712,-0.295838134745747,-0.22693980274099726,-0.338773887481457,-1.2382745135334032,-0.30757850865196795,-0.16667255872299172,-1.086042917243196,-0.25492874227519785,-0.33301351407727803,-0.26331999623200336,-0.3393517161826003,-0.29950555475489726,-0.39559157247407406,-0.28676642286865545,-0.2703135739215428,-0.3274089123287172,-0.26368559602505176,-0.27944990676795217,-0.34280827125488655,-0.3372355447954907,-0.36932124301652036,-0.3071002457483625,-0.3045950792679802,-0.9583373365344031,-0.9446193747194941,-0.29784585093015026,-0.30079274455908006,-0.44386783900786364,-0.02117973871408875,-0.27771964154502404,-0.21787299775866587,-0.3123632817465543,-0.32877345918895023,-0.4102112765889295,-0.2146500217966563,-0.21133091268454104,-0.0972777974670815,-0.9398002948882785,-0.32141565728087357,-0.2900210014950611,-0.2706778849681579,-0.7410292472160414,-0.35363774643256807,-0.1992275190749788,-0.25659473933987376,-0.30050062617137235,-2.499375917692947,-0.3713033038232519,-0.671287453715302,-0.30702172420419643,-0.31365664887915545,-0.30889443528580196,-0.4106956717173335,-0.28957895357828084,-0.34157296809128884,-0.23625645425777772,-0.34019502821550707,-0.25214084266960934,-0.23078497320451555,-0.26767933327616805,-0.3460914809382934,1.7277969615302369,-0.29044712925330207,-0.27030823563749506,-5.885104967156302,-0.2307727511303306,-0.2834606459627841,-0.35340397237963317,-0.2173275472374719,-2.757652433161908,-0.26030133513263276,-0.3433553812074904,-0.31948196750644176,-0.39068131080846946,-0.22019515229389988,-0.28602138333429106,-0.3067818420155914,-0.39015018796527506,-0.298412549084326,-0.29426803318618183,-0.2625965638114978,-0.3353319403274524,-0.2277172195900688,-0.28440060120446914,-0.3367386473239965,-0.3000068356347122,-0.5088498704092242,-0.2956736077920276,-0.23649912263117936,-0.3047085327039496,-0.3037620839936724,-0.3409596089970287,-0.043952495449211,-0.5845549409218846,-0.2964229833584507,-0.25668417103472574,-0.980951993329541,-1.0674480959581671,-0.3500359490816561,-0.32434616950260153,-0.17362143287197854,-0.2331432894025109,-0.2501097274556426,-0.029083313978690215,-0.30920717542151593,-0.34760688975530024,-1.32406400248818,-0.2883406853155895,-0.133910687015158,-0.30464782602644025,-0.25716272575101506,-0.2951267655236899,-0.3303991533963677,-0.3317005025672314,-0.2671529658548734,-0.29971450425248825,0.9772847210029485,-0.26072433982916254,-0.3474212439414922,-0.33478436876950013,1.0399668293614532,-1.7777365882857312,-0.28632936977198886,-0.2831198826268458,-0.19664465023407843,-0.22545148624323832,-0.2497341180605474,-0.20170162564482255,-0.2973592757394302,-0.23427897000088613,-0.3524340181473029,-1.2148586630771894,-0.2974465395889266,-0.1755785234193161,-0.7755607245013658,-0.24998665053846633,-0.32922239567424,-0.25071959608030214,-0.3497181732723042,-0.2999948997903656,-0.3926276230800774,-0.2933315865944407,-0.26053492385465,-0.2340789157081744,-0.2632015558169506,-0.26564215027127364,-0.33784637277080304,-0.33288117242185683,-0.37727644995159526,-0.30224270806211867,-0.2923148982536004,-1.1578068457165447,-0.8879355217337928,-0.2952831660844411,-0.30190724441075345,-0.45556008762719136,-0.01414761805758876,-0.2769085695836091,-0.21457260777110465,-0.364433104124718,-0.33462532024970787,-0.30063010863865713,-0.22543150966335784,-0.20008197914834033,-0.11320862179956634,-0.08631332768346688,-0.3192390837748823,-0.276231095115484,-0.2736354252236477,-0.4984222814522053,-0.3422077830598894,-0.19841684878887378,-0.25044744899004945,-0.2880078853347266,-2.66422475190423,-0.36677123082256347,-0.4539182441263881,-0.2798216507860008,-0.31965334931852174,-0.32149676864609467,-0.40832059084793765,-0.3021808326245474,-0.3592053714829878,-0.23784309508352103,-0.35490791250081855,-0.25718715765795414,-0.2295671852268322,-0.2658661854709362,-0.3476914686182966,1.8617856849783692,-0.29533411996166237,-0.2541316304005388,-5.2598530310504,-0.24383866852346053,-0.27341739551278843,-0.2682661531270317,-0.20175321528570225,-2.4019803151044554,-0.24941990837318673,-0.3564060353438105,-0.3165968309129025,-0.30214933366999597,-0.22109557675676272,-0.2807930584830864,-0.29685500856642083,-0.3999504745145776,-0.2849552170302824,-0.294919660952577,-0.2529447677846414,-0.3267692488711898,-0.19412655641003398,-0.28910032905160893,-0.4243420093582039,-0.29198637591001186,-0.3919475345312513,-0.2961169621414073,-0.23080444776728024,-0.2944817943861392,-0.29196802072518774,-0.2843614636053419,-0.05079608268153575,-0.8170585095613433,-0.2975868531544778,-0.27336544154825315,-0.845935010394279,-1.5145790984353817,-0.33221371571811403,-0.3353457589540154,-0.33170254517182246,-0.23357051641660473,-0.25905903498332666,-0.015396978967122247,-0.31036959842071604,-0.3302521465314945,-1.254535251721619,-0.30477845654627594,-0.13965983245313923,-0.3047635537093705,-0.2592445039925217,-0.30527604634411715,-0.31491944001180344,-0.3227003699573057,-0.2634504057131015,-0.2891612215752601,0.0577297817365609,-0.28471510825697804,-0.3435605312712805,-0.34685585934249125,1.051938995756971,-0.6275792695990595,-0.29339359361312267,-0.2815502058040708,-0.1990579143463135,-0.2239041474159962,-0.2596649533202216,-0.2273574328803524,-0.3003541651340676,-0.23493448168041,-0.35167421409221084,-1.2144536771119219,-0.30319232440804716,-0.19803184506875046,-0.7928964827922554,-0.23000179067664628,-0.32167164284393507,-0.23524400555550723,-0.24171471509199627,-0.292251023375353,-0.3813090944637692,-0.30405441412796497,-0.2559761301764433,-0.23049821019989616,-0.5107471217488292,-0.2751437195814321,-0.3411082389787418,-0.2770712129538013,-0.37638653521704535,-0.2917378332402397,-0.29233126931656217,-1.2213109241750169,-0.9964224034758488,-0.28350317295242045,-0.30593949967930556,-0.44029028499078354,-0.02688921182446995,-0.2731466055242534,-0.19485943109296192,-0.27961841635749224,-0.3271973337356368,-0.2929103272794397,-0.21322788976004245,-0.1860708417679373,-0.14195124682328802,0.05721005100653011,-0.33693065561371704,-0.26606834132927437,-0.27778695958647215,-0.7495472652707883,-0.34532800049410434,-0.2002964935660565,-0.26773305075994064,-0.28755524742824967,-2.6379681634928365,-0.36114990712109507,-0.5107815343975662,-0.29711499236306793,-0.3106842647746926,-0.3088610929293977,-0.4190055730295628,-0.29643490807243816,-0.3410509481478936,-0.22920428516216843,-0.34090326211804844,-0.24894105042578227,-0.2446739495330136,-0.27800674376691625,-0.3369676546052651,2.5492107596482168,-0.2859758547783864,-0.26199521378869745,-3.0641545456369426,-0.2436996920740091,-0.2857241696332141,-0.259474012083426,-0.19541545935328822,-2.5060477272737254,-0.26021763262185754,-0.33528429173684615,-0.3256190360545579,-0.2770896990531846,-0.20624965685275712,-0.2810759659584792,-0.2978018653465561,-0.38268234385725075,-0.3014725853738527,-0.2971498814739542,-0.252776720870458,-0.3136927401126904,-0.29405244452126167,-0.297312878415385,-0.42354471976755753,-0.28763157549390406,-0.4691411979441518,-0.29002782907687163,-0.23735327900029868,-0.29230496745126355,-0.2929421768211167,-0.26797389595830556,-0.032526774488682006,-0.804889958791423,-0.30159563855683624,-0.270219079414985,-0.854759178900335,-1.312641513010605,-0.35437426621032475,-0.23922696249525746,-0.30855879259276653,-0.2190694848974013,-0.2545950559696459,-0.02158682423504912,-0.3052613678049226,-0.3445040474233277,-1.2369397390887569,-0.2961123385067956,-0.13211039444713743,-0.29472279933823553,-0.250406487614152,-0.2960314011405506,-0.32993069269185304,-0.3316302429702796,-0.26394622023464803,-0.2804445504370117,-1.376588691123077,-0.28938117688740483,-0.34069981471380045,-0.3465699405077003,1.7134293279156125,-0.3990107087956377,-0.2884594595047702,-0.28159347752643354,-0.21676471573636352,-0.23768506314562343,-0.2594146022285385,-0.22483764808084702,-0.325371864766212,-0.23617877661719525,-0.33716210137700725,-1.2043708813746634,-0.29350811468196947,-0.20037538010791955,-0.576530577535212,-0.24298927779477633,-0.33495231130915337,-0.25830558488073796,-0.3209167183623072,-0.2896381536618226,-0.38994418464686764,-0.2895576804507973,-0.26712205989981463,-0.23439369581441888,-0.25842027281021696,-0.2682891518037185,-0.35171334901536017,-0.3337853506334415,-0.3630338997601192,-0.308308481031903,-0.2834299149856704,-1.2806764270332067,-0.7359989348461088,-0.29738945715668913,-0.30464844725354046,-0.4457466438170115,-0.013189750109853423,-0.26924139049213247,-0.21820495484090954,-0.286559035498273,-0.32884633831153337,-0.31157611225217974,-0.22018455709280954,-0.20165557357287847,-0.16644959004433177,1.1840000350347109,-0.3333527412456932,-0.2488600051516571,-0.2746294741671735,-0.45942465012307726,-0.3485545317641424,-0.19871787101109753,-0.26532431590625943,-0.2879203092214948,-3.0550466720661547,-0.37977550912253316,-0.4395931586621163,-0.2941045578497263,-0.31738034154574446,-0.3185766636158704,-0.4125591028481578,-0.38943505507460685,-0.3424948964230248,-0.2284887490902238,-0.3500047697399006,-0.25379165977584406,-0.22346901837479385,-0.2802363303976371,-0.33611572979912124,0.8680320756563499,-0.2925071365810634,-0.25833532472182275,-4.409489177898455,-0.2565940961001715,-0.28525848534855247,-0.2570889379498702,-0.21618622088611408,-3.0345485803441234,-0.2639041189606613,-0.34127206073521954,-0.3224789868595251,-0.29871868301188004,-0.20683176206657158,-0.2740815003300371,