{"layers":[{"type":"layer.DenseLayer","data":{"weights":{"values":[0.003182959451498035,0.013572943021081604,-0.06767502691806082,-0.009249524622489395,0.03240311098174936,-0.010125336604731614,0.001437154964239289,0.0030934842869348566,0.0012864980470497344,0.007703168130722615,-0.0337305609280532,0.020667579381686486,-0.017317478804735824,0.01274981489607989,0.01590411124862653,0.03200577954422024,-0.027195890745053974,0.02024860036823703,0.015366893951708767,0.0034805224875532007,-0.010689889293531683,-0.03295666707456524,0.028076713682877893,-0.016349017005227763,0.028914191867078515,0.004095843189047168,0.00040388045471621375,0.0295159209248142,0.0036651761559249037,0.006410700659025272,0.0073795969499769465,0.0062467800110423775,0.006851047079034601,0.036484206165728686,-0.007802805048283673,-0.0012964829062809024,0.01693872574830524,-0.039422711102376225,0.008042576911604492,-0.029904527176952432,-0.00948283007897067,-0.026170270255849736,-0.0056051183227279035,-0.0118445781619892,-0.007779954910844902,0.010769649325344426,-0.036832601711134325,0.0295394867336632,-0.017107805912034705,-0.03881772082642795,0.016947684051379537,0.010245094696192699,0.019251170877898682,-0.02129520606412283,0.006117657580073959,-0.0006605943636154141,0.00983283563599304,-0.01930134041754033,-0.014630643178066496,-0.002364730901707798,0.003793586431586379,0.024503464998860195,-0.0033159891837641004,0.01563005969500701,-0.000033783488617725245,0.0006895670638593571,-0.011958936903536745,0.013041246554894782,-0.00788768055277432,0.007148640686120843,0.00536541031629239,-0.012079803846270734,0.017853317809115213,-0.010737481419985685,-0.025528155455125368,-0.006603478313699497,-0.0121801502270158,-0.09409185340565791,0.010340752772377589,0.006325590148358184,0.0030141251755855035,0.0001967225160058687,-0.041632476545166816,-0.0024643097151753825,0.049454842199924194,-0.030530267884266996,0.01366993091054195,0.023067289313154625,-0.003987314066869578,-0.018475446081765053,-0.05290594671433961,-0.029153382408197905,-0.026129908843746375,0.006984042160594676,-0.0036674189134697686,0.006309015436149928,-0.012612328980794217,0.002303277592173771,-0.018742734605958922,-0.01150394683317883,-0.030680566246914138,0.006073817922266924,-0.016185187149911514,0.011986947555162627,0.009645692053638766,0.046169457876609275,0.005152037940355575,-0.012613903598078846,0.02255233725967149,0.024661834619874937,0.027355355051558804,0.031962540616772485,-0.002724165503480999,0.0069913220938598265,-0.014830753486423657,-0.013557647982039369,0.010295951262747832,-0.015928859277463684,-0.04070698527018953,-0.013115684102631864,0.00820373764987026,0.0015417088417317795,0.0235018865047766,-0.04208752969298481,0.03748503136510722,-0.0268487112666702,-0.028587494544101658,-0.0002014522519034054,0.010321760606536052,0.015253140963842957,-0.0551898443433268,-0.009034202391319603,0.029003919115481728,-0.01537029236572074,-0.016850670821539623,-0.00005906508033420717,0.005181483477274037,-0.0036738242350425323,-0.02939773109615827,0.012799369365359218,-0.005180515113320084,-0.0026429401435814435,0.015650164036942294,0.02821862236980909,-0.030624633149717192,0.016275296435867528,0.028832528012597523,0.005450942114456282,0.00022620477697315498,-0.04305487109335816,0.02542209283091622,-0.02108277996168893,0.02297501949561442,0.004192966881609793,0.012869369217939559,0.02987632185960064,0.007380462373453443,0.00505190550913136,0.021843546867775027,0.007441417264624893,-0.006330418962075651,0.03881187740564962,-0.00974822973496857,-0.006563488321070479,0.0071987090998971385,-0.04218924010294442,0.0012799737906868595,-0.022490455793919912,-0.005167173580680244,-0.024974200779514642,-0.003690037444909415,-0.005865274318712796,-0.010497166615561423,0.008971343214907702,-0.03205987062040102,0.018855374855148096,-0.01754788888248318,-0.0396913940242464,0.009172934111631276,0.0015445154978161498,0.03039739874779114,-0.016630945780344606,0.003662354946845443,0.009122562528058917,0.0020788783471090214,-0.009576531801554053,-0.02292443725978411,-0.010562861908868541,0.01749557226488414,0.031940207299534805,-0.004610078574239143,0.01888337541471255,-0.013673944982813631,0.011653353369913733,-0.0227528614453656,0.008986430689007233,-0.0008839967569524654,0.006229633484069126,-0.006497935640205774,-0.023042896681930127,0.015389187232219182,-0.016961373504173136,-0.012498763301763343,-0.009347667884894988,-0.024074125187538598,-0.08526819281944792,0.0016724247086950925,0.007472652361788123,0.011489918889202184,-0.00215119587788143,-0.036963402494725496,-0.016558612373716045,0.05501283591573343,-0.03358291038839973,0.012811089459249154,0.030907291880650084,0.007087827399978405,-0.0220764444851412,-0.03797341316936865,-0.026125362569149543,-0.01031297077173544,0.0041601559217499355,-0.000037223972743195786,0.010664662236625959,-0.02930677481030675,0.0002173504450578146,-0.023812770006310994,0.0002953147563488688,-0.01964947033882116,0.0038123530480804854,-0.01810459020753989,0.008984188691954593,0.02315901700171043,0.04471952083999291,0.010655917706121655,-0.013504492743465166,0.024953072570338516,0.02182385680986405,0.034924704057403035,0.03463550959748365,0.0005467320410136158,0.003769580642756831,-0.013190529616225164,-0.004889032857748084,0.007188364521680422,-0.019242023911366916,-0.03304516841103313,-0.004385818111761131,0.010462134186976797,-0.011225096961331027,0.02703882855761517,-0.03884874522093808,0.03800031535907105,-0.03489223621618912,-0.018410206410461902,0.0006381513520105198,0.0030513219153635853,0.0037688510546590066,-0.053213037867314114,-0.010256713497064068,0.01923549732043773,-0.019786947534240734,-0.0016408179306020344,0.00978049488896382,0.0019119834673348756,0.0026377724842527863,-0.04267464067231682,0.019370949001279718,-0.009710579468054379,-0.004654182618023764,0.017890462490587792,0.02403748776739059,-0.04165595803061364,0.025884275455985418,0.022567740995536212,0.0056236742440568315,-0.01038846098549067,-0.0436557338321154,0.035139076550449025,-0.007027111731871981,0.023664683768994863,-0.007916840737593404,0.015078895069234774,0.02932358315964952,0.0009759159305530531,-0.006570093214168743,0.01587826575368591,0.006212567674317204,-0.0016066023805128568,0.03509757750282084,-0.000053928045363711285,0.0022515349232265767,0.008030036559732298,-0.03679760769406541,-0.0029151256265760256,-0.014554545634299176,-0.014774608240525202,-0.028461278517421036,-0.014290936247426896,-0.015552413068406962,-0.007169401291657287,0.005121722728066058,-0.02372181466960203,0.029137985785600007,-0.003658660570568714,-0.03331997805048077,0.022650427752934788,0.013492484035136818,0.011734750240363048,-0.03488127812708505,-0.0000517677724628136,0.00006604783053708993,0.0026862283361121435,-0.012043634528060078,-0.01193576505953149,-0.013479425069475973,0.017612906839147232,0.026447271322547695,-0.009511121501656781,0.023128102952879894,-0.00439386157878626,0.010343148327977171,-0.025986548121268258,0.006717180213155893,-0.01770639127869781,-0.005239419696136406,-0.00364138972716319,-0.013111037145032405,0.019362973283691576,-0.010434191896527117,-0.010020077894419128,-0.002500295726874297,-0.013565773310877565,-0.08902776573117785,-0.005221821038805512,0.0005979767698135941,0.01682529391650136,-0.007782010370261218,-0.031134668309400343,-0.020689621352200677,0.05321475555469699,-0.03377067739966029,0.015554728282018091,0.018886197141369836,-0.005944367546971952,-0.01737008433263484,-0.0383980240896042,-0.012531249164490683,-0.01621526648072428,0.007755771343067905,0.0013007153971838932,0.02171016475723128,-0.015844341166487603,0.010330072444534138,-0.024698289665229658,-0.010465311274391776,-0.017920078476464034,0.008333608287007495,-0.013541743460619274,0.018924328506780812,0.018645215639823968,0.0477362943941453,0.0009370810399798498,-0.004795288369435591,0.02115225623466768,0.025942683844816274,0.035134016864949026,0.03686164315339913,-0.009725683898671298,-0.0020707022602568753,-0.026774150344077166,-0.008717896842890633,0.008678242315052168,-0.018844770468670655,-0.03256405421747107,-0.011127197157850401,0.005926738900265346,-0.011436485677499327,0.02529729424046538,-0.037091961706632925,0.037933507166552145,-0.028964147779270043,-0.02314536442272551,-0.01058960537034768,-0.00920306502384972,-0.0006451774689671044,-0.07173784048572378,-0.008005809652514665,0.03335877829920175,-0.006092533766856127,-0.0060629240629019605,-0.005661835163588213,0.0030490893388331435,-0.005466208380350007,-0.031136001349325405,0.01734547213518069,-0.018550285122974373,0.0028414637334714422,0.0013653022449425962,0.023335555699275496,-0.03726029669645579,0.031974643094749775,0.027535378175372292,0.012541940522105883,-0.00321538645884008,-0.029913131091522008,0.0227113774667374,-0.004849253689821186,0.022474496527484004,0.0026700026720218786,-0.00148018066001489,0.023285590445145547,0.008751757655608953,0.002120417810546001,0.012091981925075197,0.01306895328026392,-0.002594134701719245,0.043605202311475126,-0.00041528175006015145,-0.0076969751486482205,0.0023246420043515474,-0.030356104901090124,0.003346159372047211,-0.02232991102825541,-0.005130241652686656,-0.029604725904587615,0.00316146658427317,-0.012152543260831278,-0.01088206767071978,0.0024024486326622973,-0.022491846290578144,0.03570676819689626,-0.0045121371299733995,-0.038225734682698416,0.008581209875098642,0.014215974379204093,0.019204485814559944,-0.016002963999406653,0.0038504523116033892,-0.002005629665813633,0.008532923459913628,-0.01970562644375494,-0.014375900727556899,-0.0042673241065558,0.0025507029292250417,0.03761063870829124,-0.006281167714306995,0.012185912201334777,-0.006555368285761118,0.0066298530947084084,-0.024822370899595037,0.014353222619672742,-0.007272572584691734,0.008275811206683335,0.0008860214373676686,-0.016938311888489682,0.029326209020773604,-0.01170301480653236,-0.02344668381500861,-0.013507706212482356,-0.017728843329969688,-0.08896063190954515,0.003706863134975244,0.010718907213872454,0.0038942879050451683,-0.010608126315549086,-0.03523745085032394,-0.01895991541293092,0.050784684855686955,-0.027647155018588103,0.016105422224518204,0.02075709523384231,0.002743651593884271,-0.02233560744082655,-0.0466830401025771,-0.012708053738329946,-0.012408267810075084,0.01187315437631016,-0.006256438595333667,0.01882770424467978,-0.028329692791617,-0.0044209774247093775,-0.01791583899550856,-0.008140275206363939,-0.014678530977875399,0.015968286274991996,-0.005691395308967958,0.01384374786654461,0.012600997022569428,0.04497448892442327,0.011523219995544547,-0.0013736400883606306,0.012712169894377463,0.02069912142903286,0.034616161741271835,0.03376280759796122,-0.013761478724361136,0.0014523562376874632,-0.03161260826703221,-0.003629804134055518,0.014014796449821242,-0.011082479891664094,-0.03952608047630434,-0.013164734732308735,0.014094113935572911,-0.006287684354701123,0.02148926821642366,-0.03238143443873295,0.030763427694590787,-0.0369096398241961,-0.030840540125056094,-0.005834147558451535,-0.009948799763176891,0.011117063220527062,-0.06027227965813718,-0.007865981814393212,0.02359764352171981,-0.007340364271599224,-0.0006417417338112332,-0.005182743139808097,-0.006191758134669218,-0.0011120607984699622,-0.033213221324608834,0.004359223328700951,-0.003886817138647981,-0.00018416438523213762,0.010942181618480594,0.027634171408734767,-0.02932260770088115,0.016303422435788313,0.009592102696039918,0.0135709571156011,0.003143008849837095,-0.030108960570144196,0.0341879772150394,-0.012555665987232545,0.03213721444948987,-0.00574319630383455,0.013246745374957411,0.021672530727577025,0.0016070856263233632,0.01336253467336257,0.020701876919274786,0.015097428305165094,0.007944558994532506,0.04417760221007765,0.011288857770050507,0.004222623997280865,0.014741917985683185,-0.035993053968169694,-0.010936040099792104,-0.02718251220758472,-0.00591226371304797,-0.020246954952761333,-0.011558295780113517,-0.01167928621893588,-0.018448404819132083,0.018210163190413502,-0.02677507552120077,0.03189517048208985,-0.011246377251884898,-0.022391760271790517,0.008565889472892522,0.018405000492120422,0.01606048120528637,-0.026782782404852774,0.000024770842597382968,0.0015014799958141777,0.007189294465669064,-0.016830201042906272,-0.01246015219216626,-0.017640496309864976,0.013160007502492195,0.026026441368924364,-0.016413810222125545,0.016880747551344298,-0.004903910539187956,0.0007648900331874773,-0.02342614767932069,0.020833429730981016,-0.014874676619486195,-0.0022133066661684086,-0.00022776477917581166,-0.014226773833424022,0.026959195768273228,-0.004230514381382766,-0.021171314210048454,-0.008321439982632213,-0.022427561134211436,-0.08033583306712602,-0.005504220524519415,-0.009249108849429664,0.013865085455865083,-0.009566853033454708,-0.026624779365010398,-0.02136094835452038,0.04941259894213389,-0.020211496444535293,0.018218244558480718,0.0223627184782297,0.013152034617387957,-0.027835543152002044,-0.041704612816955346,-0.005624939595084983,-0.013437623080631182,0.016915409295090857,-0.004543663163958592,0.011123554739618891,-0.012045209182858514,0.008591231698074034,-0.014149927765640264,0.005034102958316311,-0.024758657703719857,0.021394390216732468,-0.014030563814303468,0.01612160071537504,0.013487980436145798,0.0375170424402545,0.009149866011413089,-0.014848113687797483,0.01592351559561243,0.015804231485126212,0.03692449320686589,0.026657683146384024,-0.009652342401458718,-0.002736813994831623,-0.020423584119986602,-0.01683231362556311,0.009711444752745702,-0.010655066775950621,-0.040658878011484684,-0.00039013677902946444,0.0102840118101526,-0.005943195894130089,0.02057497486358799,-0.022511585630662995,0.035912088101249316,-0.025445575195278403,-0.014016976493309014,-0.012617007040589719,-0.012754957819540932,-0.012310733471467926,-0.06111125679363093,-0.019651327013059404,0.032521485399197504,-0.01188929395083851,-0.01875449071265336,-0.016136939520936464,-0.005784237427685687,-0.01298368448729086,-0.02365466572931768,0.018995336069804053,-0.018862092215350994,-0.011195390238863238,0.016999533627068363,0.023479222626450347,-0.030124205479258818,0.025421434224411642,0.019450575386366017,0.018324362356292125,-0.005497794563090955,-0.033924051714800195,0.021250351184814425,-0.0003297630398389927,0.022729072380028536,-0.006834375212413306,0.001988972524901628,0.02384329549128934,-0.0029938730876730465,0.011809656363477862,0.010793812915673003,0.021453304339682372,0.001150058716627206,0.039793156695300216,0.011160962195657986,0.002187554935147931,0.016473850405264463,-0.02880973941647883,0.0022328503000080225,-0.014615430636449118,-0.008788330999527198,-0.023751665876320258,-0.011409088095846107,-0.012688622205047193,-0.012951502545360122,0.005953087572591999,-0.016836022810857856,0.013157948594049403,0.0031326580474256125,-0.0340947551950501,0.011009429803310697,0.004808997782013846,0.02688844551167606,-0.019507645503949508,0.006158903295269052,-0.0009466125464885299,0.012632001472860973,-0.013663601392179701,-0.012124943788698139,-0.007130123398942923,-0.005127775776172484,0.03305071646243518,-0.008984284007905744,0.009265138291663175,-0.017074947358886424,-0.0033712310148705056,-0.02018219100554069,0.004928011751112959,-0.019491237357538015,-0.0074333121955429465,0.004754953443232952,-0.009601338311034506,0.00966569873796874,-0.008403134730757081,-0.015144950519668509,-0.00475299245885969,-0.016888156406568475,-0.05734582502348125,-0.004659279524664922,-0.008934895085803212,-0.0007159534739831831,0.007032767810944229,-0.02442152677920865,-0.005355693226229717,0.05103587059875847,-0.029095215567207185,0.01584786365271192,0.01300625163132825,0.006080244413505985,-0.020621070466757385,-0.04410289077958496,-0.016602430429099643,-0.006048187275977199,0.010792987015286878,-0.00457232992521453,0.014935823375073903,-0.025666048754483264,-0.006403713219078859,-0.005307749178401737,-0.01346481169528126,-0.007307774098951122,0.025087203775291923,-0.01447100466045749,0.000900070066216779,0.01914611814137137,0.03454706389374467,0.0010720557713637569,-0.0013559043549517826,0.013384525232449328,0.01440009049984032,0.03563023249729552,0.02513368350188762,-0.005600540719327229,0.00670304287485323,-0.016912276550408327,-0.009010471093645372,0.016110669190928406,-0.008327723052056873,-0.029872558325316188,0.002738661640031049,-0.000646124244076054,-0.020889203140776698,0.027399347042563454,-0.027627836024116528,0.03083296443078562,-0.01961054437995663,-0.013218603115229884,-0.007373911590685327,-0.003023427868594083,0.004434526685763065,-0.054483926574739494,-0.012481884038901051,0.02550426253503442,-0.01869771265578256,-0.017683538045556123,-0.014259333153108645,-0.0008368592803913759,-0.01034823003861051,-0.03386594635022989,0.021134468124822576,-0.014439154409987701,-0.002590740601744682,0.004720943089209785,0.0366983456912837,-0.03326341213711019,0.018732752891548486,0.020857666506084314,0.01457511890238394,-0.002676128511862685,-0.03369093077588395,0.03732297919733674,-0.009891323739557086,0.027049411254461413,-0.01676031868589592,0.014335544831065836,0.017776367192988696,0.004831288318275819,-0.0025124144883816447,0.017156030203423735,0.0065283736102993775,0.011682085852188598,0.037847297539007466,0.009104209452338769,0.007515905280401541,-0.00027978457797414195,-0.029365996472162023,-0.015695750870899607,-0.028905595445046454,-0.014492836652649669,-0.01875434488577553,-0.010093171846995982,0.0036523867066475635,-0.01880012384165693,0.00293834318083075,-0.01409696022128536,0.01725306616055858,0.006522546316374279,-0.032649477725885945,0.0023557852988859147,0.016341800805515068,0.01436818469295653,-0.014915696628260597,-0.003960402336064414,-0.008629364048642937,0.016332933628033015,-0.014372317373333297,-0.016787552379707932,-0.023273392578952792,0.00776722011321761,0.02784118438584414,-0.01947472374182935,0.0009242060118615807,-0.007046245927674407,0.015209821657650552,-0.010678246256375474,0.002393554883717597,-0.021615412278755058,-0.01114556109678341,-0.006310289716226811,-0.01878162534752496,0.012339991608812582,-0.0019254810678617526,-0.000944788911382502,-0.0033055305086056035,-0.00805898283449982,-0.05497610148497575,0.014300893043391084,0.004353057878444198,0.007874680223103392,0.0033991534974847112,-0.02222613979698821,-0.01473624454749748,0.042445711620984934,-0.022607053091215093,0.013786116782062433,0.014516300886598754,-0.0059007401031289375,-0.01638469482238688,-0.04558555215697975,-0.006018486315444403,-0.013273287939546654,0.022063825370144743,-0.0010113370610919823,0.007953689924174999,-0.01732892827512524,0.009925910235474037,-0.006455448431709982,-0.011106527027522543,-0.013000994847120704,0.025118262596911484,-0.02088724065629146,0.007901210540696792,0.008441183709479485,0.03971242037502338,-0.00009706292383478886,-0.0017167068520956453,0.008609229594445503,0.0073520986285267285,0.03785094417924045,0.019902608207524573,-0.015843771702800397,0.012384536072301793,-0.01827820029294121,-0.012367056717111082,0.017087752478447914,-0.012944585275242228,-0.020507728965346805,0.0000551590472355697,0.01476470923296195,-0.017519613691113812,0.02306606117123881,-0.024597062139127615,0.022188465128984525,-0.021643211770010103,-0.014621907883983305,-0.00685654732883262,-0.005631207382520782,-0.017050226235770554,-0.04715333732990273,-0.008699811955914101,0.026037786098682698,-0.015934684973995226,-0.022064791209876956,-0.015943459752379097,-0.013009231418929929,-0.013421236485502712,-0.02790934392628331,0.01972409738780764,-0.007242179028734806,-0.014159030913493074,0.000027157586738285048,0.031495440156406686,-0.03145968770305152,0.029444109940780904,0.003650217610456122,-0.002413614783634557,-0.0033563867855480522,-0.010951774828353921,0.03492594970948432,-0.00016304021689426105,0.02066856032995673,-0.004786561798781295,0.014778585982854885,0.018984332064451638,-0.004416658719312062,0.005808275019598092,0.0030564706529755134,0.00454293586115736,-0.004214364922106731,0.03336839250771358,0.007470652506418963,-0.00511843634785455,0.002026934713795941,-0.027966258701313033,-0.012711284885960444,-0.024143425400044733,0.00026001713883656543,-0.027329564116418906,-0.014571910602956413,-0.011292914141433734,-0.005953538925641303,0.013308278538682626,-0.007129495051168353,0.01256508954159193,0.0118114373462772,-0.01777492017602666,-0.0016361709174636803,0.01948229858219007,0.026647779412931574,-0.024004637431218806,-0.00721845400962927,-0.00162936625889212,0.0053486263908730305,-0.01081809608198599,-0.0038297693291934145,-0.014439754100920077,0.008227874014448118,0.016682206637435637,-0.02763809209552808,0.010478347774573862,-0.022805225492430144,-0.0003610465100747688,-0.017498244980948832,-0.00004774403795506876,-0.018355533114003803,0.0020436667526341247,0.004873238476897459,-0.014638922064439465,0.01584531066532099,-0.016422482453611095,-0.007935891958889964,-0.016764739863694377,-0.020600576271520357,-0.047872355121672226,0.004259364973787129,0.007674182501805341,0.013070434165572,-0.00006183888184260892,-0.017149611204487825,-0.01644287866232007,0.03677499733386638,-0.011744868182846225,0.018281652605639267,0.027740680593363598,-0.0008157401202897378,-0.020775976041517322,-0.02614095965363954,-0.012441279633771963,-0.00820943022928036,0.02140495423557077,-0.010373112565558706,0.005238262770419785,-0.012441998900492683,-0.008998431392727858,-0.022062601765004207,-0.015591621875743953,-0.004677577417496705,0.020769198407951,-0.017593611883756723,0.00592350287892472,0.011775255555331637,0.027838445566165545,-0.0038224512962354686,-0.012609001299220202,0.004122859151381124,0.007123917675323148,0.031487871637571246,0.0337778679062154,-0.013540658928333348,0.0035088270998892466,-0.015175016781865884,-0.012941427714314852,0.015689239965618256,-0.020942530512032223,-0.02875818581470651,0.0037014254953799557,0.008810212673963775,-0.010350049787192478,0.016073443459427468,-0.020904063751176094,0.022016387758353215,-0.013493802620257726,-0.025324349237717765,0.0011861780941632065,-0.01620219200114069,-0.014488349127971046,-0.0408219535128474,-0.013461820587495883,0.02258816787940462,-0.01803981121024424,-0.014407931296152058,-0.008546505316103124,-0.007946596236510306,-0.009925066158926847,-0.014122785269484392,0.006548005589671718,-0.015797002645478224,-0.021019420483058805,0.010697708872540875,0.03272772146099545,-0.020716284133608372,0.030189469667225424,0.01383336593240908,0.010037283775281628,-0.008639634229902278,-0.0018482994452166041,0.038988591677509815,0.0031568650130501846,0.029374829730894027,-0.021479653256340374,0.0009482372542789097,0.0239436361023773,0.00809842773769754,0.008295939357034933,0.010901358341613744,-0.0003016549536739543,0.0157211103524317,0.028661623987908297,0.004077754969762301,0.010891960714215014,0.013915216080092763,-0.043203392634342856,-0.009328482217192872,-0.025761191739004794,0.004204896093031592,-0.013521154052596959,-0.016630668368529118,-0.004447443392088812,-0.002051496039756109,0.009143781699695668,-0.006373950635486604,0.00866270663207904,0.00443303558453924,-0.0227159183792293,0.00990390564395868,0.01675176218124472,0.02427983730905565,-0.006558601572578348,-0.00044213101480089885,-0.011998918712654388,-0.0023195187736730653,0.002602273935387838,-0.014914674039618213,-0.01851097608362439,-0.004174785014253789,0.018342606624348074,-0.012969716411049064,0.012298625304491493,-0.019391265130113668,0.00001470812179231989,-0.016392960256086164,0.011260684554411577,-0.008846801803281616,0.0035443378872518755,-0.005068415546188098,-0.02247249430852129,0.008982088422756095,-0.004754953871924012,-0.005034980436831479,-0.0058743534601030795,-0.010646178570710726,-0.03377707813779442,0.010642379779473405,0.005751881459912983,0.002367893686938748,0.0002884961929935541,-0.007875299077741245,-0.01662831951559799,0.039379404809107496,-0.012145855861293993,0.0060849581715416295,0.018002807531443517,0.005170059916699519,-0.008401706786693434,-0.028213529465178053,-0.005823238858420698,-0.008205590893233243,0.022771242097429784,-0.009033274399498432,0.016097049184437183,-0.012276598477359794,-0.007593500399808031,-0.01865593386016489,-0.018284273363366656,-0.005662935581497604,0.016157839969471635,-0.013399624058009086,-0.008993937097662297,0.007005347097358714,0.02168971655683042,0.0020250248923413938,-0.004306830994909016,0.0044193118535813345,0.003365485468051196,0.024898112882911556,0.016802349712648573,-0.0035353252708927806,0.0028947489936247957,-0.013972302459429705,-0.013947024215231248,0.012400609070424387,-0.01598573145081452,-0.021376284685749734,0.009718157423534678,0.003764551844827205,-0.018848352658114575,0.016212656470069312,-0.0026298264728600246,0.009055116136429673,-0.01826690667256923,-0.004391862177832682,-0.010074652778609177,-0.017179260439496295,-0.015677321296582506,-0.03986687089133371,-0.007924340120080225,0.02709057487108574,-0.01841402827370305,-0.020094366743264085,-0.01689086081156311,-0.014133995422363491,-0.0166373876532371,-0.000043075353765818306,-0.0013721587695843145,0.00012682226709148767,-0.011216620533868914,0.007477830034615188,0.023337063295357584,-0.009028148919386513,0.015570249870259135,-0.005287614924328832,0.011144405042729042,-0.0007235535460705961,0.011794918008937123,0.02526603048839302,-0.0012366994678397346,0.014156483337270228,-0.017471092232030024,0.017448398547856243,0.027474586998342324,0.004976065075235929,-0.009007928006496663,0.019933624819596985,0.0042849697574787035,0.013673719668687091,0.015235276270419214,0.025482445246832082,0.002945045915404134,0.00556757213562471,-0.048338782721550407,-0.019423192062086505,-0.023157916329156022,-0.0033994118848119374,-0.0027111956650314826,-0.018538526197254147,0.0031582070167575395,-0.01864157551646588,-0.0006738611699360396,0.004166224499003183,0.001958164183940456,0.003440834325963003,-0.024446185749272053,0.0025632407929391393,0.01491078943944761,0.01786969425408696,-0.0038979348407874284,-0.010218905876644242,-0.014526402177803892,-0.000496927497710401,0.0032836508864180184,0.007226729753501541,-0.016926712033355436,-0.00871089532958976,0.018048737457658923,-0.01647138824324514,0.003048665526062044,-0.007409110868103228,0.004973666192416834,-0.011316697786691636,-0.012688890281468695,-0.010495727176241578,-0.008464124350777247,0.0010351440926859089,-0.014953003554940692,0.0033071184091567436,-0.0033154098106259423,-0.0023968322185512763,-0.004905901200760421,-0.017331393332401263,-0.020712165248528657,0.015242143708305077,-0.0069653398582480664,0.015089560352556711,-0.013686479569186203,0.007622260416909491,-0.01930385070940867,0.026170554448914675,-0.010719061147839408,-0.008520733651566472,0.019080489830856067,-0.003939404530416545,-0.01851720251486863,-0.015865174010741882,-0.02127043581423986,-0.0102518608359948,0.019774837014205623,-0.010283039659661949,0.009348038705985072,-0.0017145377916800912,-0.013544610691691892,-0.005248238167151326,-0.01056731220297418,-0.004864835664944815,0.03249228412415254,-0.024782579483964843,0.006506010791914735,-0.00550071455142268,0.026252780227014074,-0.003985304273705257,-0.01909565624038455,-0.012551696003568097,0.0033938683999649283,0.03941835553828788,0.03092607173964543,-0.007734951541644717,-0.00026365885259681303,-0.007229329466296491,-0.009624667934674388,0.02412136088064612,-0.014802636081682218,-0.008147544734279269,0.0012621532766226293,0.01507804512080169,-0.01489575504647158,-0.0025126458566214773,0.006747193438369167,0.01615623514869791,-0.005737966027785068,-0.017440924246138887,-0.0017021250513128336,-0.032078671956635225,-0.025122443867470937,-0.03200578731157924,-0.007351407569020836,0.020992993169713026,-0.004044314038216625,-0.002177620090942224,-0.01399970548402179,-0.023100110944630384,-0.02719531580919191,0.02092265456964491,-0.0010172883744669701,-0.015051682393338546,-0.023219225407958753,0.011537572769161245,0.022213374526531948,0.005726858888474207,0.009327859358062112,-0.011049732019395849,-0.008089690550230559,-0.012074871416182612,0.020887387128693573,0.03529260908517484,0.015958987981687094,0.012805852365700164,-0.016857853969713982,0.0008727729116823541,0.024439229738521903,0.0010095731661845242,-0.012317494656556367,0.019670178647720724,-0.007493045665321809,0.019733004843699636,0.010177211181332869,0.019102594620925187,0.019152729355588746,0.003416915243611914,-0.04593917674284429,-0.0195999788531703,-0.018555790152677075,0.006691548708796847,0.004956185219558403,-0.00596028639783556,0.010265316483078185,-0.010624389445616028,-0.009153559282281168,-0.0008989311335948157,-0.0052819855476996525,0.00984829233764579,-0.021989603588188526,-0.011298221506694104,0.018756300577101356,0.006107558890533998,-0.013016992575350755,-0.020509519002492257,-0.0000737088024697644,-0.010434926986874106,-0.009343418865113922,0.013038791688155613,-0.03487426562802667,-0.005910922996135118,0.013048344640712544,-0.019789740321224374,0.008429341912724046,-0.016881819897312134,0.0038194525002046486,-0.011870210829148499,-0.007521286003195728,-0.017171575095506788,-0.01074209084459769,-0.0017738277648432477,-0.024763122896019157,0.0011864753399570185,0.00018683808572193995,0.021923221714410496,0.004581761161391169,-0.007408854019543037,-0.005957486127210556,0.007042699857952201,-0.0047451605829372905,-0.0005598337146346575,-0.005595048556095505,0.009420531521337044,-0.006893306554527887,0.02191487129526066,-0.002945411359915051,-0.01616244021730056,0.022744874193766966,-0.01074368180937215,-0.0027928861093558057,-0.012115747707084347,-0.011411989257660496,0.0010158710856341172,0.010843315473008406,-0.011490991020980893,0.01469923400936837,-0.008034365866838379,-0.008844426400707194,-0.009818722282528789,-0.008838721844587663,0.0037516365493344833,0.027577757019124828,-0.021175105726878217,-0.005809256960915234,-0.011767940591643286,0.007004069683051959,-0.014144004758339317,-0.016759545569009434,-0.015369134296190894,-0.008395486054008618,0.02935905938002946,0.027328180544311766,-0.015773504874939188,-0.00025493051207200877,-0.015573391952411282,-0.011358238047178504,0.02626939557943546,-0.014683908772715814,0.0056333613314967345,0.006044040455244367,0.003057920866479749,-0.012930458751590067,-0.001608398532251174,0.0073768333394354174,0.010841397266223856,0.007232240949613167,-0.0064057813135728146,-0.001250469773808521,-0.03268772918735812,-0.01986693671663923,-0.02495522507562915,-0.01933001977604425,0.008287030199239084,-0.001836755233813047,0.003825060515185867,-0.015920830169476475,-0.001668330608798611,-0.03300953693258133,0.036766490070171895,0.002765953859779481,0.011683038935822752,-0.029580751787293198,0.003922327927763543,0.025213242994250686,0.006995889090056668,0.015525602268005536,-0.008641964510106613,-0.012254754398366163,-0.020588351104452323,0.02624307449946322,0.02010266438279671,0.01269307554078843,-0.007031502009132948,-0.021743845019576245,0.007677366843029405,0.017633704369212085,0.0027557932314817945,-0.000534409828961086,0.00541298663428875,-0.00707564427913799,0.007975223003567537,0.009922621365652898,0.026953022028004037,0.018300029342142927,-0.0052906702204953285,-0.03817433825665246,-0.01941647256658098,-0.019591350876066612,0.025995860427432675,-0.0006287166096963204,0.004177147905893272,0.004379885027591787,-0.0028275607606672638,-0.012789149091111708,-0.0004862126894535682,-0.0024787721796467733,0.029939158318819638,-0.011251606413361584,-0.01598179948324816,0.017117786051065564,-0.005950385511787901,-0.0035255753514499347,-0.01676454983986004,-0.024607532760902315,-0.010388232937242762,0.0003442855932932113,0.013347937587586551,-0.013732463551370649,-0.011884032626105472,0.0031726394034315834,-0.019618517693859305,0.004006206613666178,-0.006272078069946667,0.00313531095991216,-0.0003926107016571691,-0.01288931021989157,-0.005434613628194261,-0.004216822076098232,-0.009226209677142258,-0.014315001228651597,-0.017414213377875735,0.009223628540290355,0.021056458272846922,-0.010062931430681925,-0.001159600395621595,0.0002669929581597529,0.01349023797469208,-0.017705773445715,0.004763914549236649,-0.018809216735259354,0.0184485605248728,-0.00009633025731102791,0.01663549668837572,0.004681101523220809,-0.020436388508297716,0.022427127468007152,-0.02758907566578171,-0.01877025081593409,-0.005126354875933448,-0.017590678298955397,0.0021685145563097837,0.027731281011610882,-0.004260571354184163,0.005863355410723473,0.007569431460212656,-0.01582562526842366,-0.008385021332980282,-0.01699028493435126,0.007767496073601229,0.03053259941984175,-0.008492273005906454,-0.013511119858315025,-0.012822601424444757,-0.001080464471478075,0.0007920077101286712,-0.009848158808508046,-0.008255839175071068,-0.018882879081243677,0.022015610589033813,0.025761067666722037,-0.021530477723264912,-0.022994232035435363,-0.004165380291162394,-0.019956163498206007,0.0065649524228186115,-0.010347747289324593,0.007805840222468196,0.019873141477922185,0.014987554893945996,-0.01863905814922072,-0.0032600984092492993,0.035460889930932674,-0.0052216475775244174,-0.001239801346634075,-0.004156128509615821,-0.003158613524670114,-0.024678282504485873,-0.030640529385623408,-0.026881621183364707,-0.02015158052553953,0.005113226494835929,-0.002521566499412485,-0.002311809899860596,-0.015323229958842761,-0.00634926757170536,-0.041561718080724154,0.03795904700223097,0.0093078860867014,0.012195055771143838,-0.023356835018878596,-0.001811382778981189,0.02687139410968622,0.015090500843647539,0.014509983699272639,-0.005404371759412143,0.0014065251444770523,-0.017364126184497865,0.03766922711811165,0.02669425110964855,0.010219348303875544,0.00504924962737963,-0.0265750886774017,0.005311989038485072,0.015096142363453673,-0.006557899699221642,-0.012664842420143308,0.02166746083613949,-0.012966985334929227,0.015438757522139532,0.0013016803500194268,0.03393663123812736,0.015326624287036662,0.0012548218318761159,-0.0451024152648768,-0.019464094517504433,-0.007684820443489329,0.020546988153641706,0.001747628132428227,0.008075389588213433,0.0032702808449366146,-0.012324082104228308,-0.013937365973588129,0.016932795569348413,-0.010030782590782312,0.01851221091949605,-0.008222738945518667,-0.005798461993289066,0.016401112479672544,-0.0068933905744461505,0.01299051439347009,-0.0032387095934903083,-0.025277392258310587,-0.007930639582945964,0.0028307288525628305,-0.0018971922636711201,-0.01998298111659253,-0.019942208656601047,-0.0026411227751743874,-0.018991350558864098,0.013113846226142789,0.002077436334795638,0.010107931848614157,0.010070561976206592,0.0037111636578827083,-0.005702175172397613,0.003104997030979476,-0.014671750659380365,-0.0018954895263500287,-0.0017668920201103881,0.014744321818922778,0.026522954273889326,-0.006963871563958579,-0.017108775056934596,0.004131979412860494,0.01626436048288858,-0.020008366953301115,0.0012182291060369205,-0.013701480117521299,0.014065414005460831,0.015023944763255387,0.002958132214827607,0.005880760265247942,-0.003961708216054253,0.017586167687483178,-0.028626828085725708,-0.01065787343607476,0.010971625613719529,-0.014495722724385712,0.004649863878355419,0.015758212072591406,-0.01480448686152746,-0.0013131868968356553,0.0015283240971447414,-0.032382109126018466,-0.004420899881984741,-0.014590522972202275,0.022761317977360068,0.037115700355646646,-0.007135477838117508,-0.028620074875387664,-0.014964668228769157,-0.013687476813252669,-0.016175488164024948,-0.004285942838336343,-0.0013521759162220227,-0.015052386507733353,0.03224342701966776,0.017808475548899257,-0.017893792197583348,-0.020221956306089073,-0.00001886750547169291,-0.019725511962345857,0.015014323337176363,0.0002515114352110592,0.030291280834668068,0.009917908308201334,0.00369517818491143,-0.0055514135143048355,-0.008172741503791844,0.04178751738392784,-0.020679445316695657,0.006579860819486505,0.0055161063845243835,0.006528547913628484,-0.033771020186312624,-0.02292246806204775,-0.032363830501790994,-0.007377325564628649,-0.00857319081354629,-0.006243472149047916,0.00029439789868781715,-0.013322748427276952,0.006623768592458281,-0.019359580147026677,0.044117621961354624,-0.0017988682165455349,0.020539602679985364,-0.02297554923350959,0.0005534852554236908,0.024605590773399653,0.018667920245062444,-0.0015539294977904388,-0.016357164442253262,-0.019122524489118234,-0.025650536619274703,0.048698253665538996,0.014287440260166028,0.01826247732153265,-0.019056877558688647,-0.02446598416429034,0.014106772523896749,0.006349266458973499,-0.003347949062629318,-0.003819668219907904,0.00870733899259978,-0.016293273910349893,0.015175334056916942,-0.014781879456825945,0.020926322311750636,0.00724403489833217,-0.011377925762859547,-0.03932009192454509,-0.02522715544093831,-0.0064180539915748265,0.027009906485514313,-0.006933522192554316,0.002659143708303181,0.009072456386317497,-0.007568389713841878,-0.011022650368734122,0.008870217209736372,-0.004590374775892453,0.024549262277989484,0.014737938121702128,-0.007907878101024186,0.014461760099083877,-0.006770235493842404,0.024806151122306067,0.005301622038269423,-0.03083509196237804,-0.012288105496774272,0.016503348080062142,0.005017038969841345,-0.01685276357476909,-0.015790782238090648,0.0036265659372419824,-0.009606118079253574,0.017250460467425476,0.0009858232466662558,0.0011101994337919916,0.006445856415873611,-0.002063665229957238,-0.00017135986252687024,-0.005717355999895182,-0.020756086752849925,-0.005176034910699755,-0.002977439614718236,0.026371134139017264,0.020559349550300046,-0.012281289787496742,-0.010055594804291853,-0.0038663546254067995,-0.0050791585137423545,-0.027618174655020696,0.013123995283552944,-0.0003111700571528195,0.03063658508345279,0.02262358190591129,0.006852506846214449,0.008060948253567875,-0.010432188651700036,0.01960235509016719,-0.011267767726956562,-0.00954472321741203,0.02208274580743679,-0.031247780770711473,-0.0025529673061702265,0.028880075951501064,-0.006121007117045667,-0.0015669112824393534,0.004889665874377497,-0.025403402027532863,-0.002700566744691342,-0.028048885195072332,0.004857980446930356,0.022876526284259645,-0.01829900379171565,-0.021828976111266843,-0.004184283536552604,-0.01246741360308654,-0.012016635733847451,0.002907258306200097,-0.003151265570946816,-0.02314346552927345,0.026815819330001062,0.01561553902581575,-0.0035642850684192455,-0.01496919370421237,0.005707222783031707,-0.004498766731297442,0.025416374970682644,0.0021720985281239572,0.031076813209066016,0.016644174595531,0.004006494638247111,-0.010261918284895569,-0.015231344614189752,0.04679999159287182,-0.02893914223648129,0.0016149476198719758,-0.0065094163974055265,-0.0024678208717428774,-0.011500082189511818,-0.02746016160268621,-0.02341312411648146,-0.015132441666165956,-0.005275078722049838,-0.00013321843524693658,-0.00305998640294063,-0.019926773450512664,-0.013830106616491174,-0.027187431082099145,0.0305346643297657,-0.004314825488185415,0.0051377503043674244,-0.01031256822535611,0.004576483432332369,0.026139759973953968,0.008928490575952661,0.012063490424915979,0.004929730087467639,-0.013905887433925708,-0.01235393636847263,0.03348277349805568,0.02583529952689518,0.009072587533036839,0.00266639387562686,-0.017360080549251013,0.004691560209770652,0.007536945989130103,-0.006137373149147294,-0.015137518761099217,0.008264527886642009,-0.00018319294303044333,0.01056902957824542,0.004030132239824856,0.019139866481306122,-0.0008549680172927732,0.005548221310337448,-0.04400255079838192,-0.025078294306148947,-0.0037720474251899437,0.01439571325190164,-0.008989231665033626,-0.011400163567710309,-0.0003136537675080387,-0.009834746811646915,-0.010782261012643499,0.013782356955481948,0.010911291241824305,0.004888384328112961,0.004317420084224943,-0.012406954540077862,0.04149142836427141,0.005296589949499058,-0.007746263862795379,-0.01496437893175779,-0.004651767392529845,-0.0033731701364648863,0.009146090701416632,0.001444503209784709,-0.019819170727201102,0.0013778435994608023,0.015599088129104691,-0.01283824671728707,0.011124025764012984,-0.010708193394829008,-0.00042109394462554666,0.0029051385175769746,-0.0031337046897586067,-0.009452411768958204,0.01720814856266511,-0.013664587162585121,-0.02027260319356648,0.000498401520275175,0.0058361888253448,0.022948028861431928,0.003626792220916844,-0.009741775672652069,-0.005915224764050253,-0.001128236069510662,-0.006973640490995133,0.015883123099704476,0.002480458655198672,0.0022426298716726172,-0.007306200664308038,0.028836716859765417,0.003967610342487286,-0.006355750638776613,0.019554307341952133,-0.0011237604024033241,-0.010676370415387807,0.014843965122356178,-0.010247205829206199,-0.0009475242751605706,0.015519005237817936,-0.009572575805589331,0.017526276784171207,0.0004802548645285984,-0.018919207531090675,-0.0022695843815544988,-0.021779428812577526,0.019923108153951524,0.017093103397852992,-0.00791075196525139,-0.009788271939087977,-0.00905119217893339,0.015107847090266363,-0.017686078451832003,-0.002129339664990441,0.00473171893769917,-0.008123624858465725,0.039731525678673746,0.024829226838620305,-0.00214011473944441,-0.007511780502629294,-0.004143120443167732,-0.012037911909050682,0.019516501264001566,-0.0012401591223134343,0.007282860730684055,0.003840216641831546,0.001009516162680636,-0.006927072184065378,-0.009665260321353099,0.025064057237833934,-0.002593691339140617,-0.00327568406279147,0.0038111078145862502,-0.0077535853982955375,-0.02507989432626108,-0.01202184882470543,-0.029639146084174714,-0.021878788706903404,0.040014718408662164,0.0007889271475764524,-0.019746521409521222,-0.02862802974439432,-0.017055056242474217,-0.020110411554599233,-0.010971962420615959,0.0022545763548627467,-0.006633399442173726,-0.02496246432903628,0.01133484089667444,0.03545386996184041,-0.030191194479654154,0.0343019913101477,-0.004229180963616975,0.01188470072950664,0.0025523530672986942,-0.006256060421656611,0.04078132636000119,0.0066674951630017075,0.03755516813853563,-0.026481012460294166,0.010339729568086403,0.02338904274894668,0.0024756876023377017,0.004604217310669165,0.012753042881714142,-0.0018369931920257183,0.023950977059330525,0.04927617531192251,0.02309730162289781,0.022710513405884692,0.026143696856780804,-0.030761755924185112,-0.03069863149828131,-0.019302337567766642,-0.013257114231419804,0.0058872411099566025,-0.0339484598885354,0.016929242884795016,-0.004921052699759532,-0.00187602844291953,0.0032169329413711256,0.010547088198207719,0.010716314005824453,-0.020814937516103655,-0.01159161605367893,0.05587036389384846,0.030900903745656245,-0.01632216580414326,-0.02303535786799005,0.010337854784243658,0.012200684051151137,-0.014344764857341829,-0.0024754463650707636,-0.02755829435259726,-0.013855715980132584,0.031283009590731645,-0.04868053957995785,0.010373420184589824,-0.03301422800157042,0.006201736495849407,-0.008447478499960121,-0.008835318332053615,-0.03757515375091837,0.010253385778324344,-0.00652510817153033,-0.04029503859823698,0.003592760182891378,-0.007671025407953456,0.007852866847647688,0.01311888292074785,0.000021252977129594393,-0.017867950644870918,0.0223768035627032,-0.0013840884114424332,0.014514015121584626,-0.011547774291880968,-0.005278984361027005,-0.034844779013886364,0.06988438099144993,-0.007199661020621938,0.003278064755395156,0.036541490619852506,0.00676142251079913,-0.006026754283585217,-0.027512518039044864,0.002323407559808317,-0.0007670638960812156,0.013910930090485673,-0.001001235104597484,0.03500251545030746,-0.020673104318403725,0.00021894893760661675,0.00374224774340674,-0.00037706409589200086,-0.0026819455984740666,0.0321322742988552,-0.006718012511613709,-0.014265066705769087,0.00419183066614072,0.052127680028656295,-0.013725910990036179,-0.011664642153780307,-0.023422232387939404,-0.0008291331921238726,0.04911658293687217,0.030326194630623554,-0.008957964213100708,0.015582183887615132,-0.03460412656932591,-0.015877271802037674,0.017552785081562106,-0.019132078425424658,-0.009255560962138932,0.02594661330096635,0.004106341715428875,-0.03345933867583313,-0.007127017476674162,-0.00898348202156426,0.04008655765385174,-0.015561913713309523,-0.009052730746564085,0.007283970776445599,-0.0181252162503486,-0.041710536240952806,-0.05807961242347576,-0.04136876271964961,0.06216112053722462,-0.00994459960903774,-0.04319119580386659,-0.06162145747503483,-0.04249596982670715,-0.02666547081059872,-0.02070831694575772,0.037196586714184084,-0.026630970245522793,-0.05244988716381514,0.005481283394802821,0.08560490150375417,-0.03254549493142859,0.06088884646259811,-0.008062362647229848,0.03788965571492889,0.022057162958739322,-0.01227144669886538,0.07882375820826118,0.016775455623114013,0.06620631070428647,-0.04939624664264863,0.0028816684608883097,0.060974324991745044,0.038080804809218494,0.02955861289534726,0.008181106110671696,0.011570019767485356,0.02565510814502941,0.0878365282768193,0.03159700297062138,0.044464920905896474,0.030404770317257256,-0.048703393134329184,-0.05371437692988807,-0.05240794075928366,-0.006170438973392131,0.003868834229925689,-0.056615982633881914,0.02698436190675958,0.01620153782058991,0.004982212839397502,0.012514340815492247,-0.0044455216824993565,0.03297197615658168,-0.04496236443752876,-0.02039192281167881,0.057968302155974864,0.03678706907293166,-0.05115317043780562,-0.02162868494678571,0.02454984166492554,0.009460481369273445,-0.01978130181847238,0.007775652795255584,-0.05032592024052199,-0.025787771523995123,0.05797937873105208,-0.045000649710561856,-0.00943078270239519,-0.05258844808320104,0.04617947930013976,-0.0072027659264671745,-0.011739421418660145,-0.05118993439855543,-0.012788642596078807,-0.011390359995086785,-0.07060905497506652,-0.01958060665292516,-0.029642204660034525,-0.0018635649783168015,0.006325555005078471,-0.02203560432382008,-0.019668234238199512,0.045828722115822965,-0.002853683388356863,0.011095079613363168,-0.029080225749413526,-0.007427451420186755,-0.05854039580011669,0.09047221566546297,-0.04153962461828528,-0.008360240881969868,0.07987626886624917,-0.010072291525048006,-0.004689508449615923,-0.03095190631178174,0.01240995503168423,0.010087484748343232,0.022948237715479044,0.008265469458849374,0.045104112384576414,-0.047287162394864385,-0.004293427273924231,0.00852972264955386,0.021754288052428298,0.0017364021915155768,0.08672681755567066,-0.017674177167603864,-0.03462869891776451,-0.0030546237398943405,0.08346726652645406,-0.03340620401426292,-0.015549648316378123,-0.03346218827965109,0.007341639881668018,0.09470146281679265,0.07108432869080338,-0.03408286426905553,0.014880991624045433,-0.041008955804959696,-0.033618113579616145,0.020406341656753986,-0.04314077304500812,-0.009277842697559347,0.029552985817025288,-0.000008883785377662975,-0.04957311739129369,0.0013427313912920955,-0.00837551543237936,0.03930967006478502,-0.0019727585912275377,-0.008813113635599834,0.006296641669989914,-0.013396228767847216,-0.032644607985642046,-0.05353502336850787,-0.03808404547912737,0.056327155242475176,-0.006733780020481653,-0.03723502285448057,-0.044374102405296795,-0.03558225675137127,-0.009404043774549474,-0.024940837422320953,0.0315113099246203,-0.018807440481917043,-0.02653603458635122,0.0000064488068691392465,0.060587260634817466,-0.051450719893851735,0.057617698406102924,-0.007009765851669644,0.0468664168823127,0.0020185582263882004,-0.032934290131638615,0.06823702120473671,-0.0022268877273077217,0.058452300898591734,-0.04476378418024714,0.013616376675479193,0.05536756062657763,0.019071260388588557,0.019001370215677306,0.014880309784123264,0.018709758907532518,0.014055206691069744,0.05895421748479422,0.016554138674841148,0.03616739554026725,0.02621091285115363,-0.03373609323448423,-0.03333077336351458,-0.045278843911029834,-0.007419774792711126,-0.012609436637412794,-0.0455249616047377,0.0221585677471942,0.004801131220423022,0.0054661264277826,-0.007013341455724947,0.02083497127785402,0.007041855205861855,-0.041849705876172025,-0.013338492890378063,0.05305499052301937,0.04517962975794737,-0.032905698415991065,-0.03751531117660172,0.017362765431201847,0.02267537936991418,-0.02504114678045557,-0.0006988903456228083,-0.04472929710597622,-0.009437333763316338,0.05395251163648547,-0.030422135423118224,-0.00002090445350888158,-0.021304482666764952,0.017606134877142514,-0.013861235672414594,-0.0035881129061715797,-0.04789819636034533,0.009744515712310603,-0.006576242554392218,-0.04557448429290333,-0.0071753392551624886,-0.009793176254128259,-0.018286785240502246,0.0011838647182923273,-0.014246461058827707,-0.053360858953774015,0.016812377885334726,0.00798331296333511,0.0021906536300755307,-0.020085314063008355,-0.0229797043884911,-0.053253178705032184,0.0716084383048475,-0.02364258586229936,-0.002642745286431405,0.05231279501221062,0.013424116413109888,-0.023646642714458054,-0.04426574297695291,-0.000049192830485589416,-0.012962054183651438,0.003323524410620974,0.006336631437258276,0.044913034805071264,-0.02682651286181781,0.006784963344264887,0.005057280129946817,0.01057797635858754,-0.0048543392858442815,0.05510933540077895,-0.0118445172535817,0.0045716485922747165,0.020835494704986083,0.05997230996358492,-0.011947102408969389,-0.011312552433429404,-0.011252490505775026,0.0218293764947362,0.06523087042821937,0.049067045388787554,-0.043241782936893146,0.024539213098271128,-0.030868016132906673,-0.01632050743623555,0.006324353673858011,-0.03730554396717367,-0.028613443074825756,0.022611742994510273,0.0006218060781359049,-0.01931846632138421,0.012987235362174145,-0.022662739005189298,0.03772882362455524,-0.02260573035713193,-0.020541203916710254,-0.006277781360062677,-0.014242065839994822,-0.023442533086408354,-0.04077824948093715,-0.028476329531866056,0.02706848415230515,-0.013087506617448515,-0.021881115770371766,-0.03313149955778907,-0.02727578266234588,-0.007196359077619206,-0.011346853574439547,0.02376152254528967,-0.018672298242422017,-0.0026482489442867883,0.0009443884259457219,0.05048394468863958,-0.01077870803147219,0.04026075360204231,-0.005564150764183603,0.014706371535370386,-0.005910325389039756,-0.016175621388080624,0.04218847165543286,-0.004324284718128924,0.04156069247646474,-0.021782591616688166,0.00865618345378177,0.029448531079150478,-0.005544700476447055,0.012381749849134727,0.007667575364952427,0.0055790419255969895,0.016224312122109858,0.05013017548255428,-0.00034666721723849384,0.014151210684382302,0.0003707166447322184,-0.041172474568548466,-0.007932934799738176,-0.03156288495715345,-0.013427982872838676,-0.024956816064959027,-0.0318568579262077,0.013539161248043826,-0.007734076060466476,-0.011251207412752833,-0.009545206505566301,0.016972547526982785,0.00013901037342318906,-0.02406201444674826,0.006807492265610022,0.018769545667553657,0.036473955626437814,-0.018664253402103707,-0.01509662059865503,0.013294623651537859,0.006073559603676819,-0.022643667498508335,-0.021290762228564807,-0.026614285830449447,-0.017412517175376764,0.041404847044120674,-0.022581066864594775,-0.006235821647084804,-0.008598656138596774,0.028278194796065317,-0.02707041259450874,-0.0012375606626032973,-0.027821129103208768,0.00872965869526992,-0.01109292103458023,-0.010937922844334539,0.011681652530104983,-0.008392596382208985,-0.001502874857213683,-0.01043081622748469,-0.02306800939644445,-0.05696072098727269,0.012046534098506777,0.0032136313392185276,-0.0041084798325068325,-0.018376033701863144,-0.02311739092583587,-0.01765902654569109,0.07225871492649087,-0.019746141959834738,0.016158464842298985,0.03318085299096521,-0.002065371937366406,-0.021545771898184705,-0.018225588421839557,-0.0011807000924245242,-0.01738774891667228,0.01914749141451879,-0.007993584485009362,0.020557035576768273,-0.02565094514974113,-0.006443685326771546,-0.017622070024934773,-0.008268198459934482,-0.008098733650397361,0.038974704673676634,-0.0334727763449151,-0.0032394975207986018,0.0167932169662654,0.051694551446089705,0.005440251366495069,0.001561573456449774,0.006276821324866485,0.017191966415450115,0.05947118192808648,0.040103611454736024,-0.014387943041991855,0.006517939581615411,-0.02612777550431878,-0.022245785360723025,0.0028232449583170663,-0.024174748279048277,-0.03255639643843243,0.008298111305472002,-0.0008951652919630788,-0.018215436116664062,0.01586257345005908,-0.014103466278199119,0.023278221688449043,-0.029848412606636003,-0.024280688002091173,-0.011427922655330054,-0.0012742270253843207,-0.012573635354990207,-0.056661974876225735,-0.023440036175738973,0.01803435287961098,-0.019602271882883278,-0.025719114289095703,-0.013646547961846497,-0.016506513846584723,-0.0018900696176514333,-0.020350541205422262,0.015959239108453472,-0.020230107149017827,-0.006865799490540181,0.012840094902643514,0.04621116757213191,-0.014214909309304384,0.0331919413652399,-0.0017306810407399812,-0.011510056914391591,0.018074473377012706,-0.0033919346913763404,0.049377849181356376,0.0004076538173762979,0.034918442847743945,-0.02120492337255714,0.014084250134497817,0.0380970415454008,-0.01120449069746722,-0.016310174783208193,0.021274377096995218,0.011662360566954768,0.013454924944586121,0.033673142654687994,-0.0039281184853388555,0.01600290710933057,-0.010268829815517987,-0.04211028915207245,-0.006504755625678449,-0.03658335686951675,-0.021371597458640333,-0.033844854760191834,-0.01760743807020733,0.018318697437579808,-0.03285875421001778,-0.019542919021486967,-0.009192346515546875,0.014270424450635977,-0.0008298613044618965,-0.026084137475789304,-0.005653791340992003,0.026739659866946534,0.04949948511858672,-0.031058832144014257,-0.015533103756175816,0.008773542318323673,-0.0023924550586684667,-0.02078380575883774,-0.020680338704296378,-0.021080223941480746,-0.00919763721746461,0.06713995511646288,-0.02684802854980986,0.004265332005006935,-0.016398163241420224,0.02660706563168501,-0.03554671973816071,-0.00015845735219154297,-0.02852661717092006,-0.0011999989006334902,-0.01546764829220596,-0.014159488180743912,0.009342273662303448,-0.02246803342479295,-0.011653891779168583,-0.010005280914736419,-0.04566777429387444,-0.03623789114487184,0.006006542480379665,0.019186474768719805,0.0003994882834443845,-0.009709585825477856,-0.020616113697360407,-0.019086904065253995,0.08495476499596535,-0.027750869972474945,0.004429109046850395,0.031324790705222656,-0.010619480873023038,-0.03271859606902302,-0.01728704510637242,-0.004803905375363413,-0.01885618099463732,0.0147146537973406,-0.013517189688697138,0.0010480422711070367,-0.026633810802551432,0.008537422679327264,-0.02798862836585825,-0.01116150995635429,-0.006869018824610546,0.026821459082088127,-0.0230775296920253,-0.004648812650022346,0.007099250764240832,0.048768274037026174,0.004552938008099385,0.007769573487092299,0.005600864437506716,-0.008314043067115851,0.052587672560861186,0.04242163682964957,-0.02252582772379721,0.030736592741837286,-0.028614413590781575,-0.02316649173989528,0.007526837161425371,-0.008888213593289195,-0.03666690094401295,0.005016206025408386,-0.0032836997748242245,-0.013126450800842447,0.01789343082776318,-0.01858055031589318,0.047538731034057626,-0.03678546031546869,-0.03860704381787415,-0.003567605676297503,-0.021217323120873207,-0.015741094730733807,-0.05580222514247433,-0.01549241871364381,0.027118954544638915,-0.023670667960989603,-0.022757547855772414,-0.007510781977554213,-0.023701169933844003,-0.00719620367294648,-0.017481759307339577,0.028558579584354517,-0.0211270673901113,-0.020179852631410086,0.017853591752641545,0.04579820148155362,-0.019647552476153615,0.035163374577344,0.009656188749346005,0.00781003943997763,0.0029511463097175285,-0.020042518725850368,0.051950208188187935,-0.006457615515024655,0.04127847959187993,-0.015319794926275498,0.004346103018839235,0.04995579481000067,-0.0020319793320256324,0.0213687848248664,0.011374125665148428,0.007110462406923156,0.0204017124976604,0.04746101639462668,-0.004735504065204209,0.014706282302587073,0.012561185761112361,-0.025871069465466596,-0.019120023331009803,-0.0397974678968594,0.0036723521326379677,-0.02135493946948256,-0.02235852545266961,0.004488187253094585,-0.022059918363149352,-0.008744929086196894,-0.008523250934816057,0.024555394255514274,0.012955513766800045,-0.043044903023523984,0.006946462778899408,-0.0016084496517581289,0.03720690402762381,-0.026095914028937066,-0.004421581523197798,0.008798443805991579,0.0075205632747291475,-0.02632793686552381,-0.019744246800382184,-0.010851747038855646,-0.006896587832237717,0.04224738672066982,-0.02322972953493875,-0.004783852881058055,-0.022550077839797966,0.0263715909586449,-0.02598342351837995,-0.0026836707024002595,-0.013593592971517614,-0.017666923673946944,-0.0045300964270520196,-0.031169039243531982,0.0005760511222063718,-0.02026879199300987,-0.00856726427006011,-0.013505837280466107,-0.02916094366037307,-0.05242693201023124,0.007099004836865368,0.007098204494188856,0.008783427113579857,-0.013147172171694066,-0.01213176588581064,-0.011588286701060112,0.06476972379944451,-0.03473658241531325,0.009013276333114453,0.04530796161059386,-0.009360548057475437,-0.031192527011501825,-0.028215373242544937,-0.007695160921452161,-0.010150693039966503,0.016898795600745954,-0.01587905091119872,0.0036875604425048863,-0.02419759464211031,-0.018091996173374036,-0.0181595398540937,-0.004725351596813803,-0.015109680209839738,0.0292024349642521,-0.03537181344965733,-0.029211537852844756,-0.0033060889647503894,0.058600743643583364,0.0010144592037981124,-0.0005050012354055329,-0.005979803957309787,0.001023891376570693,0.059708123795463725,0.05659986363615907,-0.011484519619096984,0.007460378318355558,-0.025832043095776455,-0.03047607736548988,0.010617090939122659,-0.01339746657631523,-0.024922045479463622,-0.0025782223601388604,0.00011697114423647085,-0.015454850494674474,0.004345606542224372,-0.01479890599986764,0.03253911396767408,-0.02172383344032826,-0.027935400885092866,-0.010002703391223272,-0.013980078027862518,-0.008855154572001504,-0.05201253444559168,-0.025727366120715675,0.0206117801370222,-0.010002056110960686,-0.010733899018460943,-0.0030707288727462125,-0.022110638194697968,-0.0029828933203737773,-0.007397363295515047,0.01541550818504875,-0.006593408618543094,-0.01219394756611669,0.009952148324483176,0.02627622720623709,-0.01471173337035449,0.02467712865545142,0.01963103347038798,-0.004337308723863988,-0.010357293391008538,-0.02134881643133448,0.03066175600806892,-0.0011334631428041011,0.02930582944262832,-0.003981588679164635,0.016046564323706203,0.02866841685951421,0.004327171499508472,0.002713564528523287,0.004880147952531549,0.000282938565484683,0.02214299016203859,0.0410702467080333,0.002042655937895068,0.012269716271635792,0.011932083354730432,-0.03426608071349317,-0.011177725705523401,-0.025645922170966253,-0.009668727508366616,-0.01767934285398455,-0.008589757371513148,0.013702363350064856,-0.01565350039172175,-0.013835308589766773,-0.017389661434184505,0.007382148898891126,0.006566268795258516,-0.035450020130416426,0.0017084523286116948,-0.0014144699518854615,0.006635000858966265,-0.015844921273058886,-0.0183155764451361,0.0007357850079375593,0.008996273550928928,-0.028689711696373788,-0.017910324897792502,-0.014074219935690895,-0.011289890475910823,0.02420692278172138,-0.02014879907310745,-0.010836440373418372,-0.0074207473587590295,0.01176337237693049,-0.032322010264692634,0.014778164194004736,-0.005799716225640269,-0.0096796527783728,-0.00393654462467621,-0.0030842956009862724,0.019513250620707794,-0.0003771419110017033,-0.01302216697041003,-0.005072267448691978,-0.02623299022238578,-0.05155392969073689,0.015402653676449796,-0.003202147870093551,-0.007236272800219691,-0.00183822080068887,-0.01595259755730596,-0.014069798466113118,0.05733147241318505,-0.030850009088064883,0.015317738549413935,0.027379711368259688,-0.008970213947041585,-0.021105264161315945,-0.015601804200391072,-0.014107974174577046,-0.01375694875763974,0.006223049440550048,-0.01919072479855809,0.004473306843455661,-0.015854609117056138,-0.012725886235600989,-0.021971796334036172,-0.008034056915491502,-0.021430709777973067,0.02352637683395963,-0.018905840475453312,-0.01321861090767801,0.011236318609877345,0.030050863226559907,0.010158033764168925,-0.011552781553781671,0.000034557439230680765,0.006374914506912173,0.03692659916720531,0.033473301140445416,-0.023695076041690917,0.014724736828786434,-0.016592434475439073,0.0006824262419982095,0.008055397845054648,-0.008010917974860306,-0.026077388182866285,0.008188198030918487,0.0040078709687845545,-0.0052339328100791584,0.007624690602814518,-0.022745307861212632,0.03113351683757453,-0.02236656780478311,-0.02590248948608529,-0.003240139227508876,-0.008925302376480954,-0.007045777630365037,-0.04836722263556841,-0.00878557664718856,0.020701507650602614,-0.006889268362693062,-0.007948117440430684,-0.0038938024079636278,-0.012661498629309202,-0.011537156903224668,-0.0178666684109542,0.01846865997966319,0.004025816940228472,0.003821197724726074,0.000800400785489811,0.017000945107692792,-0.029524845120952412,0.029882072907146704,0.0030591358634757585,-0.0068279886535460325,-0.020084957876359086,-0.004566586057473823,0.024087067826512536,0.00022556085788056205,0.026423854207051466,0.0015420164373954,0.0032946881073012053,0.017983936509480748,-0.001974657340998206,0.013977632334936234,0.01640380078591529,0.0015747507823111948,0.004678911561479553,0.013355405804074818,-0.006024202633795977,0.006937208499088605,0.009284797524067677,-0.022029088939611686,-0.004418108490887873,-0.022000165318840043,0.00020687786354495883,-0.01174322669970122,-0.0014047405188389902,-0.014371720653480287,-0.013676275501429223,0.002094933687471619,-0.02280761598166114,0.011890944311506557,0.0036895650890106844,-0.01753510960783866,-0.007962371878146279,-0.007738692074574411,-0.0052790300078290435,-0.010048850114532546,0.003827021852533211,-0.005691265242812524,-0.0003036604607838359,-0.027142523770611264,-0.006540046119839734,-0.001975712532810387,-0.013457479590625678,0.011495172834689253,-0.002540618142511673,-0.003225954577704421,0.005169783164781355,0.004080831655404366,-0.015330767019385698,0.006579314627638349,-0.008141440919903606,-0.0011530759754258709,0.008792602127182967,-0.009361859446051226,0.0032851982360796073,0.00734011537261794,-0.016007592621313713,-0.007295549165511612,-0.01914992087448899,-0.05557360082715624,-0.000920451006549859,-0.007831302092456667,-0.004592380655475056,-0.008256478866495512,-0.017149937071912584,-0.01178912317842527,0.02801506377897052,-0.02207543135335013,0.009811922559788211,0.026336939394588605,-0.005179720061743182,-0.0243598055563834,-0.020261377594332945,-0.023305366871789017,-0.007218009795479243,0.0023814574473031095,-0.014378215252414306,0.012985595272713984,-0.00884758132066794,-0.007878987979886475,-0.012082813192628106,-0.010110668226621525,-0.013813007525200762,0.012001748385354997,-0.00884989849909429,0.015012493235037732,0.008743007995351717,0.027647575482685875,0.004004470054868395,-0.016494351501690502,0.018566004607940584,0.0012423756129610038,0.023006231530074955,0.02658070021557476,-0.019966493458777157,-0.006856478251672129,-0.014863220745677783,-0.003761439377280512,0.013327840453763081,-0.004162744386711202,-0.01873441474332457,-0.007764920776494997,0.00553285203102878,0.002477376851732931,0.0010536605643600204,-0.0178141840352081,0.01677894835435023,-0.020809938473467047,-0.006136495818625851,0.0004907801720277038,-0.00041724583752318487,0.0005161835215038384,-0.043213580643044876,-0.008721567581461278,0.03125421971238927,-0.007799634219424766,0.0005221383318073461,0.00177194993729922,-0.0050877686553384765,0.004252522274853033,-0.035918444530533826,0.010831474595343846,-0.007938759631889742,0.011551708271273749,0.0009871840517645123,0.019531125764902367,-0.017552686372071052,0.01738686257170967,0.012952691326976629,0.012198511601699413,-0.010054858344868217,-0.017274722241604836,0.033685450540437284,-0.012772698754083801,0.033648652300447265,0.005274744436018586,0.00035905947599946663,0.027858556457981853,-0.008131334631136175,0.009274182833933537,0.022050647686814487,-0.00026165531257936583,-0.010283846232462061,0.03337547973077541,0.005025316335251148,-0.00917020930024671,0.0031995445878781176,-0.0171036509106581,-0.005894831673581106,-0.027854456717577983,-0.011891444138250383,-0.02894157737002699,0.0027512143701466157,-0.006359078500643534,-0.007287093450620553,0.010223009501472752,-0.02145809032086915,0.005992324573432191,-0.0015980679056016326,-0.019041738842245005,0.01118540824496012,-0.0017805399610900698,0.011497136643680623,-0.021003312058488537,0.002832768849202625,-0.013298155277463796,0.0007115054563969712,-0.013304244628973783,-0.01247820879231305,0.0034082965136309038,-0.0038375345601803722,0.025143973046815878,0.001476793671751649,-0.015350106771278288,-0.000714957515377267,-0.009942935272983944,-0.017844757350601367,0.008618656361984597,-0.009660639906469646,0.00653207147777558,-0.007776737683166459,-0.014467544563221692,0.00046469368201554047,-0.004734799387472102,-0.0158020325357524,-0.012649490493149318,-0.01983583679765326,-0.06555818362384487,0.004289661564530212,-0.006567019282095343,0.013638842660869083,0.0015165174803632546,-0.018951351920897325,-0.006164992445067671,0.029328820601395238,-0.013183937200438867,0.016601254399567514,0.028947162724355317,0.011082099707703661,-0.0226845010639359,-0.033855051668747096,-0.013276473555354195,-0.017736640611367035,-0.0008548982667929771,-0.00197498458045932,-0.0013865486492958235,-0.014817085263115667,-0.006159179390480695,-0.0206165527409387,-0.01065116163164661,-0.009348780012415452,0.003861866101207959,-0.016428682732048307,0.0061586195835748505,0.010863596960554962,0.03508661641036182,0.005641392649624526,-0.021625168069965017,0.014144207852619481,0.011720661364676987,0.02354795604046997,0.021478561228310378,-0.016084978663277818,-0.0046866318478886206,-0.021222435499978255,-0.005904359014884897,0.006132983187647219,-0.0041492350948979795,-0.02829599829559476,0.0014500302515808128,-0.0006079137323315013,0.0007274483812699685,0.01987030569804544,-0.030162159457796,0.030161076127763704,-0.020465833718117023,-0.016759009209315983,-0.004731911375295519,-0.0027071387552415785,-0.00086387820153095,-0.047103332928606065,-0.01617992481549616,0.01948431780035374,-0.028960766621221136,-0.0055106698628474195,-0.004839117497636908,-0.011131930201034802,0.008239984094227935,-0.03937540633310374,0.006376507717524542,-0.02010270430731792,0.0035108536041501878,-0.0008510839924009629,0.02640013654990238,-0.040130984658379824,0.01808336178286367,0.01894547701017144,-0.00000794820452323915,-0.000688668484257372,-0.03408721836680767,0.027189236262281567,-0.005999498529210775,0.02148397512998117,-0.0006922657120772951,-0.0017104508816576387,0.020062518287805385,0.004830976465657262,0.01952952499003583,0.018329379447577624,0.0006725721799083108,-0.009878991622042957,0.03939322676846183,-0.013675293851082354,-0.00582900212560291,-0.0020507113742516134,-0.01653609848644649,0.009529702924452972,-0.01376271325655904,-0.00105747972768208,-0.017897507001918018,-0.006048545787042477,-0.02539870170462751,-0.0024133208554688707,0.023073036402805298,-0.04057690458205972,0.027321883554924792,-0.01120537514563669,-0.022122775603080853,0.008554633274877401,0.006637779177393378,0.019339176605537432,-0.03074131814241746,0.005325136431584397,-0.00177933579155804,0.01493906404776956,-0.004156170239019517,-0.020955932872506123,-0.005530619756265076,-0.006994655215382778,0.019717235123457813,-0.004859222210980806,0.02080010036793016,-0.01618646986791638,-0.0011134884402233263,-0.026683433036548933,0.0004941284173199616,-0.0013010723626751023,-0.007996829253648743,-0.00582535505284884,-0.0052486917499953295,0.017687545210855995,-0.014847515035024423,-0.01665982114499894,-0.01314921225566004,-0.009443848892650836,-0.07290883999970547,0.004693722746670627,-0.0020931496791747424,0.011544162799223722,0.01186441550325376,-0.043693931541782624,-0.00902223154646678,0.04956128760446968,-0.02436370903258223,0.018991380161294,0.02309917903172585,0.0048285225677201955,-0.02250174179908494,-0.03353633758577626,-0.010147034992356604,-0.023099351131664368,0.010039082662074542,-0.014853195766901126,0.019538002692718073,-0.02735313101416972,-0.003106445534308887,-0.020159086102795917,0.00458460096306822,-0.03665122472198459,0.014865391834730754,-0.0221223685925661,0.02628527968299546,0.009525807526164465,0.04733620157623145,0.010373166926317559,-0.014947033941591421,0.022505423683706605,0.012617554776458777,0.012810541794746663,0.01926660520868291,-0.015044758710636295,0.0010180112853557623,-0.011641806243508081,-0.009844676990889976,0.0061798871654524055,-0.007322428592302386,-0.05207314420620331,-0.011150696122901416,0.0028758080268086158,-0.00017473215241040036,0.018920493441649713,-0.03614562048909534,0.03351253431638967,-0.02636113131227628,-0.02430947915834633,-0.005445745695714843,0.013386018279969915,0.01230097233974803,-0.04617885253946632,-0.01147977034051852,0.010526954853604534,-0.022237864220179662,-0.0029394320178876103,0.008924909908914152,0.012189983723141246,0.008675812716755167,-0.029602134591504015,0.006345680353535751,-0.013802736514790007,0.020268766311088555,0.015968953810808543,0.01764447019706673,-0.0325005349261552,0.02381576140189066,0.02260498838699777,0.011464061124804751,-0.002143320625459915,-0.03508497404546048,0.01422890441206537,-0.011696633313517552,0.030072501581630776,0.0024526664981493504,0.010386650366176284,0.017897777203467368,-0.01884767461673218,-0.011958670824670144,0.013197618900935872,0.006091773940556723,-0.009167131928726079,0.03574032206085714,-0.018824208328414055,-0.004848092777343526,0.0005840354933304981,-0.02366345359887146,0.008397579524703599,-0.010564770912869819,-0.014491599498729585,-0.021214055844983523,-0.006988641806260694,-0.010541488381240034,-0.013657890755392553,0.005689480711807061,-0.04096881488094623,0.022194827535455125,-0.007930773407137834,-0.02089647967379501,0.020703369294373917,0.012277980361687754,0.03565381763322654,-0.01135733578403904,0.0076007615271379446,0.0035970456407897053,0.004026077123211754,-0.007694888380058727,-0.03241175941162625,-0.0005785188607462936,0.0008138910948311977,0.025048603555321694,-0.0025216861687408438,0.02308161293920283,-0.01623674484489195,-0.0093218028062132,-0.02349683204027497,0.0035420924226496433,-0.01597905318322549,0.015418199784146944,-0.01702831595610682,-0.012128159601493107,0.009810275689626526,0.0048052844510629,-0.019836159171080846,-0.023362762330460154,-0.017998473354981538,-0.08392502885871783,-0.015680378170362323,0.010362949973100014,0.009312370103682105,0.001975371209803161,-0.030788025622944665,-0.01576507117440223,0.05709999571795318,-0.014852273665567786,0.017378672875066052,0.010931924957550998,0.02595489192373344,-0.024832358068429417,-0.01863911078195944,-0.007864172724567457,-0.035432405252112505,0.010940395866636818,-0.022795964632177167,0.0006870911685837342,-0.0126209258995712,0.020316900264207384,-0.030198629745263373,-0.016588110521100163,-0.013727848242103755,0.0024795602339189,-0.017787168618028693,0.0317934917262468,0.021858418743149994,0.031081576475954335,0.003456453846919523,0.0034688046773586837,0.009880565228789214,0.014088260308780944,0.01611766088701055,0.020868897856179073,0.010842118381809667,0.023426639132241436,-0.021330235469579416,0.00158679245352139,0.019603066206931453,0.000034960053970131956,-0.03675567159110733,-0.010493237064006811,0.016330061362219744,-0.004037492103928488,0.011715006346664994,-0.03819496646950696,0.04810180586140211,-0.02892421778904134,-0.031098164484799896,-0.0038214748765877673,0.002123119619719043,0.024575929152758462,-0.048462709894807735,-0.006028148931887149,0.012189199564697351,-0.015635437750217796,-0.008235477021308803,0.009078384321893595,0.01425042493436486,0.004268181752377948,-0.04504236276857961,0.004353972737348513,-0.019086523440427192,0.015180414554986447,0.014450404219249502,0.017206743186756093,-0.02819892863362205,0.01760265916294024,0.021927379522756682,0.016509508174373622,-0.0030707019344281493,-0.04269352268111839,0.025703775852650535,-0.025884016863713985,0.03619970104313767,0.00798249467369415,-0.000716159399516058,0.020705662450290933,-0.0016870083799333583,-0.012448700422850177,0.011745828745846468,0.009324739111979247,-0.0017568275728640675,0.04020431515843118,-0.01025530778234982,-0.006044466563928686,0.0023634854325452447,-0.027293112212995643,0.019012403457427753,-0.011204308089179552,-0.013744796337709923,-0.03740885470103683,-0.004547367273568426,-0.020839091356664393,-0.014254530612805572,-0.004907740676631906,-0.03708202210937989,0.019755283851808525,-0.019565361953982133,-0.025360411975414214,0.02831792147592206,0.009238592562262143,0.02060764548262565,-0.01647036177392983,0.017795816789163598,0.007196527319254124,0.0017214730418138831,-0.004171284468671907,-0.031751433750705105,0.012162987051035325,0.013872706780350907,0.028757497214938293,-0.016483641223552184,0.01827111471071601,-0.016135369190094215,0.010307616093646318,-0.028757771495167846,0.018491121872949906,-0.0072351777946004754,-0.001486228180448191,-0.012913131686380109,-0.004403542336427382,0.019287558582560725,0.0029674892309364217,-0.019743110456778887,-0.020989993989691855,-0.01356487466776549,-0.08543479316601472,-0.008639830152555386,0.0018602153300288607,0.007824597548489345,0.007762868370389237,-0.037469189442075765,-0.012090982060356243,0.05548999701749059,-0.021933849565928875,0.033028227544310805,0.01965578950263607,0.0073239573396934494,-0.03237443358362158,-0.039603093318764576,-0.028125881537238693,-0.01765264559622512,0.0026859490823523866,-0.010240001813442087,0.005428290357614716,-0.02834131748492034,0.0042325919065147625,-0.01588714265288564,-0.010133753537083064,-0.03309561548016162,0.0091267509506262,-0.010217142854981797,0.02037438190091999,0.016113473641682734,0.032593842255561556,0.012446193897867013,-0.0001957305545394963,0.021611859196577217,0.010618093202921546,0.017153753004781034,0.03227660872474236,0.001459471429049774,0.007044548631263207,-0.018584792929980685,-0.004557896714194941,0.0085851515161929,-0.00495422983758528,-0.05144034391446763,-0.019854826088619954,0.003921777804648254,-0.00675922705170514,0.01660523094045188,-0.03041306465890376,0.03655473111684191,-0.030938470592216955,-0.030160373758504735,-0.0024082256478215663,0.00573134440191388,0.010197690497213691,-0.06985885886139502,-0.0008824330227842686,0.019298558905765144,-0.025177649435681383,-0.005009757416545745,0.007818741887668845,0.005007609700664157,-0.006842107967028404,-0.04205764179668855,0.011425620431337056,-0.005584516098740033,0.00016435340070114818,0.014956473443203546,0.021017536002500253,-0.030644048802992093,0.028588779521272995,0.015249684444500686,0.0040219341400888646,0.0018813366989868271,-0.04178016597446948,0.027166943334027423,-0.010274480562317289,0.03573903888666678,0.00536602685336105,-0.0011504193923320073,0.025585590118638642,0.006941763701319985,-0.007048682924421983,0.012129866307276133,0.015228699467610246,-0.006326901413170484,0.03179401513934134,-0.009917264127680644,-0.006362087643791133,0.0025171529854303995,-0.03367438827005108,0.010795679411925926,-0.028420869434424807,-0.01155385119339476,-0.02091616806308118,0.005355102277872983,-0.003162583883960926,-0.012101445022304903,0.013351186997021133,-0.019186874631345975,0.03566885213096611,-0.010260236583482152,-0.037317055620448424,0.01990874473047639,0.007785720158114593,0.02666615345036541,-0.02820796196967376,-0.0030988427070189903,-0.002199864522921457,0.00033794452680362597,-0.015546919313246527,-0.02266240769515705,-0.008504321618926362,0.0008296592323611084,0.030789978915505497,-0.008483702237844658,0.01402734643361031,-0.014647250260007079,-0.000052746827671675574,-0.026159444793624174,0.008458568727737615,-0.001990526379159156,0.006919200260153605,-0.0025691113560225515,-0.01576331727499837,0.013038994392168421,-0.004754524560524556,-0.017207867096929935,-0.00958811235802627,-0.009549825501409655,-0.09401412256377091,0.0059732238718698885,0.003800642074600534,0.015009509215028144,-0.002313128468016004,-0.03155704341622101,-0.0004962585730664494,0.05646814853752831,-0.019209374117952347,0.024114139473185543,0.020975758995821766,0.0056583249788646215,-0.026934271595966567,-0.03964633041495625,-0.02566989581679599,-0.025184935491528525,0.02078708011578657,-0.012998562077431509,0.019055301713915063,-0.013189846411574635,-0.0026951900920222133,-0.024176881416178107,-0.0039133925029150845,-0.03158720881885483,0.006848156471319292,-0.009154557027338372,0.001409635439362582,0.016917798823864405,0.044249863936794434,0.0015780353774704655,0.003182719829829105,0.011321486399675063,0.015955925407898752,0.033431834938247064,0.027311272745310977,-0.009286662508333116,0.013865862011654293,-0.02254954243432762,-0.00785064664551895,0.011598420582640111,-0.009935629943080981,-0.030791638058039212,-0.011122397217180101,0.016318901400282415,-0.008320292855445334,0.018496861968269,-0.04235166141849332,0.03257664695144277,-0.03647541097152594,-0.03345387608880859,-0.0109869294348256,0.009999729181263989,0.011394342442400385,-0.07319996748587201,-0.015246559245858823,0.03604283211257911,-0.018102225144899505,-0.007653944167523489,0.006191637622477588,0.006224644407411196,-0.00013094176541676565,-0.029573724742932694,0.007406109147303105,-0.0089518281331725,-0.006247826713858485,0.0118857972607453,0.017387154895445844,-0.03114295957698914,0.029718566925265293,0.015499713194421186,0.01742355965326478,-0.002770247005092284,-0.042905956695701186,0.040544869400916436,-0.01890061384672351,0.038738109313162135,-0.0019639829467109834,0.013787447325988024,0.018940906260773924,-0.0027339250760546976,0.01143223645558238,0.01731896434033019,0.023669316934840496,-0.0022068345036692903,0.040561890224267615,0.004249990792346322,-0.005733997138623542,0.01079232848505022,-0.030643678848237973,0.004939724169045602,-0.024207631984827217,0.002432245003884396,-0.02536132459722204,-0.011251905751993689,-0.0031133001894579583,-0.011364737809353313,0.0074967861361993635,-0.030169571548920467,0.026143204526058055,-0.007739014728842378,-0.025590298035691444,0.016090003294772275,0.014657553389174663,0.029514748978740978,-0.027910703054611553,0.012751416698597784,0.007437374664462415,0.012250316279959457,-0.018497456958158916,-0.01984417412489128,-0.010630470153187176,0.011763535904491034,0.033475027908849,-0.003195971258469788,0.019405261878083988,-0.01688590740663352,0.013991508603505629,-0.029372667944818798,0.006301502015814967,-0.01641048877934275,0.0070228533533456755,0.005483891829272703,-0.008846147867650778,0.02378066516819654,0.0001546073551030102,-0.023875370687066685,0.0004019075760777722,-0.011748212111436982,-0.08970672297576968,0.0019682876968395322,-0.0013978311338612146,0.011104865101069375,-0.0013924318997937443,-0.028269669784691916,-0.008472546566402842,0.05338634665366392,-0.0172852535911088,0.024865729813421108,0.023394670051784833,0.006248769056476086,-0.026725122895653094,-0.03648027672487251,-0.023196071171483867,-0.01278632591901925,0.012108956802484585,-0.00492024602174404,0.01508011170812647,-0.01670744568332616,0.00014244663080416155,-0.013670037805463916,0.0031599659781296253,-0.02667786561377095,0.019894022297967773,-0.018769639667232,0.0025047768683903408,0.020880192827639362,0.04548737586404707,0.00009856763731990159,-0.006092540056272674,0.023568949571009298,0.011564795798395498,0.018308962121459466,0.022764421851568243,0.007220716782896335,-0.0016996302173686822,-0.03283436405032591,-0.004928063813814984,0.023542597858001647,-0.00198297431138948,-0.03176733679635785,-0.004231438438818719,0.0014552289038009573,-0.009356450331525977,0.02905387488528197,-0.03241732110161398,0.03521483490048316,-0.02107864326651624,-0.023690743943961687,-0.010663410380150732,0.00993274192473953,0.015189356715752856,-0.05497671420542977,-0.006247605073533254,0.018444724757854726,-0.019184640340069548,-0.013156035315949515,0.0039523851741614,0.0036071729465318096,-0.005905414468177308,-0.03439423756374817,0.015414883875424466,-0.015564309095846558,-0.00409496954154225,0.01256194398860793,0.01526033144171768,-0.04135015365728905,0.022118930747156845,0.020363720961850535,0.008525703312298415,-0.015681836988235286,-0.030147290436032547,0.030750707791617562,-0.016215628243341523,0.03374170867184865,0.006977740626214164,-0.0012327426751258773,0.03351440930222779,-0.009277457781374225,0.009902965544733433,0.0059102142100490316,0.006703756078694992,-0.006900499340186537,0.042353567828972566,-0.0003936408736278196,-0.0089559632987999,0.017489542987224584,-0.02380381947294885,0.007898030312317072,-0.018945572221264726,-0.012594057363705384,-0.023981697998395765,-0.00706330199585259,-0.010777023934822423,-0.02026061889448324,0.004805695474781768,-0.030046706581916476,0.020761570690636413,-0.0018401226837386638,-0.03296063136813243,0.008167102840622421,0.01036116184333821,0.021356907834844202,-0.022615732132816976,-0.0023168828581103967,0.0024398651162337455,0.014989198296184085,-0.018564195147850144,-0.014955744685512938,-0.01034205119438571,0.007647770245456715,0.02673518734897871,-0.011992175088287732,0.017277940618292322,-0.01801058011270778,0.010219860568814614,-0.023163050900639335,0.023263405326485853,-0.015591363662510568,-0.002150154197440393,0.00270039280964053,-0.021881877654831544,0.021598158598026336,-0.01576240677972901,-0.011014729756757161,-0.008689671674098648,-0.022869749594693605,-0.08959352049388182,-0.0059146141719345225,-0.0014232478593524556,-0.00036297324014253373,-0.0057566125575392885,-0.041922705282356275,-0.009576304708046369,0.04127357487351395,-0.03168713041189333,0.017623297211694672,0.026001261141520907,0.01092624241328174,-0.01537546004100924,-0.05146748135672396,-0.012266893331022911,-0.013159602315045862,0.014358714605986455,-0.0005674413021975835,0.012155804139181372,-0.015173025755485686,0.0014596852039655572,-0.01374165973479035,-0.007169699779513825,-0.0282698685257159,0.019200601900691144,-0.009380726303846326,0.01581145830625516,0.01873355587571379,0.03550986485904432,0.0011537552423244392,-0.008984540892128341,0.011974306738456626,0.021783728515061287,0.0267834789652602,0.020427723862418434,-0.004719646212173664,0.014576601786653204,-0.02639162549937842,-0.00885123882740491,0.021155578339191218,-0.010621352616319687,-0.037824952433900036,0.0008678924404509246,0.007845231834958522,-0.00929084157699276,0.01550432810611974,-0.03838906037127312,0.028092946382793582,-0.038129910000819944,-0.029694262112402187,-0.01203817060300415,0.002879095571804788,-0.0016399683324824148,-0.05744608607776484,-0.018970159530718057,0.03439698972313302,-0.007300093289715097,-0.013450992219756026,0.003251995042203108,-0.007674538334634667,-0.005258970231916497,-0.0378855334097114,0.014952636828996332,-0.0018706419103771048,0.0067773440310437945,0.010982362093598671,0.02042180942093532,-0.028129001688137496,0.025644223285606206,0.02740498046942149,0.005658959414757347,-0.007573919400054114,-0.024661667302695138,0.03360355021731168,-0.00020764697734696586,0.03353342672460672,0.0034745913269818188,0.016400806425457756,0.017928724633919937,0.005135127888313615,0.00490005040698449,0.0006156261388242524,0.009449323132250925,-0.005657710626287637,0.027400630358604783,0.009589580710702816,-0.008994981812286224,0.017351376758240365,-0.029400406223010614,-0.006593940297623254,-0.03057109022876747,-0.016066867363049426,-0.015544095220349616,-0.0038344789068712644,0.000016938189268771994,-0.01844027291127145,0.0006946595922132262,-0.01687702086251298,0.024034133423806444,-0.015646581912802538,-0.03758394131063595,0.01369724324459631,0.013979039744734184,0.010142193039593595,-0.027551556683635167,-0.005314185316162413,-0.007644784752814192,-0.0007433233520296555,-0.005553598170615688,-0.017984779078110313,-0.014907538825515937,0.005222035424863392,0.03256304505269681,-0.0043109424053041166,0.015705354162491005,-0.0133732110861187,0.012065655075681891,-0.013692692298981677,0.021873742286077583,-0.014028479898661197,-0.01083109781261418,-0.002615849217481457,-0.009703885551545915,0.02213600358463364,-0.007062108797301043,-0.0033851905112132464,-0.0013125978165867023,-0.022678809121115903,-0.06729190067513587,0.007612396012586139,0.004957640405462534,0.0052251108510803414,-0.009252763853025437,-0.03349590744478219,-0.012359766727473836,0.0377224841096393,-0.01395344374357307,0.02376606375269954,0.025971479909644858,0.006254950315893553,-0.029178047147141836,-0.0377830037726892,-0.021807693805740345,-0.010302766374752779,0.023657284978143053,-0.009162861539299372,0.01458193534715653,-0.020714719215658203,0.009445496800080567,-0.01663963739141367,-0.015345514179651347,-0.013028363033554471,0.00924593716516411,-0.006888434183659963,0.005967313097558543,0.01945293204492199,0.043048736371711735,0.008440437102628859,-0.014074043888768461,0.019268805015259773,0.022229411344920572,0.035113005142483195,0.026238052116791387,0.0041751994008117,0.0003160948098499786,-0.014521150439706082,-0.004408120720464228,0.012413633597955597,-0.006137971773401978,-0.04377831286444355,0.004501309289269504,-0.0001624685592968973,-0.006569855804035919,0.01974533299401613,-0.023696032279676222,0.0330332358288267,-0.035113104273865575,-0.0298349856775988,-0.0018225314119773156,-0.0022621196788451545,-0.00865150874990464,-0.054701461136989905,-0.009982561594520755,0.028358195893957834,-0.00951488154425826,-0.015589148263097874,0.004794526015143306,-0.012044758139043146,-0.006428537929276027,-0.037163535415075666,0.005628585226003495,-0.01983174367634341,-0.011591643588280359,0.0052693368531123354,0.019739374340128388,-0.02445124684198585,0.01617807216631046,0.012744024326094575,0.002618293921400438,-0.005334613458977516,-0.03971594439816099,0.032006770417429956,-0.00550617489689142,0.024925937197837377,-0.004710712309173835,0.006356722953375583,0.024505381126333138,0.006234838945793746,-0.0015841854958710535,0.016507548424430418,0.002922021090613647,-0.0005660337959568177,0.025174670993301194,0.006152209226145227,0.00790434131416188,0.012308178069893433,-0.043548853925248376,-0.012024127940204648,-0.03059550899084964,-0.018210172081090926,-0.011314373496428038,-0.006883421429168084,-0.003651898130716542,-0.015128053359401678,0.019708781145365954,-0.013978295513914833,0.014182219068583345,0.0024881045065771657,-0.038459304638051604,0.010427233025168561,0.010286774371968755,0.019221513125239398,-0.02684923035191357,-0.010181335874459017,-0.005283870038251292,0.011249465374070263,-0.02278556165331967,-0.011789957911922501,-0.008053835510197274,-0.006645678839390305,0.02099044229196632,-0.02590186472730253,0.013744294903657047,-0.005168334096576086,-0.000778283559788456,-0.006619313560557239,0.006618361346500383,-0.006327966612597035,-0.0058531217110270985,-0.008601157823629042,-0.019595904653277485,0.016284933390727542,-0.0005148734498439935,-0.013996518065024034,0.003407214303954793,-0.005678188875517531,-0.05430048754310204,0.00318681238709394,-0.007516490032648355,0.008930401058358996,0.0018644575976294621,-0.024458479278856745,-0.004127542217495786,0.049180990309829115,-0.01213589310348646,0.008849634356175804,0.030198753122442593,-0.0028079452700983405,-0.02810306379594104,-0.053660232934828786,-0.02013292943682639,-0.005680353139022526,0.01509296850115619,-0.012026687871127635,0.011374635580424347,-0.021957765511175575,0.005926117292989837,-0.017763263382938866,-0.011432633358959311,-0.011453083070140795,0.01832576278786967,-0.007478828409345819,0.017341020452270595,0.004837994789539666,0.04375853710687673,-0.0021528970496106853,-0.007914034617259282,0.00856876036318586,0.019438908744975714,0.021984183328810226,0.018605813293084302,-0.005597332443448679,-0.00013251822714804615,-0.0183090367715624,-0.017640269617471824,0.012641770483994204,-0.019607503253451466,-0.031574553581518366,-0.00993843781055848,0.005408254219081848,-0.018450120067955097,0.02391405302170231,-0.024600569584168577,0.028139068299195266,-0.0251177113837924,-0.01416687218098791,0.004398994947124901,-0.010319199541393749,-0.013050231208480057,-0.057106138407159626,-0.02080130065076159,0.02030500372912269,0.00013489377672884378,-0.014714636265165648,-0.003360207514140426,-0.013568942382309067,-0.004560993338580999,-0.01405442764503422,0.01999733683119188,-0.011804894930538157,-0.0038307924126086516,0.01567918173987628,0.037114712604632866,-0.0254960461440194,0.0253706985006434,0.009939470758933686,-0.0012445625846595303,-0.002668207070522776,-0.02758319478990544,0.03844337729506458,-0.004803697347761235,0.025942108097267456,-0.00784242914819465,0.010755036093292208,0.034301322943582076,0.0030149805657354394,0.00801044468843897,0.008734198630501119,0.004786892037988962,0.013846434653625596,0.02923181959681503,0.012505433747176449,-0.0011265688244000076,0.01672258865549346,-0.04812416492586112,-0.01914107858998301,-0.023143829959669376,-0.02096998828807146,-0.0106728779512313,-0.026219358393786578,-0.0009129015434377587,-0.015154188299360721,0.010329131089569664,-0.014468308037345223,0.023113826010031535,0.0041080471302200345,-0.019799365120307225,-0.00860049215803581,0.008678651837842858,0.021532074004409544,-0.030302791361182312,-0.004866781849255782,0.005225274055989071,0.004057021747787918,-0.0216452672582524,-0.017733380049919693,-0.018172432609929953,-0.012285070561288584,0.03680729237603696,-0.01717760399121837,0.016373364588273914,-0.007218987461123872,0.00980888060272105,-0.013023546657734811,0.0025489808982063875,-0.01512040785843511,0.0007375803608730084,-0.004570390693078319,-0.01691111063101216,0.0010971649145705227,-0.008569641906460503,-0.004608042858653764,0.001219548670590474,-0.0202448406497675,-0.03998538814429785,0.019149620068906116,-0.008158477119819851,-0.0011764311283569884,-0.00375935979257503,-0.017407553936539553,-0.012202451090391019,0.04892389253872802,-0.02483274351766089,0.0018863545221245383,0.023083590803188937,0.001537896001503751,-0.01946622244758494,-0.032811214869261536,-0.0037497814369744564,-0.009625685169565074,0.011636547661371933,-0.010147913394898051,0.030787035005749207,-0.02331365000535456,-0.006996688112271557,-0.0071656565402450755,0.004693624760642872,-0.007909379427514032,0.014101120556644567,-0.01878539421541276,0.0009391782391581644,-0.0014253304781510904,0.04043892343227312,-0.011035951231277477,-0.0052335370346141335,0.002114736736387888,0.0048074677698202554,0.026811324097929926,0.01895794140496637,-0.00872575969897048,0.008916882287956833,-0.014008029909187394,-0.014729650713964735,0.009753727129865025,-0.011769660646879258,-0.013816214189374742,0.01476623563814072,0.01214447324108813,-0.01989619863988007,0.013510782219598162,-0.012610493506886037,0.025449351039202265,-0.02346294186991739,-0.016540182963454435,0.009535811796034702,-0.016447583108876444,-0.013944980652951994,-0.04502693327619147,-0.026593961563842788,0.023002756475524775,-0.0002003376132691192,-0.015092383894099635,-0.027372610530792388,-0.0205568620185292,-0.019831654048445523,0.0012412842494676126,0.011728288783114243,-0.020748903609572968,-0.010824430389225412,0.0012033738563844317,0.043553661918287224,-0.013610656074195196,0.020568439828050043,-0.00772720773530766,-0.0018549251476761004,-0.0007337893683479297,-0.01351812629283315,0.03926976440410336,0.0024323914237788543,0.02119077492647316,-0.02644315508692194,0.012664918209517517,0.030575273467201586,0.011544848235669623,0.00320723804435194,0.011525865599420844,0.005903890824919322,0.007272322298647795,0.039895875067446365,0.018064537805500807,0.016339074487309705,0.017707157861451956,-0.038951309811495714,-0.030531288925378517,-0.02271166323897026,-0.014394648615580763,-0.007439651619683539,-0.029955275393477705,0.010347095576050592,0.0018976482541983545,0.0004311365213042829,-0.0037202661609895284,0.014070761492964334,0.009731746235754459,-0.024914405399403792,-0.01681157207937361,0.025033379993649737,0.01625717356387432,-0.020520602928270907,-0.013255961671837044,-0.0020798192685138337,0.009045526108217107,-0.019856318785553752,0.0026226127481037793,-0.028160101308087906,-0.016451889288577617,0.023097357798231414,-0.027780488293447737,-0.0023386377689809477,-0.01925250277666968,0.01655068534217819,-0.0001818518736737317,-0.015158291140270341,-0.023488007784950565,0.0003502963682800087,0.0007153198454089654,-0.024219947973417345,0.0011168009488961032,0.0012143070528087094,0.01300817663292217,0.011924572215343467,-0.013869705476743833,-0.006032994924417258,0.013443218069139897,-0.010677021231826856,0.005565745927051383,-0.015100307658086627,-0.013623742436324793,-0.028127431680498836,0.045915865705555337,-0.019168907675807312,-0.003319429586253971,0.034195034461136795,0.0004029144218732023,-0.015460515406512181,-0.025596117621364774,-0.0036654284827391938,-0.007864259950816051,0.014957495160830368,-0.006499837368670586,0.01852670401389995,-0.018003426519796938,-0.0019268794127528272,-0.0023333765389697775,0.004726264842033037,0.013714387467360912,0.032003425503501645,-0.011559036529170712,-0.005265004270464331,-0.0044635341940460664,0.036096117924512894,-0.02429707301115492,-0.013674165396199417,-0.0002458317026353843,-0.015305571328548208,0.03256791224322598,0.025023791809672777,-0.027453127872507022,-0.007574813534440973,-0.026743563965538012,-0.011500313662305214,0.01004721899528504,-0.024420468161307496,-0.0057486204663839335,0.00798599749659848,0.016770004028443388,-0.01756511929044132,0.0011778511872925545,-0.01607459707127044,0.016901463444056727,-0.014903157746439891,-0.014823502656614489,0.007363316158583858,-0.02903817508850995,-0.021033007794239045,-0.02953045313709471,-0.01622895091490892,0.015645733689064807,-0.0009316202000421099,-0.021667628131399445,-0.03185311149773067,-0.021993356267759778,-0.019205026979600835,-0.0036483681384045967,0.006761716293438779,-0.007208901667732134,-0.017798187633934943,0.0019261800469340398,0.037865680785609736,-0.007369167931204124,0.0145741654256075,-0.014031459769640158,-0.0013591161860701823,-0.013918096943589097,0.010844560843678703,0.03149928734371934,0.009864588030813684,0.011300559339527186,-0.017800067118279056,0.0066463384121656895,0.029434058814287494,0.0075833396080191625,-0.002669071156524266,0.00013181913520054258,-0.0008207933127292203,0.015893313502153835,0.0263870404198695,0.018501135399115156,0.010088667159434855,0.012903558245501547,-0.03975914625269575,-0.029222789584540068,-0.020930933854518833,-0.006260119085064846,-0.004683587651808461,-0.0242987750954119,0.016436969972536342,-0.012204151541673152,-0.008845504119888357,-0.008143036593583477,0.00128129719866778,0.026551203647267867,-0.02293930907368265,0.0028294269681319118,0.03409359968738902,0.014182244620017262,-0.01821860369158616,-0.005054445729925004,-0.005877879500594472,-0.005652717883652883,0.0027816827715373563,0.006744101079432804,-0.023899909871079674,-0.003403092042639005,0.012601387133545573,-0.03554948430378373,0.004779112646856297,-0.019017935750198934,0.008014939210424721,-0.02122992378709992,-0.004387420029405531,-0.030461667747078806,-0.012015245514055662,0.001151121957790734,-0.01879548918443691,-0.01352429009726065,-0.012484230069909872,0.006999330633275156,0.00722202629431306,-0.013533069131935093,0.011317831104018726,0.026798794650767684,-0.008958380412966262,0.004228564745447209,0.012057583180503598,-0.00608858417650516,-0.020486295645538763,0.03629068390579512,-0.01014476759281152,-0.0038486271698264943,0.024304309124171,-0.006334426643133417,-0.010108280654258376,-0.019703379704159155,-0.014166986796954667,0.002287368560830706,0.014631482397792448,0.0002723133502319124,0.026246879658833308,-0.015973680672447716,-0.017023914027275676,-0.012969824085712279,-0.004613886510853791,0.0030305578039941947,0.024924353171261463,-0.022098474239863445,-0.01635286369133745,-0.00416476930849706,0.02873863011486424,-0.024212596375830814,-0.009200864773990534,-0.022149143170719567,-0.00972390846689497,0.025182123902121187,0.025976907127246967,-0.005821028197194122,-0.0068233535008595,-0.013957927953728362,-0.024945949947344986,0.006003087439867503,-0.016911489772093922,-0.016191459515423872,0.004416605361635435,0.0051602162359681075,-0.01934039891391811,0.008064354761845059,-0.009835331121152485,0.020210603708120178,-0.015901953317772166,-0.011255886240700922,0.012586101297399302,-0.02742222529577205,-0.01888398056933362,-0.008236943548834681,-0.025528852110618644,0.00013087221549324272,-0.011142365817434273,-0.001017391632469185,-0.016643940333866042,0.007539302203150131,-0.02045737840126632,0.01119716689254353,-0.0014799244397533879,-0.014892751291161995,-0.03338427629053587,0.015367494825816782,0.03408923712519239,0.00870611591919457,0.017856379030769007,-0.0071088653758007506,0.0022325451779471863,-0.015690835971628687,0.02129228129714482,0.029535907222554537,0.022954208468223707,0.00398173214346679,-0.014291733980121102,-0.0010860882379891952,0.007007387510378754,0.003081799844208379,-0.0012500133384853534,0.01219885400090142,0.004320953604242561,0.021758366490306075,0.013759431950883748,0.01980859629833586,0.015096562463716203,0.006992402282008903,-0.02830076264636078,-0.023622362871445465,-0.011993661734188737,0.03442795884913122,-0.002954781895882748,0.0019773061523414713,0.002390796717659446,-0.013506091823136656,-0.006796220080046365,-0.0047637106319018225,0.008377925793888257,0.0168388859702071,-0.001655368188639796,0.003287958357524417,-0.005095888884080813,0.015629294489938064,0.0024917863297380283,0.0030287974485443164,-0.015560957509064402,0.00238237103976255,0.01638839795432621,-0.009539386744852975,-0.02156154377469694,0.0035089690089565436,0.004297370436344332,-0.029590172877416894,-0.0127844193044148,-0.029424227766729677,0.013225422020649814,-0.009605712667953849,0.00118934737920189,-0.021087897189181363,-0.014522076355184637,-0.0002445479600191719,-0.014210065288544297,-0.011160599252126745,-0.006412675751289976,0.007444431861485521,-0.0060608002357151695,-0.013858577677818078,0.015083388645813147,0.0028531003284322587,0.0022270802050830766,0.010841054236648431,0.0023616003977705285,0.003913073500759688,-0.00853087518846318,0.02850085030859275,-0.014896820977720254,-0.016991623343757395,0.019367885079194715,-0.021857637797041817,-0.018368850635331408,-0.013536545338790147,-0.019062216537857102,0.001913739932301291,0.018394010047830544,-0.002189873866947187,-0.00020716256479305417,-0.008839830190887792,-0.015406038776265956,-0.013074968111189468,-0.020802108924414343,0.010615722484115419,0.03383280711346298,-0.015523930715862146,-0.01822301661013739,-0.011812907517514258,0.0044958091179090045,-0.017060686005427556,-0.008871965177319767,-0.021042736215940758,-0.009394226837833534,0.019007657044884163,0.01659896505174661,0.005471075391846767,-0.016512154446398527,0.004408425441963721,-0.029535459047644205,0.006821816984349866,-0.003564480239730343,0.006567588925167426,-0.0015150904718801413,0.00368982233402073,-0.018414375239183593,0.0021439995652418396,0.02173348347990232,0.0024079675674146487,-0.015406410430951898,-0.01616403105309176,-0.003603961649986487,-0.027742945161738728,-0.027150061571600548,-0.01004203356735686,-0.027781237704410246,0.0052346518223770734,-0.004571948549386331,-0.009486532213570747,-0.019285803926292013,0.012310367032048374,-0.04284402736520528,0.020424951138523943,0.011243656424299366,-0.0022727396826842544,-0.03547648127791817,0.010547009303585196,0.03575048530533561,0.017884509536300098,0.00737075903976744,-0.005133458993389308,-0.005550792861659514,-0.02403277517131992,0.04069272031030016,0.02100572342376328,0.010227676921782189,0.006253913845515192,-0.023254151543507254,0.011482181270297688,-0.0016000500777628925,-0.002436171281334273,-0.014425410369233553,0.013769984187631337,0.0067091315060470134,0.006463604586841029,0.0008406910366615667,0.021885628735589108,0.00808999769170835,-0.002711687492787685,-0.02830848169304027,-0.04055928356678211,-0.012209751013595319,0.031447618845315925,-0.010431299775170945,-0.003100684984921007,0.0022142412305886008,-0.009580254652066026,-0.015836689214057054,0.002650164844544427,-0.008824907104391723,0.025131769276559066,-0.0033281052121732326,-0.008155143689720914,0.0015770801267822635,0.011010719680725634,-0.0005299077391685192,-0.005870605791254061,-0.017499177878073757,-0.015410654132559624,